/*!
 * The following copyright notice may not be removed under any circumstances.
 * 
 * Copyright:
 * Digitized data copyright © 2006, Google Corporation.
 * 
 * Trademark:
 * Droid is a trademark of Google and may be registered in certain jurisdictions.
 * 
 * Manufacturer:
 * Ascender Corporation
 * 
 * Vendor URL:
 * http://www.ascendercorp.com/
 * 
 * License information:
 * http://ascendercorp.com/eula10.html
 */
Cufon.registerFont({"w":1145,"face":{"font-family":"Droid Serif","font-weight":400,"font-stretch":"normal","units-per-em":"2048","panose-1":"2 2 6 0 6 5 0 2 2 0","ascent":"1638","descent":"-410","x-height":"20","bbox":"-25 -1907 2126 492.415","underline-thickness":"102","underline-position":"-103","unicode-range":"U+0020-U+2122"},"glyphs":{" ":{"w":532},"!":{"d":"221,-1462r238,0r-72,1050r-94,0xm340,14v-87,0,-129,-49,-129,-139v0,-91,42,-139,129,-139v86,0,129,49,129,139v0,89,-42,139,-129,139","w":682},"\"":{"d":"502,-1462r217,0r-62,481r-94,0xm117,-1462r217,0r-62,481r-94,0","w":836},"#":{"d":"397,-537r285,0r76,-401r-285,0xm1038,-537r0,121r-258,0r-78,416r-122,0r77,-416r-284,0r-78,416r-123,0r78,-416r-168,0r0,-121r190,0r78,-401r-244,0r0,-121r267,0r73,-403r125,0r-75,403r284,0r76,-403r123,0r-76,403r160,0r0,121r-182,0r-76,401r233,0"},"$":{"d":"518,-82v-153,0,-285,-28,-383,-84r0,-315r86,0v4,138,80,227,177,277v36,18,76,29,120,32r0,-506v-111,-50,-202,-98,-270,-174v-51,-57,-78,-121,-78,-221v0,-156,88,-242,204,-289v43,-17,91,-29,144,-35r0,-159r103,0r0,155v112,2,200,24,262,69v49,35,77,86,78,161v1,91,-69,133,-162,133v-1,-144,-46,-254,-178,-269r0,478v149,68,290,128,355,269v17,37,25,81,25,130v0,103,-33,183,-99,240v-66,57,-160,91,-281,104r0,248r-103,0r0,-244xm621,-178v137,-17,226,-141,182,-294v-25,-85,-100,-123,-182,-161r0,455xm518,-1303v-100,24,-163,92,-164,213v-1,128,75,175,164,216r0,-429"},"%":{"d":"743,-1216v28,108,28,265,0,373v-27,108,-82,190,-168,237v-81,44,-219,42,-299,0v-131,-69,-184,-223,-184,-424v0,-201,52,-353,185,-421v80,-41,218,-43,299,0v86,45,140,128,167,235xm358,-1372v-96,85,-90,325,-74,500v7,82,29,150,73,190v36,33,106,33,142,0v71,-67,79,-204,79,-348v0,-143,-8,-275,-78,-342v-35,-34,-106,-32,-142,0xm1722,-622v28,108,28,265,0,373v-40,154,-128,269,-315,269v-255,0,-336,-197,-336,-456v0,-201,52,-353,185,-421v80,-41,219,-43,300,0v86,45,139,128,166,235xm1338,-778v-96,85,-91,325,-75,500v7,82,29,150,73,190v36,33,106,33,142,0v71,-67,78,-205,78,-348v0,-105,-6,-198,-32,-270v-20,-55,-49,-95,-115,-97v-28,0,-51,9,-71,25xm616,0r-135,0r731,-1462r134,0","w":1835},"&":{"d":"1020,-426v38,-124,50,-273,47,-436r369,0r0,86v-130,-6,-207,35,-234,139v-26,99,-57,205,-100,297r190,203v41,48,116,53,209,51r0,86r-327,0r-170,-180v-100,113,-231,200,-443,200v-236,0,-391,-87,-457,-254v-20,-53,-30,-111,-30,-176v1,-249,150,-343,327,-419v-79,-97,-157,-186,-157,-353v0,-221,157,-300,387,-301v175,0,294,58,343,179v27,69,27,163,0,229v-55,136,-185,190,-327,254xm477,-745v-118,65,-203,159,-203,342v1,153,69,247,181,289v104,38,253,15,331,-27v57,-31,105,-71,144,-119xm578,-899v124,-57,235,-117,235,-291v0,-125,-64,-189,-190,-192v-145,-3,-217,121,-181,267v22,92,78,149,136,216","w":1520},"'":{"d":"117,-1462r217,0r-62,481r-94,0","w":451},"(":{"d":"381,-1115v-60,194,-60,465,-41,707v21,267,115,465,303,576r0,94v-265,-104,-435,-279,-497,-582v-38,-185,-38,-473,0,-658v61,-301,233,-475,497,-578r0,92v-132,78,-215,196,-262,349","w":709},")":{"d":"328,-182v61,-194,61,-465,42,-708v-21,-266,-117,-463,-304,-574r0,-92v264,103,434,277,496,578v38,185,38,473,0,658v-62,302,-231,479,-496,582r0,-94v132,-78,214,-197,262,-350","w":709},"*":{"d":"84,-1268r72,-162r315,199r-53,-325r178,0r-57,323r317,-192r72,159r-346,101r346,100r-72,158r-317,-191r57,324r-178,0r51,-324r-313,195r-72,-160r344,-102","w":1024},"+":{"d":"633,-672r0,379r-123,0r0,-379r-377,0r0,-121r377,0r0,-378r123,0r0,378r379,0r0,121r-379,0"},",":{"d":"106,-143v0,-99,104,-145,194,-109v60,24,97,81,97,166v0,164,-75,264,-181,332v-42,28,-94,51,-155,69r0,-86v67,-21,117,-47,148,-78v31,-31,47,-66,47,-106v0,-64,-75,-68,-111,-102v-21,-20,-39,-44,-39,-86","w":512},"-":{"d":"51,-481r0,-154r533,0r0,154r-533,0","w":635},".":{"d":"293,14v-87,0,-129,-49,-129,-139v0,-91,42,-139,129,-139v86,0,129,49,129,139v0,89,-42,139,-129,139","w":586},"\/":{"d":"121,248r-121,0r471,-1804r119,0","w":590},"0":{"d":"1024,-1042v39,179,39,437,0,617v-38,175,-114,313,-240,391v-116,72,-313,70,-428,0v-196,-119,-264,-382,-264,-701v0,-319,67,-577,264,-695v115,-69,312,-71,428,0v126,77,203,215,240,388xm365,-1205v-69,175,-72,508,-46,743v15,142,51,259,129,328v64,58,187,58,251,0v125,-115,141,-349,141,-599v0,-183,-10,-348,-58,-472v-36,-95,-91,-167,-207,-167v-117,0,-172,73,-210,167"},"1":{"d":"709,-233v-3,111,60,149,168,147r100,0r0,86r-780,0r0,-86r137,0v108,2,168,-37,168,-147r0,-1076v-63,75,-120,151,-204,197v-46,25,-102,21,-134,-14v-19,-20,-29,-47,-29,-80v182,-48,304,-168,443,-264r131,0r0,1237"},"2":{"d":"303,-1075v-102,0,-176,-31,-176,-133v0,-148,101,-219,227,-254v99,-27,252,-28,348,4v140,46,242,139,242,317v0,116,-40,197,-90,279v-69,112,-158,210,-252,315r-346,383r473,0v127,2,161,-84,180,-190r86,0r-10,354r-881,0r0,-150r342,-395v92,-108,167,-197,227,-311v41,-79,64,-155,64,-264v0,-153,-57,-259,-209,-260v-177,-1,-225,130,-225,305"},"3":{"d":"319,-1075v-102,0,-176,-31,-176,-133v0,-148,102,-219,228,-254v99,-28,251,-27,350,1v101,29,180,81,223,165v40,75,40,186,6,269v-52,126,-160,212,-303,247v176,20,311,93,361,242v26,76,22,193,-4,267v-69,193,-245,286,-498,291v-124,2,-223,-23,-294,-68v-54,-34,-91,-85,-93,-159v-2,-81,50,-131,129,-131v2,120,60,195,150,230v65,25,157,24,226,1v122,-40,191,-145,189,-313v-2,-151,-94,-227,-216,-264v-62,-20,-138,-22,-220,-21r0,-104v74,1,135,0,191,-23v114,-46,195,-139,196,-294v1,-158,-61,-254,-219,-254v-177,0,-226,129,-226,305"},"4":{"d":"498,-86v108,2,168,-37,168,-147r0,-168r-631,0r0,-84r633,-977r194,0r0,946r254,0r0,115r-254,0r0,168v-3,120,73,153,195,147r0,86r-617,0r0,-86r58,0xm666,-516r1,-478r7,-222v2,-37,3,-71,6,-103r-84,151r-72,120r-342,532r484,0"},"5":{"d":"242,-307v5,142,100,207,247,207v208,0,294,-130,293,-346v-1,-207,-107,-317,-311,-320v-105,-1,-183,14,-252,45r-49,-14r66,-725r684,0r10,309r-86,0v-9,-61,-5,-129,-66,-140v-14,-2,-32,-5,-53,-5r-397,0r-39,450v104,-37,302,-47,423,-6v169,57,283,183,283,406v0,228,-114,368,-286,432v-152,57,-412,38,-516,-35v-47,-33,-80,-74,-80,-137v0,-79,45,-122,129,-121"},"6":{"d":"336,-782v72,-59,162,-107,293,-107v201,0,326,95,382,244v41,107,36,264,-1,374v-39,119,-115,207,-224,255v-110,49,-267,50,-375,-6v-131,-67,-207,-199,-250,-370v-35,-141,-49,-364,-21,-535v41,-249,145,-447,354,-528v130,-51,334,-27,420,38v46,35,83,81,83,149v0,86,-63,124,-157,123v-2,-136,-45,-239,-181,-239v-103,0,-180,51,-233,152v-53,101,-83,251,-90,450xm588,-784v-117,0,-193,59,-254,118v2,181,21,330,76,441v39,79,96,133,196,133v73,0,130,-29,168,-86v38,-57,57,-147,57,-271v0,-117,-21,-202,-63,-255v-42,-53,-101,-80,-180,-80"},"7":{"d":"389,0r483,-1296r-538,0v-73,0,-113,35,-119,104r-8,102r-86,0r10,-370r916,0r0,59r-504,1401r-154,0"},"8":{"d":"987,-1130v-3,204,-137,273,-276,346v133,65,255,139,315,270v40,89,28,213,-10,296v-72,155,-231,238,-457,238v-220,0,-368,-85,-435,-236v-36,-82,-40,-198,-6,-280v52,-123,168,-186,288,-245v-107,-62,-202,-136,-246,-257v-28,-80,-25,-177,6,-255v60,-149,204,-230,418,-230v191,0,318,78,376,211v18,43,27,91,27,142xm293,-358v0,180,95,284,276,284v139,0,231,-64,274,-163v26,-61,30,-143,2,-205v-33,-73,-96,-123,-173,-168v-46,-26,-102,-53,-168,-82v-117,64,-211,164,-211,334xm610,-831v118,-58,198,-132,195,-304v-3,-152,-76,-251,-234,-251v-153,0,-237,92,-237,245v0,131,70,193,156,247v35,21,75,42,120,63"},"9":{"d":"229,-252v40,90,108,161,238,162v113,0,197,-51,251,-152v54,-101,84,-255,91,-460v-66,78,-158,139,-301,139v-195,0,-318,-88,-374,-234v-41,-108,-37,-273,0,-385v40,-122,115,-213,224,-264v109,-51,267,-50,376,3v203,99,287,334,286,648v-1,305,-73,554,-234,701v-77,69,-180,117,-321,117v-103,1,-180,-19,-235,-56v-52,-34,-84,-124,-43,-185v12,-18,27,-29,42,-34xm315,-999v0,189,54,315,238,315v134,0,215,-71,258,-166v-2,-163,-24,-298,-77,-397v-39,-72,-95,-123,-191,-123v-73,0,-129,32,-169,95v-40,63,-59,155,-59,276"},":":{"d":"295,14v-87,0,-129,-49,-129,-139v0,-91,42,-139,129,-139v86,0,129,49,129,139v1,90,-43,139,-129,139xm295,-829v-88,0,-129,-50,-129,-140v0,-91,42,-139,129,-139v86,0,129,49,129,139v0,90,-42,140,-129,140","w":588},";":{"d":"106,-143v0,-99,104,-145,194,-109v60,24,97,81,97,166v0,164,-75,264,-181,332v-42,28,-94,51,-155,69r0,-86v67,-21,117,-47,148,-78v31,-31,47,-66,47,-106v0,-64,-75,-68,-111,-102v-21,-20,-39,-44,-39,-86xm258,-829v-88,0,-129,-50,-129,-140v0,-91,42,-139,129,-139v86,0,129,49,129,139v0,89,-42,140,-129,140","w":512},"<":{"d":"133,-696r0,-72r879,-473r0,137r-688,373r688,369r0,137"},"=":{"d":"1012,-590r0,121r-879,0r0,-121r879,0xm1012,-993r0,121r-879,0r0,-121r879,0"},">":{"d":"133,-225r0,-137r688,-369r-688,-373r0,-137r879,473r0,72"},"?":{"d":"258,-1120v-97,-2,-170,-38,-170,-133v0,-130,97,-185,212,-213v100,-25,252,-23,350,8v107,34,189,96,236,189v43,86,44,217,8,310v-64,160,-208,247,-372,316r0,231r-125,0r0,-311v147,-60,256,-150,299,-303v11,-40,15,-80,15,-121v-1,-150,-72,-235,-224,-235v-161,0,-226,104,-229,262xm457,14v-87,0,-129,-49,-129,-139v0,-91,42,-139,129,-139v86,0,129,49,129,139v0,89,-42,139,-129,139","w":1024},"@":{"d":"1473,88v-149,108,-332,203,-588,203v-358,0,-589,-152,-696,-413v-66,-162,-72,-410,-25,-600v66,-271,216,-477,426,-606v131,-80,294,-133,495,-134v231,-1,404,74,519,190v108,107,173,267,174,469v1,194,-53,358,-130,471v-39,56,-82,99,-130,129v-48,30,-95,45,-142,45v-133,-1,-206,-79,-241,-186r-11,0v-55,99,-126,186,-276,186v-150,0,-242,-79,-286,-194v-47,-122,-20,-296,26,-402v60,-136,156,-251,302,-302v50,-18,106,-27,169,-27v84,-1,148,26,192,61r82,-43r49,0r-104,522v-5,44,-15,89,-14,137v1,85,42,137,125,140v30,0,61,-12,92,-36v73,-58,119,-159,147,-276v33,-139,36,-345,-18,-468v-85,-196,-263,-312,-537,-312v-246,0,-413,109,-539,244v-144,154,-237,370,-239,663v-2,223,68,384,181,489v101,95,247,146,429,146v224,0,388,-77,520,-170xm1182,-938v-29,-70,-156,-74,-226,-34v-129,73,-192,224,-221,394v-6,37,-8,70,-8,99v-2,126,49,213,156,213v149,0,197,-128,221,-256","w":1886},"A":{"d":"317,-186v-1,93,82,104,183,100r0,86r-500,0r0,-86v56,1,102,0,128,-31v29,-34,47,-75,67,-129r454,-1216r160,0r463,1267v24,67,54,112,145,109r27,0r0,86r-563,0r0,-86r47,0v96,2,137,-49,118,-133v-3,-12,-7,-26,-12,-41r-82,-229r-538,0r-78,215v-10,26,-18,58,-19,88xm788,-950r-58,-170v-17,-53,-32,-105,-44,-154v-22,110,-58,207,-94,305r-139,377r462,0","w":1444},"B":{"d":"272,-1237v3,-116,-76,-145,-194,-139r0,-86r549,0v177,0,309,29,396,88v87,59,130,152,130,278v-1,189,-111,274,-254,322r0,8v190,35,315,149,315,371v0,132,-43,231,-130,297v-87,66,-219,98,-396,98r-610,0r0,-86v121,6,194,-26,194,-147r0,-1004xm479,-102v167,-3,357,18,444,-68v52,-51,72,-126,72,-231v1,-158,-43,-258,-163,-295v-89,-28,-235,-16,-353,-19r0,613xm479,-817v151,0,312,9,388,-65v48,-47,67,-117,67,-214v2,-147,-50,-225,-170,-251v-74,-16,-190,-12,-285,-13r0,543","w":1339},"C":{"d":"1141,-289v47,27,51,109,13,159v-77,102,-227,150,-415,150v-330,0,-504,-184,-582,-445v-53,-180,-53,-433,2,-612v57,-183,166,-317,330,-391v200,-91,580,-73,673,84v26,44,36,103,12,150v-27,53,-85,83,-164,84v-1,-116,-47,-200,-128,-240v-87,-43,-233,-23,-309,18v-178,95,-229,320,-229,599v0,266,62,478,232,573v54,30,119,45,194,45v183,1,293,-72,371,-174","w":1257},"D":{"d":"272,-1237v3,-116,-76,-145,-194,-139r0,-86r627,0v337,3,535,161,622,419v58,173,60,436,3,613v-84,265,-280,430,-625,430r-627,0r0,-86v121,6,194,-26,194,-147r0,-1004xm479,-104v146,0,290,6,391,-42v193,-92,275,-299,275,-587v0,-203,-40,-359,-121,-466v-81,-107,-203,-161,-365,-161r-180,0r0,1256","w":1489},"E":{"d":"272,-1229v4,-121,-73,-153,-194,-147r0,-86r1032,0r10,358r-106,0v-9,-80,-13,-161,-58,-206v-30,-30,-72,-50,-133,-50r-344,0r0,545r494,0r0,100r-494,0r0,613r395,0v121,0,178,-65,195,-168r14,-88r107,0r-14,358r-1098,0r0,-86v116,5,194,-21,194,-137r0,-1006","w":1276},"F":{"d":"272,-1237v3,-116,-76,-145,-194,-139r0,-86r1032,0r10,358r-106,0v-9,-80,-13,-162,-60,-206v-32,-29,-76,-51,-139,-50r-336,0r0,592r494,0r0,100r-494,0r0,435v-2,110,61,149,168,147r68,0r0,86r-637,0r0,-86v116,5,194,-21,194,-137r0,-1014","w":1208},"G":{"d":"1274,-74v-132,61,-266,94,-453,94v-362,0,-573,-169,-661,-445v-57,-181,-58,-433,2,-612v62,-185,185,-318,361,-391v217,-90,628,-77,735,84v29,43,39,103,13,150v-30,54,-92,83,-175,84v-2,-121,-54,-201,-144,-240v-35,-16,-77,-24,-127,-24v-372,1,-480,264,-481,641v-1,387,125,639,510,637v76,0,155,-7,213,-25r0,-330v2,-109,-68,-142,-176,-139r0,-86r532,0r0,86v-71,-2,-120,15,-138,70v-7,20,-11,46,-11,78r0,368","w":1462},"H":{"d":"1352,-223v-3,116,77,142,194,137r0,86r-596,0r0,-86v122,6,195,-26,195,-147r0,-480r-666,0r0,480v-3,120,73,153,195,147r0,86r-596,0r0,-86v121,6,194,-26,194,-147r0,-1004v3,-116,-76,-145,-194,-139r0,-86r596,0r0,86v-121,-6,-195,26,-195,147r0,414r666,0r0,-414v3,-120,-73,-153,-195,-147r0,-86r596,0r0,86v-121,-6,-194,26,-194,147r0,1006","w":1624},"I":{"d":"479,-233v-3,120,73,153,195,147r0,86r-596,0r0,-86v121,6,194,-26,194,-147r0,-996v4,-121,-73,-153,-194,-147r0,-86r596,0r0,86v-121,-6,-195,26,-195,147r0,996","w":752},"J":{"d":"479,16v2,333,-169,485,-502,476r0,-97v231,9,295,-142,295,-377r0,-1255v3,-116,-76,-145,-194,-139r0,-86r596,0r0,86v-121,-6,-195,26,-195,147r0,1245","w":731},"K":{"d":"674,-1376v-121,-6,-195,26,-195,147r0,578r424,-486v46,-54,84,-97,107,-163v4,-12,6,-23,6,-33v-4,-44,-47,-43,-101,-45r0,-84r453,0r0,84v-56,1,-95,25,-132,52v-51,37,-99,92,-142,140r-297,334r432,602v39,54,77,94,113,122v38,28,74,43,116,42r0,86r-22,0v-168,0,-281,-12,-358,-94v-22,-24,-47,-53,-72,-90r-353,-506r-174,141r0,316v-3,120,73,153,195,147r0,86r-596,0r0,-86v116,5,194,-21,194,-137r0,-1014v3,-116,-76,-145,-194,-139r0,-86r596,0r0,86","w":1434},"L":{"d":"674,-1376v-118,-5,-195,22,-195,139r0,1135r404,0v118,-2,166,-82,180,-185r20,-153r107,0r-14,440r-1098,0r0,-86v121,6,194,-26,194,-147r0,-996v4,-121,-73,-153,-194,-147r0,-86r596,0r0,86","w":1276},"M":{"d":"1649,-233v-4,121,73,153,194,147r0,86r-545,0r0,-86v70,1,122,-11,141,-62v7,-17,13,-39,13,-67r0,-1094r-469,1309r-111,0r-475,-1305r0,1072v-4,109,46,152,154,147r0,86r-473,0r0,-86v116,5,194,-21,194,-137r0,-1014v3,-116,-76,-145,-194,-139r0,-86r467,0r424,1171r420,-1171r454,0r0,86v-121,-6,-194,26,-194,147r0,996","w":1921},"N":{"d":"1505,-1376v-121,-6,-194,26,-194,147r0,1229r-146,0r-768,-1180r0,947v-3,120,73,153,195,147r0,86r-514,0r0,-86v121,6,194,-26,194,-147r0,-1004v3,-116,-76,-145,-194,-139r0,-86r375,0r733,1132r0,-907v3,-116,-77,-145,-195,-139r0,-86r514,0r0,86","w":1563},"O":{"d":"1361,-1042v55,179,55,437,0,617v-56,182,-165,317,-326,391v-155,72,-405,69,-559,0v-241,-109,-361,-354,-361,-701v0,-346,119,-589,362,-697v154,-68,404,-71,559,0v160,74,270,209,325,390xm438,-1206v-102,156,-117,501,-74,744v27,152,91,265,202,328v101,57,287,57,388,0v174,-98,222,-323,222,-599v0,-276,-49,-500,-222,-598v-100,-56,-286,-56,-386,0v-53,30,-95,71,-130,125","w":1520},"P":{"d":"479,-223v-3,106,64,139,168,137r68,0r0,86r-637,0r0,-86v121,6,194,-26,194,-147r0,-1004v3,-116,-76,-145,-194,-139r0,-86r575,0v242,0,406,79,473,249v41,103,42,245,2,354v-70,192,-249,291,-520,290r-129,0r0,346xm479,-666v95,0,199,1,268,-20v137,-42,189,-158,189,-340v0,-166,-47,-275,-170,-318v-72,-25,-187,-19,-287,-20r0,698","w":1237},"Q":{"d":"1361,-1042v53,168,56,409,9,585v-65,244,-216,416,-473,465v20,223,90,377,336,367r0,96v-167,6,-302,-17,-396,-95v-92,-77,-154,-194,-165,-360v-291,-32,-453,-203,-522,-460v-48,-177,-47,-428,5,-600v79,-268,266,-441,607,-441v218,0,372,81,475,205v55,66,96,146,124,238xm438,-1206v-102,156,-117,501,-74,744v27,152,91,265,202,328v101,57,287,57,388,0v174,-98,222,-323,222,-599v0,-276,-49,-500,-222,-598v-100,-56,-286,-56,-386,0v-53,30,-95,71,-130,125","w":1520},"R":{"d":"272,-1237v3,-116,-76,-145,-194,-139r0,-86r551,0v177,0,309,32,396,98v87,66,130,165,130,297v0,217,-140,315,-301,373r281,444v35,55,68,96,101,123v35,28,72,42,120,41r0,86r-29,0v-158,0,-266,-8,-335,-90v-20,-24,-43,-55,-66,-94r-277,-461r-170,0r0,422v-3,116,78,142,195,137r0,86r-596,0r0,-86v116,5,194,-21,194,-137r0,-1014xm479,-741v101,-1,221,5,294,-20v119,-40,163,-142,163,-300v0,-158,-48,-253,-170,-287v-73,-20,-189,-15,-287,-16r0,623","w":1343},"S":{"d":"522,-80v176,1,294,-86,293,-258v-1,-139,-73,-194,-167,-248v-85,-49,-234,-100,-316,-154v-122,-80,-211,-179,-211,-372v0,-194,116,-297,269,-346v98,-32,242,-33,342,-6v86,23,154,63,194,124v38,59,34,148,-18,186v-29,22,-68,34,-117,34v-3,-155,-72,-260,-230,-260v-120,0,-198,51,-233,137v-24,57,-23,146,-1,203v48,125,171,169,302,225v154,66,291,136,355,283v39,92,32,227,-10,314v-74,157,-238,238,-468,238v-183,0,-322,-51,-382,-170v-34,-66,-41,-169,12,-218v26,-25,63,-38,110,-38v7,139,55,249,153,299v34,18,75,27,123,27","w":1114},"T":{"d":"307,-86v125,5,215,-12,215,-137r0,-1137r-196,0v-112,0,-157,68,-168,168r-11,88r-106,0r10,-358r1153,0r10,358r-106,0v-10,-105,-19,-210,-103,-242v-21,-8,-46,-14,-77,-14r-199,0r0,1127v-2,110,61,149,168,147r47,0r0,86r-637,0r0,-86","w":1255},"U":{"d":"1438,-1376v-121,-6,-195,26,-195,147r0,811v-6,302,-195,436,-502,438v-326,2,-516,-134,-516,-462r0,-795v3,-116,-76,-145,-194,-139r0,-86r596,0r0,86v-121,-6,-195,26,-195,147r0,799v0,223,123,328,342,328v171,0,278,-69,324,-192v14,-39,20,-81,20,-128r0,-815v3,-116,-76,-145,-194,-139r0,-86r514,0r0,86","w":1468},"V":{"d":"1065,-1276v2,-94,-82,-104,-182,-100r0,-86r499,0r0,86v-56,-1,-103,0,-130,30v-30,33,-45,74,-64,129r-424,1217r-150,0r-442,-1268v-22,-76,-67,-116,-172,-108r0,-86r563,0r0,86v-95,-4,-173,7,-170,98v1,29,8,50,17,76r225,665v38,109,66,225,92,336v25,-115,55,-222,94,-336r226,-651v8,-27,17,-58,18,-88","w":1382},"W":{"d":"582,-1376v-95,-4,-173,7,-170,98v0,27,9,53,16,76r188,655r49,183v15,60,29,114,40,163v10,-53,21,-112,35,-175v14,-63,30,-127,48,-193r244,-879r148,0r256,887v19,68,37,133,52,195v15,62,27,118,36,165v10,-49,21,-101,34,-155v13,-54,29,-115,48,-181r187,-659v5,-26,14,-51,15,-80v2,-94,-82,-104,-182,-100r0,-86r500,0r0,86v-56,-1,-104,0,-132,29v-31,32,-46,74,-63,130r-346,1217r-184,0r-334,-1147r-313,1147r-189,0r-375,-1268v-20,-78,-68,-116,-172,-108r0,-86r564,0r0,86","w":2144},"X":{"d":"598,-1376v-70,0,-136,7,-122,80v7,40,27,65,48,100r185,299r194,-295v24,-38,51,-74,51,-125v0,-56,-58,-58,-116,-59r0,-86r448,0r0,86v-87,-4,-127,30,-168,77v-16,19,-34,42,-53,70r-297,428r377,606v30,40,58,69,85,85v36,21,60,26,105,24r0,86r-553,0r0,-86v91,0,148,-21,130,-90v-11,-43,-41,-82,-64,-119r-203,-326r-227,336v-23,37,-53,79,-53,135v0,23,11,40,33,50v22,10,60,14,106,14r0,86r-488,0r0,-86v130,5,172,-65,226,-143r342,-490r-338,-549v-45,-70,-100,-111,-203,-108r0,-86r555,0r0,86","w":1352},"Y":{"d":"748,-233v-3,110,60,149,167,147r48,0r0,86r-637,0r0,-86v125,5,215,-12,215,-137r0,-387r-379,-658v-37,-62,-68,-116,-172,-108r0,-86r563,0r0,86v-76,1,-166,-13,-166,65v0,40,23,82,37,109r151,274v42,72,75,158,103,234v34,-81,82,-158,123,-234r131,-235v22,-37,36,-76,37,-123v2,-87,-89,-95,-183,-90r0,-86r500,0r0,86v-81,-5,-110,34,-146,82v-14,20,-31,46,-48,77r-344,607r0,377","w":1280},"Z":{"d":"1094,-1378r-770,1276r516,0v114,1,158,-68,170,-168r10,-88r106,0r-10,358r-1042,0r0,-82r768,-1278r-445,0v-113,-1,-156,69,-168,168r-10,88r-106,0r10,-358r971,0r0,84","w":1212},"[":{"d":"406,29v-3,110,60,149,167,147r89,0r0,86r-457,0r0,-1818r457,0r0,86r-89,0v-107,-2,-167,37,-167,147r0,1352","w":735},"\\":{"d":"0,-1556r119,0r471,1804r-121,0","w":590},"]":{"d":"332,-1323v2,-110,-60,-149,-168,-147r-88,0r0,-86r456,0r0,1818r-456,0r0,-86r88,0v108,2,168,-37,168,-147r0,-1352","w":737},"^":{"d":"535,-1462r71,0r432,917r-137,0r-332,-729r-327,729r-138,0"},"_":{"d":"950,291r-960,0r0,-121r960,0r0,121","w":940},"`":{"d":"612,-1569v49,103,114,214,179,301r0,27r-78,0v-113,-81,-236,-199,-320,-307r0,-21r219,0","w":1182},"a":{"d":"301,-297v0,123,47,191,166,191v134,0,215,-66,253,-167v28,-76,16,-184,19,-284v-143,6,-296,8,-371,77v-45,42,-66,99,-67,183xm739,-176v-76,101,-143,199,-319,196v-206,-3,-318,-117,-318,-327v0,-109,39,-189,116,-242v77,-53,194,-80,351,-86r170,-6r0,-123v1,-110,-13,-200,-89,-234v-25,-12,-59,-18,-101,-18v-143,-3,-189,83,-187,223v-106,-1,-174,-27,-174,-129v0,-80,48,-123,108,-150v144,-66,438,-67,542,33v63,61,94,148,94,275r0,531v0,74,13,124,68,140v18,5,40,7,65,7r0,86r-277,0r-32,-176r-17,0","w":1153},"b":{"d":"414,-913v57,-117,142,-205,313,-205v320,0,418,237,418,567v0,263,-62,458,-239,537v-52,23,-112,34,-179,34v-163,-1,-254,-75,-313,-180r-13,0r-36,160r-328,0r0,-86v116,5,184,-31,184,-147r0,-1098v2,-112,-71,-144,-184,-139r0,-86r377,0r-1,456r-7,187r8,0xm414,-551v0,244,40,440,280,440v158,0,214,-110,238,-251v28,-164,20,-408,-44,-517v-39,-66,-97,-107,-196,-108v-241,-1,-278,191,-278,436","w":1257},"c":{"d":"893,-256v39,28,47,103,13,150v-60,84,-176,126,-326,126v-331,0,-466,-219,-467,-563v-1,-203,43,-350,131,-452v91,-106,269,-145,452,-111v82,16,153,52,198,104v45,52,42,160,-14,193v-31,18,-76,29,-137,29v-1,-134,-38,-237,-174,-236v-156,2,-212,102,-240,243v-12,61,-18,137,-18,228v0,145,25,254,73,325v48,71,127,107,237,107v127,0,227,-61,272,-143","w":1008},"d":{"d":"844,-1331v2,-113,-71,-144,-185,-139r0,-86r377,0r0,1331v-2,113,71,144,185,139r0,86r-347,0r-22,-184r-8,0v-58,116,-143,204,-314,204v-320,0,-417,-236,-417,-567v0,-333,95,-571,417,-571v163,0,255,76,314,180r12,0r-12,-225r0,-168xm844,-547v0,-245,-41,-440,-281,-440v-157,0,-212,112,-238,253v-9,55,-14,118,-14,189v0,145,20,254,59,326v39,72,104,108,195,108v241,1,279,-191,279,-436","w":1257},"e":{"d":"563,-1008v-76,0,-134,30,-175,92v-41,62,-66,152,-73,271r471,0v-1,-151,-26,-279,-118,-337v-28,-17,-64,-26,-105,-26xm909,-252v20,9,42,39,39,70v-11,104,-104,153,-202,182v-106,32,-262,25,-358,-18v-182,-81,-274,-261,-275,-523v0,-191,39,-335,118,-432v79,-97,191,-145,336,-145v294,0,423,189,426,489r0,94r-682,0v6,243,67,426,305,426v140,0,235,-60,293,-143","w":1096},"f":{"d":"442,-233v-2,110,61,149,168,147r78,0r0,86r-633,0r0,-86v122,6,195,-26,195,-147r0,-768r-187,0r0,-97r187,0v-1,-97,-1,-193,25,-264v50,-134,158,-214,337,-215v94,0,168,12,224,40v51,25,82,93,50,153v-25,46,-83,65,-155,65v-1,-96,-37,-164,-135,-164v-176,0,-152,207,-154,385r289,0r0,97r-289,0r0,768","w":756},"g":{"d":"956,-1161v88,-2,139,61,114,147v-12,41,-46,66,-101,66v-1,-43,-22,-70,-68,-70v-38,0,-63,9,-88,25v48,61,81,134,80,248v-2,170,-80,276,-207,325v-70,27,-178,33,-268,21v-48,26,-98,54,-99,125v-1,69,58,77,127,77r232,0v215,0,338,97,338,306v0,210,-126,310,-302,356v-68,18,-148,27,-241,27v-143,0,-249,-26,-320,-79v-71,-53,-106,-126,-106,-220v1,-126,71,-193,159,-234v31,-13,63,-23,97,-29v-62,-29,-113,-79,-113,-168v0,-104,57,-143,134,-192v-112,-49,-185,-153,-185,-309v0,-249,134,-379,385,-379v96,0,180,25,234,67v48,-50,102,-107,198,-110xm438,-14v-138,-1,-226,51,-225,194v1,157,101,211,264,211v130,0,227,-20,295,-70v51,-39,75,-96,76,-178v3,-127,-83,-157,-209,-157r-201,0xm516,-1018v-149,0,-184,109,-184,273v0,160,39,251,186,253v149,2,183,-105,182,-256v-2,-165,-33,-270,-184,-270","w":1102},"h":{"d":"414,-223v-3,109,67,140,174,137r0,86r-551,0r0,-86v116,5,184,-31,184,-147r0,-1098v2,-112,-71,-144,-184,-139r0,-86r377,0r-1,508r-7,116r10,0v61,-124,162,-186,301,-186v253,1,363,144,362,401r0,484v-3,110,54,151,164,147r0,86r-356,0r0,-707v0,-170,-55,-282,-225,-280v-186,3,-248,143,-248,332r0,432","w":1300},"i":{"d":"434,-233v-3,120,73,153,195,147r0,86r-582,0r0,-86v117,5,195,-20,195,-137r0,-649v2,-109,-67,-143,-174,-140r0,-86r366,0r0,865xm330,-1303v-79,0,-117,-45,-117,-127v0,-82,37,-126,117,-126v79,0,116,45,116,126v0,81,-37,127,-116,127","w":655},"j":{"d":"221,-872v2,-109,-67,-143,-174,-140r0,-86r367,0r0,1114v2,315,-123,486,-439,476r0,-97v210,5,246,-162,246,-377r0,-890xm309,-1303v-79,0,-116,-45,-116,-127v0,-82,37,-126,116,-126v79,0,117,45,117,126v0,82,-38,127,-117,127","w":614},"k":{"d":"774,-971v-4,-44,-46,-38,-100,-41r0,-86r452,0r0,86v-47,0,-94,17,-140,50v-97,70,-204,207,-292,303r273,405v35,55,70,96,105,125v37,30,77,44,128,43r0,86r-29,0v-156,1,-254,-10,-323,-92v-23,-27,-49,-62,-78,-107r-205,-321r-151,112r0,185v-3,109,67,140,174,137r0,86r-551,0r0,-86v116,5,184,-31,184,-147r0,-1098v2,-112,-71,-144,-184,-139r0,-86r377,0r-1,862r-7,186r256,-280v44,-52,83,-91,107,-152v4,-11,5,-21,5,-31","w":1198},"l":{"d":"414,-233v-4,121,73,153,194,147r0,86r-581,0r0,-86v121,6,194,-27,194,-147r0,-1098v3,-116,-76,-145,-194,-139r0,-86r387,0r0,1323","w":635},"m":{"d":"434,-223v-3,109,67,140,174,137r0,86r-551,0r0,-86v84,2,151,-8,173,-70v7,-20,12,-45,12,-77r0,-639v3,-107,-58,-143,-164,-140r0,-86r321,0r27,166r10,0v61,-113,141,-188,309,-186v158,1,253,68,297,186r17,0v62,-115,150,-187,321,-186v240,3,334,155,334,401r0,484v-3,110,54,151,164,147r0,86r-356,0r0,-707v0,-167,-49,-282,-215,-280v-172,2,-228,133,-228,305r0,449v-3,110,54,151,164,147r0,86r-356,0r0,-707v0,-167,-49,-282,-215,-280v-182,2,-238,149,-238,332r0,432","w":1935},"n":{"d":"434,-223v-3,109,67,140,174,137r0,86r-551,0r0,-86v117,5,185,-30,185,-147r0,-639v2,-109,-67,-143,-174,-140r0,-86r331,0r27,166r10,0v63,-114,148,-188,320,-186v244,2,344,151,344,401r0,484v-3,111,54,151,164,147r0,86r-357,0r0,-707v0,-170,-55,-282,-225,-280v-187,2,-248,145,-248,332r0,432","w":1321},"o":{"d":"113,-551v-1,-360,142,-567,481,-567v337,0,475,222,475,567v0,193,-41,336,-123,430v-82,94,-201,141,-358,141v-338,0,-473,-225,-475,-571xm374,-894v-69,115,-77,370,-48,544v26,154,93,264,266,264v242,0,278,-216,278,-465v0,-198,-27,-360,-150,-430v-67,-39,-193,-38,-260,0v-35,20,-63,49,-86,87","w":1182},"p":{"d":"414,-551v0,244,40,440,280,440v158,0,214,-110,238,-251v28,-164,20,-408,-44,-517v-39,-66,-97,-107,-196,-108v-241,-1,-278,191,-278,436xm414,-913v57,-117,142,-205,313,-205v320,0,418,237,418,567v0,263,-62,458,-239,537v-52,23,-112,34,-179,34v-163,-1,-254,-75,-313,-180r-8,0r8,232r0,196v-2,108,66,141,174,138r0,86r-551,0r0,-86v117,5,184,-32,184,-148r0,-1130v3,-116,-77,-145,-194,-140r0,-86r358,0r21,185r8,0","w":1257},"q":{"d":"1036,266v-2,113,72,144,185,140r0,86r-613,0r0,-86r68,0v108,3,168,-38,168,-148r1,-256r7,-186r-8,0v-58,116,-143,204,-314,204v-320,0,-417,-236,-417,-567v0,-333,95,-571,417,-571v163,0,255,76,314,180r12,0r37,-160r328,0r0,86v-83,-2,-147,11,-171,70v-8,20,-14,46,-14,78r0,1130xm844,-547v0,-245,-41,-440,-281,-440v-157,0,-212,112,-238,253v-9,55,-14,118,-14,189v0,145,20,254,59,326v39,72,104,108,195,108v241,1,279,-191,279,-436","w":1257},"r":{"d":"434,-223v-3,106,64,139,168,137r57,0r0,86r-591,0r0,-86v111,3,174,-35,174,-147r0,-639v2,-109,-67,-143,-174,-140r0,-86r315,0r39,203r10,0v51,-120,106,-223,281,-223v75,0,129,15,167,39v68,43,70,167,10,215v-34,27,-82,41,-147,41v-2,-102,-16,-160,-108,-160v-59,0,-96,38,-121,79v-55,88,-80,219,-80,359r0,322","w":965},"s":{"d":"467,-1022v-120,0,-195,49,-195,164v0,100,65,130,138,166v32,16,71,31,116,51v128,55,242,103,290,227v29,74,22,186,-11,253v-61,122,-193,181,-375,181v-145,0,-260,-34,-314,-122v-26,-42,-32,-117,-10,-164v20,-44,58,-70,115,-72v1,157,63,260,221,260v134,0,226,-57,226,-186v0,-100,-58,-128,-129,-166v-32,-17,-74,-35,-123,-57v-125,-57,-241,-103,-291,-225v-28,-68,-25,-176,9,-239v60,-112,187,-165,358,-165v130,0,233,36,280,116v31,53,24,126,-20,162v-26,22,-62,33,-109,33v0,-131,-49,-217,-176,-217","w":924},"t":{"d":"387,-291v-2,124,48,200,156,203v50,1,88,-6,131,-14r0,90v-78,34,-225,43,-316,16v-120,-36,-163,-141,-163,-301r0,-684r-156,0r0,-82v63,-2,125,-26,160,-65v52,-58,74,-125,94,-222r94,0r0,252r268,0r0,117r-268,0r0,690","w":721},"u":{"d":"887,-864v2,-112,-62,-152,-174,-148r0,-86r366,0r0,875v-3,109,67,140,174,137r0,86r-325,0r-27,-166r-10,0v-62,118,-158,187,-332,186v-244,-1,-338,-152,-338,-401r0,-491v2,-109,-67,-143,-174,-140r0,-86r367,0r0,707v-1,168,46,282,215,280v191,-3,258,-139,258,-331r0,-422","w":1300},"v":{"d":"891,-911v0,-82,-60,-103,-150,-101r0,-86r439,0r0,86v-52,-1,-90,2,-114,31v-30,34,-47,75,-67,129r-323,852r-187,0r-329,-903v-24,-68,-58,-113,-152,-109r0,-86r512,0r0,86v-88,-4,-150,17,-149,99v1,29,7,49,16,75r139,387v9,23,18,50,27,79r27,86r22,80v7,25,11,46,14,63r7,0v27,-95,68,-190,102,-281r147,-399v11,-27,18,-57,19,-88","w":1186},"w":{"d":"508,-1012v-85,-1,-151,4,-150,86v0,27,11,63,17,88r96,344r21,81r38,169v5,25,10,47,13,64r6,0v3,-17,8,-37,13,-60v19,-77,46,-161,71,-233r213,-619r129,0r231,686r47,163v7,25,12,46,15,63r6,0v42,-208,123,-427,182,-629v8,-27,18,-72,19,-102v0,-83,-60,-103,-150,-101r0,-86r438,0r0,86v-52,-1,-92,2,-117,30v-30,32,-46,74,-63,130r-264,852r-164,0r-244,-721r-37,-135r-290,856r-162,0r-268,-903v-24,-68,-58,-113,-152,-109r0,-86r506,0r0,86","w":1765},"x":{"d":"569,-1012v-63,1,-123,4,-123,60v0,42,24,61,48,94r135,184v47,-71,105,-141,143,-219v9,-21,14,-40,14,-59v0,-56,-58,-59,-116,-60r0,-86r448,0r0,86v-127,-6,-169,57,-225,131r-211,281r301,405v30,40,58,69,85,85v36,21,61,26,106,24r0,86r-529,0r0,-86v92,0,151,-22,130,-90v-14,-46,-44,-77,-75,-119r-137,-184r-162,228v-24,36,-63,122,-7,151v19,10,58,14,104,14r0,86r-488,0r0,-86v134,7,183,-55,242,-131r258,-334r-258,-352v-56,-61,-97,-113,-203,-109r0,-86r520,0r0,86","w":1184},"y":{"d":"872,-911v0,-79,-55,-102,-141,-101r0,-86r426,0r0,86v-114,-4,-131,74,-162,160r-311,860v-59,156,-105,296,-212,391v-88,78,-223,95,-394,93r0,-97v285,-2,394,-182,461,-403r-379,-895v-28,-66,-57,-113,-152,-109r0,-86r492,0r0,86v-80,-1,-129,24,-129,99v1,30,6,49,16,75r150,365r59,159v13,42,32,95,39,138r6,0v57,-218,144,-436,213,-647v10,-27,18,-57,18,-88","w":1157},"z":{"d":"360,-981v-118,-3,-135,82,-159,174r-86,0r20,-291r785,0r0,84r-596,897r372,0v118,-2,127,-117,150,-215r86,0r-10,332r-836,0r0,-82r594,-899r-320,0","w":1047},"{":{"d":"545,-41v1,133,39,214,168,215r61,0r0,88r-135,0v-191,-3,-295,-104,-295,-295r0,-356v2,-156,-94,-212,-242,-217r0,-86v148,-4,242,-60,242,-215r0,-357v0,-188,103,-293,295,-292r135,0r0,88r-61,0v-129,1,-168,81,-168,215r0,350v-2,147,-89,231,-228,252r0,2v143,23,228,102,228,254r0,354","w":877},"|":{"d":"633,492r-123,0r0,-2048r123,0r0,2048"},"}":{"d":"774,-606v-148,5,-242,62,-242,217r0,356v-3,190,-103,292,-294,295r-136,0r0,-88r62,0v128,0,168,-83,168,-215r0,-354v3,-151,84,-232,227,-254r0,-2v-139,-21,-227,-105,-227,-252r0,-350v-1,-135,-38,-214,-168,-215r-62,0r0,-88r136,0v191,-1,294,104,294,292r0,357v-1,154,94,211,242,215r0,86","w":877},"~":{"d":"896,-583v-45,30,-121,43,-182,19v-108,-42,-179,-128,-264,-191v-24,-18,-51,-32,-88,-33v-40,0,-70,19,-89,58v-19,39,-33,98,-40,179r-120,0v18,-183,57,-358,258,-358v114,0,179,79,247,135r43,38v36,28,68,64,125,64v38,0,66,-21,84,-62v18,-41,32,-99,41,-175r123,0v-15,136,-46,265,-138,326","w":1149},"\u00a0":{"w":532},"\u00a1":{"d":"459,367r-238,0r72,-1051r94,0xm340,-1110v87,0,129,49,129,139v0,91,-41,140,-129,140v-87,0,-129,-50,-129,-140v0,-89,43,-139,129,-139","w":682},"\u00a2":{"d":"983,-250v-74,38,-182,73,-297,74r0,176r-102,0r0,-180v-290,-33,-422,-228,-422,-559v0,-190,42,-332,123,-431v68,-84,170,-130,299,-143r0,-149r102,0r0,149v124,11,238,48,300,122v43,52,37,153,-16,185v-31,18,-75,29,-136,29v-2,-120,-46,-208,-148,-229r0,909v115,-1,217,-31,297,-65r0,112xm360,-741v0,226,58,384,224,432r0,-897v-185,41,-224,231,-224,465"},"\u00a3":{"d":"621,-1380v-163,0,-230,98,-230,264v0,133,43,232,80,330r348,0r0,96r-319,0v19,67,42,134,41,219v0,59,-16,110,-49,155v-33,45,-77,86,-132,123r5,9v47,-22,90,-37,149,-37v129,0,233,78,356,78v106,0,164,-62,215,-121r0,133v-57,77,-133,151,-268,151v-155,0,-249,-92,-407,-92v-116,0,-191,44,-279,82r0,-108v99,-57,187,-132,229,-248v41,-113,5,-250,-32,-344r-228,0r0,-96r189,0v-55,-124,-114,-329,-49,-483v59,-139,192,-213,389,-214v120,-1,214,20,280,66v51,36,81,87,82,164v1,92,-68,133,-162,133v-1,-152,-52,-260,-208,-260"},"\u00a4":{"d":"264,-514v-39,-56,-67,-129,-67,-219v1,-91,28,-163,69,-219r-135,-135r86,-87r133,136v57,-41,128,-72,221,-72v89,0,162,31,217,72r138,-138r86,89r-135,135v41,56,70,128,71,219v0,91,-30,163,-71,219r135,135r-84,86r-137,-135v-58,39,-129,70,-220,70v-91,-1,-162,-29,-219,-70r-135,135r-86,-86xm332,-837v-27,62,-28,143,0,205v40,89,117,161,239,161v124,0,203,-71,243,-161v28,-62,27,-143,0,-205v-40,-91,-118,-160,-243,-160v-123,0,-199,71,-239,160"},"\u00a5":{"d":"678,-233v-2,110,60,149,168,147r47,0r0,86r-629,0r0,-86v90,2,171,0,200,-64v22,-49,13,-141,15,-212r-286,0r0,-97r286,0r0,-143r-286,0r0,-96r247,0r-278,-570v-31,-62,-58,-112,-152,-108r0,-86r498,0r0,86v-77,-1,-131,11,-131,80v0,45,16,82,33,120r98,218v37,80,66,171,94,260r34,-80r163,-348v24,-53,49,-112,49,-168v0,-69,-51,-82,-131,-82r0,-86r418,0r0,86v-78,-5,-104,30,-133,81v-12,21,-26,47,-41,78r-250,519r254,0r0,96r-287,0r0,143r287,0r0,97r-287,0r0,129"},"\u00a6":{"d":"633,-737r-123,0r0,-819r123,0r0,819xm633,492r-123,0r0,-820r123,0r0,820"},"\u00a7":{"d":"821,-408v33,-41,52,-118,29,-182v-20,-56,-63,-93,-118,-130v-110,-75,-287,-134,-390,-220v-28,27,-52,61,-51,117v1,66,22,101,62,137v121,109,338,167,468,278xm950,-133v-3,246,-141,366,-393,366v-151,0,-269,-41,-325,-135v-26,-44,-35,-123,-12,-172v20,-44,59,-71,116,-73v1,122,45,214,128,257v30,16,66,23,107,23v153,2,250,-67,250,-205v0,-73,-14,-106,-59,-146v-136,-121,-415,-188,-533,-342v-44,-56,-68,-120,-69,-212v-1,-108,56,-183,121,-229v-49,-58,-76,-126,-76,-230v0,-168,96,-261,227,-303v131,-42,320,-19,400,44v48,37,82,87,83,163v1,89,-58,124,-145,125v0,-108,-33,-191,-104,-230v-25,-14,-56,-22,-93,-22v-133,-1,-216,68,-215,199v1,80,31,122,82,157v183,126,462,177,550,391v14,34,20,71,20,111v0,118,-63,196,-123,260v37,52,63,116,63,203","w":1114},"\u00a8":{"d":"395,-1294v-67,0,-104,-38,-104,-115v0,-74,33,-115,104,-115v71,0,105,41,105,115v0,73,-34,115,-105,115xm784,-1294v-67,0,-104,-38,-104,-115v0,-74,33,-115,104,-115v71,0,105,41,105,115v0,73,-34,115,-105,115","w":1182},"\u00a9":{"d":"899,-1100v-209,0,-265,154,-266,367v0,118,23,209,69,273v46,64,112,95,199,95v125,0,205,-61,252,-139v32,23,38,83,9,121v-55,71,-157,107,-288,107v-212,-2,-332,-106,-384,-270v-34,-109,-35,-263,3,-370v58,-165,189,-270,410,-270v119,0,215,22,263,88v20,28,25,68,7,98v-23,37,-70,56,-129,56v-3,-94,-47,-156,-145,-156xm140,-531v-36,-127,-36,-274,0,-401v57,-202,182,-351,344,-450v143,-87,376,-135,580,-76v202,58,352,183,451,346v87,143,135,377,76,581v-58,201,-184,350,-347,449v-143,87,-377,134,-580,76v-201,-57,-352,-182,-448,-346v-32,-56,-58,-115,-76,-179xm248,-902v-31,107,-32,233,0,340v66,225,221,381,446,447v108,32,233,31,341,0v226,-66,381,-222,447,-447v32,-108,31,-231,0,-339v-66,-226,-221,-382,-447,-448v-108,-31,-233,-32,-341,0v-226,66,-380,221,-446,447","w":1731},"\u00aa":{"d":"344,-872v97,0,142,-67,145,-164r0,-97v-104,2,-205,9,-230,88v-6,17,-9,37,-9,60v-2,75,31,113,94,113xm489,-1198v2,-104,5,-199,-102,-199v-80,0,-98,61,-98,140v-52,0,-91,-9,-120,-21v-48,-20,-54,-89,-21,-127v47,-53,142,-67,243,-68v168,-1,268,55,268,222r0,311v1,64,23,79,89,80r0,69r-199,0r-37,-94r-10,0v-51,56,-111,107,-217,107v-133,0,-215,-74,-213,-209v0,-68,28,-117,81,-151v64,-42,209,-57,336,-60","w":782},"\u00ab":{"d":"133,-586r313,-356r103,0r-207,389r207,389r-103,0r-313,-356r0,-66xm504,-586r313,-356r103,0r-207,389r207,389r-103,0r-313,-356r0,-66","w":1053},"\u00ac":{"d":"1012,-793r0,541r-123,0r0,-420r-756,0r0,-121r879,0"},"\u00ad":{"d":"51,-481r0,-154r533,0r0,154r-533,0","w":635},"\u00ae":{"d":"758,-430v2,67,58,75,129,72r0,69r-410,0r0,-69v69,2,127,-4,127,-72r0,-600v1,-68,-57,-75,-127,-72r0,-72r369,0v235,0,352,81,352,244v0,132,-86,191,-186,225r182,293v20,40,52,56,115,54r0,69r-217,0r-226,-381r-108,0r0,240xm758,-748v94,1,190,3,237,-44v53,-54,54,-216,-5,-264v-48,-39,-141,-39,-232,-38r0,346xm140,-531v-36,-127,-36,-274,0,-401v57,-202,182,-351,344,-450v143,-87,376,-135,580,-76v202,58,352,183,451,346v87,143,135,377,76,581v-58,201,-184,350,-347,449v-143,87,-377,134,-580,76v-201,-57,-352,-182,-448,-346v-32,-56,-58,-115,-76,-179xm248,-902v-31,107,-32,233,0,340v66,225,221,381,446,447v108,32,233,31,341,0v226,-66,381,-222,447,-447v32,-108,31,-231,0,-339v-66,-226,-221,-382,-447,-448v-108,-31,-233,-32,-341,0v-226,66,-380,221,-446,447","w":1731},"\u00af":{"d":"950,-1556r-960,0r0,-121r960,0r0,121","w":940},"\u00b0":{"d":"122,-1030v-33,-74,-33,-168,0,-242v48,-106,140,-190,286,-190v146,0,238,84,286,190v33,74,33,168,0,242v-48,106,-139,188,-286,188v-146,0,-239,-83,-286,-188xm335,-1326v-82,35,-143,137,-99,248v26,65,84,115,172,115v89,0,145,-50,174,-115v33,-76,1,-168,-40,-208v-44,-43,-133,-71,-207,-40","w":819},"\u00b1":{"d":"633,-672r0,379r-123,0r0,-379r-377,0r0,-121r377,0r0,-378r123,0r0,378r379,0r0,121r-379,0xm1012,0r-879,0r0,-121r879,0r0,121"},"\u00b2":{"d":"385,-1483v172,-1,305,63,305,221v0,125,-50,192,-116,261v-91,96,-221,195,-324,286r297,0v79,2,87,-62,98,-127r70,0r-6,256r-623,0r0,-92r260,-233v88,-82,160,-174,160,-334v0,-91,-31,-156,-121,-156v-100,0,-134,78,-135,178v-83,-2,-148,-8,-148,-88v0,-97,75,-137,160,-159v35,-9,76,-13,123,-13","w":819},"\u00b3":{"d":"246,-1223v-81,-1,-152,-8,-152,-88v0,-97,78,-138,164,-159v113,-28,272,-9,343,41v47,33,83,77,83,149v0,134,-103,187,-209,221r0,10v123,23,244,62,244,207v0,155,-109,226,-237,255v-171,40,-397,6,-400,-154v-1,-58,36,-102,94,-101v2,79,39,133,96,160v22,10,48,16,78,16v117,-1,185,-55,182,-178v-3,-112,-86,-159,-217,-157r-67,0r0,-84v52,0,101,3,139,-13v64,-25,111,-76,111,-164v0,-88,-30,-139,-117,-139v-102,1,-134,77,-135,178","w":819},"\u00b4":{"d":"788,-1548v-84,108,-206,226,-319,307r-78,0r0,-27v51,-66,97,-150,141,-226v15,-27,27,-52,37,-75r219,0r0,21","w":1182},"\u00b5":{"d":"856,-164v-59,99,-132,183,-287,184v-120,0,-198,-48,-250,-120v5,149,4,294,77,370v21,22,51,37,89,43v-2,104,-40,179,-143,179v-223,0,-159,-319,-155,-532r9,-189v3,-69,5,-147,5,-232r0,-637r192,0r0,688v1,167,39,299,205,299v133,0,198,-88,230,-196v12,-41,18,-86,18,-135r0,-656r192,0r0,834v0,82,31,140,84,167v18,9,32,12,52,11r0,86r-111,0v-120,-1,-175,-63,-199,-164r-8,0","w":1260},"\u00b6":{"d":"985,-6v-3,120,73,153,195,147r0,86r-320,0r0,-1679r-194,0r0,1679r-320,0r0,-86v122,6,195,-26,195,-147r0,-785v-109,-1,-226,6,-296,-33v-114,-64,-163,-195,-163,-368v0,-225,90,-364,317,-364r781,0r0,86v-121,-6,-195,26,-195,147r0,1317","w":1264},"\u00b7":{"d":"295,-590v-87,0,-129,-49,-129,-139v0,-91,41,-139,129,-139v87,0,129,49,129,139v0,89,-43,139,-129,139","w":586},"\u00b8":{"d":"352,70v122,8,199,69,199,188v0,153,-107,236,-270,234v-57,0,-112,-10,-158,-23r0,-105v42,9,94,17,139,17v75,1,125,-42,125,-115v1,-85,-72,-118,-154,-125r43,-159r97,0","w":682},"\u00b9":{"d":"508,-735v-1,58,29,78,86,78r94,0r0,69r-543,0r0,-69r95,0v56,2,84,-20,84,-78r0,-590r-191,0r0,-70v118,1,241,7,273,-78r102,0r0,738","w":819},"\u00ba":{"d":"285,-1322v-46,76,-44,319,0,396v25,43,64,66,123,66v57,0,97,-23,122,-66v45,-77,45,-320,-2,-396v-26,-42,-65,-64,-122,-64v-57,0,-96,22,-121,64xm410,-1473v220,0,329,123,331,347v1,230,-110,348,-335,348v-217,0,-334,-122,-334,-348v0,-231,110,-347,338,-347","w":813},"\u00bb":{"d":"920,-520r-314,356r-102,0r207,-389r-207,-389r102,0r314,356r0,66xm549,-520r-313,356r-103,0r207,-389r-207,-389r103,0r313,356r0,66","w":1053},"\u00bc":{"d":"423,-735v-1,58,29,78,86,78r94,0r0,69r-543,0r0,-69r95,0v56,2,84,-20,84,-78r0,-590r-191,0r0,-70v118,1,241,7,273,-78r102,0r0,738xm1210,-70v56,2,84,-21,84,-78r0,-113r-364,0r0,-61r383,-564r164,0r0,537r196,0r0,88r-196,0r0,113v-1,58,29,80,86,78r41,0r0,69r-451,0r0,-69r57,0xm1305,-732r-31,59r-223,324r243,0v1,-131,-6,-266,11,-383xm566,0r-136,0r731,-1462r134,0","w":1720},"\u00bd":{"d":"1315,-898v172,-1,305,63,305,221v0,125,-50,192,-116,261v-91,96,-221,195,-324,286r297,0v79,2,87,-62,98,-127r70,0r-6,256r-623,0r0,-92r260,-233v88,-82,160,-174,160,-334v0,-91,-31,-156,-121,-156v-100,0,-134,78,-135,178v-83,-2,-148,-8,-148,-88v0,-97,75,-137,160,-159v35,-9,76,-13,123,-13xm423,-735v-1,58,29,78,86,78r94,0r0,69r-543,0r0,-69r95,0v56,2,84,-20,84,-78r0,-590r-191,0r0,-70v118,1,241,7,273,-78r102,0r0,738xm525,0r-136,0r731,-1462r134,0","w":1720},"\u00be":{"d":"246,-1223v-81,-1,-152,-8,-152,-88v0,-97,78,-138,164,-159v113,-28,272,-9,343,41v47,33,83,77,83,149v0,134,-103,187,-209,221r0,10v123,23,244,62,244,207v0,155,-109,226,-237,255v-171,40,-397,6,-400,-154v-1,-58,36,-102,94,-101v2,79,39,133,96,160v22,10,48,16,78,16v117,-1,185,-55,182,-178v-3,-112,-86,-159,-217,-157r-67,0r0,-84v52,0,101,3,139,-13v64,-25,111,-76,111,-164v0,-88,-30,-139,-117,-139v-102,1,-134,77,-135,178xm1210,-70v56,2,84,-21,84,-78r0,-113r-364,0r0,-61r383,-564r164,0r0,537r196,0r0,88r-196,0r0,113v-1,58,29,80,86,78r41,0r0,69r-451,0r0,-69r57,0xm1305,-732r-31,59r-223,324r243,0v1,-131,-6,-266,11,-383xm607,0r-136,0r731,-1462r134,0","w":1720},"\u00bf":{"d":"766,27v97,2,170,38,170,133v0,130,-97,184,-212,212v-100,25,-252,23,-350,-8v-107,-34,-189,-96,-236,-189v-43,-86,-44,-218,-8,-311v64,-161,208,-246,372,-315r0,-231r125,0r0,311v-147,60,-256,150,-299,302v-11,40,-15,81,-15,122v1,150,72,236,224,236v161,0,226,-104,229,-262xm567,-1108v87,0,129,49,129,139v0,91,-41,140,-129,140v-87,0,-129,-50,-129,-140v0,-89,43,-139,129,-139","w":1024},"\u00c0":{"d":"626,-1907v49,103,114,214,179,301r0,27r-78,0v-113,-81,-236,-199,-320,-307r0,-21r219,0xm317,-186v-1,93,82,104,183,100r0,86r-500,0r0,-86v56,1,102,0,128,-31v29,-34,47,-75,67,-129r454,-1216r160,0r463,1267v24,67,54,112,145,109r27,0r0,86r-563,0r0,-86r47,0v96,2,137,-49,118,-133v-3,-12,-7,-26,-12,-41r-82,-229r-538,0r-78,215v-10,26,-18,58,-19,88xm788,-950r-58,-170v-18,-53,-33,-105,-44,-154v-22,110,-58,207,-94,305r-139,377r462,0","w":1444},"\u00c1":{"d":"1034,-1886v-84,108,-206,226,-319,307r-78,0r0,-27v67,-88,126,-195,178,-301r219,0r0,21xm317,-186v-1,93,82,104,183,100r0,86r-500,0r0,-86v56,1,102,0,128,-31v29,-34,47,-75,67,-129r454,-1216r160,0r463,1267v24,67,54,112,145,109r27,0r0,86r-563,0r0,-86r47,0v96,2,137,-49,118,-133v-3,-12,-7,-26,-12,-41r-82,-229r-538,0r-78,215v-10,26,-18,58,-19,88xm788,-950r-58,-170v-18,-53,-33,-105,-44,-154v-22,110,-58,207,-94,305r-139,377r462,0","w":1444},"\u00c2":{"d":"723,-1763v-61,63,-143,139,-221,184r-80,0r0,-27r53,-67r57,-79v34,-47,71,-104,95,-155r194,0v54,108,132,209,205,301r0,27r-80,0v-78,-44,-163,-121,-223,-184xm317,-186v-1,93,82,104,183,100r0,86r-500,0r0,-86v56,1,102,0,128,-31v29,-34,47,-75,67,-129r454,-1216r160,0r463,1267v24,67,54,112,145,109r27,0r0,86r-563,0r0,-86r47,0v96,2,137,-49,118,-133v-3,-12,-7,-26,-12,-41r-82,-229r-538,0r-78,215v-10,26,-18,58,-19,88xm788,-950r-58,-170v-18,-53,-33,-105,-44,-154v-22,110,-58,207,-94,305r-139,377r462,0","w":1444},"\u00c3":{"d":"551,-1708v-73,-2,-93,46,-101,108r-92,0v7,-104,47,-183,122,-221v53,-27,139,-25,194,0v56,26,105,59,156,89v22,13,44,20,65,20v73,2,93,-46,100,-109r92,0v-7,103,-47,184,-121,222v-52,27,-139,25,-194,0v-57,-26,-103,-59,-154,-89v-23,-13,-45,-20,-67,-20xm317,-186v-1,93,82,104,183,100r0,86r-500,0r0,-86v56,1,102,0,128,-31v29,-34,47,-75,67,-129r454,-1216r160,0r463,1267v24,67,54,112,145,109r27,0r0,86r-563,0r0,-86r47,0v96,2,137,-49,118,-133v-3,-12,-7,-26,-12,-41r-82,-229r-538,0r-78,215v-10,26,-18,58,-19,88xm788,-950r-58,-170v-18,-53,-33,-105,-44,-154v-22,110,-58,207,-94,305r-139,377r462,0","w":1444},"\u00c4":{"d":"528,-1632v-67,0,-104,-38,-104,-115v0,-74,33,-115,104,-115v71,0,105,41,105,115v0,73,-34,115,-105,115xm917,-1632v-67,0,-104,-38,-104,-115v0,-74,33,-115,104,-115v71,0,105,41,105,115v0,73,-34,115,-105,115xm317,-186v-1,93,82,104,183,100r0,86r-500,0r0,-86v56,1,102,0,128,-31v29,-34,47,-75,67,-129r454,-1216r160,0r463,1267v24,67,54,112,145,109r27,0r0,86r-563,0r0,-86r47,0v96,2,137,-49,118,-133v-3,-12,-7,-26,-12,-41r-82,-229r-538,0r-78,215v-10,26,-18,58,-19,88xm788,-950r-58,-170v-18,-53,-33,-105,-44,-154v-22,110,-58,207,-94,305r-139,377r462,0","w":1444},"\u00c5":{"d":"317,-186v-1,93,82,104,183,100r0,86r-500,0r0,-86v56,1,102,0,128,-31v29,-34,47,-75,67,-129r454,-1216r160,0r463,1267v24,67,54,112,145,109r27,0r0,86r-563,0r0,-86r47,0v96,2,137,-49,118,-133v-3,-12,-7,-26,-12,-41r-82,-229r-538,0r-78,215v-10,26,-18,58,-19,88xm788,-950r-58,-170v-18,-53,-33,-105,-44,-154v-22,110,-58,207,-94,305r-139,377r462,0xm952,-1681v25,54,25,139,0,193v-36,80,-115,126,-227,126v-148,0,-246,-74,-246,-223v0,-148,98,-223,246,-223v112,0,191,47,227,127xm725,-1462v83,0,134,-38,135,-123v0,-85,-52,-123,-135,-123v-83,0,-134,38,-135,123v0,85,52,123,135,123","w":1444},"\u00c6":{"d":"328,-166v-1,79,84,82,170,80r0,86r-498,0r0,-86v58,2,93,-5,130,-38v28,-25,56,-66,85,-122r592,-1120r-160,-10r0,-86r1135,0r10,358r-106,0v-10,-78,-13,-160,-58,-204v-30,-30,-73,-51,-133,-52r-344,0r0,545r494,0r0,100r-494,0r0,613r395,0v120,0,177,-67,195,-168r14,-88r107,0r-15,358r-1097,0r0,-86v117,5,194,-23,194,-137r0,-266r-471,0r-113,215v-18,32,-31,70,-32,108xm849,-1221r-203,398r-120,231r418,0r0,-768r-29,0","w":1948},"\u00c7":{"d":"743,70v122,8,199,69,199,188v0,153,-107,236,-270,234v-57,0,-112,-10,-158,-23r0,-104v42,9,94,16,139,16v75,1,125,-42,125,-115v1,-85,-72,-118,-154,-125r43,-159r97,0xm1141,-289v47,27,51,109,13,159v-77,102,-227,150,-415,150v-330,0,-504,-184,-582,-445v-53,-180,-53,-433,2,-612v57,-183,166,-317,330,-391v200,-91,580,-73,673,84v26,44,36,103,12,150v-27,53,-85,83,-164,84v-1,-116,-47,-200,-128,-240v-87,-43,-233,-23,-309,18v-178,95,-229,320,-229,599v0,266,62,478,232,573v54,30,119,45,194,45v183,1,293,-72,371,-174","w":1257},"\u00c8":{"d":"564,-1907v49,103,114,214,179,301r0,27r-78,0v-113,-81,-236,-199,-320,-307r0,-21r219,0xm272,-1229v4,-121,-73,-153,-194,-147r0,-86r1032,0r10,358r-106,0v-9,-80,-13,-161,-58,-206v-30,-30,-72,-50,-133,-50r-344,0r0,545r494,0r0,100r-494,0r0,613r395,0v121,0,178,-65,195,-168r14,-88r107,0r-14,358r-1098,0r0,-86v116,5,194,-21,194,-137r0,-1006","w":1276},"\u00c9":{"d":"942,-1886v-84,108,-206,226,-319,307r-78,0r0,-27v67,-88,126,-195,178,-301r219,0r0,21xm272,-1229v4,-121,-73,-153,-194,-147r0,-86r1032,0r10,358r-106,0v-9,-80,-13,-161,-58,-206v-30,-30,-72,-50,-133,-50r-344,0r0,545r494,0r0,100r-494,0r0,613r395,0v121,0,178,-65,195,-168r14,-88r107,0r-14,358r-1098,0r0,-86v116,5,194,-21,194,-137r0,-1006","w":1276},"\u00ca":{"d":"651,-1763v-61,63,-143,139,-221,184r-80,0r0,-27r53,-67r57,-79v34,-47,71,-104,95,-155r194,0v54,108,132,209,205,301r0,27r-80,0v-78,-44,-163,-121,-223,-184xm272,-1229v4,-121,-73,-153,-194,-147r0,-86r1032,0r10,358r-106,0v-9,-80,-13,-161,-58,-206v-30,-30,-72,-50,-133,-50r-344,0r0,545r494,0r0,100r-494,0r0,613r395,0v121,0,178,-65,195,-168r14,-88r107,0r-14,358r-1098,0r0,-86v116,5,194,-21,194,-137r0,-1006","w":1276},"\u00cb":{"d":"446,-1632v-67,0,-104,-38,-104,-115v0,-74,33,-115,104,-115v71,0,105,41,105,115v0,73,-34,115,-105,115xm835,-1632v-67,0,-104,-38,-104,-115v0,-74,33,-115,104,-115v71,0,105,41,105,115v0,73,-34,115,-105,115xm272,-1229v4,-121,-73,-153,-194,-147r0,-86r1032,0r10,358r-106,0v-9,-80,-13,-161,-58,-206v-30,-30,-72,-50,-133,-50r-344,0r0,545r494,0r0,100r-494,0r0,613r395,0v121,0,178,-65,195,-168r14,-88r107,0r-14,358r-1098,0r0,-86v116,5,194,-21,194,-137r0,-1006","w":1276},"\u00cc":{"d":"294,-1907v49,103,114,214,179,301r0,27r-78,0v-113,-81,-236,-199,-320,-307r0,-21r219,0xm479,-233v-3,120,73,153,195,147r0,86r-596,0r0,-86v121,6,194,-26,194,-147r0,-996v4,-121,-73,-153,-194,-147r0,-86r596,0r0,86v-121,-6,-195,26,-195,147r0,996","w":752},"\u00cd":{"d":"668,-1886v-84,108,-206,226,-319,307r-78,0r0,-27v67,-88,126,-195,178,-301r219,0r0,21xm479,-233v-3,120,73,153,195,147r0,86r-596,0r0,-86v121,6,194,-26,194,-147r0,-996v4,-121,-73,-153,-194,-147r0,-86r596,0r0,86v-121,-6,-195,26,-195,147r0,996","w":752},"\u00ce":{"d":"374,-1763v-61,63,-143,139,-221,184r-80,0r0,-27r53,-67r58,-79v33,-48,70,-104,94,-155r194,0v54,109,132,209,205,301r0,27r-80,0v-78,-44,-163,-121,-223,-184xm479,-233v-3,120,73,153,195,147r0,86r-596,0r0,-86v121,6,194,-26,194,-147r0,-996v4,-121,-73,-153,-194,-147r0,-86r596,0r0,86v-121,-6,-195,26,-195,147r0,996","w":752},"\u00cf":{"d":"177,-1632v-67,0,-104,-38,-104,-115v0,-74,33,-115,104,-115v71,0,105,41,105,115v0,73,-34,115,-105,115xm566,-1632v-67,0,-104,-38,-104,-115v0,-74,33,-115,104,-115v71,0,105,41,105,115v0,73,-34,115,-105,115xm479,-233v-3,120,73,153,195,147r0,86r-596,0r0,-86v121,6,194,-26,194,-147r0,-996v4,-121,-73,-153,-194,-147r0,-86r596,0r0,86v-121,-6,-195,26,-195,147r0,996","w":752},"\u00d0":{"d":"78,-86v121,6,194,-26,194,-147r0,-482r-194,0r0,-100r194,0r0,-422v3,-116,-76,-145,-194,-139r0,-86r627,0v337,3,535,161,622,419v58,173,60,436,3,613v-84,265,-281,430,-625,430r-627,0r0,-86xm479,-104v146,0,290,6,391,-42v193,-92,275,-299,275,-587v-1,-287,-79,-495,-273,-586v-102,-48,-246,-41,-393,-41r0,545r348,0r0,100r-348,0r0,611","w":1489},"\u00d1":{"d":"635,-1708v-73,-2,-93,46,-101,108r-92,0v7,-104,47,-183,122,-221v53,-27,139,-25,194,0v56,26,105,59,156,89v22,13,44,20,65,20v73,2,93,-46,100,-109r92,0v-7,103,-47,184,-121,222v-52,27,-139,25,-194,0v-57,-26,-103,-59,-154,-89v-23,-13,-45,-20,-67,-20xm1505,-1376v-121,-6,-194,26,-194,147r0,1229r-146,0r-768,-1180r0,947v-3,120,73,153,195,147r0,86r-514,0r0,-86v121,6,194,-26,194,-147r0,-1004v3,-116,-76,-145,-194,-139r0,-86r375,0r733,1132r0,-907v3,-116,-77,-145,-195,-139r0,-86r514,0r0,86","w":1563},"\u00d2":{"d":"682,-1907v49,103,114,214,179,301r0,27r-78,0v-113,-81,-236,-199,-320,-307r0,-21r219,0xm1361,-1042v55,179,55,437,0,617v-56,182,-165,317,-326,391v-155,72,-405,69,-559,0v-241,-109,-361,-354,-361,-701v0,-346,119,-589,362,-697v154,-68,404,-71,559,0v160,74,270,209,325,390xm438,-1206v-102,156,-117,501,-74,744v27,152,91,265,202,328v101,57,287,57,388,0v174,-98,222,-323,222,-599v0,-276,-49,-500,-222,-598v-100,-56,-286,-56,-386,0v-53,30,-95,71,-130,125","w":1520},"\u00d3":{"d":"1046,-1886v-84,108,-206,226,-319,307r-78,0r0,-27v67,-88,126,-195,178,-301r219,0r0,21xm1361,-1042v55,179,55,437,0,617v-56,182,-165,317,-326,391v-155,72,-405,69,-559,0v-241,-109,-361,-354,-361,-701v0,-346,119,-589,362,-697v154,-68,404,-71,559,0v160,74,270,209,325,390xm438,-1206v-102,156,-117,501,-74,744v27,152,91,265,202,328v101,57,287,57,388,0v174,-98,222,-323,222,-599v0,-276,-49,-500,-222,-598v-100,-56,-286,-56,-386,0v-53,30,-95,71,-130,125","w":1520},"\u00d4":{"d":"760,-1763v-61,63,-143,139,-221,184r-80,0r0,-27r53,-67r58,-79v33,-48,70,-104,94,-155r194,0v54,109,132,209,205,301r0,27r-80,0v-78,-44,-163,-121,-223,-184xm1361,-1042v55,179,55,437,0,617v-56,182,-165,317,-326,391v-155,72,-405,69,-559,0v-241,-109,-361,-354,-361,-701v0,-346,119,-589,362,-697v154,-68,404,-71,559,0v160,74,270,209,325,390xm438,-1206v-102,156,-117,501,-74,744v27,152,91,265,202,328v101,57,287,57,388,0v174,-98,222,-323,222,-599v0,-276,-49,-500,-222,-598v-100,-56,-286,-56,-386,0v-53,30,-95,71,-130,125","w":1520},"\u00d5":{"d":"574,-1708v-73,-2,-93,46,-101,108r-92,0v7,-104,48,-183,123,-221v53,-27,139,-25,194,0v57,26,103,59,154,89v23,13,45,20,66,20v73,2,93,-46,100,-109r92,0v-7,103,-47,184,-121,222v-52,27,-138,25,-193,0v-56,-26,-105,-59,-156,-89v-22,-13,-44,-20,-66,-20xm1361,-1042v55,179,55,437,0,617v-56,182,-165,317,-326,391v-155,72,-405,69,-559,0v-241,-109,-361,-354,-361,-701v0,-346,119,-589,362,-697v154,-68,404,-71,559,0v160,74,270,209,325,390xm438,-1206v-102,156,-117,501,-74,744v27,152,91,265,202,328v101,57,287,57,388,0v174,-98,222,-323,222,-599v0,-276,-49,-500,-222,-598v-100,-56,-286,-56,-386,0v-53,30,-95,71,-130,125","w":1520},"\u00d6":{"d":"559,-1632v-67,0,-104,-38,-104,-115v0,-74,33,-115,104,-115v71,0,105,41,105,115v0,73,-34,115,-105,115xm948,-1632v-67,0,-104,-38,-104,-115v0,-74,33,-115,104,-115v71,0,105,41,105,115v0,73,-34,115,-105,115xm1361,-1042v55,179,55,437,0,617v-56,182,-165,317,-326,391v-155,72,-405,69,-559,0v-241,-109,-361,-354,-361,-701v0,-346,119,-589,362,-697v154,-68,404,-71,559,0v160,74,270,209,325,390xm438,-1206v-102,156,-117,501,-74,744v27,152,91,265,202,328v101,57,287,57,388,0v174,-98,222,-323,222,-599v0,-276,-49,-500,-222,-598v-100,-56,-286,-56,-386,0v-53,30,-95,71,-130,125","w":1520},"\u00d7":{"d":"571,-647r-340,340r-86,-88r340,-340r-340,-338r86,-86r340,340r340,-342r86,88r-340,340r340,340r-86,86"},"\u00d8":{"d":"762,-1485v126,0,228,29,313,74r76,-135r119,0r-107,192v155,127,241,341,240,621v-1,346,-129,588,-368,699v-167,77,-444,68,-593,-15r-71,131r-121,0r104,-188v-159,-127,-239,-346,-239,-629v0,-346,119,-591,362,-697v81,-36,176,-53,285,-53xm438,-1206v-101,156,-117,505,-74,746v14,79,40,146,74,202r572,-1034v-63,-55,-145,-82,-248,-82v-161,0,-258,66,-324,168xm1082,-260v99,-158,115,-503,72,-744v-14,-79,-40,-147,-73,-202r-571,1036v63,53,147,80,250,80v161,0,257,-67,322,-170","w":1520},"\u00d9":{"d":"673,-1907v49,103,114,214,179,301r0,27r-78,0v-113,-81,-236,-199,-320,-307r0,-21r219,0xm1438,-1376v-121,-6,-195,26,-195,147r0,811v-6,302,-195,436,-502,438v-326,2,-516,-134,-516,-462r0,-795v3,-116,-76,-145,-194,-139r0,-86r596,0r0,86v-121,-6,-195,26,-195,147r0,799v0,223,123,328,342,328v171,0,278,-69,324,-192v14,-39,20,-81,20,-128r0,-815v3,-116,-76,-145,-194,-139r0,-86r514,0r0,86","w":1468},"\u00da":{"d":"1046,-1886v-84,108,-206,226,-319,307r-78,0r0,-27v67,-88,126,-195,178,-301r219,0r0,21xm1438,-1376v-121,-6,-195,26,-195,147r0,811v-6,302,-195,436,-502,438v-326,2,-516,-134,-516,-462r0,-795v3,-116,-76,-145,-194,-139r0,-86r596,0r0,86v-121,-6,-195,26,-195,147r0,799v0,223,123,328,342,328v171,0,278,-69,324,-192v14,-39,20,-81,20,-128r0,-815v3,-116,-76,-145,-194,-139r0,-86r514,0r0,86","w":1468},"\u00db":{"d":"772,-1763v-61,63,-143,139,-221,184r-80,0r0,-27r53,-67r58,-79v33,-48,70,-104,94,-155r194,0v54,109,132,209,205,301r0,27r-80,0v-78,-44,-163,-121,-223,-184xm1438,-1376v-121,-6,-195,26,-195,147r0,811v-6,302,-195,436,-502,438v-326,2,-516,-134,-516,-462r0,-795v3,-116,-76,-145,-194,-139r0,-86r596,0r0,86v-121,-6,-195,26,-195,147r0,799v0,223,123,328,342,328v171,0,278,-69,324,-192v14,-39,20,-81,20,-128r0,-815v3,-116,-76,-145,-194,-139r0,-86r514,0r0,86","w":1468},"\u00dc":{"d":"581,-1632v-67,0,-104,-38,-104,-115v0,-74,33,-115,104,-115v71,0,105,41,105,115v0,73,-34,115,-105,115xm970,-1632v-67,0,-104,-38,-104,-115v0,-74,33,-115,104,-115v71,0,105,41,105,115v0,73,-34,115,-105,115xm1438,-1376v-121,-6,-195,26,-195,147r0,811v-6,302,-195,436,-502,438v-326,2,-516,-134,-516,-462r0,-795v3,-116,-76,-145,-194,-139r0,-86r596,0r0,86v-121,-6,-195,26,-195,147r0,799v0,223,123,328,342,328v171,0,278,-69,324,-192v14,-39,20,-81,20,-128r0,-815v3,-116,-76,-145,-194,-139r0,-86r514,0r0,86","w":1468},"\u00dd":{"d":"964,-1886v-84,108,-206,226,-319,307r-78,0r0,-27v67,-88,126,-195,178,-301r219,0r0,21xm748,-233v-3,110,60,149,167,147r48,0r0,86r-637,0r0,-86v125,5,215,-12,215,-137r0,-387r-379,-658v-37,-62,-68,-116,-172,-108r0,-86r563,0r0,86v-76,1,-166,-13,-166,65v0,40,23,82,37,109r151,274v42,72,75,158,103,234v35,-81,81,-158,123,-234r131,-235v22,-37,36,-76,37,-123v2,-87,-89,-95,-183,-90r0,-86r500,0r0,86v-81,-5,-110,34,-146,82v-14,20,-31,46,-48,77r-344,607r0,377","w":1280},"\u00de":{"d":"479,-233v-2,110,61,149,168,147r47,0r0,86r-616,0r0,-86v121,6,194,-26,194,-147r0,-996v4,-121,-73,-153,-194,-147r0,-86r616,0r0,86r-47,0v-107,-2,-171,37,-168,147r0,62r174,0v172,0,299,34,381,103v82,69,123,171,123,304v0,317,-217,444,-549,445r-129,0r0,82xm479,-412v152,2,301,3,376,-72v59,-58,81,-146,81,-268v1,-163,-46,-263,-170,-300v-73,-22,-189,-16,-287,-17r0,657","w":1237},"\u00df":{"d":"686,-338v2,149,51,260,201,260v107,0,172,-69,172,-186v0,-92,-40,-132,-98,-173v-88,-60,-228,-107,-295,-189v-41,-50,-66,-109,-66,-199v0,-196,134,-276,338,-277v0,-215,-45,-370,-256,-368v-171,2,-248,109,-248,282r0,1188r-387,0r0,-86v122,6,195,-26,195,-147r0,-768r-166,0r0,-97r166,0r0,-61v0,-281,165,-402,442,-404v252,-1,378,112,423,318v15,69,22,149,23,239r-149,0v-133,0,-211,44,-211,166v0,86,52,116,111,152v62,37,175,84,228,128v75,63,126,134,126,261v0,215,-129,319,-346,319v-138,0,-246,-36,-297,-122v-25,-42,-31,-117,-11,-164v18,-43,52,-69,105,-72","w":1325},"\u00e0":{"d":"488,-1569v49,103,114,214,179,301r0,27r-78,0v-113,-81,-236,-199,-320,-307r0,-21r219,0xm301,-297v0,123,47,191,166,191v134,0,215,-66,253,-167v28,-76,16,-184,19,-284v-143,6,-296,8,-371,77v-45,42,-66,99,-67,183xm739,-176v-76,101,-143,199,-319,196v-206,-3,-318,-117,-318,-327v0,-109,39,-189,116,-242v77,-53,194,-80,351,-86r170,-6r0,-123v1,-110,-13,-200,-89,-234v-25,-12,-59,-18,-101,-18v-143,-3,-189,83,-187,223v-106,-1,-174,-27,-174,-129v0,-80,48,-123,108,-150v144,-66,438,-67,542,33v63,61,94,148,94,275r0,531v0,74,13,124,68,140v18,5,40,7,65,7r0,86r-277,0r-32,-176r-17,0","w":1153},"\u00e1":{"d":"868,-1548v-84,108,-206,226,-319,307r-78,0r0,-27v67,-88,126,-195,178,-301r219,0r0,21xm301,-297v0,123,47,191,166,191v134,0,215,-66,253,-167v28,-76,16,-184,19,-284v-143,6,-296,8,-371,77v-45,42,-66,99,-67,183xm739,-176v-76,101,-143,199,-319,196v-206,-3,-318,-117,-318,-327v0,-109,39,-189,116,-242v77,-53,194,-80,351,-86r170,-6r0,-123v1,-110,-13,-200,-89,-234v-25,-12,-59,-18,-101,-18v-143,-3,-189,83,-187,223v-106,-1,-174,-27,-174,-129v0,-80,48,-123,108,-150v144,-66,438,-67,542,33v63,61,94,148,94,275r0,531v0,74,13,124,68,140v18,5,40,7,65,7r0,86r-277,0r-32,-176r-17,0","w":1153},"\u00e2":{"d":"562,-1425v-61,63,-143,139,-221,184r-80,0r0,-27r53,-67r58,-79v33,-48,70,-104,94,-155r194,0v54,109,132,209,205,301r0,27r-80,0v-78,-44,-163,-121,-223,-184xm301,-297v0,123,47,191,166,191v134,0,215,-66,253,-167v28,-76,16,-184,19,-284v-143,6,-296,8,-371,77v-45,42,-66,99,-67,183xm739,-176v-76,101,-143,199,-319,196v-206,-3,-318,-117,-318,-327v0,-109,39,-189,116,-242v77,-53,194,-80,351,-86r170,-6r0,-123v1,-110,-13,-200,-89,-234v-25,-12,-59,-18,-101,-18v-143,-3,-189,83,-187,223v-106,-1,-174,-27,-174,-129v0,-80,48,-123,108,-150v144,-66,438,-67,542,33v63,61,94,148,94,275r0,531v0,74,13,124,68,140v18,5,40,7,65,7r0,86r-277,0r-32,-176r-17,0","w":1153},"\u00e3":{"d":"399,-1370v-73,-2,-93,46,-101,108r-92,0v7,-104,47,-183,122,-221v53,-27,139,-25,194,0v56,26,105,59,156,89v22,13,44,20,65,20v73,2,93,-46,100,-109r92,0v-7,103,-47,184,-121,222v-52,27,-139,25,-194,0v-57,-26,-103,-59,-154,-89v-23,-13,-45,-20,-67,-20xm301,-297v0,123,47,191,166,191v134,0,215,-66,253,-167v28,-76,16,-184,19,-284v-143,6,-296,8,-371,77v-45,42,-66,99,-67,183xm739,-176v-76,101,-143,199,-319,196v-206,-3,-318,-117,-318,-327v0,-109,39,-189,116,-242v77,-53,194,-80,351,-86r170,-6r0,-123v1,-110,-13,-200,-89,-234v-25,-12,-59,-18,-101,-18v-143,-3,-189,83,-187,223v-106,-1,-174,-27,-174,-129v0,-80,48,-123,108,-150v144,-66,438,-67,542,33v63,61,94,148,94,275r0,531v0,74,13,124,68,140v18,5,40,7,65,7r0,86r-277,0r-32,-176r-17,0","w":1153},"\u00e4":{"d":"361,-1294v-67,0,-104,-38,-104,-115v0,-74,33,-115,104,-115v71,0,105,41,105,115v0,73,-34,115,-105,115xm750,-1294v-67,0,-104,-38,-104,-115v0,-74,33,-115,104,-115v71,0,105,41,105,115v0,73,-34,115,-105,115xm301,-297v0,123,47,191,166,191v134,0,215,-66,253,-167v28,-76,16,-184,19,-284v-143,6,-296,8,-371,77v-45,42,-66,99,-67,183xm739,-176v-76,101,-143,199,-319,196v-206,-3,-318,-117,-318,-327v0,-109,39,-189,116,-242v77,-53,194,-80,351,-86r170,-6r0,-123v1,-110,-13,-200,-89,-234v-25,-12,-59,-18,-101,-18v-143,-3,-189,83,-187,223v-106,-1,-174,-27,-174,-129v0,-80,48,-123,108,-150v144,-66,438,-67,542,33v63,61,94,148,94,275r0,531v0,74,13,124,68,140v18,5,40,7,65,7r0,86r-277,0r-32,-176r-17,0","w":1153},"\u00e5":{"d":"301,-297v0,123,47,191,166,191v134,0,215,-66,253,-167v28,-76,16,-184,19,-284v-143,6,-296,8,-371,77v-45,42,-66,99,-67,183xm739,-176v-76,101,-143,199,-319,196v-206,-3,-318,-117,-318,-327v0,-109,39,-189,116,-242v77,-53,194,-80,351,-86r170,-6r0,-123v1,-110,-13,-200,-89,-234v-25,-12,-59,-18,-101,-18v-143,-3,-189,83,-187,223v-106,-1,-174,-27,-174,-129v0,-80,48,-123,108,-150v144,-66,438,-67,542,33v63,61,94,148,94,275r0,531v0,74,13,124,68,140v18,5,40,7,65,7r0,86r-277,0r-32,-176r-17,0xm573,-1667v146,0,246,74,246,223v0,149,-100,223,-246,223v-146,0,-246,-74,-246,-223v0,-149,100,-223,246,-223xm573,-1321v83,0,135,-39,135,-123v0,-84,-52,-123,-135,-123v-83,0,-135,39,-135,123v0,84,52,123,135,123","w":1153},"\u00e6":{"d":"301,-297v0,123,47,191,166,191v134,0,216,-66,253,-167v28,-77,16,-181,19,-284v-143,6,-296,8,-371,77v-45,42,-66,99,-67,183xm1190,-1008v-77,0,-135,30,-176,92v-41,62,-65,152,-72,271r471,0v-1,-151,-27,-279,-119,-337v-28,-17,-63,-26,-104,-26xm1536,-252v20,9,42,39,39,70v-11,103,-102,152,-199,182v-44,13,-96,20,-155,20v-210,-1,-344,-87,-416,-233v-62,138,-186,233,-385,233v-206,0,-318,-117,-318,-327v0,-109,39,-189,116,-242v77,-53,194,-80,351,-86r170,-6r0,-123v1,-110,-13,-200,-89,-234v-25,-12,-59,-18,-101,-18v-143,-3,-189,83,-187,223v-106,-1,-174,-27,-174,-129v0,-80,49,-122,108,-150v67,-32,161,-46,261,-46v152,1,259,35,320,125v76,-83,182,-125,317,-125v294,0,423,189,426,489r0,94r-682,0v5,250,68,428,317,426v133,-1,224,-63,281,-143","w":1722},"\u00e7":{"d":"585,70v122,8,199,69,199,188v0,153,-107,236,-270,234v-57,0,-112,-10,-158,-23r0,-104v42,9,94,16,139,16v75,1,125,-42,125,-115v1,-85,-72,-118,-154,-125r43,-159r97,0xm893,-256v39,28,47,103,13,150v-60,84,-176,126,-326,126v-331,0,-466,-219,-467,-563v-1,-203,43,-350,131,-452v91,-106,269,-145,452,-111v82,16,153,52,198,104v45,52,42,160,-14,193v-31,18,-76,29,-137,29v-1,-134,-38,-237,-174,-236v-156,2,-212,102,-240,243v-12,61,-18,137,-18,228v0,145,25,254,73,325v48,71,127,107,237,107v127,0,227,-61,272,-143","w":1008},"\u00e8":{"d":"504,-1569v49,103,114,214,179,301r0,27r-78,0v-113,-81,-236,-199,-320,-307r0,-21r219,0xm563,-1008v-76,0,-134,30,-175,92v-41,62,-66,152,-73,271r471,0v-1,-151,-26,-279,-118,-337v-28,-17,-64,-26,-105,-26xm909,-252v20,9,42,39,39,70v-11,104,-104,153,-202,182v-106,32,-262,25,-358,-18v-182,-81,-274,-261,-275,-523v0,-191,39,-335,118,-432v79,-97,191,-145,336,-145v294,0,423,189,426,489r0,94r-682,0v6,243,67,426,305,426v140,0,235,-60,293,-143","w":1096},"\u00e9":{"d":"870,-1548v-84,108,-206,226,-319,307r-78,0r0,-27v67,-88,126,-195,178,-301r219,0r0,21xm563,-1008v-76,0,-134,30,-175,92v-41,62,-66,152,-73,271r471,0v-1,-151,-26,-279,-118,-337v-28,-17,-64,-26,-105,-26xm909,-252v20,9,42,39,39,70v-11,104,-104,153,-202,182v-106,32,-262,25,-358,-18v-182,-81,-274,-261,-275,-523v0,-191,39,-335,118,-432v79,-97,191,-145,336,-145v294,0,423,189,426,489r0,94r-682,0v6,243,67,426,305,426v140,0,235,-60,293,-143","w":1096},"\u00ea":{"d":"556,-1425v-61,63,-143,139,-221,184r-80,0r0,-27r53,-67r58,-79v33,-48,70,-104,94,-155r194,0v54,109,132,209,205,301r0,27r-80,0v-78,-44,-163,-121,-223,-184xm563,-1008v-76,0,-134,30,-175,92v-41,62,-66,152,-73,271r471,0v-1,-151,-26,-279,-118,-337v-28,-17,-64,-26,-105,-26xm909,-252v20,9,42,39,39,70v-11,104,-104,153,-202,182v-106,32,-262,25,-358,-18v-182,-81,-274,-261,-275,-523v0,-191,39,-335,118,-432v79,-97,191,-145,336,-145v294,0,423,189,426,489r0,94r-682,0v6,243,67,426,305,426v140,0,235,-60,293,-143","w":1096},"\u00eb":{"d":"357,-1294v-67,0,-104,-38,-104,-115v0,-74,33,-115,104,-115v71,0,105,41,105,115v0,73,-34,115,-105,115xm746,-1294v-67,0,-104,-38,-104,-115v0,-74,33,-115,104,-115v71,0,105,41,105,115v0,73,-34,115,-105,115xm563,-1008v-76,0,-134,30,-175,92v-41,62,-66,152,-73,271r471,0v-1,-151,-26,-279,-118,-337v-28,-17,-64,-26,-105,-26xm909,-252v20,9,42,39,39,70v-11,104,-104,153,-202,182v-106,32,-262,25,-358,-18v-182,-81,-274,-261,-275,-523v0,-191,39,-335,118,-432v79,-97,191,-145,336,-145v294,0,423,189,426,489r0,94r-682,0v6,243,67,426,305,426v140,0,235,-60,293,-143","w":1096},"\u00ec":{"d":"257,-1569v49,103,114,214,179,301r0,27r-78,0v-113,-81,-236,-199,-320,-307r0,-21r219,0xm434,-233v-3,119,73,153,195,147r0,86r-582,0r0,-86v118,6,195,-21,195,-137r0,-649v1,-107,-66,-143,-174,-140r0,-86r366,0r0,865","w":655},"\u00ed":{"d":"637,-1548v-84,108,-206,226,-319,307r-78,0r0,-27v66,-87,128,-198,178,-301r219,0r0,21xm434,-233v-3,119,73,153,195,147r0,86r-582,0r0,-86v118,6,195,-21,195,-137r0,-649v1,-107,-66,-143,-174,-140r0,-86r366,0r0,865","w":655},"\u00ee":{"d":"323,-1425v-61,63,-143,139,-221,184r-80,0r0,-27r53,-67r57,-79v34,-47,71,-104,95,-155r194,0v54,108,132,209,205,301r0,27r-80,0v-78,-44,-163,-121,-223,-184xm434,-233v-3,119,73,153,195,147r0,86r-582,0r0,-86v118,6,195,-21,195,-137r0,-649v1,-107,-66,-143,-174,-140r0,-86r366,0r0,865","w":655},"\u00ef":{"d":"122,-1294v-67,0,-104,-38,-104,-115v0,-74,33,-115,104,-115v71,0,105,41,105,115v0,73,-34,115,-105,115xm511,-1294v-67,0,-104,-38,-104,-115v0,-74,33,-115,104,-115v71,0,105,41,105,115v0,73,-34,115,-105,115xm434,-233v-3,119,73,153,195,147r0,86r-582,0r0,-86v118,6,195,-21,195,-137r0,-649v1,-107,-66,-143,-174,-140r0,-86r366,0r0,865","w":655},"\u00f0":{"d":"539,-1337v-68,-45,-145,-85,-232,-111r0,-111v132,33,253,83,355,152r264,-154r0,117r-181,103v190,162,324,397,324,745v0,208,-41,363,-123,464v-82,101,-201,152,-358,152v-327,0,-473,-198,-475,-530v-1,-342,151,-524,481,-526v95,0,170,21,235,53v-36,-109,-118,-212,-206,-287r-256,146r0,-115xm590,-928v-232,0,-279,182,-279,418v0,238,48,424,281,424v232,0,278,-186,278,-424v0,-236,-47,-418,-280,-418","w":1182},"\u00f1":{"d":"498,-1370v-73,-2,-93,46,-101,108r-92,0v7,-104,48,-183,123,-221v53,-27,139,-25,194,0v57,26,103,59,154,89v23,13,45,20,66,20v73,2,93,-46,100,-109r92,0v-7,103,-47,184,-121,222v-52,27,-138,25,-193,0v-56,-26,-105,-59,-156,-89v-22,-13,-44,-20,-66,-20xm434,-223v-3,109,67,140,174,137r0,86r-551,0r0,-86v117,5,185,-30,185,-147r0,-639v2,-109,-67,-143,-174,-140r0,-86r331,0r27,166r10,0v63,-114,148,-188,320,-186v244,2,344,151,344,401r0,484v-3,111,54,151,164,147r0,86r-357,0r0,-707v0,-170,-55,-282,-225,-280v-187,2,-248,145,-248,332r0,432","w":1321},"\u00f2":{"d":"517,-1569v49,103,114,214,179,301r0,27r-78,0v-113,-81,-236,-199,-320,-307r0,-21r219,0xm113,-551v-1,-360,142,-567,481,-567v337,0,475,222,475,567v0,193,-41,336,-123,430v-82,94,-201,141,-358,141v-338,0,-473,-225,-475,-571xm374,-894v-69,115,-77,370,-48,544v26,154,93,264,266,264v242,0,278,-216,278,-465v0,-198,-27,-360,-150,-430v-67,-39,-193,-38,-260,0v-35,20,-63,49,-86,87","w":1182},"\u00f3":{"d":"909,-1548v-84,108,-206,226,-319,307r-78,0r0,-27v66,-87,128,-198,178,-301r219,0r0,21xm113,-551v-1,-360,142,-567,481,-567v337,0,475,222,475,567v0,193,-41,336,-123,430v-82,94,-201,141,-358,141v-338,0,-473,-225,-475,-571xm374,-894v-69,115,-77,370,-48,544v26,154,93,264,266,264v242,0,278,-216,278,-465v0,-198,-27,-360,-150,-430v-67,-39,-193,-38,-260,0v-35,20,-63,49,-86,87","w":1182},"\u00f4":{"d":"585,-1425v-61,63,-143,139,-221,184r-80,0r0,-27r53,-67r57,-79v34,-47,71,-104,95,-155r194,0v54,108,132,209,205,301r0,27r-80,0v-78,-44,-163,-121,-223,-184xm113,-551v-1,-360,142,-567,481,-567v337,0,475,222,475,567v0,193,-41,336,-123,430v-82,94,-201,141,-358,141v-338,0,-473,-225,-475,-571xm374,-894v-69,115,-77,370,-48,544v26,154,93,264,266,264v242,0,278,-216,278,-465v0,-198,-27,-360,-150,-430v-67,-39,-193,-38,-260,0v-35,20,-63,49,-86,87","w":1182},"\u00f5":{"d":"413,-1370v-73,-2,-93,46,-101,108r-92,0v7,-104,47,-183,122,-221v53,-27,139,-25,194,0v56,26,105,59,156,89v22,13,44,20,65,20v73,2,93,-46,100,-109r92,0v-7,103,-47,184,-121,222v-52,27,-139,25,-194,0v-57,-26,-103,-59,-154,-89v-23,-13,-45,-20,-67,-20xm113,-551v-1,-360,142,-567,481,-567v337,0,475,222,475,567v0,193,-41,336,-123,430v-82,94,-201,141,-358,141v-338,0,-473,-225,-475,-571xm374,-894v-69,115,-77,370,-48,544v26,154,93,264,266,264v242,0,278,-216,278,-465v0,-198,-27,-360,-150,-430v-67,-39,-193,-38,-260,0v-35,20,-63,49,-86,87","w":1182},"\u00f6":{"d":"388,-1294v-67,0,-104,-38,-104,-115v0,-74,33,-115,104,-115v71,0,105,41,105,115v0,73,-34,115,-105,115xm777,-1294v-67,0,-104,-38,-104,-115v0,-74,33,-115,104,-115v71,0,105,41,105,115v0,73,-34,115,-105,115xm113,-551v-1,-360,142,-567,481,-567v337,0,475,222,475,567v0,193,-41,336,-123,430v-82,94,-201,141,-358,141v-338,0,-473,-225,-475,-571xm374,-894v-69,115,-77,370,-48,544v26,154,93,264,266,264v242,0,278,-216,278,-465v0,-198,-27,-360,-150,-430v-67,-39,-193,-38,-260,0v-35,20,-63,49,-86,87","w":1182},"\u00f7":{"d":"1012,-672r-879,0r0,-121r879,0r0,121xm573,-1008v-71,0,-104,-40,-104,-112v0,-73,33,-113,104,-113v71,0,106,39,105,113v0,73,-34,112,-105,112xm573,-231v-67,0,-104,-36,-104,-113v0,-73,33,-113,104,-113v71,0,106,39,105,113v0,73,-35,113,-105,113"},"\u00f8":{"d":"594,-1118v103,0,187,24,254,63r78,-125r118,0r-114,189v94,96,140,245,139,440v0,193,-41,336,-123,430v-82,94,-201,141,-358,141v-99,0,-181,-20,-246,-57r-74,119r-121,0r111,-180v-98,-101,-145,-249,-145,-453v0,-360,142,-567,481,-567xm460,-981v-157,81,-163,366,-139,599v5,50,17,94,31,132r424,-686v-45,-49,-107,-74,-186,-74v-51,0,-95,10,-130,29xm412,-152v42,41,99,67,180,66v242,-4,278,-216,278,-465v0,-118,-12,-213,-36,-285","w":1182},"\u00f9":{"d":"533,-1569v49,103,114,214,179,301r0,27r-78,0v-113,-81,-236,-199,-320,-307r0,-21r219,0xm887,-864v2,-112,-62,-152,-174,-148r0,-86r366,0r0,875v-3,109,67,140,174,137r0,86r-325,0r-27,-166r-10,0v-62,118,-158,187,-332,186v-244,-1,-338,-152,-338,-401r0,-491v2,-109,-67,-143,-174,-140r0,-86r367,0r0,707v-1,168,46,282,215,280v191,-3,258,-139,258,-331r0,-422","w":1300},"\u00fa":{"d":"938,-1548v-84,108,-206,226,-319,307r-78,0r0,-27v67,-88,126,-195,178,-301r219,0r0,21xm887,-864v2,-112,-62,-152,-174,-148r0,-86r366,0r0,875v-3,109,67,140,174,137r0,86r-325,0r-27,-166r-10,0v-62,118,-158,187,-332,186v-244,-1,-338,-152,-338,-401r0,-491v2,-109,-67,-143,-174,-140r0,-86r367,0r0,707v-1,168,46,282,215,280v191,-3,258,-139,258,-331r0,-422","w":1300},"\u00fb":{"d":"643,-1425v-61,63,-143,139,-221,184r-80,0r0,-27r53,-67r57,-79v34,-47,71,-104,95,-155r194,0v54,108,132,209,205,301r0,27r-80,0v-78,-44,-163,-121,-223,-184xm887,-864v2,-112,-62,-152,-174,-148r0,-86r366,0r0,875v-3,109,67,140,174,137r0,86r-325,0r-27,-166r-10,0v-62,118,-158,187,-332,186v-244,-1,-338,-152,-338,-401r0,-491v2,-109,-67,-143,-174,-140r0,-86r367,0r0,707v-1,168,46,282,215,280v191,-3,258,-139,258,-331r0,-422","w":1300},"\u00fc":{"d":"452,-1294v-67,0,-104,-38,-104,-115v0,-74,33,-115,104,-115v71,0,105,41,105,115v0,73,-34,115,-105,115xm841,-1294v-67,0,-104,-38,-104,-115v0,-74,33,-115,104,-115v71,0,105,41,105,115v0,73,-34,115,-105,115xm887,-864v2,-112,-62,-152,-174,-148r0,-86r366,0r0,875v-3,109,67,140,174,137r0,86r-325,0r-27,-166r-10,0v-62,118,-158,187,-332,186v-244,-1,-338,-152,-338,-401r0,-491v2,-109,-67,-143,-174,-140r0,-86r367,0r0,707v-1,168,46,282,215,280v191,-3,258,-139,258,-331r0,-422","w":1300},"\u00fd":{"d":"901,-1548v-84,108,-206,226,-319,307r-78,0r0,-27v66,-87,128,-198,178,-301r219,0r0,21xm872,-911v0,-79,-55,-102,-141,-101r0,-86r426,0r0,86v-114,-4,-131,74,-162,160r-311,860v-59,156,-105,296,-212,391v-88,78,-223,95,-394,93r0,-97v285,-2,394,-182,461,-403r-379,-895v-28,-66,-57,-113,-152,-109r0,-86r492,0r0,86v-80,-1,-129,24,-129,99v1,30,6,49,16,75r150,365r59,159v13,42,32,95,39,138r6,0v57,-218,144,-436,213,-647v10,-27,18,-57,18,-88","w":1157},"\u00fe":{"d":"414,-551v0,244,40,440,280,440v157,0,212,-111,238,-251v9,-55,14,-119,14,-191v0,-145,-20,-254,-59,-326v-39,-72,-104,-108,-195,-108v-241,-1,-278,191,-278,436xm414,-913v57,-117,142,-205,313,-205v320,0,418,237,418,567v0,263,-62,458,-239,537v-52,23,-112,34,-179,34v-163,-1,-254,-75,-313,-180r-8,0r8,232r0,196v-2,108,66,141,174,138r0,86r-551,0r0,-86v82,2,147,-11,171,-70v8,-20,13,-46,13,-78r0,-1589v2,-112,-71,-144,-184,-139r0,-86r377,0r-1,456r-7,187r8,0","w":1257},"\u00ff":{"d":"424,-1294v-67,0,-104,-38,-104,-115v0,-74,33,-115,104,-115v71,0,105,41,105,115v0,73,-34,115,-105,115xm813,-1294v-67,0,-104,-38,-104,-115v0,-74,33,-115,104,-115v71,0,105,41,105,115v0,73,-34,115,-105,115xm872,-911v0,-79,-55,-102,-141,-101r0,-86r426,0r0,86v-114,-4,-131,74,-162,160r-311,860v-59,156,-105,296,-212,391v-88,78,-223,95,-394,93r0,-97v285,-2,394,-182,461,-403r-379,-895v-28,-66,-57,-113,-152,-109r0,-86r492,0r0,86v-80,-1,-129,24,-129,99v1,30,6,49,16,75r150,365r59,159v13,42,32,95,39,138r6,0v57,-218,144,-436,213,-647v10,-27,18,-57,18,-88","w":1157},"\u0152":{"d":"477,-1432v130,-58,340,-67,496,-30r825,0r10,358r-106,0v-9,-80,-13,-161,-58,-206v-30,-30,-72,-50,-133,-50r-344,0r0,545r494,0r0,100r-494,0r0,613r396,0v120,0,178,-66,194,-168r15,-88r106,0r-14,358r-893,0v-159,32,-367,25,-495,-34v-241,-111,-361,-354,-361,-701v0,-346,120,-588,362,-697xm961,-1339v-106,-46,-293,-48,-393,8v-175,98,-226,321,-226,598v0,278,50,499,224,599v99,57,285,53,395,13r0,-1218","w":1964},"\u0153":{"d":"374,-894v-69,115,-77,370,-48,544v26,154,93,264,266,264v248,0,278,-228,278,-483v0,-191,-31,-346,-152,-413v-67,-37,-192,-37,-258,1v-35,20,-63,49,-86,87xm1321,-1008v-77,0,-135,30,-176,92v-41,62,-65,152,-72,271r471,0v-1,-151,-26,-279,-118,-337v-28,-17,-64,-26,-105,-26xm1667,-252v20,9,42,39,39,70v-11,104,-104,152,-202,182v-45,13,-97,20,-158,20v-187,-1,-298,-80,-373,-204v-79,136,-208,204,-385,204v-338,0,-473,-225,-475,-571v-1,-360,142,-567,481,-567v183,0,298,76,373,198v71,-122,179,-198,358,-198v294,0,423,189,426,489r0,94r-682,0v7,239,65,426,305,426v140,0,235,-60,293,-143","w":1853},"\u0178":{"d":"463,-1632v-67,0,-104,-38,-104,-115v0,-74,33,-115,104,-115v71,0,105,41,105,115v0,73,-34,115,-105,115xm852,-1632v-67,0,-104,-38,-104,-115v0,-74,33,-115,104,-115v71,0,105,41,105,115v0,73,-34,115,-105,115xm748,-233v-3,110,60,149,167,147r48,0r0,86r-637,0r0,-86v125,5,215,-12,215,-137r0,-387r-379,-658v-37,-62,-68,-116,-172,-108r0,-86r563,0r0,86v-76,1,-166,-13,-166,65v0,40,23,82,37,109r151,274v42,72,75,158,103,234v35,-81,81,-158,123,-234r131,-235v22,-37,36,-76,37,-123v2,-87,-89,-95,-183,-90r0,-86r500,0r0,86v-81,-5,-110,34,-146,82v-14,20,-31,46,-48,77r-344,607r0,377","w":1280},"\u02c6":{"d":"590,-1425v-61,63,-143,139,-221,184r-80,0r0,-27r53,-67r58,-79v33,-48,70,-104,94,-155r194,0v54,109,132,209,205,301r0,27r-80,0v-78,-44,-163,-121,-223,-184","w":1182},"\u02dc":{"d":"418,-1370v-73,-2,-93,46,-101,108r-92,0v7,-104,48,-183,123,-221v53,-27,139,-26,194,0v56,26,103,58,154,89v23,13,45,20,66,20v73,2,93,-46,100,-109r92,0v-7,103,-47,184,-121,222v-52,27,-139,25,-193,0v-58,-27,-104,-58,-156,-89v-23,-13,-45,-20,-66,-20","w":1182},"\u2013":{"d":"1034,-489r-1044,0r0,-121r1044,0r0,121","w":1024},"\u2014":{"d":"2058,-489r-2068,0r0,-121r2068,0r0,121","w":2048},"\u2018":{"d":"272,-885v-102,-3,-157,-71,-157,-178v0,-164,74,-265,181,-333v43,-28,94,-50,155,-68r0,86v-67,21,-117,47,-148,78v-31,31,-47,66,-47,106v0,64,75,68,111,102v21,20,39,44,39,86v0,78,-59,123,-134,121","w":512},"\u2019":{"d":"106,-1341v0,-99,104,-145,194,-109v60,24,97,81,97,166v0,164,-75,264,-181,332v-42,28,-94,51,-155,69r0,-86v67,-21,117,-47,148,-78v31,-31,47,-66,47,-106v0,-64,-75,-68,-111,-102v-21,-20,-39,-44,-39,-86","w":512},"\u201a":{"d":"106,-143v0,-99,104,-145,194,-109v60,24,97,81,97,166v0,164,-75,264,-181,332v-42,28,-94,51,-155,69r0,-86v67,-21,117,-47,148,-78v31,-31,47,-66,47,-106v0,-64,-75,-68,-111,-102v-21,-20,-39,-44,-39,-86","w":512},"\u201c":{"d":"682,-885v-102,-3,-158,-72,-158,-178v0,-164,74,-265,181,-333v43,-28,94,-50,155,-68r0,86v-67,21,-116,47,-147,78v-31,31,-47,66,-47,106v0,64,74,68,110,102v21,20,39,45,39,86v0,78,-58,123,-133,121xm272,-885v-102,-3,-157,-71,-157,-178v0,-164,74,-265,181,-333v43,-28,94,-50,155,-68r0,86v-67,21,-117,47,-148,78v-31,31,-47,66,-47,106v0,64,75,68,111,102v21,20,39,44,39,86v0,78,-59,123,-134,121","w":922},"\u201d":{"d":"106,-1341v0,-99,104,-145,194,-109v60,24,97,81,97,166v0,164,-75,264,-181,332v-42,28,-94,51,-155,69r0,-86v67,-21,117,-47,148,-78v31,-31,47,-66,47,-106v0,-64,-75,-68,-111,-102v-21,-20,-39,-44,-39,-86xm516,-1341v0,-99,103,-145,194,-109v60,24,97,81,97,166v0,164,-75,264,-181,332v-42,28,-94,51,-155,69r0,-86v67,-21,115,-47,147,-78v32,-31,48,-66,48,-106v0,-64,-75,-68,-111,-102v-21,-20,-39,-44,-39,-86","w":922},"\u201e":{"d":"106,-143v0,-99,104,-145,194,-109v60,24,97,81,97,166v0,164,-75,264,-181,332v-42,28,-94,51,-155,69r0,-86v67,-21,117,-47,148,-78v31,-31,47,-66,47,-106v0,-64,-75,-68,-111,-102v-21,-20,-39,-44,-39,-86xm516,-143v0,-99,103,-145,194,-109v60,24,97,81,97,166v0,164,-75,264,-181,332v-42,28,-94,51,-155,69r0,-86v67,-21,115,-47,147,-78v32,-31,48,-66,48,-106v0,-64,-75,-68,-111,-102v-21,-20,-39,-44,-39,-86","w":922},"\u2022":{"d":"371,-432v-186,0,-271,-105,-271,-297v0,-192,85,-297,271,-297v184,0,271,106,270,297v0,191,-86,297,-270,297","w":741},"\u2026":{"d":"293,14v-87,0,-129,-49,-129,-139v0,-91,42,-139,129,-139v86,0,129,49,129,139v0,89,-42,139,-129,139xm879,14v-87,0,-129,-49,-129,-139v0,-91,42,-139,129,-139v86,0,129,49,129,139v0,89,-42,139,-129,139xm1464,14v-87,0,-129,-49,-129,-139v0,-91,42,-139,129,-139v86,0,129,49,129,139v0,89,-42,139,-129,139","w":1757},"\u2039":{"d":"133,-586r313,-356r103,0r-207,389r207,389r-103,0r-313,-356r0,-66","w":682},"\u203a":{"d":"551,-520r-313,356r-103,0r207,-389r-207,-389r103,0r313,356r0,66","w":682},"\u20ac":{"d":"907,-1143v-2,-135,-50,-235,-186,-235v-158,0,-215,117,-257,256v-18,64,-31,143,-38,239r430,0r0,97r-434,0r0,97v0,18,1,33,2,46r350,0r0,96r-342,0v24,191,83,346,218,418v38,20,80,29,126,29v129,1,206,-51,260,-123v20,13,41,32,37,69v-9,90,-87,132,-171,157v-97,28,-228,22,-322,-13v-209,-78,-315,-271,-347,-537r-149,0r0,-96r141,0r-4,-98r0,-45r-137,0r0,-97r145,0v16,-208,71,-362,173,-469v80,-83,191,-127,337,-127v145,0,261,40,321,124v39,55,32,152,-20,183v-31,18,-75,29,-133,29"},"\u2122":{"d":"1524,-872v-3,59,42,65,100,63r0,55r-303,0r0,-55v48,-1,80,-8,80,-55r0,-457r-232,567r-71,0r-232,-569r0,451v0,56,28,61,82,63r0,55r-248,0r0,-55v54,0,100,-2,101,-57r0,-482v0,-54,-45,-59,-101,-57r0,-57r236,0r225,567r232,-567r231,0r0,57v-58,-2,-100,3,-100,62r0,471xm184,-809v58,2,111,2,111,-57r0,-531v-55,2,-122,-9,-151,22v-21,23,-22,63,-29,99r-60,0r6,-186r598,0r7,186r-60,0v-9,-62,-14,-121,-90,-121r-94,0r0,525v-2,61,49,66,110,63r0,55r-348,0r0,-55","w":1710}}});
