/*!
 * The following copyright notice may not be removed under any circumstances.
 * 
 * Copyright:
 * Copyright (c) 2003 by Bitstream, Inc. All Rights Reserved.
 * Copyright (c) 2006 by Tavmjong Bah. All Rights Reserved.
 * DejaVu changes are in public domain
 * 
 * 
 * Manufacturer:
 * DejaVu fonts team
 * 
 * Vendor URL:
 * http://dejavu.sourceforge.net
 * 
 * License information:
 * http://dejavu.sourceforge.net/wiki/index.php/License
 */
Cufon.registerFont({"w":1303,"face":{"font-family":"DejaVu Sans","font-weight":400,"font-stretch":"normal","units-per-em":"2048","panose-1":"2 11 6 3 3 8 4 2 2 4","ascent":"1556","descent":"-492","x-height":"29","bbox":"-106 -1901 2060 483","underline-thickness":"90","underline-position":"-85","unicode-range":"U+0020-U+2122"},"glyphs":{" ":{"w":651},"!":{"d":"309,-254r203,0r0,254r-203,0r0,-254xm309,-1493r203,0r0,655r-20,357r-162,0r-21,-357r0,-655","w":821},"\"":{"d":"367,-1493r0,555r-170,0r0,-555r170,0xm745,-1493r0,555r-170,0r0,-555r170,0","w":942},"#":{"d":"1047,-901r-291,0r-84,334r293,0xm897,-1470r-104,415r292,0r105,-415r160,0r-103,415r312,0r0,154r-351,0r-82,334r318,0r0,153r-357,0r-104,414r-160,0r103,-414r-293,0r-103,414r-161,0r104,-414r-315,0r0,-153r352,0r84,-334r-322,0r0,-154r361,0r102,-415r162,0","w":1716},"$":{"d":"692,-1324v130,6,244,28,350,62r0,175v-101,-51,-214,-85,-350,-92r0,427v151,23,263,65,334,125v71,60,107,142,107,246v0,113,-37,202,-113,267v-76,65,-185,102,-328,112r0,303r-100,0r-1,-301v-161,-4,-295,-38,-421,-92r0,-180v120,75,248,126,422,130r0,-456v-147,-24,-255,-65,-322,-122v-67,-57,-100,-136,-100,-236v0,-109,36,-194,109,-257v73,-63,177,-99,313,-108r0,-235r100,0r0,232xm592,-1180v-136,15,-238,73,-238,207v0,57,18,102,56,134v38,32,99,55,182,69r0,-410xm692,-578r0,433v85,-11,148,-37,192,-72v83,-66,85,-219,2,-285v-42,-34,-105,-60,-194,-76"},"%":{"d":"1624,-582v-64,-97,-208,-96,-272,-1v-61,92,-62,319,0,411v64,96,208,97,272,0v61,-93,61,-318,0,-410xm1143,-377v0,-234,124,-407,346,-407v220,-1,344,175,344,407v0,233,-124,406,-344,406v-222,1,-346,-173,-346,-406xm593,-1318v-65,-97,-207,-97,-271,0v-62,92,-62,318,-1,410v63,96,209,96,273,0v61,-92,61,-317,-1,-410xm1360,-1520r160,0r-934,1549r-160,0xm113,-1114v0,-232,124,-406,344,-406v220,-1,346,173,346,406v0,235,-123,407,-346,407v-222,0,-344,-173,-344,-407","w":1946},"&":{"d":"322,-473v0,196,170,344,372,340v146,-3,248,-52,334,-127r-530,-543v-61,54,-106,107,-134,161v-28,54,-42,110,-42,169xm725,-1362v-130,-3,-237,76,-236,199v0,34,9,69,29,103v20,34,60,82,121,145r508,520v73,-110,122,-241,131,-406r186,0v-22,208,-101,370,-209,516r279,285r-252,0r-143,-147v-123,105,-259,172,-463,176v-304,6,-550,-197,-547,-490v0,-85,22,-166,67,-241v45,-75,112,-145,201,-211v-53,-70,-96,-145,-98,-248v-3,-222,175,-363,406,-359v129,2,233,30,333,72r0,182v-96,-51,-192,-93,-313,-96","w":1597},"'":{"d":"367,-1493r0,555r-170,0r0,-555r170,0","w":563},"(":{"d":"371,-643v0,368,111,649,264,913r-160,0v-100,-157,-175,-311,-225,-462v-99,-302,-99,-597,0,-900v49,-151,124,-305,225,-462r160,0v-89,153,-156,305,-199,455v-43,150,-65,302,-65,456","w":799},")":{"d":"428,-643v0,-369,-112,-646,-264,-911r160,0v100,157,174,311,224,462v100,302,99,597,0,900v-50,151,-124,305,-224,462r-160,0v89,-153,154,-305,198,-456v44,-151,66,-303,66,-457","w":799},"*":{"d":"963,-1247r-359,194r359,195r-58,98r-336,-203r0,377r-114,0r0,-377r-336,203r-58,-98r359,-195r-359,-194r58,-99r336,203r0,-377r114,0r0,377r336,-203","w":1024},"+":{"d":"942,-1284r0,557r557,0r0,170r-557,0r0,557r-168,0r0,-557r-557,0r0,-170r557,0r0,-557r168,0","w":1716},",":{"d":"240,-254r211,0r0,172r-164,320r-129,0r82,-320r0,-172","w":651},"-":{"d":"100,-643r539,0r0,164r-539,0r0,-164","w":739},".":{"d":"219,-254r211,0r0,254r-211,0r0,-254","w":651},"\/":{"d":"520,-1493r170,0r-520,1683r-170,0","w":690},"0":{"d":"651,-1360v-104,0,-183,52,-235,154v-52,102,-78,256,-78,461v0,205,26,359,78,461v52,102,131,153,235,153v105,0,183,-51,235,-153v52,-102,79,-256,79,-461v0,-205,-27,-359,-79,-461v-52,-102,-130,-154,-235,-154xm651,-1520v167,0,295,66,383,198v88,132,133,325,133,577v0,251,-45,443,-133,575v-88,132,-216,199,-383,199v-167,0,-295,-67,-383,-199v-88,-132,-133,-324,-133,-575v0,-252,45,-445,133,-577v88,-132,216,-198,383,-198"},"1":{"d":"254,-170r330,0r0,-1139r-359,72r0,-184r357,-72r202,0r0,1323r330,0r0,170r-860,0r0,-170"},"2":{"d":"582,-1520v288,-6,508,154,508,426v0,61,-11,119,-34,174v-23,55,-65,121,-126,195v-16,20,-70,75,-159,167r-378,388r705,0r0,170r-948,0r0,-170r314,-320v132,-133,215,-219,249,-258v65,-73,109,-134,135,-184v26,-50,39,-100,39,-149v2,-162,-132,-273,-301,-269v-168,4,-295,61,-426,133r0,-204v134,-53,265,-96,422,-99"},"3":{"d":"1104,-1133v0,182,-115,290,-273,328v179,36,307,167,308,371v0,147,-51,261,-152,342v-101,81,-245,121,-432,121v-148,0,-276,-31,-399,-74r0,-195v104,61,237,98,393,99v127,0,223,-25,289,-75v66,-50,100,-123,100,-218v-1,-188,-148,-284,-350,-281r-174,0r0,-166r182,0v180,1,307,-66,307,-231v0,-168,-132,-239,-315,-238v-143,2,-261,32,-387,74r0,-180v131,-36,258,-64,405,-64v153,0,275,34,364,104v89,70,134,164,134,283"},"4":{"d":"774,-1317r-510,797r510,0r0,-797xm721,-1493r254,0r0,973r213,0r0,168r-213,0r0,352r-201,0r0,-352r-674,0r0,-195"},"5":{"d":"547,-817v-127,1,-228,30,-326,74r0,-750r793,0r0,170r-608,0r0,366v53,-18,110,-30,176,-30v322,-4,542,192,542,508v0,333,-227,512,-573,508v-145,-1,-270,-26,-393,-64r0,-203v110,60,230,95,389,97v220,2,375,-125,375,-338v0,-213,-155,-341,-375,-338"},"6":{"d":"971,-479v0,-202,-104,-348,-295,-348v-190,0,-295,147,-295,348v0,201,105,348,295,348v190,0,295,-148,295,-348xm762,-1520v120,1,217,25,315,60r0,184v-89,-42,-189,-74,-307,-74v-133,0,-236,45,-306,135v-70,90,-110,226,-120,408v70,-104,184,-178,344,-180v301,-3,486,203,486,508v0,301,-199,508,-498,508v-173,0,-305,-67,-396,-199v-91,-132,-137,-324,-137,-575v0,-236,56,-425,168,-565v112,-140,262,-210,451,-210"},"7":{"d":"168,-1493r960,0r0,86r-542,1407r-211,0r510,-1323r-717,0r0,-170"},"8":{"d":"961,-420v0,-183,-123,-289,-310,-289v-186,0,-309,107,-309,289v0,182,123,289,309,289v186,0,310,-108,310,-289xm139,-420v0,-205,132,-336,310,-375v-159,-37,-275,-154,-275,-338v0,-254,205,-387,477,-387v149,0,265,35,350,104v85,69,127,164,127,283v-1,184,-116,301,-274,338v179,39,309,169,309,375v0,301,-199,449,-512,449v-314,0,-512,-148,-512,-449xm651,-1360v-166,0,-276,86,-276,246v0,160,110,246,276,246v165,0,277,-86,277,-246v1,-159,-112,-246,-277,-246"},"9":{"d":"541,29v-119,-1,-218,-25,-316,-60r0,-184v89,42,190,74,307,74v133,0,236,-45,306,-135v70,-90,110,-225,120,-408v-69,104,-184,176,-344,178v-300,2,-485,-201,-485,-506v0,-301,199,-508,498,-508v173,0,304,66,395,198v91,132,137,325,137,577v0,235,-55,423,-167,563v-112,140,-262,211,-451,211xm332,-1012v0,202,104,348,295,348v190,0,295,-147,295,-348v0,-201,-105,-348,-295,-348v-190,0,-295,148,-295,348"},":":{"d":"240,-254r211,0r0,254r-211,0r0,-254xm240,-1059r211,0r0,254r-211,0r0,-254","w":690},";":{"d":"240,-1059r211,0r0,254r-211,0r0,-254xm240,-254r211,0r0,172r-164,320r-129,0r82,-320r0,-172","w":690},"<":{"d":"1499,-1008r-1032,367r1032,365r0,182r-1282,-465r0,-166r1282,-465r0,182","w":1716},"=":{"d":"217,-930r1282,0r0,168r-1282,0r0,-168xm217,-522r1282,0r0,170r-1282,0r0,-170","w":1716},">":{"d":"217,-1008r0,-182r1282,465r0,166r-1282,465r0,-182r1030,-365","w":1716},"?":{"d":"391,-254r203,0r0,254r-203,0r0,-254xm537,-1520v230,-4,408,133,407,353v0,51,-13,99,-36,145v-49,99,-206,224,-280,314v-53,65,-36,191,-40,307r-191,0v1,-113,-5,-244,28,-320v30,-70,142,-175,208,-240v59,-59,105,-104,108,-196v3,-125,-106,-203,-239,-199v-142,4,-251,66,-355,137r0,-188v111,-67,229,-110,390,-113","w":1087},"@":{"d":"1026,-842v-168,0,-264,129,-264,305v0,180,94,306,266,306v171,1,264,-128,264,-306v0,-176,-97,-305,-266,-305xm1610,156v-146,114,-338,200,-572,200v-277,0,-489,-107,-641,-256v-154,-150,-262,-362,-262,-643v0,-424,246,-703,560,-831v237,-97,528,-89,751,19v189,92,347,251,420,460v26,77,39,156,39,238v2,358,-239,570,-598,573r0,-154v-74,94,-164,148,-318,150v-237,2,-387,-200,-387,-449v0,-249,150,-452,387,-450v152,1,246,59,318,151r0,-131r143,0r0,736v196,-28,313,-192,311,-422v-1,-160,-51,-278,-127,-375v-125,-158,-318,-270,-579,-270v-181,0,-328,53,-445,129v-187,121,-334,341,-334,626v0,237,95,416,224,543v127,125,305,213,538,213v196,0,361,-73,482,-168","w":2048},"A":{"d":"700,-1294r-274,743r549,0xm586,-1493r229,0r569,1493r-210,0r-136,-383r-673,0r-136,383r-213,0","w":1401},"B":{"d":"1047,-440v0,-197,-113,-273,-320,-273r-324,0r0,547r324,0v206,0,320,-78,320,-274xm995,-1102v0,-166,-113,-225,-293,-225r-299,0r0,450r299,0v181,0,293,-58,293,-225xm946,-805v186,38,313,173,314,387v0,133,-45,236,-136,309v-91,73,-220,109,-387,109r-536,0r0,-1493r516,0v154,0,273,32,356,96v83,64,125,155,125,273v0,185,-90,294,-252,319","w":1405},"C":{"d":"844,-1520v198,1,349,56,475,142r0,213v-119,-111,-258,-189,-463,-189v-357,0,-528,235,-528,609v0,373,171,608,528,608v204,0,345,-79,463,-189r0,211v-128,87,-277,142,-475,144v-456,4,-729,-310,-729,-774v0,-466,272,-778,729,-775","w":1430},"D":{"d":"1243,-748v0,-406,-186,-577,-596,-579r-244,0r0,1161r244,0v411,-2,596,-174,596,-582xm1456,-748v0,537,-284,747,-840,748r-415,0r0,-1493r415,0v557,1,840,208,840,745","w":1577},"E":{"d":"201,-1493r944,0r0,170r-742,0r0,442r711,0r0,170r-711,0r0,541r760,0r0,170r-962,0r0,-1493","w":1294},"F":{"d":"201,-1493r858,0r0,170r-656,0r0,440r592,0r0,170r-592,0r0,713r-202,0r0,-1493","w":1178},"G":{"d":"877,-137v143,0,252,-24,342,-76r0,-401r-330,0r0,-166r530,0r0,641v-144,103,-327,167,-559,168v-469,3,-745,-298,-745,-774v0,-477,275,-778,745,-775v211,1,384,55,520,142r0,215v-131,-111,-286,-191,-503,-191v-378,0,-549,219,-549,609v0,389,171,607,549,608","w":1587},"H":{"d":"201,-1493r202,0r0,612r734,0r0,-612r202,0r0,1493r-202,0r0,-711r-734,0r0,711r-202,0r0,-1493","w":1540},"I":{"d":"201,-1493r202,0r0,1493r-202,0r0,-1493","w":604},"J":{"d":"403,-104v-2,341,-108,509,-432,514r-77,0r0,-170r63,0v89,0,152,-25,189,-75v37,-50,55,-140,55,-269r0,-1389r202,0r0,1389","w":604},"K":{"d":"201,-1493r202,0r0,631r670,-631r260,0r-741,696r794,797r-266,0r-717,-719r0,719r-202,0r0,-1493","w":1343},"L":{"d":"201,-1493r202,0r0,1323r727,0r0,170r-929,0r0,-1493","w":1141},"M":{"d":"201,-1493r301,0r381,1016r383,-1016r301,0r0,1493r-197,0r0,-1311r-385,1024r-203,0r-385,-1024r0,1311r-196,0r0,-1493","w":1767},"N":{"d":"201,-1493r272,0r662,1249r0,-1249r196,0r0,1493r-272,0r-662,-1249r0,1249r-196,0r0,-1493","w":1532},"O":{"d":"807,-1356v-147,0,-263,55,-349,164v-86,109,-130,258,-130,447v0,188,44,337,130,446v86,109,202,164,349,164v147,0,263,-55,349,-164v86,-109,128,-258,128,-446v0,-189,-42,-338,-128,-447v-86,-109,-202,-164,-349,-164xm807,-1520v209,0,377,70,502,210v125,140,188,329,188,565v0,235,-63,423,-188,563v-125,140,-293,211,-502,211v-210,0,-377,-70,-503,-210v-126,-140,-189,-328,-189,-564v0,-236,63,-425,189,-565v126,-140,293,-210,503,-210","w":1612},"P":{"d":"952,-1047v0,-181,-111,-280,-295,-280r-254,0r0,561r254,0v184,1,295,-99,295,-281xm1165,-1047v0,307,-188,448,-508,447r-254,0r0,600r-202,0r0,-1493r456,0v319,-2,508,140,508,446","w":1235},"Q":{"d":"807,-1356v-147,0,-263,55,-349,164v-86,109,-130,258,-130,447v0,188,44,337,130,446v86,109,202,164,349,164v147,0,263,-55,349,-164v86,-109,128,-258,128,-446v0,-189,-42,-338,-128,-447v-86,-109,-202,-164,-349,-164xm1497,-745v0,357,-153,608,-407,718r266,291r-244,0r-221,-239v-258,21,-444,-49,-587,-207v-126,-140,-189,-328,-189,-563v0,-236,63,-425,189,-565v126,-140,293,-210,503,-210v209,0,377,70,502,210v125,140,188,329,188,565","w":1612},"R":{"d":"1165,-1063v0,196,-97,319,-256,363v43,15,86,46,127,94v41,48,81,114,123,198r205,408r-217,0r-191,-383v-49,-100,-98,-166,-144,-199v-46,-33,-109,-49,-189,-49r-220,0r0,631r-202,0r0,-1493r456,0v323,-1,508,124,508,430xm952,-1063v0,-181,-108,-265,-295,-264r-254,0r0,530r254,0v187,1,295,-85,295,-266","w":1423},"S":{"d":"659,-1520v162,2,303,31,437,76r0,197v-129,-61,-252,-109,-414,-109v-110,0,-194,21,-254,64v-60,43,-90,103,-90,182v0,66,20,116,60,150v40,34,115,58,225,81r122,25v151,29,261,80,333,152v72,72,108,169,108,290v0,145,-49,254,-146,329v-97,75,-239,112,-426,112v-173,0,-329,-42,-473,-95r0,-208v140,78,284,139,473,139v115,0,204,-23,267,-68v63,-45,94,-110,94,-194v0,-73,-22,-131,-67,-172v-45,-41,-119,-72,-222,-93r-123,-24v-151,-30,-260,-77,-327,-141v-67,-64,-101,-153,-101,-267v1,-281,223,-430,524,-426","w":1300},"T":{"d":"-6,-1493r1263,0r0,170r-530,0r0,1323r-203,0r0,-1323r-530,0r0,-170","w":1251},"U":{"d":"750,29v-381,0,-573,-205,-572,-590r0,-932r203,0r0,907v2,301,87,451,369,451v281,0,368,-151,368,-451r0,-907r203,0r0,932v1,384,-191,590,-571,590","w":1499},"V":{"d":"586,0r-570,-1493r211,0r473,1257r474,-1257r210,0r-569,1493r-229,0","w":1401},"W":{"d":"68,-1493r204,0r314,1262r313,-1262r227,0r314,1262r313,-1262r205,0r-375,1493r-254,0r-315,-1296r-318,1296r-254,0","w":2025},"X":{"d":"129,-1493r217,0r371,555r373,-555r217,0r-480,717r512,776r-217,0r-420,-635r-423,635r-218,0r533,-797","w":1403},"Y":{"d":"-4,-1493r217,0r414,614r411,-614r217,0r-528,782r0,711r-203,0r0,-711","w":1251},"Z":{"d":"115,-1493r1173,0r0,154r-944,1169r967,0r0,170r-1219,0r0,-154r944,-1169r-921,0r0,-170","w":1403},"[":{"d":"176,-1556r424,0r0,143r-240,0r0,1540r240,0r0,143r-424,0r0,-1826","w":799},"\\":{"d":"170,-1493r520,1683r-170,0r-520,-1683r170,0","w":690},"]":{"d":"623,-1556r0,1826r-424,0r0,-143r239,0r0,-1540r-239,0r0,-143r424,0","w":799},"^":{"d":"956,-1493r543,557r-201,0r-440,-395r-440,395r-201,0r543,-557r196,0","w":1716},"_":{"d":"1044,340r0,143r-1064,0r0,-143r1064,0","w":1024},"`":{"d":"367,-1638r282,374r-153,0r-326,-374r197,0","w":1024},"a":{"d":"547,-125v213,0,342,-173,338,-397r0,-41r-183,0v-149,0,-252,17,-309,51v-57,34,-86,92,-86,174v-1,135,100,213,240,213xm586,-1147v330,0,483,173,483,508r0,639r-184,0r0,-170v-79,128,-191,197,-387,199v-222,3,-375,-137,-375,-355v0,-126,43,-221,127,-285v84,-64,210,-96,377,-96r258,0v7,-194,-124,-285,-318,-284v-144,1,-262,37,-362,92r0,-170v117,-45,237,-78,381,-78","w":1255},"b":{"d":"997,-559v0,-135,-27,-242,-83,-319v-56,-77,-133,-115,-230,-115v-97,0,-174,38,-230,115v-56,77,-83,184,-83,319v0,135,27,242,83,319v56,77,133,115,230,115v97,0,174,-38,230,-115v56,-77,83,-184,83,-319xm729,29v-180,0,-287,-74,-358,-197r0,168r-185,0r0,-1556r185,0r0,606v71,-123,177,-197,358,-197v136,0,246,54,331,162v85,108,128,250,128,426v0,176,-43,318,-128,426v-85,108,-195,162,-331,162","w":1300},"c":{"d":"676,-1147v126,1,231,27,323,70r0,172v-91,-50,-189,-85,-315,-86v-248,-1,-377,173,-377,432v0,259,129,432,377,432v126,0,224,-36,315,-86r0,170v-96,45,-201,72,-335,72v-341,3,-551,-240,-551,-588v0,-356,212,-591,563,-588","w":1126},"d":{"d":"571,-1147v181,0,288,74,359,197r0,-606r184,0r0,1556r-184,0r0,-168v-72,123,-177,197,-359,197v-135,0,-246,-54,-331,-162v-85,-108,-127,-250,-127,-426v0,-176,42,-318,127,-426v85,-108,196,-162,331,-162xm303,-559v0,135,27,242,83,319v56,77,133,115,230,115v97,0,174,-38,230,-115v56,-77,84,-184,84,-319v0,-135,-28,-242,-84,-319v-56,-77,-133,-115,-230,-115v-97,0,-174,38,-230,115v-56,77,-83,184,-83,319","w":1300},"e":{"d":"662,-1147v308,0,494,223,489,541r0,90r-846,0v14,244,148,389,400,389v162,0,286,-42,403,-104r0,174v-120,51,-255,84,-414,86v-353,3,-581,-227,-581,-578v0,-352,207,-598,549,-598xm967,-660v1,-191,-117,-331,-303,-331v-212,0,-337,131,-353,332","w":1260},"f":{"d":"223,-1198v1,-252,111,-357,363,-358r174,0r0,153r-176,0v-136,2,-174,46,-176,184r0,99r303,0r0,143r-303,0r0,977r-185,0r0,-977r-176,0r0,-143r176,0r0,-78","w":721},"g":{"d":"930,-573v0,-133,-27,-237,-82,-310v-55,-73,-133,-110,-232,-110v-99,0,-175,37,-230,110v-55,73,-83,177,-83,310v0,133,28,236,83,309v55,73,131,110,230,110v99,0,177,-37,232,-110v55,-73,82,-176,82,-309xm571,-1147v180,0,289,75,359,197r0,-170r184,0r0,981v0,371,-155,563,-516,565v-137,0,-247,-21,-350,-59r0,-179v95,51,191,86,321,86v246,0,361,-130,361,-380r0,-91v-70,122,-178,197,-359,197v-137,0,-248,-52,-332,-157v-84,-105,-126,-243,-126,-416v0,-173,42,-312,126,-417v84,-105,195,-157,332,-157","w":1300},"h":{"d":"733,-1147v274,0,391,181,391,471r0,676r-184,0r0,-670v0,-195,-67,-315,-248,-317v-203,-2,-321,145,-321,354r0,633r-185,0r0,-1556r185,0r0,610v79,-120,183,-201,362,-201","w":1298},"i":{"d":"193,-1120r184,0r0,1120r-184,0r0,-1120xm193,-1556r184,0r0,233r-184,0r0,-233","w":569},"j":{"d":"12,270v164,-6,181,-66,181,-250r0,-1140r184,0r0,1140v-1,271,-86,402,-344,406r-70,0r0,-156r49,0xm193,-1556r184,0r0,233r-184,0r0,-233","w":569},"k":{"d":"186,-1556r185,0r0,919r549,-483r235,0r-594,524r619,596r-240,0r-569,-547r0,547r-185,0r0,-1556","w":1186},"l":{"d":"193,-1556r184,0r0,1556r-184,0r0,-1556","w":569},"m":{"d":"731,-1147v178,0,285,99,334,242v82,-146,189,-242,391,-242v117,0,207,41,270,123v63,82,95,197,95,348r0,676r-185,0r0,-670v0,-107,-19,-187,-57,-239v-38,-52,-96,-78,-174,-78v-198,-1,-309,148,-309,354r0,633r-185,0r0,-670v0,-108,-19,-188,-57,-240v-38,-52,-97,-77,-176,-77v-195,-1,-307,150,-307,354r0,633r-185,0r0,-1120r185,0r0,174v77,-124,177,-201,360,-201","w":1995},"n":{"d":"733,-1147v274,0,391,181,391,471r0,676r-184,0r0,-670v0,-195,-67,-315,-248,-317v-203,-2,-321,145,-321,354r0,633r-185,0r0,-1120r185,0r0,174v79,-120,183,-201,362,-201","w":1298},"o":{"d":"627,-991v-99,0,-174,40,-234,115v-112,141,-113,493,-1,634v59,75,136,115,235,115v98,0,176,-39,233,-116v57,-77,86,-183,86,-316v0,-133,-29,-237,-86,-315v-57,-78,-135,-117,-233,-117xm113,-559v0,-349,180,-588,514,-588v332,0,514,240,514,588v0,347,-182,588,-514,588v-333,0,-514,-241,-514,-588","w":1253},"p":{"d":"729,29v-180,0,-287,-74,-358,-197r0,594r-185,0r0,-1546r185,0r0,170v71,-123,177,-197,358,-197v136,0,246,54,331,162v85,108,128,250,128,426v0,176,-43,318,-128,426v-85,108,-195,162,-331,162xm997,-559v0,-135,-27,-242,-83,-319v-56,-77,-133,-115,-230,-115v-97,0,-174,38,-230,115v-56,77,-83,184,-83,319v0,135,27,242,83,319v56,77,133,115,230,115v97,0,174,-38,230,-115v56,-77,83,-184,83,-319","w":1300},"q":{"d":"303,-559v0,135,27,242,83,319v56,77,133,115,230,115v97,0,174,-38,230,-115v56,-77,84,-184,84,-319v0,-135,-28,-242,-84,-319v-56,-77,-133,-115,-230,-115v-97,0,-174,38,-230,115v-56,77,-83,184,-83,319xm571,-1147v181,0,288,74,359,197r0,-170r184,0r0,1546r-184,0r0,-594v-72,123,-177,197,-359,197v-135,0,-246,-54,-331,-162v-85,-108,-127,-250,-127,-426v0,-176,42,-318,127,-426v85,-108,196,-162,331,-162","w":1300},"r":{"d":"371,-946v76,-137,210,-212,419,-198v15,2,32,4,51,7r1,189v-40,-23,-87,-35,-148,-35v-221,1,-323,158,-323,393r0,590r-185,0r0,-1120r185,0r0,174","w":842},"s":{"d":"231,-1061v143,-117,495,-101,676,-26r0,174v-95,-49,-202,-79,-336,-80v-91,0,-159,14,-205,42v-46,28,-69,70,-69,126v0,43,18,75,49,101v34,28,167,64,260,83v131,27,223,68,278,119v55,51,83,122,83,213v0,104,-41,186,-123,247v-82,61,-196,91,-340,91v-145,0,-269,-30,-393,-70r0,-190v118,61,240,106,397,106v87,0,153,-15,200,-45v47,-30,70,-71,70,-125v0,-50,-16,-88,-50,-115v-34,-27,-108,-52,-222,-77r-64,-15v-114,-24,-196,-60,-247,-110v-51,-50,-76,-118,-76,-205v0,-105,39,-184,112,-244","w":1067},"t":{"d":"565,0v-287,-4,-375,-83,-375,-369r0,-608r-135,0r0,-143r135,0r0,-318r185,0r0,318r379,0r0,143r-379,0r0,608v4,177,22,215,190,215r189,0r0,154r-189,0","w":803},"u":{"d":"567,29v-273,0,-393,-182,-393,-471r0,-678r184,0r0,671v0,195,67,316,248,318v203,2,322,-145,322,-354r0,-635r184,0r0,1120r-184,0r0,-172v-80,121,-181,201,-361,201","w":1298},"v":{"d":"61,-1120r195,0r350,940r350,-940r195,0r-420,1120r-250,0","w":1212},"w":{"d":"86,-1120r184,0r230,874r229,-874r217,0r230,874r229,-874r184,0r-293,1120r-217,0r-241,-918r-242,918r-217,0","w":1675},"x":{"d":"1124,-1120r-405,545r426,575r-217,0r-326,-440r-326,440r-217,0r435,-586r-398,-534r217,0r297,399r297,-399r217,0","w":1212},"y":{"d":"659,104v-52,133,-103,220,-152,261v-49,41,-115,61,-198,61r-147,0r0,-154v87,0,181,7,226,-36v27,-25,59,-81,93,-170r33,-84r-453,-1102r195,0r350,876r350,-876r195,0","w":1212},"z":{"d":"113,-1120r874,0r0,168r-692,805r692,0r0,147r-899,0r0,-168r692,-805r-667,0r0,-147","w":1075},"{":{"d":"752,-39v5,193,34,224,227,229r68,0r0,144r-62,0v-166,0,-277,-25,-333,-74v-56,-49,-85,-148,-85,-295r0,-239v-3,-200,-53,-264,-250,-267r-61,0r0,-143r61,0v197,-3,250,-65,250,-264r0,-240v0,-147,29,-245,85,-294v56,-49,167,-74,333,-74r62,0r0,143r-68,0v-193,5,-227,36,-227,229r0,248v-2,202,-44,285,-201,324v157,41,201,122,201,325r0,248"},"|":{"d":"430,-1565r0,2048r-170,0r0,-2048r170,0","w":690},"}":{"d":"985,-541v-197,3,-250,67,-250,267r0,239v0,147,-27,246,-83,295v-56,49,-167,74,-333,74r-63,0r0,-144r70,0v193,-5,225,-35,225,-229r0,-248v2,-203,44,-283,201,-325v-158,-39,-201,-122,-201,-324r0,-248v-5,-193,-32,-224,-225,-229r-70,0r0,-143r63,0v166,0,277,25,333,74v56,49,83,147,83,294r0,240v3,198,54,261,250,264r62,0r0,143r-62,0"},"~":{"d":"217,-645v119,-87,210,-142,381,-148v80,-4,200,37,294,74v175,68,265,89,420,24v57,-24,118,-66,187,-122r0,178v-119,87,-210,141,-381,147v-80,4,-200,-36,-294,-73v-176,-69,-267,-88,-423,-23v-58,24,-119,66,-184,121r0,-178","w":1716},"\u00a0":{"w":651},"\u00a1":{"d":"512,-1239r-203,0r0,-254r203,0r0,254xm512,0r-203,0r0,-655r21,-357r162,0r20,357r0,655","w":821},"\u00a2":{"d":"678,-987v-202,24,-311,194,-311,428v0,235,108,405,311,428r0,-856xm172,-559v0,-344,189,-559,506,-586r0,-287r102,0r1,287v108,6,195,30,278,68r0,172v-86,-47,-167,-79,-278,-86r-1,864v109,-9,194,-40,279,-86r0,170v-83,39,-171,62,-279,72r0,284r-102,0r0,-288v-318,-24,-506,-242,-506,-584"},"\u00a3":{"d":"811,-1520v102,0,205,28,291,60r0,182v-84,-45,-165,-82,-273,-82v-99,0,-167,26,-206,78v-39,52,-58,148,-58,289r0,215r391,0r0,143r-391,0r0,465r557,0r0,170r-993,0r0,-170r236,0r0,-465r-199,0r0,-143r199,0r0,-238v1,-336,122,-504,446,-504"},"\u00a4":{"d":"653,-1067v98,0,168,31,238,74r207,-209r114,115r-206,206v43,69,73,141,73,240v0,100,-32,169,-78,235r209,207r-114,113r-207,-207v-68,46,-137,78,-236,78v-95,0,-170,-33,-239,-74r-207,207r-113,-115r207,-206v-42,-70,-74,-141,-74,-238v0,-99,32,-170,76,-236r-207,-206r115,-115r207,207v65,-46,135,-76,235,-76xm653,-373v147,0,269,-123,269,-270v0,-147,-122,-266,-269,-266v-145,0,-270,120,-270,266v0,148,123,270,270,270"},"\u00a5":{"d":"1165,-455r-413,0r0,455r-201,0r0,-455r-416,0r0,-123r416,0r0,-51r-84,-155r-332,0r0,-123r264,0r-317,-586r190,0r379,700r377,-700r191,0r-318,586r264,0r0,123r-331,0r-84,155r0,51r415,0r0,123"},"\u00a6":{"d":"430,-408r0,758r-170,0r0,-758r170,0xm430,-1432r0,758r-170,0r0,-758r170,0","w":690},"\u00a7":{"d":"379,-936v-42,31,-73,61,-94,91v-56,84,-32,164,39,233v46,44,152,112,319,202v42,-30,73,-60,94,-90v56,-86,32,-165,-41,-235v-48,-45,-153,-112,-317,-201xm524,-1520v114,2,213,24,305,58r0,164v-89,-41,-177,-76,-282,-78v-116,-3,-205,46,-205,151v0,60,69,128,206,205r40,23v141,79,232,145,276,196v44,51,66,111,66,178v0,144,-79,222,-185,283v69,59,118,117,119,225v2,200,-164,314,-377,310v-118,-1,-214,-25,-315,-58r0,-164v93,41,184,76,293,78v123,3,215,-48,215,-160v0,-68,-74,-143,-221,-225v-133,-73,-265,-161,-303,-210v-41,-52,-64,-111,-64,-179v0,-142,79,-227,184,-283v-69,-52,-118,-117,-118,-225v0,-186,165,-292,366,-289","w":1024},"\u00a8":{"d":"606,-1552r203,0r0,202r-203,0r0,-202xm215,-1552r203,0r0,202r-203,0r0,-202","w":1024},"\u00a9":{"d":"740,-1430v172,-72,396,-72,568,0v171,72,332,232,403,404v70,171,71,397,0,568v-71,171,-232,332,-403,403v-172,72,-396,72,-568,0v-171,-72,-332,-232,-403,-403v-71,-171,-70,-397,0,-568v71,-172,232,-332,403,-404xm1270,-1335v-148,-61,-342,-62,-490,0v-149,62,-287,200,-349,349v-63,150,-63,338,0,488v63,148,201,286,349,348v148,62,342,62,490,0v148,-62,285,-198,346,-347v61,-149,61,-343,0,-491v-62,-149,-198,-286,-346,-347xm1049,-1192v107,0,194,22,274,55r0,129v-77,-39,-158,-64,-262,-65v-201,-1,-316,128,-316,332v0,209,119,334,326,333v103,-1,175,-26,252,-65r0,127v-80,35,-168,56,-274,57v-281,4,-467,-174,-467,-452v0,-279,185,-454,467,-451","w":2048},"\u00aa":{"d":"139,-592r688,0r0,123r-688,0r0,-123xm463,-1520v243,0,361,114,362,355r0,448r-149,0r0,-112v-55,80,-151,130,-281,131v-162,2,-281,-93,-280,-248v0,-90,31,-158,95,-204v64,-46,159,-69,284,-69r182,0v0,-136,-90,-187,-234,-186v-101,1,-190,29,-266,68r0,-127v86,-33,180,-55,287,-56xm442,-817v150,-2,246,-122,234,-287v-119,-1,-296,0,-351,34v-41,25,-63,59,-63,112v0,92,81,142,180,141","w":965},"\u00ab":{"d":"1061,-1059r0,191r-301,268r301,268r0,191r-469,-418r0,-82xm627,-1059r0,191r-301,268r301,268r0,191r-469,-418r0,-82","w":1253},"\u00ac":{"d":"217,-862r1282,0r0,575r-168,0r0,-405r-1114,0r0,-170","w":1716},"\u00ad":{"d":"100,-643r539,0r0,164r-539,0r0,-164","w":739},"\u00ae":{"d":"1270,-1335v-148,-61,-342,-62,-490,0v-149,62,-287,200,-349,349v-63,150,-63,338,0,488v63,148,201,286,349,348v148,62,342,62,490,0v148,-62,285,-198,346,-347v61,-149,61,-343,0,-491v-62,-149,-198,-286,-346,-347xm740,-1430v172,-72,396,-72,568,0v171,72,332,232,403,404v70,171,71,397,0,568v-71,171,-232,332,-403,403v-172,72,-396,72,-568,0v-171,-72,-332,-232,-403,-403v-71,-171,-70,-397,0,-568v71,-172,232,-332,403,-404xm1194,-932v0,-116,-67,-137,-197,-139r-123,0r0,276r123,0v131,-2,197,-21,197,-137xm1354,-934v-1,125,-85,196,-201,215v16,5,35,21,57,47v73,87,151,230,217,334r-172,0r-129,-209v-39,-64,-72,-103,-96,-121v-37,-28,-93,-27,-156,-26r0,356r-155,0r0,-836r285,0v117,0,205,20,263,60v58,40,87,99,87,180","w":2048},"\u00af":{"d":"213,-1526r598,0r0,148r-598,0r0,-148","w":1024},"\u00b0":{"d":"702,-1200v0,-102,-87,-191,-190,-191v-104,0,-190,87,-190,191v0,103,86,188,190,188v104,0,190,-85,190,-188xm195,-1200v0,-215,219,-388,440,-296v77,32,140,98,171,173v15,38,23,79,23,123v0,172,-146,315,-319,315v-176,0,-315,-139,-315,-315","w":1024},"\u00b1":{"d":"942,-1284r0,387r557,0r0,170r-557,0r0,387r-168,0r0,-387r-557,0r0,-170r557,0r0,-387r168,0xm217,-170r1282,0r0,170r-1282,0r0,-170","w":1716},"\u00b2":{"d":"367,-1520v173,-3,319,83,319,240v0,93,-110,234,-331,423r-87,75r424,0r0,114r-598,0r0,-110r97,-87v229,-203,344,-336,344,-399v0,-95,-87,-149,-189,-147v-94,3,-168,33,-246,70r0,-123v86,-31,168,-54,267,-56","w":821},"\u00b3":{"d":"696,-1303v0,104,-76,163,-172,183v111,21,193,88,193,209v0,83,-32,146,-95,191v-63,45,-154,67,-272,67v-92,-1,-172,-18,-252,-41r0,-121v131,76,467,93,467,-96v0,-112,-92,-150,-219,-150r-86,0r0,-108r94,0v108,0,191,-30,191,-123v0,-91,-88,-120,-195,-119v-83,1,-138,18,-223,41r0,-115v153,-39,372,-59,485,24v55,41,84,92,84,158","w":821},"\u00b4":{"d":"651,-1638r199,0r-326,376r-153,0","w":1024},"\u00b5":{"d":"645,29v-144,0,-234,-58,-287,-156r0,553r-184,0r0,-1546r184,0r0,696v-1,188,89,293,273,293v206,0,298,-122,297,-336r0,-653r184,0r0,862v1,69,13,117,72,117v25,0,42,-12,69,-23r0,148v-46,25,-89,45,-149,45v-103,0,-148,-62,-166,-158v-61,96,-148,158,-293,158"},"\u00b6":{"d":"158,-1071v-2,-260,204,-422,475,-422r448,0r0,1690r-141,0r0,-1567r-190,0r0,1567r-142,0r0,-846v-143,-11,-254,-53,-332,-127v-78,-74,-118,-172,-118,-295"},"\u00b7":{"d":"219,-838r211,0r0,254r-211,0r0,-254","w":651},"\u00b8":{"d":"446,272v72,0,118,-27,119,-94v0,-20,-7,-45,-21,-74v-14,-29,-37,-63,-67,-104r119,0v37,41,64,79,82,114v18,35,27,69,27,101v-2,131,-95,181,-238,180v-66,0,-122,-9,-176,-24r0,-131v45,22,90,32,155,32","w":1024},"\u00b9":{"d":"156,-778r204,0r0,-611r-223,41r0,-116r230,-39r137,0r0,725r205,0r0,110r-553,0r0,-110","w":821},"\u00ba":{"d":"139,-592r688,0r0,123r-688,0r0,-123xm96,-1108v0,-247,146,-412,387,-412v242,0,385,166,385,412v0,247,-143,410,-385,410v-241,0,-387,-164,-387,-410xm713,-1108v0,-166,-77,-297,-230,-297v-151,0,-231,133,-231,297v0,162,82,293,231,293v150,0,230,-132,230,-293","w":965},"\u00bb":{"d":"193,-1059r469,418r0,82r-469,418r0,-191r301,-268r-301,-268r0,-191xm627,-1059r469,418r0,82r-469,418r0,-191r301,-268r-301,-268r0,-191","w":1253},"\u00bc":{"d":"156,-778r204,0r0,-611r-223,41r0,-116r230,-39r137,0r0,725r205,0r0,110r-553,0r0,-110xm1640,-714r-309,419r309,0r0,-419xm1618,-835r166,0r0,540r135,0r0,109r-135,0r0,186r-144,0r0,-186r-414,0r0,-121xm1378,-1520r160,0r-932,1549r-160,0","w":1985},"\u00bd":{"d":"1530,-852v173,-3,319,83,319,240v0,93,-110,234,-331,423r-87,75r424,0r0,114r-598,0r0,-110r97,-87v229,-203,344,-336,344,-399v0,-95,-87,-149,-189,-147v-94,3,-168,33,-246,70r0,-123v86,-31,168,-54,267,-56xm156,-778r204,0r0,-611r-223,41r0,-116r230,-39r137,0r0,725r205,0r0,110r-553,0r0,-110xm1378,-1520r160,0r-932,1549r-160,0","w":1985},"\u00be":{"d":"696,-1303v0,104,-76,163,-172,183v111,21,193,88,193,209v0,83,-32,146,-95,191v-63,45,-154,67,-272,67v-92,-1,-172,-18,-252,-41r0,-121v131,76,467,93,467,-96v0,-112,-92,-150,-219,-150r-86,0r0,-108r94,0v108,0,191,-30,191,-123v0,-91,-88,-120,-195,-119v-83,1,-138,18,-223,41r0,-115v153,-39,372,-59,485,24v55,41,84,92,84,158xm1640,-714r-309,419r309,0r0,-419xm1618,-835r166,0r0,540r135,0r0,109r-135,0r0,186r-144,0r0,-186r-414,0r0,-121xm1378,-1520r160,0r-932,1549r-160,0","w":1985},"\u00bf":{"d":"551,29v-230,4,-409,-133,-408,-353v0,-51,14,-98,37,-144v50,-99,206,-224,280,-314v53,-65,36,-192,40,-310r190,0v-1,113,5,245,-28,322v-30,70,-140,176,-207,240v-61,59,-106,104,-109,196v-3,125,106,203,240,199v141,-4,251,-66,354,-137r0,188v-111,67,-228,110,-389,113xm696,-1239r-202,0r0,-254r202,0r0,254","w":1087},"\u00c0":{"d":"700,-1294r-274,743r549,0xm586,-1493r229,0r569,1493r-210,0r-136,-383r-673,0r-136,383r-213,0xm643,-1899r196,264r-153,0r-230,-264r187,0","w":1401},"\u00c1":{"d":"700,-1294r-274,743r549,0xm586,-1493r229,0r569,1493r-210,0r-136,-383r-673,0r-136,383r-213,0xm755,-1899r185,0r-228,264r-153,0","w":1401},"\u00c2":{"d":"700,-1294r-274,743r549,0xm586,-1493r229,0r569,1493r-210,0r-136,-383r-673,0r-136,383r-213,0xm606,-1901r188,0r211,266r-139,0r-166,-178r-166,178r-139,0","w":1401},"\u00c3":{"d":"700,-1294r-274,743r549,0xm586,-1493r229,0r569,1493r-210,0r-136,-383r-673,0r-136,383r-213,0xm1030,-1886v1,145,-102,250,-252,211v-51,-13,-128,-67,-180,-87v-64,-24,-108,26,-103,95r-125,0v-5,-150,104,-250,256,-211v50,13,123,64,175,84v63,24,108,-26,104,-92r125,0","w":1401},"\u00c4":{"d":"700,-1294r-274,743r549,0xm586,-1493r229,0r569,1493r-210,0r-136,-383r-673,0r-136,383r-213,0xm794,-1870r203,0r0,203r-203,0r0,-203xm403,-1870r203,0r0,203r-203,0r0,-203","w":1401},"\u00c5":{"d":"700,-1475v82,0,152,-69,152,-151v0,-82,-70,-152,-152,-152v-84,0,-151,68,-151,152v0,82,69,151,151,151xm700,-1294r-272,743r545,0xm975,-1626v-2,106,-53,182,-123,229r532,1397r-210,0r-136,-383r-673,0r-136,383r-213,0r533,-1397v-73,-49,-121,-118,-123,-229v-3,-149,125,-275,274,-275v148,0,278,127,275,275","w":1401},"\u00c6":{"d":"1845,-1493r0,170r-741,0r0,442r711,0r0,170r-711,0r0,541r760,0r0,170r-963,0r0,-383r-528,0r-160,383r-205,0r625,-1493r1212,0xm772,-1335r-330,784r459,0r0,-784r-129,0","w":1995},"\u00c7":{"d":"747,272v72,0,118,-27,119,-94v0,-20,-8,-45,-22,-74v-14,-29,-36,-63,-66,-104r119,0v37,41,64,79,82,114v18,35,27,69,27,101v-2,131,-95,181,-238,180v-66,0,-122,-9,-176,-24r0,-131v45,22,90,32,155,32xm844,-1520v198,1,349,56,475,142r0,213v-119,-111,-258,-189,-463,-189v-357,0,-528,235,-528,609v0,373,171,608,528,608v204,0,345,-79,463,-189r0,211v-128,87,-277,142,-475,144v-456,4,-729,-310,-729,-774v0,-466,272,-778,729,-775","w":1430},"\u00c8":{"d":"201,-1493r944,0r0,170r-742,0r0,442r711,0r0,170r-711,0r0,541r760,0r0,170r-962,0r0,-1493xm613,-1899r196,264r-153,0r-230,-264r187,0","w":1294},"\u00c9":{"d":"201,-1493r944,0r0,170r-742,0r0,442r711,0r0,170r-711,0r0,541r760,0r0,170r-962,0r0,-1493xm725,-1899r185,0r-228,264r-153,0","w":1294},"\u00ca":{"d":"201,-1493r944,0r0,170r-742,0r0,442r711,0r0,170r-711,0r0,541r760,0r0,170r-962,0r0,-1493xm576,-1901r188,0r211,266r-139,0r-166,-178r-166,178r-139,0","w":1294},"\u00cb":{"d":"201,-1493r944,0r0,170r-742,0r0,442r711,0r0,170r-711,0r0,541r760,0r0,170r-962,0r0,-1493xm764,-1870r203,0r0,203r-203,0r0,-203xm373,-1870r203,0r0,203r-203,0r0,-203","w":1294},"\u00cc":{"d":"201,-1493r202,0r0,1493r-202,0r0,-1493xm246,-1899r196,264r-153,0r-230,-264r187,0","w":604},"\u00cd":{"d":"201,-1493r202,0r0,1493r-202,0r0,-1493xm358,-1899r185,0r-228,264r-153,0","w":604},"\u00ce":{"d":"201,-1493r202,0r0,1493r-202,0r0,-1493xm209,-1901r188,0r211,266r-139,0r-166,-178r-166,178r-139,0","w":604},"\u00cf":{"d":"201,-1493r202,0r0,1493r-202,0r0,-1493xm397,-1870r203,0r0,203r-203,0r0,-203xm6,-1870r203,0r0,203r-203,0r0,-203","w":604},"\u00d0":{"d":"1466,-748v0,537,-283,747,-839,748r-416,0r0,-700r-201,0r0,-144r201,0r0,-649r416,0v556,1,839,209,839,745xm1253,-748v0,-406,-186,-577,-596,-579r-243,0r0,483r336,0r0,144r-336,0r0,534r243,0v411,-2,596,-174,596,-582","w":1587},"\u00d1":{"d":"201,-1493r272,0r662,1249r0,-1249r196,0r0,1493r-272,0r-662,-1249r0,1249r-196,0r0,-1493xm1096,-1886v1,145,-102,250,-252,211v-51,-13,-128,-67,-180,-87v-64,-24,-108,26,-103,95r-125,0v-5,-150,104,-250,256,-211v50,13,123,64,175,84v63,24,108,-26,104,-92r125,0","w":1532},"\u00d2":{"d":"807,-1356v-147,0,-263,55,-349,164v-86,109,-130,258,-130,447v0,188,44,337,130,446v86,109,202,164,349,164v147,0,263,-55,349,-164v86,-109,128,-258,128,-446v0,-189,-42,-338,-128,-447v-86,-109,-202,-164,-349,-164xm807,-1520v209,0,377,70,502,210v125,140,188,329,188,565v0,235,-63,423,-188,563v-125,140,-293,211,-502,211v-210,0,-377,-70,-503,-210v-126,-140,-189,-328,-189,-564v0,-236,63,-425,189,-565v126,-140,293,-210,503,-210xm750,-1899r196,264r-153,0r-230,-264r187,0","w":1612},"\u00d3":{"d":"807,-1356v-147,0,-263,55,-349,164v-86,109,-130,258,-130,447v0,188,44,337,130,446v86,109,202,164,349,164v147,0,263,-55,349,-164v86,-109,128,-258,128,-446v0,-189,-42,-338,-128,-447v-86,-109,-202,-164,-349,-164xm807,-1520v209,0,377,70,502,210v125,140,188,329,188,565v0,235,-63,423,-188,563v-125,140,-293,211,-502,211v-210,0,-377,-70,-503,-210v-126,-140,-189,-328,-189,-564v0,-236,63,-425,189,-565v126,-140,293,-210,503,-210xm862,-1899r185,0r-228,264r-153,0","w":1612},"\u00d4":{"d":"807,-1356v-147,0,-263,55,-349,164v-86,109,-130,258,-130,447v0,188,44,337,130,446v86,109,202,164,349,164v147,0,263,-55,349,-164v86,-109,128,-258,128,-446v0,-189,-42,-338,-128,-447v-86,-109,-202,-164,-349,-164xm807,-1520v209,0,377,70,502,210v125,140,188,329,188,565v0,235,-63,423,-188,563v-125,140,-293,211,-502,211v-210,0,-377,-70,-503,-210v-126,-140,-189,-328,-189,-564v0,-236,63,-425,189,-565v126,-140,293,-210,503,-210xm713,-1901r188,0r211,266r-139,0r-166,-178r-166,178r-139,0","w":1612},"\u00d5":{"d":"807,-1356v-147,0,-263,55,-349,164v-86,109,-130,258,-130,447v0,188,44,337,130,446v86,109,202,164,349,164v147,0,263,-55,349,-164v86,-109,128,-258,128,-446v0,-189,-42,-338,-128,-447v-86,-109,-202,-164,-349,-164xm807,-1520v209,0,377,70,502,210v125,140,188,329,188,565v0,235,-63,423,-188,563v-125,140,-293,211,-502,211v-210,0,-377,-70,-503,-210v-126,-140,-189,-328,-189,-564v0,-236,63,-425,189,-565v126,-140,293,-210,503,-210xm1137,-1886v3,146,-102,250,-253,211v-51,-13,-126,-67,-178,-87v-64,-24,-109,25,-104,95r-125,0v-6,-150,103,-250,255,-211v50,13,124,64,176,84v63,24,108,-26,104,-92r125,0","w":1612},"\u00d6":{"d":"807,-1356v-147,0,-263,55,-349,164v-86,109,-130,258,-130,447v0,188,44,337,130,446v86,109,202,164,349,164v147,0,263,-55,349,-164v86,-109,128,-258,128,-446v0,-189,-42,-338,-128,-447v-86,-109,-202,-164,-349,-164xm807,-1520v209,0,377,70,502,210v125,140,188,329,188,565v0,235,-63,423,-188,563v-125,140,-293,211,-502,211v-210,0,-377,-70,-503,-210v-126,-140,-189,-328,-189,-564v0,-236,63,-425,189,-565v126,-140,293,-210,503,-210xm901,-1870r203,0r0,203r-203,0r0,-203xm510,-1870r203,0r0,203r-203,0r0,-203","w":1612},"\u00d7":{"d":"1436,-1100r-457,459r457,457r-119,121r-459,-459r-459,459r-118,-121r456,-457r-456,-459r118,-121r459,459r459,-459","w":1716},"\u00d8":{"d":"489,-266v75,77,177,131,318,131v147,0,263,-55,349,-164v86,-109,128,-258,128,-446v0,-148,-26,-272,-78,-367xm1124,-1225v-74,-78,-177,-131,-317,-131v-147,0,-263,55,-349,164v-86,109,-130,258,-130,447v0,146,25,276,78,368xm807,29v-188,0,-330,-58,-440,-150r-162,191r-103,-88r170,-201v-100,-130,-157,-303,-157,-526v0,-236,63,-425,189,-565v126,-140,293,-210,503,-210v188,1,331,59,438,152r162,-191r102,89r-170,198v99,130,158,306,158,527v0,235,-63,423,-188,563v-125,140,-293,211,-502,211","w":1612},"\u00d9":{"d":"750,29v-381,0,-573,-205,-572,-590r0,-932r203,0r0,907v2,301,87,451,369,451v281,0,368,-151,368,-451r0,-907r203,0r0,932v1,384,-191,590,-571,590xm693,-1899r196,264r-153,0r-230,-264r187,0","w":1499},"\u00da":{"d":"750,29v-381,0,-573,-205,-572,-590r0,-932r203,0r0,907v2,301,87,451,369,451v281,0,368,-151,368,-451r0,-907r203,0r0,932v1,384,-191,590,-571,590xm805,-1899r185,0r-228,264r-153,0","w":1499},"\u00db":{"d":"750,29v-381,0,-573,-205,-572,-590r0,-932r203,0r0,907v2,301,87,451,369,451v281,0,368,-151,368,-451r0,-907r203,0r0,932v1,384,-191,590,-571,590xm656,-1901r188,0r211,266r-139,0r-166,-178r-166,178r-139,0","w":1499},"\u00dc":{"d":"750,29v-381,0,-573,-205,-572,-590r0,-932r203,0r0,907v2,301,87,451,369,451v281,0,368,-151,368,-451r0,-907r203,0r0,932v1,384,-191,590,-571,590xm844,-1870r203,0r0,203r-203,0r0,-203xm453,-1870r203,0r0,203r-203,0r0,-203","w":1499},"\u00dd":{"d":"-4,-1493r217,0r414,614r411,-614r217,0r-528,782r0,711r-203,0r0,-711xm682,-1899r185,0r-228,264r-153,0","w":1251},"\u00de":{"d":"1165,-784v0,306,-189,448,-508,446r-254,0r0,338r-202,0r0,-1493r202,0r0,264r254,0v320,-1,508,138,508,445xm952,-784v0,-181,-110,-279,-295,-279r-254,0r0,559r254,0v184,1,295,-99,295,-280","w":1239},"\u00df":{"d":"639,-1403v-173,0,-267,97,-266,270r0,1133r-187,0r0,-1137v-1,-273,177,-420,457,-419v285,1,428,167,430,456v-101,5,-178,29,-235,66v-80,53,-112,155,-55,240v27,41,100,87,151,120v111,71,182,130,214,177v32,47,48,104,48,171v-1,245,-175,357,-436,355v-101,-1,-188,-21,-273,-49r0,-164v91,34,176,58,285,59v142,1,234,-54,236,-186v0,-42,-12,-76,-30,-105v-28,-44,-155,-117,-222,-159v-109,-67,-183,-135,-183,-285v0,-190,140,-296,318,-328v-10,-137,-103,-215,-252,-215","w":1290},"\u00e0":{"d":"449,-1638r282,374r-153,0r-326,-374r197,0xm547,-125v213,0,342,-173,338,-397r0,-41r-183,0v-149,0,-252,17,-309,51v-57,34,-86,92,-86,174v-1,135,100,213,240,213xm586,-1147v330,0,483,173,483,508r0,639r-184,0r0,-170v-79,128,-191,197,-387,199v-222,3,-375,-137,-375,-355v0,-126,43,-221,127,-285v84,-64,210,-96,377,-96r258,0v7,-194,-124,-285,-318,-284v-144,1,-262,37,-362,92r0,-170v117,-45,237,-78,381,-78","w":1255},"\u00e1":{"d":"733,-1638r199,0r-326,376r-153,0xm547,-125v213,0,342,-173,338,-397r0,-41r-183,0v-149,0,-252,17,-309,51v-57,34,-86,92,-86,174v-1,135,100,213,240,213xm586,-1147v330,0,483,173,483,508r0,639r-184,0r0,-170v-79,128,-191,197,-387,199v-222,3,-375,-137,-375,-355v0,-126,43,-221,127,-285v84,-64,210,-96,377,-96r258,0v7,-194,-124,-285,-318,-284v-144,1,-262,37,-362,92r0,-170v117,-45,237,-78,381,-78","w":1255},"\u00e2":{"d":"520,-1638r148,0r245,376r-139,0r-180,-245r-180,245r-139,0xm547,-125v213,0,342,-173,338,-397r0,-41r-183,0v-149,0,-252,17,-309,51v-57,34,-86,92,-86,174v-1,135,100,213,240,213xm586,-1147v330,0,483,173,483,508r0,639r-184,0r0,-170v-79,128,-191,197,-387,199v-222,3,-375,-137,-375,-355v0,-126,43,-221,127,-285v84,-64,210,-96,377,-96r258,0v7,-194,-124,-285,-318,-284v-144,1,-262,37,-362,92r0,-170v117,-45,237,-78,381,-78","w":1255},"\u00e3":{"d":"729,-1309v-116,0,-160,-99,-235,-145v-35,-21,-69,-7,-85,26v-12,24,-19,64,-20,119r-125,0v1,-90,20,-159,53,-209v44,-66,129,-91,212,-59v59,24,111,98,165,131v35,21,69,7,85,-26v12,-24,19,-64,20,-119r125,0v-1,90,-19,160,-53,209v-34,49,-81,73,-142,73xm547,-125v213,0,342,-173,338,-397r0,-41r-183,0v-149,0,-252,17,-309,51v-57,34,-86,92,-86,174v-1,135,100,213,240,213xm586,-1147v330,0,483,173,483,508r0,639r-184,0r0,-170v-79,128,-191,197,-387,199v-222,3,-375,-137,-375,-355v0,-126,43,-221,127,-285v84,-64,210,-96,377,-96r258,0v7,-194,-124,-285,-318,-284v-144,1,-262,37,-362,92r0,-170v117,-45,237,-78,381,-78","w":1255},"\u00e4":{"d":"688,-1552r203,0r0,202r-203,0r0,-202xm297,-1552r203,0r0,202r-203,0r0,-202xm547,-125v213,0,342,-173,338,-397r0,-41r-183,0v-149,0,-252,17,-309,51v-57,34,-86,92,-86,174v-1,135,100,213,240,213xm586,-1147v330,0,483,173,483,508r0,639r-184,0r0,-170v-79,128,-191,197,-387,199v-222,3,-375,-137,-375,-355v0,-126,43,-221,127,-285v84,-64,210,-96,377,-96r258,0v7,-194,-124,-285,-318,-284v-144,1,-262,37,-362,92r0,-170v117,-45,237,-78,381,-78","w":1255},"\u00e5":{"d":"547,-125v213,0,342,-173,338,-397r0,-41r-183,0v-149,0,-252,17,-309,51v-57,34,-86,92,-86,174v-1,135,100,213,240,213xm586,-1147v330,0,483,173,483,508r0,639r-184,0r0,-170v-79,128,-191,197,-387,199v-222,3,-375,-137,-375,-355v0,-126,43,-221,127,-285v84,-64,210,-96,377,-96r258,0v7,-194,-124,-285,-318,-284v-144,1,-262,37,-362,92r0,-170v117,-45,237,-78,381,-78xm594,-1372v83,0,152,-69,152,-152v0,-82,-69,-151,-152,-151v-83,0,-152,68,-152,151v0,83,69,152,152,152xm594,-1798v148,0,274,126,274,274v0,149,-126,275,-274,275v-148,0,-274,-126,-274,-275v0,-148,126,-274,274,-274","w":1255},"\u00e6":{"d":"1718,-660v2,-192,-116,-331,-303,-331v-211,0,-337,131,-352,332xm586,-1147v188,-1,339,67,409,184v91,-111,227,-183,418,-184v308,-2,495,223,490,541r0,90r-846,0v14,245,147,391,399,391v162,0,287,-44,404,-106r0,174v-121,51,-255,86,-414,86v-236,0,-396,-90,-492,-240v-88,145,-218,237,-432,240v-240,2,-399,-123,-399,-355v0,-126,43,-221,127,-285v84,-64,210,-96,377,-96r258,0v7,-194,-124,-285,-318,-284v-144,1,-262,37,-362,92r0,-170v117,-45,237,-77,381,-78xm547,-125v213,0,342,-173,338,-397r0,-41r-183,0v-149,0,-252,17,-309,51v-57,34,-86,92,-86,174v-1,135,100,213,240,213","w":2011},"\u00e7":{"d":"589,272v72,0,118,-27,119,-94v0,-20,-8,-45,-22,-74v-14,-29,-36,-63,-66,-104r119,0v37,41,64,79,82,114v18,35,27,69,27,101v-2,131,-95,181,-238,180v-66,0,-122,-9,-176,-24r0,-131v45,22,90,32,155,32xm676,-1147v126,1,231,27,323,70r0,172v-91,-50,-189,-85,-315,-86v-248,-1,-377,173,-377,432v0,259,129,432,377,432v126,0,224,-36,315,-86r0,170v-96,45,-201,72,-335,72v-341,3,-551,-240,-551,-588v0,-356,212,-591,563,-588","w":1126},"\u00e8":{"d":"506,-1638r282,374r-153,0r-326,-374r197,0xm662,-1147v308,0,494,223,489,541r0,90r-846,0v14,244,148,389,400,389v162,0,286,-42,403,-104r0,174v-120,51,-255,84,-414,86v-353,3,-581,-227,-581,-578v0,-352,207,-598,549,-598xm967,-660v1,-191,-117,-331,-303,-331v-212,0,-337,131,-353,332","w":1260},"\u00e9":{"d":"790,-1638r199,0r-326,376r-153,0xm662,-1147v308,0,494,223,489,541r0,90r-846,0v14,244,148,389,400,389v162,0,286,-42,403,-104r0,174v-120,51,-255,84,-414,86v-353,3,-581,-227,-581,-578v0,-352,207,-598,549,-598xm967,-660v1,-191,-117,-331,-303,-331v-212,0,-337,131,-353,332","w":1260},"\u00ea":{"d":"577,-1638r148,0r245,376r-139,0r-180,-245r-180,245r-139,0xm662,-1147v308,0,494,223,489,541r0,90r-846,0v14,244,148,389,400,389v162,0,286,-42,403,-104r0,174v-120,51,-255,84,-414,86v-353,3,-581,-227,-581,-578v0,-352,207,-598,549,-598xm967,-660v1,-191,-117,-331,-303,-331v-212,0,-337,131,-353,332","w":1260},"\u00eb":{"d":"745,-1552r203,0r0,202r-203,0r0,-202xm354,-1552r203,0r0,202r-203,0r0,-202xm662,-1147v308,0,494,223,489,541r0,90r-846,0v14,244,148,389,400,389v162,0,286,-42,403,-104r0,174v-120,51,-255,84,-414,86v-353,3,-581,-227,-581,-578v0,-352,207,-598,549,-598xm967,-660v1,-191,-117,-331,-303,-331v-212,0,-337,131,-353,332","w":1260},"\u00ec":{"d":"140,-1638r282,374r-153,0r-326,-374r197,0xm193,-1120r184,0r0,1120r-184,0r0,-1120","w":569},"\u00ed":{"d":"424,-1638r199,0r-326,376r-153,0xm193,-1120r184,0r0,1120r-184,0r0,-1120","w":569},"\u00ee":{"d":"211,-1638r148,0r245,376r-139,0r-180,-245r-180,245r-139,0xm193,-1120r184,0r0,1120r-184,0r0,-1120","w":569},"\u00ef":{"d":"379,-1552r203,0r0,202r-203,0r0,-202xm-12,-1552r203,0r0,202r-203,0r0,-202xm193,-1120r184,0r0,1120r-184,0r0,-1120","w":569},"\u00f0":{"d":"744,-940v-280,-48,-437,129,-437,403v0,125,29,225,87,299v58,74,136,111,233,111v97,0,174,-37,232,-111v58,-74,87,-174,87,-299v0,-163,-36,-287,-108,-378v-33,-11,-65,-20,-94,-25xm113,-537v0,-315,195,-564,497,-561v38,1,68,5,112,10r-159,-180r-319,107r-33,-99r281,-92r-181,-204r228,0r127,145r333,-111r33,97r-295,98r164,186v84,95,145,191,183,287v38,96,57,202,57,317v0,324,-201,566,-514,566v-314,0,-514,-242,-514,-566","w":1253},"\u00f1":{"d":"799,-1309v-116,0,-160,-99,-235,-145v-35,-21,-69,-7,-85,26v-12,24,-19,64,-20,119r-125,0v1,-90,20,-159,53,-209v44,-66,129,-91,212,-59v59,24,111,98,165,131v35,21,69,7,85,-26v12,-24,19,-64,20,-119r125,0v-1,90,-19,160,-53,209v-34,49,-81,73,-142,73xm733,-1147v274,0,391,181,391,471r0,676r-184,0r0,-670v0,-195,-67,-315,-248,-317v-203,-2,-321,145,-321,354r0,633r-185,0r0,-1120r185,0r0,174v79,-120,183,-201,362,-201","w":1298},"\u00f2":{"d":"482,-1638r282,374r-153,0r-326,-374r197,0xm627,-991v-99,0,-174,40,-234,115v-112,141,-113,493,-1,634v59,75,136,115,235,115v98,0,176,-39,233,-116v57,-77,86,-183,86,-316v0,-133,-29,-237,-86,-315v-57,-78,-135,-117,-233,-117xm113,-559v0,-349,180,-588,514,-588v332,0,514,240,514,588v0,347,-182,588,-514,588v-333,0,-514,-241,-514,-588","w":1253},"\u00f3":{"d":"766,-1638r199,0r-326,376r-153,0xm627,-991v-99,0,-174,40,-234,115v-112,141,-113,493,-1,634v59,75,136,115,235,115v98,0,176,-39,233,-116v57,-77,86,-183,86,-316v0,-133,-29,-237,-86,-315v-57,-78,-135,-117,-233,-117xm113,-559v0,-349,180,-588,514,-588v332,0,514,240,514,588v0,347,-182,588,-514,588v-333,0,-514,-241,-514,-588","w":1253},"\u00f4":{"d":"553,-1638r148,0r245,376r-139,0r-180,-245r-180,245r-139,0xm627,-991v-99,0,-174,40,-234,115v-112,141,-113,493,-1,634v59,75,136,115,235,115v98,0,176,-39,233,-116v57,-77,86,-183,86,-316v0,-133,-29,-237,-86,-315v-57,-78,-135,-117,-233,-117xm113,-559v0,-349,180,-588,514,-588v332,0,514,240,514,588v0,347,-182,588,-514,588v-333,0,-514,-241,-514,-588","w":1253},"\u00f5":{"d":"762,-1309v-116,0,-159,-99,-234,-145v-35,-21,-70,-7,-86,26v-12,24,-19,64,-20,119r-125,0v1,-90,20,-159,53,-209v44,-66,129,-91,212,-59v59,24,110,98,164,131v35,21,70,7,86,-26v12,-24,19,-64,20,-119r125,0v-1,90,-19,160,-53,209v-34,49,-81,73,-142,73xm627,-991v-99,0,-174,40,-234,115v-112,141,-113,493,-1,634v59,75,136,115,235,115v98,0,176,-39,233,-116v57,-77,86,-183,86,-316v0,-133,-29,-237,-86,-315v-57,-78,-135,-117,-233,-117xm113,-559v0,-349,180,-588,514,-588v332,0,514,240,514,588v0,347,-182,588,-514,588v-333,0,-514,-241,-514,-588","w":1253},"\u00f6":{"d":"721,-1552r203,0r0,202r-203,0r0,-202xm330,-1552r203,0r0,202r-203,0r0,-202xm627,-991v-99,0,-174,40,-234,115v-112,141,-113,493,-1,634v59,75,136,115,235,115v98,0,176,-39,233,-116v57,-77,86,-183,86,-316v0,-133,-29,-237,-86,-315v-57,-78,-135,-117,-233,-117xm113,-559v0,-349,180,-588,514,-588v332,0,514,240,514,588v0,347,-182,588,-514,588v-333,0,-514,-241,-514,-588","w":1253},"\u00f7":{"d":"735,-1135r246,0r0,246r-246,0r0,-246xm735,-395r246,0r0,245r-246,0r0,-245xm217,-727r1282,0r0,170r-1282,0r0,-170","w":1716},"\u00f8":{"d":"418,-209v51,52,113,81,209,82v98,0,176,-39,233,-116v57,-77,86,-183,86,-316v0,-100,-11,-176,-41,-242xm834,-909v-51,-50,-114,-81,-207,-82v-101,0,-179,39,-235,117v-56,78,-85,188,-85,329v0,94,11,164,39,228xm627,29v-136,0,-242,-39,-320,-103r-139,168r-96,-78r149,-182v-70,-99,-107,-229,-108,-393v-3,-349,180,-588,514,-588v136,1,237,39,319,103r139,-168r95,79r-146,179v69,100,106,230,107,395v3,347,-182,588,-514,588","w":1253},"\u00f9":{"d":"490,-1638r282,374r-153,0r-326,-374r197,0xm567,29v-273,0,-393,-182,-393,-471r0,-678r184,0r0,671v0,195,67,316,248,318v203,2,322,-145,322,-354r0,-635r184,0r0,1120r-184,0r0,-172v-80,121,-181,201,-361,201","w":1298},"\u00fa":{"d":"774,-1638r199,0r-326,376r-153,0xm567,29v-273,0,-393,-182,-393,-471r0,-678r184,0r0,671v0,195,67,316,248,318v203,2,322,-145,322,-354r0,-635r184,0r0,1120r-184,0r0,-172v-80,121,-181,201,-361,201","w":1298},"\u00fb":{"d":"561,-1638r148,0r245,376r-139,0r-180,-245r-180,245r-139,0xm567,29v-273,0,-393,-182,-393,-471r0,-678r184,0r0,671v0,195,67,316,248,318v203,2,322,-145,322,-354r0,-635r184,0r0,1120r-184,0r0,-172v-80,121,-181,201,-361,201","w":1298},"\u00fc":{"d":"729,-1552r203,0r0,202r-203,0r0,-202xm338,-1552r203,0r0,202r-203,0r0,-202xm567,29v-273,0,-393,-182,-393,-471r0,-678r184,0r0,671v0,195,67,316,248,318v203,2,322,-145,322,-354r0,-635r184,0r0,1120r-184,0r0,-172v-80,121,-181,201,-361,201","w":1298},"\u00fd":{"d":"745,-1638r199,0r-326,376r-153,0xm659,104v-52,133,-103,220,-152,261v-49,41,-115,61,-198,61r-147,0r0,-154v87,0,181,7,226,-36v27,-25,59,-81,93,-170r33,-84r-453,-1102r195,0r350,876r350,-876r195,0","w":1212},"\u00fe":{"d":"729,29v-180,0,-287,-74,-358,-197r0,594r-185,0r0,-1982r185,0r0,606v71,-123,177,-197,358,-197v136,0,246,54,331,162v85,108,128,250,128,426v0,176,-43,318,-128,426v-85,108,-195,162,-331,162xm997,-559v0,-135,-27,-242,-83,-319v-56,-77,-133,-115,-230,-115v-97,0,-174,38,-230,115v-56,77,-83,184,-83,319v0,135,27,242,83,319v56,77,133,115,230,115v97,0,174,-38,230,-115v56,-77,83,-184,83,-319","w":1300},"\u00ff":{"d":"700,-1552r203,0r0,202r-203,0r0,-202xm309,-1552r203,0r0,202r-203,0r0,-202xm659,104v-52,133,-103,220,-152,261v-49,41,-115,61,-198,61r-147,0r0,-154v87,0,181,7,226,-36v27,-25,59,-81,93,-170r33,-84r-453,-1102r195,0r350,876r350,-876r195,0","w":1212},"\u0152":{"d":"2042,-1493r0,170r-742,0r0,442r711,0r0,170r-711,0r0,541r760,0r0,170r-1065,0v-289,0,-508,-63,-657,-190v-149,-127,-223,-313,-223,-558v0,-243,74,-428,223,-555v149,-127,368,-190,657,-190r1047,0xm328,-748v0,400,228,579,641,578r129,0r0,-1153r-129,0v-413,-1,-641,176,-641,575","w":2191},"\u0153":{"d":"1802,-660v0,-193,-115,-331,-303,-331v-211,0,-337,131,-352,332xm1497,-1147v308,-2,495,223,490,541r0,90r-846,0v14,244,147,389,399,389v162,0,288,-42,404,-104r0,174v-121,51,-255,86,-414,86v-227,0,-382,-82,-483,-219v-87,135,-214,218,-420,219v-333,2,-514,-241,-514,-588v0,-349,180,-589,514,-588v202,1,336,86,417,219v94,-131,243,-217,453,-219xm627,-991v-99,0,-174,40,-234,115v-112,141,-113,493,-1,634v59,75,136,115,235,115v98,0,176,-39,233,-116v57,-77,86,-183,86,-316v0,-133,-29,-237,-86,-315v-57,-78,-135,-117,-233,-117","w":2095},"\u0178":{"d":"-4,-1493r217,0r414,614r411,-614r217,0r-528,782r0,711r-203,0r0,-711xm721,-1870r203,0r0,203r-203,0r0,-203xm330,-1870r203,0r0,203r-203,0r0,-203","w":1251},"\u02c6":{"d":"438,-1638r148,0r245,376r-139,0r-180,-245r-180,245r-139,0","w":1024},"\u02dc":{"d":"647,-1309v-116,0,-160,-99,-235,-145v-35,-21,-69,-7,-85,26v-12,24,-19,64,-20,119r-125,0v1,-90,20,-159,53,-209v44,-66,129,-91,212,-59v59,24,111,98,165,131v35,21,69,7,85,-26v12,-24,19,-64,20,-119r125,0v-1,90,-19,160,-53,209v-34,49,-81,73,-142,73","w":1024},"\u2013":{"d":"100,-633r824,0r0,144r-824,0r0,-144","w":1024},"\u2014":{"d":"100,-633r1848,0r0,144r-1848,0r0,-144","w":2048},"\u2018":{"d":"385,-1001r-211,0r0,-173r164,-319r129,0r-82,319r0,173","w":651},"\u2019":{"d":"260,-1493r211,0r0,152r-164,319r-129,0r82,-319r0,-152","w":651},"\u201a":{"d":"256,-254r211,0r0,172r-164,320r-129,0r82,-320r0,-172","w":651},"\u201c":{"d":"385,-1001r-211,0r0,-173r164,-319r129,0r-82,319r0,173xm795,-1001r-211,0r0,-173r164,-319r129,0r-82,319r0,173","w":1061},"\u201d":{"d":"256,-1493r211,0r0,172r-164,320r-129,0r82,-320r0,-172xm666,-1493r211,0r0,172r-164,320r-129,0r82,-320r0,-172","w":1061},"\u201e":{"d":"666,-254r211,0r0,172r-164,320r-129,0r82,-320r0,-172xm256,-254r211,0r0,172r-164,320r-129,0r82,-320r0,-172","w":1061},"\u2022":{"d":"604,-465v-163,0,-297,-134,-297,-297v0,-162,136,-295,299,-295v161,0,295,134,295,295v0,163,-134,297,-297,297","w":1208},"\u2026":{"d":"918,-254r212,0r0,254r-212,0r0,-254xm1599,-254r213,0r0,254r-213,0r0,-254xm236,-254r213,0r0,254r-213,0r0,-254","w":2048},"\u2039":{"d":"627,-1059r0,191r-301,268r301,268r0,191r-469,-418r0,-82","w":819},"\u203a":{"d":"193,-1059r469,418r0,82r-469,418r0,-191r301,-268r-301,-268r0,-191","w":819},"\u20ac":{"d":"797,-1520v157,0,271,61,370,142r0,213v-61,-70,-119,-120,-175,-150v-56,-30,-119,-45,-187,-45v-105,0,-191,33,-258,100v-67,67,-112,162,-133,287r577,0r-55,123r-538,0v-4,64,-4,142,0,207r446,0r-56,123r-374,0v21,125,67,219,133,288v104,109,300,132,445,56v56,-30,114,-80,175,-150r0,211v-101,81,-212,144,-370,144v-158,0,-288,-48,-391,-145v-103,-97,-168,-231,-195,-404r-211,0r55,-123r139,0r-1,-102r1,-105r-194,0r55,-123r156,0v27,-171,92,-305,195,-402v103,-97,234,-145,391,-145"},"\u2122":{"d":"1098,-1493r174,256r164,-256r170,0r0,578r-113,0r0,-484r-195,303r-55,0r-203,-303r0,484r-114,0r0,-578r172,0xm813,-1493r0,94r-203,0r0,484r-114,0r0,-484r-201,0r0,-94r518,0","w":2048}}});
