/*!
 * The following copyright notice may not be removed under any circumstances.
 * 
 * Copyright:
 * Copyright (c) 2003 by Bitstream, Inc. All Rights Reserved.
 * Copyright (c) 2006 by Tavmjong Bah. All Rights Reserved.
 * DejaVu changes are in public domain
 * 
 * 
 * Manufacturer:
 * DejaVu fonts team
 * 
 * Vendor URL:
 * http://dejavu.sourceforge.net
 * 
 * License information:
 * http://dejavu.sourceforge.net/wiki/index.php/License
 */
Cufon.registerFont({"w":1303,"face":{"font-family":"DejaVu Sans","font-weight":400,"font-style":"oblique","font-stretch":"normal","units-per-em":"2048","panose-1":"2 11 6 3 3 3 4 11 2 4","ascent":"1556","descent":"-492","x-height":"29","bbox":"-336 -1901 2185 483","underline-thickness":"90","underline-position":"-85","slope":"-11","unicode-range":"U+0020-U+2122"},"glyphs":{" ":{"w":651},"!":{"d":"453,-1493r202,0r-127,655r-90,357r-162,0r50,-357xm213,-254r203,0r-49,254r-205,0","w":821},"\"":{"d":"367,-1493r0,555r-170,0r0,-555r170,0xm745,-1493r0,555r-170,0r0,-555r170,0","w":942},"#":{"d":"897,-1470r-104,415r292,0r105,-415r160,0r-103,415r336,0r-39,154r-336,0r-82,334r340,0r-36,153r-343,0r-104,414r-160,0r103,-414r-293,0r-103,414r-161,0r104,-414r-330,0r37,-153r330,0r84,-334r-336,0r39,-154r336,0r102,-415r162,0xm1047,-901r-291,0r-84,334r293,0","w":1716},"$":{"d":"600,-145v93,-4,166,-28,220,-71v54,-43,81,-98,81,-167v0,-134,-85,-171,-217,-195xm700,-1180v-88,9,-157,35,-207,78v-50,43,-75,97,-75,164v0,47,16,84,48,110v32,26,83,45,155,58xm1167,-1262r-34,181v-98,-52,-203,-93,-332,-98r-84,427v123,19,217,58,281,115v64,57,96,131,96,221v0,117,-48,214,-143,290v-95,76,-222,118,-380,126r-59,301r-100,0r59,-301v-157,-4,-295,-37,-403,-92r34,-184v110,74,236,126,398,134r88,-456v-126,-24,-218,-60,-275,-110v-57,-50,-86,-117,-86,-201v0,-111,45,-204,137,-281v92,-77,213,-121,363,-133r47,-233r100,0r-44,233v124,4,240,26,337,61"},"%":{"d":"899,-1188v0,268,-162,481,-418,481v-186,0,-295,-136,-295,-329v0,-270,161,-484,418,-484v187,0,295,138,295,332xm346,-1026v-1,114,49,191,156,192v71,0,129,-32,172,-95v43,-63,65,-148,65,-253v0,-126,-40,-211,-155,-211v-75,0,-133,32,-175,97v-42,65,-63,155,-63,270xm1208,-291v-1,115,49,192,156,193v71,0,128,-32,171,-95v43,-63,64,-148,64,-253v0,-128,-38,-213,-153,-213v-74,0,-132,32,-174,97v-42,65,-64,156,-64,271xm1759,-455v0,268,-160,484,-416,484v-186,0,-294,-137,-294,-330v0,-270,160,-483,417,-483v187,0,293,135,293,329xm1683,-1520r-1234,1549r-160,0r1235,-1549r159,0","w":1946},"&":{"d":"295,-414v-1,173,133,284,313,281v147,-2,265,-56,359,-127r-426,-543v-81,59,-141,121,-183,187v-42,66,-63,133,-63,202xm1112,-395v99,-104,171,-242,209,-406r186,0v-61,215,-159,389,-295,531r209,270r-252,0r-106,-139v-125,98,-279,165,-483,168v-272,4,-484,-144,-484,-398v0,-103,30,-200,92,-291v62,-91,154,-176,275,-253v-59,-78,-79,-214,-37,-324v79,-208,333,-329,620,-265v53,12,106,30,160,54r-35,182v-84,-52,-177,-92,-294,-96v-182,-6,-333,138,-260,316v13,29,42,72,88,131","w":1597},"'":{"d":"367,-1493r0,555r-170,0r0,-555r170,0","w":563},"(":{"d":"340,270v-104,-195,-182,-394,-182,-653v0,-198,46,-395,138,-589v92,-194,230,-388,415,-582r163,0v-177,221,-309,430,-396,628v-87,198,-130,390,-130,574v0,244,63,442,152,622r-160,0","w":799},")":{"d":"408,-1554v104,197,182,391,182,651v0,199,-46,395,-138,591v-92,196,-231,390,-415,582r-164,0v177,-221,309,-430,396,-628v87,-198,130,-390,130,-574v0,-244,-61,-442,-151,-622r160,0","w":799},"*":{"d":"963,-1247r-359,194r359,195r-58,98r-336,-203r0,377r-114,0r0,-377r-336,203r-58,-98r359,-195r-359,-194r58,-99r336,203r0,-377r114,0r0,377r336,-203","w":1024},"+":{"d":"942,-1284r0,557r557,0r0,170r-557,0r0,557r-168,0r0,-557r-557,0r0,-170r557,0r0,-557r168,0","w":1716},",":{"d":"184,-254r211,0r-33,172r-227,320r-129,0r144,-320","w":651},"-":{"d":"125,-643r539,0r-31,164r-541,0","w":739},".":{"d":"168,-254r211,0r-49,254r-211,0","w":651},"\/":{"d":"696,-1493r178,0r-847,1683r-177,0","w":690},"0":{"d":"782,-1520v135,0,238,45,310,135v72,90,108,219,108,388v-1,276,-81,541,-192,721v-62,100,-134,176,-218,228v-84,52,-177,77,-278,77v-131,0,-232,-45,-303,-136v-71,-91,-107,-220,-107,-387v1,-274,84,-541,195,-720v62,-100,133,-176,215,-228v82,-52,173,-78,270,-78xm942,-1276v-63,-96,-211,-108,-316,-44v-46,27,-87,67,-124,120v-118,166,-202,455,-201,735v0,110,20,193,59,249v39,56,96,85,172,85v130,0,209,-71,271,-160v118,-166,199,-455,198,-735v0,-110,-22,-193,-59,-250"},"1":{"d":"133,-170r330,0r223,-1149r-373,72r35,-174r371,-72r203,0r-258,1323r329,0r-32,170r-861,0"},"2":{"d":"741,-1520v245,-5,436,143,435,377v0,76,-19,148,-57,217v-38,69,-96,138,-175,205r-645,553r713,0r-35,168r-969,0r33,-170r674,-578v90,-78,153,-147,191,-206v38,-59,57,-119,57,-181v1,-133,-108,-223,-246,-219v-172,5,-317,64,-459,133r37,-200v138,-54,282,-96,446,-99"},"3":{"d":"965,-1161v0,-138,-115,-199,-267,-197v-153,1,-280,35,-405,82r31,-180v131,-38,263,-63,417,-64v132,0,237,29,314,88v77,59,116,137,116,236v0,214,-153,349,-344,391v155,45,244,129,244,313v0,187,-100,318,-223,406v-144,104,-411,140,-649,96v-64,-12,-129,-30,-195,-55r37,-191v111,61,229,100,385,103v242,4,444,-138,442,-365v-1,-155,-129,-217,-301,-217r-174,0r31,-164r184,0v202,3,357,-95,357,-282"},"4":{"d":"881,-1493r254,0r-191,973r213,0r-33,168r-213,0r-67,352r-201,0r68,-352r-674,0r39,-195xm899,-1317r-666,797r510,0"},"5":{"d":"899,-543v0,-181,-128,-276,-317,-274v-127,1,-238,32,-340,74r145,-750r803,0r-31,168r-618,0r-72,369v57,-19,119,-29,190,-29v265,-4,450,154,447,412v-2,207,-108,364,-236,469v-136,112,-391,161,-632,117v-63,-11,-128,-27,-197,-48r37,-188v109,53,225,87,371,90v246,5,450,-172,450,-410"},"6":{"d":"575,-131v212,0,365,-202,365,-422v0,-161,-88,-274,-242,-274v-211,0,-366,196,-366,415v0,166,84,281,243,281xm573,29v-281,2,-444,-199,-444,-490v0,-294,84,-570,207,-749v69,-101,152,-178,250,-231v137,-74,301,-97,477,-63v51,10,100,25,149,46r-34,184v-73,-48,-175,-78,-293,-78v-138,0,-249,43,-333,130v-84,87,-146,222,-187,407v86,-101,208,-170,378,-172v239,-3,403,152,400,389v-2,217,-87,379,-209,492v-85,79,-208,134,-361,135"},"7":{"d":"262,-1493r1022,0r-18,86r-854,1407r-222,0r807,-1323r-768,0"},"8":{"d":"553,-131v198,0,358,-132,358,-322v0,-154,-125,-256,-286,-256v-198,0,-359,138,-359,330v0,158,122,248,287,248xm698,-868v173,0,316,-115,316,-281v0,-134,-114,-211,-256,-211v-170,0,-314,110,-314,270v0,138,110,222,254,222xm461,-801v-128,-43,-215,-137,-215,-295v0,-121,50,-221,150,-302v100,-81,228,-122,382,-122v129,0,233,32,314,98v81,66,122,150,122,251v0,88,-30,166,-90,235v-60,69,-143,119,-247,150v139,52,233,162,233,340v0,138,-53,252,-160,341v-107,89,-244,134,-413,134v-265,0,-469,-139,-469,-387v0,-230,183,-409,393,-443"},"9":{"d":"729,-1520v282,-2,447,200,447,490v0,292,-86,571,-209,749v-69,101,-153,178,-250,231v-137,74,-300,98,-477,64v-51,-10,-101,-26,-150,-47r37,-184v73,48,173,78,291,78v138,0,250,-44,334,-131v84,-87,147,-223,188,-408v-87,101,-211,172,-381,174v-238,3,-400,-153,-397,-389v2,-217,86,-378,209,-491v86,-79,205,-135,358,-136xm727,-1360v-211,0,-365,200,-365,420v0,161,90,276,244,276v211,0,365,-195,365,-415v0,-166,-86,-281,-244,-281"},":":{"d":"313,-1059r211,0r-49,254r-211,0xm156,-254r211,0r-50,254r-211,0","w":690},";":{"d":"180,-254r211,0r-35,172r-225,320r-129,0r143,-320xm336,-1059r211,0r-49,254r-211,0","w":690},"<":{"d":"1499,-1008r-1032,367r1032,365r0,182r-1282,-465r0,-166r1282,-465r0,182","w":1716},"=":{"d":"217,-930r1282,0r0,168r-1282,0r0,-168xm217,-522r1282,0r0,170r-1282,0r0,-170","w":1716},">":{"d":"217,-1008r0,-182r1282,465r0,166r-1282,465r0,-182r1030,-365","w":1716},"?":{"d":"510,-254r-49,254r-203,0r49,-254r203,0xm838,-1194v-1,-109,-88,-165,-205,-162v-145,4,-271,68,-381,137r37,-188v120,-67,244,-111,411,-113v198,-3,346,95,347,279v0,69,-17,133,-53,193v-36,60,-95,122,-175,188v-66,54,-181,139,-216,197v-34,56,-53,178,-71,262r-190,0v24,-109,40,-232,88,-313v67,-113,298,-255,374,-370v23,-35,34,-72,34,-110","w":1087},"@":{"d":"1481,147v-159,121,-360,207,-613,207v-215,0,-394,-71,-536,-214v-142,-143,-213,-323,-213,-541v0,-150,35,-295,105,-435v122,-244,334,-445,611,-541v120,-42,243,-63,369,-63v214,0,392,63,532,189v140,126,210,284,210,473v0,197,-68,361,-204,492v-136,131,-308,198,-519,202r30,-154v-78,84,-176,146,-317,150v-194,4,-340,-154,-340,-350v0,-147,49,-274,148,-384v99,-110,215,-165,348,-165v130,0,229,63,276,151r27,-131r143,0r-143,738v233,-32,405,-270,405,-541v0,-155,-55,-282,-165,-380v-110,-98,-252,-148,-427,-148v-433,0,-721,243,-863,549v-54,117,-81,237,-81,360v0,345,270,610,619,602v218,-5,362,-77,516,-180xm1305,-623v0,-132,-82,-223,-211,-223v-189,0,-338,184,-338,379v0,143,77,238,215,238v195,0,334,-190,334,-394","w":2048},"A":{"d":"754,-1493r229,0r277,1493r-211,0r-62,-383r-672,0r-211,383r-213,0xm827,-1294r-419,743r548,0","w":1401},"B":{"d":"956,-805v158,35,247,133,248,318v0,150,-55,269,-166,356v-111,87,-263,131,-456,131r-527,0r291,-1493r516,0v140,0,245,26,314,78v69,52,104,130,104,235v1,198,-143,352,-324,375xm995,-487v0,-170,-95,-225,-276,-226r-324,0r-106,547r325,0v229,2,381,-105,381,-321xm1069,-1141v0,-146,-95,-185,-256,-186r-299,0r-88,450r301,0v195,2,342,-84,342,-264","w":1405},"C":{"d":"696,29v-375,3,-613,-218,-610,-590v3,-271,103,-500,238,-664v150,-184,334,-295,643,-295v190,0,337,56,456,142r-41,213v-112,-113,-238,-191,-436,-191v-114,0,-213,28,-300,82v-142,88,-266,282,-316,478v-21,80,-31,162,-31,243v-1,270,144,420,412,418v218,-2,375,-75,516,-178r-47,239v-142,61,-298,102,-484,103","w":1430},"D":{"d":"346,-1493r434,0v231,0,404,49,522,147v118,98,177,242,177,435v-1,274,-109,519,-252,665v-162,166,-405,246,-735,246r-437,0xm1266,-911v-3,-306,-174,-415,-496,-416r-254,0r-225,1161r264,0v456,2,715,-282,711,-745","w":1577},"E":{"d":"346,-1493r944,0r-33,170r-743,0r-86,442r713,0r-33,170r-713,0r-104,541r760,0r-33,170r-963,0","w":1294},"F":{"d":"346,-1493r856,0r-33,170r-655,0r-86,440r592,0r-33,170r-592,0r-139,713r-201,0","w":1178},"G":{"d":"305,-555v0,280,145,420,426,420v150,0,284,-34,387,-88r78,-391r-332,0r31,-166r530,0r-129,657v-160,89,-373,151,-606,152v-370,3,-601,-221,-598,-590v2,-339,160,-624,363,-787v133,-107,290,-172,516,-172v209,0,373,56,514,142r-41,215v-107,-113,-265,-193,-469,-193v-241,0,-381,97,-496,248v-99,131,-173,335,-174,553","w":1587},"H":{"d":"346,-1493r203,0r-119,612r733,0r119,-612r203,0r-291,1493r-203,0r139,-711r-733,0r-139,711r-203,0","w":1540},"I":{"d":"346,-1493r203,0r-291,1493r-203,0","w":604},"J":{"d":"342,-1493r203,0r-271,1389v-35,181,-94,311,-178,392v-84,81,-201,122,-352,122r-80,0r33,-170v120,5,211,-12,268,-77v46,-52,82,-140,107,-267","w":604},"K":{"d":"346,-1493r203,0r-123,629r784,-629r269,0r-887,713r649,780r-246,0r-596,-727r-141,727r-203,0","w":1343},"L":{"d":"344,-1493r203,0r-256,1325r727,0r-33,168r-930,0","w":1141},"M":{"d":"346,-1493r303,0r174,1006r578,-1006r311,0r-291,1493r-196,0r254,-1309r-586,1022r-197,0r-190,-1026r-254,1313r-197,0","w":1767},"N":{"d":"346,-1493r272,0r412,1280r250,-1280r197,0r-291,1493r-273,0r-411,-1288r-250,1288r-197,0","w":1532},"O":{"d":"1315,-922v3,-262,-130,-434,-381,-434v-111,0,-208,27,-293,80v-139,86,-263,278,-313,469v-21,79,-31,158,-31,238v-2,264,128,434,381,434v109,0,206,-28,292,-81v142,-88,262,-279,313,-470v21,-79,32,-157,32,-236xm940,-1520v364,0,594,236,590,602v-3,262,-101,482,-232,639v-86,103,-179,181,-282,232v-103,51,-218,76,-344,76v-367,0,-597,-239,-590,-609v8,-404,236,-724,514,-864v103,-52,219,-76,344,-76","w":1612},"P":{"d":"1231,-1120v0,343,-243,524,-602,520r-254,0r-117,600r-203,0r291,-1493r467,0v261,-1,417,120,418,373xm1018,-1106v1,-143,-92,-221,-238,-221r-264,0r-108,561r254,0v225,1,357,-119,356,-340","w":1235},"Q":{"d":"739,27v-408,28,-658,-210,-655,-602v2,-254,103,-484,229,-637v83,-103,177,-180,281,-231v104,-51,220,-77,346,-77v364,0,590,236,590,602v0,201,-55,384,-165,551v-110,167,-254,284,-431,353r203,278r-226,0xm1315,-922v3,-262,-130,-434,-381,-434v-111,0,-208,27,-293,80v-139,86,-263,278,-313,469v-21,79,-31,158,-31,238v-2,264,128,434,381,434v109,0,206,-28,292,-81v142,-88,262,-279,313,-470v21,-79,32,-157,32,-236","w":1612},"R":{"d":"1016,-1102v0,-149,-93,-225,-246,-225r-254,0r-102,530r260,0v193,4,342,-119,342,-305xm1229,-1130v1,216,-151,382,-342,413v43,10,79,35,107,74v28,39,61,117,98,235r127,408r-213,0r-117,-383v-30,-99,-65,-165,-104,-198v-39,-33,-100,-50,-181,-50r-223,0r-123,631r-203,0r291,-1493r455,0v260,-2,427,116,428,363","w":1423},"S":{"d":"53,-274v127,79,265,139,445,139v126,0,227,-28,303,-84v76,-56,114,-129,114,-219v0,-60,-15,-105,-45,-136v-30,-31,-96,-60,-196,-85r-121,-31v-138,-36,-233,-77,-283,-124v-50,-47,-75,-113,-75,-198v0,-149,58,-269,171,-366v154,-132,405,-169,659,-123v70,13,140,32,210,57r-39,197v-114,-61,-240,-109,-393,-109v-121,0,-217,26,-288,79v-71,53,-107,123,-107,210v0,48,16,83,40,111v31,36,224,88,324,112v137,34,232,80,285,134v53,54,80,131,80,229v0,151,-59,273,-177,368v-118,95,-275,142,-468,142v-182,0,-337,-38,-480,-95","w":1300},"T":{"d":"121,-1493r1263,0r-32,170r-533,0r-256,1323r-203,0r256,-1323r-528,0","w":1251},"U":{"d":"604,29v-307,0,-522,-178,-480,-497v3,-29,8,-60,15,-93r178,-932r203,0r-176,907v-11,65,-20,109,-20,170v0,188,110,282,303,281v129,0,229,-35,301,-106v72,-71,122,-186,153,-345r176,-907r203,0r-180,932v-39,201,-114,350,-224,446v-110,96,-261,144,-452,144","w":1499},"V":{"d":"422,0r-262,-1493r198,0r217,1284r725,-1284r220,0r-863,1493r-235,0","w":1401},"W":{"d":"197,-1493r196,0r72,1270r563,-1270r225,0r74,1270r557,-1270r205,0r-664,1493r-254,0r-69,-1245r-559,1245r-254,0","w":2025},"X":{"d":"281,-1493r204,0r256,539r463,-539r236,0r-615,713r371,780r-203,0r-301,-629r-545,629r-235,0r698,-803","w":1403},"Y":{"d":"129,-1493r217,0r279,614r532,-614r227,0r-677,782r-138,711r-202,0r137,-711","w":1251},"Z":{"d":"268,-1493r1172,0r-29,154r-1157,1169r952,0r-32,170r-1219,0r29,-154r1157,-1169r-905,0","w":1403},"[":{"d":"436,-1556r424,0r-29,143r-239,0r-299,1540r239,0r-26,143r-424,0","w":799},"\\":{"d":"344,-1493r193,1683r-168,0r-195,-1683r170,0","w":690},"]":{"d":"700,-1556r-354,1826r-424,0r27,-143r239,0r299,-1540r-237,0r26,-143r424,0","w":799},"^":{"d":"956,-1493r543,557r-201,0r-440,-395r-440,395r-201,0r543,-557r196,0","w":1716},"_":{"d":"1044,340r0,143r-1064,0r0,-143r1064,0","w":1024},"`":{"d":"586,-1638r209,374r-154,0r-252,-374r197,0","w":1024},"a":{"d":"715,-1147v275,-5,437,134,400,413v-3,30,-8,62,-15,95r-125,639r-184,0r34,-170v-96,119,-221,196,-415,199v-184,4,-326,-130,-326,-312v0,-131,52,-234,156,-310v104,-76,249,-114,432,-114r256,0v5,-34,15,-55,14,-96v0,-59,-24,-106,-72,-139v-87,-62,-259,-59,-388,-26v-63,15,-128,38,-195,69r32,-170v121,-45,248,-76,396,-78xm274,-315v0,121,84,188,209,188v100,0,187,-35,262,-107v84,-79,134,-190,156,-329r-184,0v-151,0,-263,21,-335,61v-72,40,-108,102,-108,187","w":1255},"b":{"d":"350,-420v-2,172,84,295,246,295v223,0,323,-171,383,-351v24,-72,35,-142,35,-208v2,-179,-83,-309,-250,-309v-220,0,-322,174,-380,355v-23,73,-34,145,-34,218xm610,29v-163,0,-259,-80,-319,-199r-33,170r-184,0r303,-1556r184,0r-119,606v78,-108,216,-196,385,-197v238,-2,378,181,375,430v-3,244,-100,446,-229,584v-85,91,-205,162,-363,162","w":1300},"c":{"d":"557,29v-288,2,-465,-148,-463,-430v2,-262,103,-443,248,-584v127,-124,360,-197,599,-145v51,12,104,30,157,53r-37,182v-108,-86,-304,-129,-463,-65v-53,21,-96,51,-133,88v-102,103,-180,258,-180,446v0,203,101,299,305,299v130,0,238,-42,340,-92r-35,182v-98,41,-207,65,-338,66","w":1126},"d":{"d":"686,-1147v158,0,265,84,318,201r120,-610r185,0r-303,1556r-185,0r35,-168v-88,116,-213,196,-399,197v-235,2,-366,-180,-363,-428v3,-250,98,-446,230,-586v86,-91,203,-162,362,-162xm948,-700v2,-173,-84,-295,-246,-295v-223,0,-323,172,-382,352v-24,73,-35,144,-35,211v-2,178,81,307,247,307v136,0,225,-72,289,-164v70,-99,125,-253,127,-411","w":1300},"e":{"d":"985,-660v34,-194,-76,-331,-260,-331v-91,0,-172,29,-242,87v-70,58,-123,139,-159,245xm1169,-727v0,74,-10,142,-24,211r-856,0v-6,40,-9,62,-10,98v0,192,128,292,327,291v171,-1,312,-41,426,-106r-35,182v-121,49,-259,79,-419,80v-296,3,-484,-144,-484,-428v0,-262,101,-454,246,-594v95,-91,239,-152,414,-154v251,-2,418,168,415,420","w":1260},"f":{"d":"979,-1556r-29,153v-114,3,-262,-12,-322,39v-46,39,-71,158,-87,244r303,0r-27,143r-303,0r-190,977r-185,0r191,-977r-176,0r26,-143r176,0r15,-78v25,-132,69,-225,133,-278v64,-53,164,-80,301,-80r174,0","w":721},"g":{"d":"682,-1147v160,0,273,82,322,201r32,-174r185,0r-191,981v-37,190,-106,332,-210,425v-104,93,-244,140,-419,140v-132,0,-241,-20,-335,-59r34,-179v83,54,178,86,306,86v250,0,394,-149,436,-370r16,-84v-91,105,-220,179,-399,180v-236,2,-368,-175,-365,-422v3,-235,100,-434,225,-567v83,-89,206,-158,363,-158xm285,-440v-1,175,82,286,250,286v117,0,214,-52,292,-158v78,-106,117,-238,117,-397v0,-172,-82,-284,-246,-284v-108,0,-197,48,-252,110v-92,102,-160,261,-161,443","w":1300},"h":{"d":"848,-1147v221,-3,338,148,306,382v-3,27,-7,57,-13,89r-131,676r-185,0r131,-669v6,-31,10,-59,14,-83v27,-149,-55,-237,-196,-235v-215,2,-359,169,-397,366r-121,621r-184,0r303,-1556r184,0r-119,612v81,-112,230,-201,408,-203","w":1298},"i":{"d":"375,-1556r184,0r-45,233r-184,0xm291,-1120r184,0r-219,1120r-184,0","w":569},"j":{"d":"297,-1120r184,0r-222,1145v-25,127,-53,215,-85,262v-60,90,-183,140,-336,139r-69,0r30,-156v85,3,166,-8,201,-45v29,-31,55,-98,76,-205xm383,-1556r184,0r-45,233r-184,0","w":569},"k":{"d":"375,-1556r184,0r-176,907r631,-471r239,0r-704,536r514,584r-223,0r-478,-547r-106,547r-184,0","w":1186},"l":{"d":"375,-1556r184,0r-303,1556r-184,0","w":569},"m":{"d":"1554,-1147v219,0,326,158,297,391v-3,26,-7,53,-12,80r-131,676r-184,0r129,-670v8,-46,15,-83,16,-127v1,-119,-71,-191,-190,-190v-89,0,-169,34,-239,101v-70,67,-115,154,-136,261r-123,625r-184,0r131,-670v9,-41,16,-82,16,-125v1,-119,-70,-193,-188,-192v-91,0,-171,34,-241,101v-70,67,-115,154,-136,261r-123,625r-184,0r219,-1120r184,0r-35,174v87,-114,212,-199,391,-201v165,-2,276,95,295,242v56,-79,120,-139,194,-180v74,-41,152,-62,234,-62","w":1995},"n":{"d":"848,-1147v221,-3,338,148,306,382v-3,27,-7,57,-13,89r-131,676r-185,0r131,-669v6,-31,10,-59,14,-83v27,-149,-55,-237,-196,-235v-217,2,-355,166,-395,366r-123,621r-184,0r217,-1120r184,0r-37,176v89,-114,230,-200,412,-203","w":1298},"o":{"d":"733,-1147v251,0,426,179,426,430v0,181,-62,378,-141,484v-116,157,-255,259,-498,262v-266,4,-426,-182,-426,-453v0,-171,66,-359,142,-461v67,-89,140,-155,221,-198v81,-43,173,-64,276,-64xm969,-698v1,-184,-80,-293,-256,-293v-165,0,-256,82,-330,196v-59,91,-98,222,-98,365v0,192,74,303,256,303v123,0,226,-53,307,-161v81,-108,121,-245,121,-410","w":1253},"p":{"d":"354,-416v-1,175,80,291,246,291v135,0,227,-71,289,-160v66,-95,126,-255,127,-405v1,-182,-77,-303,-248,-303v-133,0,-224,75,-289,164v-69,95,-124,257,-125,413xm614,29v-167,0,-271,-73,-321,-197r-115,594r-184,0r301,-1546r184,0r-33,170v88,-116,212,-197,398,-197v241,0,365,174,362,428v-2,249,-97,446,-229,586v-86,92,-203,162,-363,162","w":1300},"q":{"d":"686,-1147v170,0,274,69,320,197r32,-168r185,0r-299,1540r-185,0r115,-590v-88,116,-212,196,-397,197v-238,2,-366,-180,-363,-430v3,-246,100,-444,230,-584v84,-91,204,-162,362,-162xm946,-696v0,-179,-77,-297,-246,-297v-136,0,-226,70,-290,159v-69,96,-124,253,-125,406v-1,182,72,303,241,303v116,0,215,-56,297,-167v82,-111,123,-245,123,-404","w":1300},"r":{"d":"440,-946v94,-124,240,-218,450,-198v19,2,39,7,58,12r-35,182v-36,-20,-86,-31,-141,-31v-98,0,-184,37,-257,111v-73,74,-122,174,-146,299r-113,571r-184,0r219,-1120r184,0","w":842},"s":{"d":"59,-231v114,58,238,106,387,106v90,0,164,-19,220,-58v56,-39,84,-88,84,-147v0,-64,-74,-117,-222,-155v-173,-45,-352,-84,-352,-273v0,-119,44,-214,134,-284v90,-70,212,-105,366,-105v133,0,244,23,348,60r-35,174v-88,-49,-193,-79,-321,-80v-97,0,-172,16,-228,49v-56,33,-84,78,-84,135v0,66,65,117,194,152r81,24v123,34,204,70,245,107v41,37,62,88,62,153v0,119,-49,214,-142,290v-131,106,-342,134,-557,95v-65,-11,-137,-29,-216,-53","w":1067},"t":{"d":"481,0v-221,3,-344,-89,-322,-308v2,-18,5,-39,9,-61r119,-608r-156,0r29,-143r153,0r62,-318r184,0r-61,318r368,0r-28,143r-367,0r-119,608v-4,23,-7,42,-9,57v-17,115,42,158,159,158r186,0r-31,154r-176,0","w":803},"u":{"d":"428,29v-219,4,-339,-149,-306,-380v4,-30,8,-61,15,-93r131,-676r185,0r-131,669v-10,51,-19,94,-19,142v-1,117,78,179,199,178v99,0,184,-33,256,-100v72,-67,119,-156,141,-269r123,-620r184,0r-217,1120r-184,0r37,-176v-90,115,-229,202,-414,205","w":1298},"v":{"d":"147,-1120r195,0r164,952r536,-952r195,0r-637,1120r-248,0","w":1212},"w":{"d":"174,-1120r182,0r47,901r418,-901r213,0r62,901r397,-901r184,0r-512,1120r-215,0r-55,-928r-428,928r-217,0","w":1675},"x":{"d":"1229,-1120r-514,549r315,571r-211,0r-237,-444r-412,444r-223,0r551,-590r-293,-530r211,0r215,405r375,-405r223,0","w":1212},"y":{"d":"508,104v-85,143,-154,232,-208,268v-54,36,-123,54,-206,54r-145,0r31,-154r106,0v51,0,94,-15,131,-42v54,-39,133,-184,178,-271r-248,-1079r195,0r186,858r514,-858r193,0","w":1212},"z":{"d":"238,-1120r874,0r-33,168r-843,805r696,0r-29,147r-909,0r33,-168r843,-805r-661,0","w":1075},"{":{"d":"520,-377v-3,-126,-73,-159,-211,-160r-61,0r28,-147v112,4,221,-9,270,-54v41,-38,74,-105,95,-206v44,-204,59,-452,199,-549v80,-55,163,-62,317,-63r82,0r-29,143r-77,0v-91,0,-152,13,-183,39v-31,26,-56,90,-78,190v-35,160,-63,390,-144,484v-41,48,-97,80,-171,94v107,24,173,117,150,253v-3,22,-6,46,-11,71r-47,244v-6,36,-10,70,-10,108v0,98,69,119,182,120r78,0r-29,144r-71,0v-125,0,-214,-19,-269,-54v-69,-45,-91,-135,-78,-244v13,-105,38,-205,56,-306v6,-34,13,-74,12,-107"},"|":{"d":"430,-1565r0,2048r-170,0r0,-2048r170,0","w":690},"}":{"d":"733,-846v3,127,73,159,211,160r62,0r-29,147v-112,-4,-221,9,-269,55v-41,38,-70,106,-92,205v-31,140,-61,335,-114,441v-71,141,-182,175,-406,172r-82,0r29,-144r78,0v91,0,152,-14,183,-40v31,-26,56,-89,77,-189v34,-160,63,-391,144,-485v41,-48,97,-79,171,-92v-107,-26,-171,-116,-150,-254v2,-21,6,-45,11,-70r47,-243v7,-40,10,-68,10,-109v0,-99,-69,-120,-182,-121r-78,0r27,-143r74,0v125,0,214,19,269,54v69,44,91,133,78,242v-2,23,-7,47,-12,73r-45,235v-6,34,-13,73,-12,106"},"~":{"d":"217,-645v119,-87,210,-142,381,-148v80,-4,200,37,294,74v175,68,265,89,420,24v57,-24,118,-66,187,-122r0,178v-119,87,-210,141,-381,147v-80,4,-200,-36,-294,-73v-176,-69,-267,-88,-423,-23v-58,24,-119,66,-184,121r0,-178","w":1716},"\u00a0":{"w":651},"\u00a1":{"d":"377,0r-203,0r127,-655r90,-357r162,0r-49,357xm616,-1239r-202,0r49,-254r205,0","w":821},"\u00a2":{"d":"758,-985v-237,25,-423,286,-418,559v3,186,85,275,250,301xm563,29v-254,-15,-411,-165,-411,-430v0,-400,266,-721,636,-744r56,-285r100,0r-55,285v102,10,184,32,264,68r-35,182v-69,-53,-148,-79,-260,-94r-168,862v111,-10,205,-45,297,-92r-35,182v-82,36,-181,59,-288,66r-60,284r-100,0"},"\u00a3":{"d":"1270,-1278v-70,-46,-154,-82,-256,-82v-98,0,-172,27,-221,80v-49,53,-89,148,-115,287r-41,215r391,0r-29,143r-391,0r-90,465r537,0r-33,170r-973,0r33,-170r235,0r91,-465r-199,0r29,-143r198,0r45,-238v35,-175,97,-301,183,-383v109,-104,306,-146,502,-106v47,10,93,25,139,45"},"\u00a4":{"d":"653,-1067v98,0,168,31,238,74r207,-209r114,115r-206,206v43,69,73,141,73,240v0,100,-32,169,-78,235r209,207r-114,113r-207,-207v-68,46,-137,78,-236,78v-95,0,-170,-33,-239,-74r-207,207r-113,-115r207,-206v-42,-70,-74,-141,-74,-238v0,-99,32,-170,76,-236r-207,-206r115,-115r207,207v65,-46,135,-76,235,-76xm653,-373v147,0,269,-123,269,-270v0,-147,-122,-266,-269,-266v-145,0,-270,120,-270,266v0,148,123,270,270,270"},"\u00a5":{"d":"1122,-455r-411,0r-88,455r-203,0r88,-455r-416,0r23,-123r417,0r11,-51r-54,-155r-333,0r24,-123r266,0r-204,-586r190,0r240,700r512,-700r194,0r-430,586r262,0r-24,123r-328,0r-113,155r-10,51r410,0"},"\u00a6":{"d":"430,-408r0,758r-170,0r0,-758r170,0xm430,-1432r0,758r-170,0r0,-758r170,0","w":690},"\u00a7":{"d":"602,-410v55,-33,96,-67,125,-104v58,-78,57,-151,-11,-224v-42,-45,-186,-142,-276,-198v-54,34,-96,70,-124,107v-53,72,-58,143,0,211v43,50,202,153,286,208xm352,-1006v-50,-45,-82,-88,-82,-170v0,-98,42,-180,122,-246v109,-91,277,-119,452,-84v48,10,98,25,149,44r-32,164v-79,-43,-165,-75,-267,-78v-121,-3,-233,62,-235,170v0,53,45,109,135,169v93,62,253,168,300,235v70,100,46,223,-24,319v-44,60,-104,108,-180,143v49,42,82,97,82,180v0,105,-42,189,-122,256v-109,90,-285,119,-466,84v-51,-10,-104,-24,-159,-43r32,-164v83,41,175,76,279,78v132,3,246,-57,246,-174v0,-65,-60,-139,-180,-219v-81,-54,-220,-150,-255,-202v-65,-97,-47,-219,23,-312v43,-57,103,-108,182,-150","w":1024},"\u00a8":{"d":"416,-1552r205,0r-41,202r-203,0xm807,-1552r203,0r-39,202r-203,0","w":1024},"\u00a9":{"d":"740,-1430v172,-72,396,-72,568,0v171,72,332,232,403,404v70,171,71,397,0,568v-71,171,-232,332,-403,403v-172,72,-396,72,-568,0v-171,-72,-332,-232,-403,-403v-71,-171,-70,-397,0,-568v71,-172,232,-332,403,-404xm1270,-1335v-148,-61,-342,-62,-490,0v-149,62,-287,200,-349,349v-63,150,-63,338,0,488v63,148,201,286,349,348v148,62,342,62,490,0v148,-62,285,-198,346,-347v61,-149,61,-343,0,-491v-62,-149,-198,-286,-346,-347xm1049,-1192v107,0,194,22,274,55r0,129v-77,-39,-158,-64,-262,-65v-201,-1,-316,128,-316,332v0,209,119,334,326,333v103,-1,175,-26,252,-65r0,127v-80,35,-168,56,-274,57v-281,4,-467,-174,-467,-452v0,-279,185,-454,467,-451","w":2048},"\u00aa":{"d":"295,-946v-1,80,58,130,141,129v179,-2,279,-122,305,-287v-201,4,-443,-26,-446,158xm610,-1520v205,-2,323,90,300,298v-2,18,-4,38,-7,57r-88,448r-149,0r22,-112v-71,80,-166,129,-307,131v-137,2,-238,-87,-238,-222v0,-93,38,-167,115,-220v77,-53,185,-79,324,-79r182,0r4,-51v-3,-106,-74,-135,-193,-135v-110,0,-204,29,-288,68r24,-127v91,-32,190,-55,299,-56xm104,-592r689,0r-23,123r-688,0","w":965},"\u00ab":{"d":"692,-1059r-39,201r-354,270r252,266r-37,181r-387,-418r16,-82xm1137,-1059r-39,201r-355,270r252,266r-37,181r-387,-418r17,-82","w":1264},"\u00ac":{"d":"217,-862r1282,0r0,575r-168,0r0,-405r-1114,0r0,-170","w":1716},"\u00ad":{"d":"125,-643r539,0r-31,164r-541,0","w":739},"\u00ae":{"d":"1270,-1335v-148,-61,-342,-62,-490,0v-149,62,-287,200,-349,349v-63,150,-63,338,0,488v63,148,201,286,349,348v148,62,342,62,490,0v148,-62,285,-198,346,-347v61,-149,61,-343,0,-491v-62,-149,-198,-286,-346,-347xm740,-1430v172,-72,396,-72,568,0v171,72,332,232,403,404v70,171,71,397,0,568v-71,171,-232,332,-403,403v-172,72,-396,72,-568,0v-171,-72,-332,-232,-403,-403v-71,-171,-70,-397,0,-568v71,-172,232,-332,403,-404xm1194,-932v0,-116,-67,-137,-197,-139r-123,0r0,276r123,0v131,-2,197,-21,197,-137xm1354,-934v-1,125,-85,196,-201,215v16,5,35,21,57,47v73,87,151,230,217,334r-172,0r-129,-209v-39,-64,-72,-103,-96,-121v-37,-28,-93,-27,-156,-26r0,356r-155,0r0,-836r285,0v117,0,205,20,263,60v58,40,87,99,87,180","w":2048},"\u00af":{"d":"410,-1526r598,0r-29,148r-598,0","w":1024},"\u00b0":{"d":"702,-1200v0,-102,-87,-191,-190,-191v-104,0,-190,87,-190,191v0,103,86,188,190,188v104,0,190,-85,190,-188xm195,-1200v0,-215,219,-388,440,-296v77,32,140,98,171,173v15,38,23,79,23,123v0,172,-146,315,-319,315v-176,0,-315,-139,-315,-315","w":1024},"\u00b1":{"d":"942,-1284r0,387r557,0r0,170r-557,0r0,387r-168,0r0,-387r-557,0r0,-170r557,0r0,-387r168,0xm217,-170r1282,0r0,170r-1282,0r0,-170","w":1716},"\u00b2":{"d":"512,-1520v145,-3,276,72,276,203v0,106,-58,169,-129,227r-385,308r441,0r-23,114r-618,0r22,-110r422,-340v39,-31,69,-60,88,-89v19,-29,29,-56,29,-83v0,-78,-70,-123,-154,-121v-103,3,-181,32,-270,70r25,-123v88,-32,171,-54,276,-56","w":821},"\u00b3":{"d":"598,-1305v0,-121,-165,-114,-282,-95v-41,7,-82,17,-123,30r22,-115v152,-35,350,-63,464,17v50,35,75,82,75,139v0,117,-99,191,-211,209v92,19,154,78,155,182v0,85,-39,151,-112,206v-126,95,-384,96,-553,38r24,-121v66,33,135,52,228,53v82,0,147,-15,193,-46v46,-31,69,-73,69,-128v0,-97,-83,-125,-195,-125r-86,0r23,-108v96,2,197,1,251,-36v37,-25,58,-57,58,-100","w":821},"\u00b4":{"d":"870,-1638r199,0r-399,376r-154,0","w":1024},"\u00b5":{"d":"520,29v-121,1,-227,-64,-254,-156r-108,553r-185,0r301,-1546r185,0r-136,697v-5,28,-10,65,-10,99v0,130,89,194,226,193v220,-3,323,-134,362,-336r127,-653r184,0r-172,894v-6,47,3,88,50,85v28,-2,46,-11,77,-23r-28,148v-50,24,-98,44,-162,45v-91,1,-142,-64,-141,-158v-69,98,-161,156,-316,158"},"\u00b6":{"d":"539,-649v-224,-4,-379,-132,-379,-352v0,-141,57,-257,172,-351v115,-94,260,-141,436,-141r406,0r-328,1690r-139,0r305,-1567r-191,0r-305,1567r-141,0"},"\u00b7":{"d":"283,-838r211,0r-50,254r-211,0","w":651},"\u00b8":{"d":"414,158v-2,-64,-25,-99,-56,-158r119,0v39,56,69,103,70,180v3,172,-173,238,-361,209v-29,-4,-57,-10,-86,-18r23,-131v48,19,97,32,160,32v76,1,133,-41,131,-114","w":1024},"\u00b9":{"d":"156,-778r204,0r119,-611r-229,41r22,-116r230,-39r145,0r-141,725r205,0r-23,110r-553,0","w":821},"\u00ba":{"d":"498,-813v173,1,290,-180,290,-367v0,-140,-61,-225,-196,-225v-164,-1,-285,186,-285,365v0,137,62,226,191,227xm477,-698v-200,0,-328,-133,-325,-334v1,-105,32,-190,75,-264v73,-127,210,-222,394,-224v193,-3,325,125,325,316v0,280,-196,506,-469,506xm104,-592r689,0r-23,123r-688,0","w":965},"\u00bb":{"d":"569,-141r39,-201r355,-270r-252,-267r39,-180r385,418r-15,82xm127,-141r39,-201r352,-270r-250,-267r37,-180r385,418r-14,82","w":1264},"\u00bc":{"d":"156,-778r204,0r119,-611r-229,41r22,-116r230,-39r145,0r-141,725r205,0r-23,110r-553,0xm1765,-710r-393,415r311,0xm1765,-835r166,0r-106,540r137,0r-21,109r-137,0r-37,186r-141,0r37,-186r-416,0r25,-131xm1519,-1520r179,0r-1233,1549r-181,0","w":1985},"\u00bd":{"d":"1675,-852v145,-3,276,72,276,203v0,106,-58,169,-129,227r-385,308r441,0r-23,114r-618,0r22,-110r422,-340v39,-31,69,-60,88,-89v19,-29,29,-56,29,-83v0,-78,-70,-123,-154,-121v-103,3,-181,32,-270,70r25,-123v88,-32,171,-54,276,-56xm156,-778r204,0r119,-611r-229,41r22,-116r230,-39r145,0r-141,725r205,0r-23,110r-553,0xm1519,-1520r179,0r-1233,1549r-181,0","w":1985},"\u00be":{"d":"598,-1305v0,-121,-165,-114,-282,-95v-41,7,-82,17,-123,30r22,-115v152,-35,350,-63,464,17v50,35,75,82,75,139v0,117,-99,191,-211,209v92,19,154,78,155,182v0,85,-39,151,-112,206v-126,95,-384,96,-553,38r24,-121v66,33,135,52,228,53v82,0,147,-15,193,-46v46,-31,69,-73,69,-128v0,-97,-83,-125,-195,-125r-86,0r23,-108v96,2,197,1,251,-36v37,-25,58,-57,58,-100xm1765,-710r-393,415r311,0xm1765,-835r166,0r-106,540r137,0r-21,109r-137,0r-37,186r-141,0r37,-186r-416,0r25,-131xm1519,-1520r179,0r-1233,1549r-181,0","w":1985},"\u00bf":{"d":"612,-1239r50,-254r202,0r-49,254r-203,0xm285,-299v1,108,88,165,204,162v146,-4,270,-68,381,-137r-36,188v-122,67,-243,111,-412,113v-198,3,-345,-95,-346,-279v0,-69,18,-133,54,-193v36,-60,93,-122,173,-188v66,-55,182,-141,217,-199v34,-56,52,-176,70,-260r190,0v-22,110,-41,234,-88,314v-41,69,-175,179,-256,246v-56,47,-96,88,-118,123v-22,35,-33,72,-33,110","w":1087},"\u00c0":{"d":"754,-1493r229,0r277,1493r-211,0r-62,-383r-672,0r-211,383r-213,0xm827,-1294r-419,743r548,0xm864,-1899r148,264r-140,0r-190,-264r182,0","w":1401},"\u00c1":{"d":"754,-1493r229,0r277,1493r-211,0r-62,-383r-672,0r-211,383r-213,0xm827,-1294r-419,743r548,0xm991,-1899r207,0r-307,264r-158,0","w":1401},"\u00c2":{"d":"754,-1493r229,0r277,1493r-211,0r-62,-383r-672,0r-211,383r-213,0xm827,-1294r-419,743r548,0xm817,-1901r215,0r158,266r-135,0r-140,-178r-209,178r-151,0","w":1401},"\u00c3":{"d":"754,-1493r229,0r277,1493r-211,0r-62,-383r-672,0r-211,383r-213,0xm827,-1294r-419,743r548,0xm1264,-1886v-40,126,-105,219,-250,219v-67,0,-110,-37,-153,-69v-29,-21,-56,-32,-81,-32v-58,0,-86,49,-106,101r-125,0v23,-73,56,-127,97,-164v55,-50,133,-69,212,-44v31,10,72,39,98,62v20,17,43,27,76,27v60,0,95,-46,107,-100r125,0","w":1401},"\u00c4":{"d":"754,-1493r229,0r277,1493r-211,0r-62,-383r-672,0r-211,383r-213,0xm827,-1294r-419,743r548,0xm623,-1870r204,0r-41,203r-202,0xm1014,-1870r202,0r-38,203r-203,0","w":1401},"\u00c5":{"d":"868,-1475v82,0,152,-69,152,-151v0,-82,-70,-152,-152,-152v-84,0,-151,68,-151,152v0,82,68,151,151,151xm1143,-1626v-2,116,-59,195,-142,237r259,1389r-211,0r-62,-383r-672,0r-211,383r-213,0r814,-1407v-66,-44,-109,-117,-111,-219v-3,-148,126,-275,274,-275v148,0,278,127,275,275xm827,-1294r-419,743r548,0","w":1401},"\u00c6":{"d":"932,-1335r-483,784r458,0r154,-784r-129,0xm2036,-1493r-33,170r-741,0r-88,442r712,0r-33,170r-712,0r-105,541r760,0r-33,170r-962,0r73,-383r-526,0r-235,383r-205,0r915,-1493r1213,0","w":1995},"\u00c7":{"d":"684,158v-2,-64,-25,-99,-56,-158r119,0v39,56,69,103,70,180v3,172,-173,238,-361,209v-29,-4,-57,-10,-86,-18r23,-131v48,19,97,32,160,32v76,1,133,-41,131,-114xm696,29v-375,3,-613,-218,-610,-590v3,-271,103,-500,238,-664v150,-184,334,-295,643,-295v190,0,337,56,456,142r-41,213v-112,-113,-238,-191,-436,-191v-114,0,-213,28,-300,82v-142,88,-266,282,-316,478v-21,80,-31,162,-31,243v-1,270,144,420,412,418v218,-2,375,-75,516,-178r-47,239v-142,61,-298,102,-484,103","w":1430},"\u00c8":{"d":"346,-1493r944,0r-33,170r-743,0r-86,442r713,0r-33,170r-713,0r-104,541r760,0r-33,170r-963,0xm807,-1899r148,264r-140,0r-190,-264r182,0","w":1294},"\u00c9":{"d":"346,-1493r944,0r-33,170r-743,0r-86,442r713,0r-33,170r-713,0r-104,541r760,0r-33,170r-963,0xm934,-1899r207,0r-307,264r-158,0","w":1294},"\u00ca":{"d":"346,-1493r944,0r-33,170r-743,0r-86,442r713,0r-33,170r-713,0r-104,541r760,0r-33,170r-963,0xm760,-1901r215,0r158,266r-135,0r-140,-178r-209,178r-151,0","w":1294},"\u00cb":{"d":"346,-1493r944,0r-33,170r-743,0r-86,442r713,0r-33,170r-713,0r-104,541r760,0r-33,170r-963,0xm566,-1870r204,0r-41,203r-202,0xm957,-1870r202,0r-38,203r-203,0","w":1294},"\u00cc":{"d":"346,-1493r203,0r-291,1493r-203,0xm450,-1899r148,264r-140,0r-190,-264r182,0","w":604},"\u00cd":{"d":"346,-1493r203,0r-291,1493r-203,0xm577,-1899r207,0r-307,264r-158,0","w":604},"\u00ce":{"d":"346,-1493r203,0r-291,1493r-203,0xm403,-1901r215,0r158,266r-135,0r-140,-178r-209,178r-151,0","w":604},"\u00cf":{"d":"346,-1493r203,0r-291,1493r-203,0xm209,-1870r204,0r-41,203r-202,0xm600,-1870r202,0r-38,203r-203,0","w":604},"\u00d0":{"d":"356,-1493r435,0v230,0,403,49,521,147v118,98,177,242,177,435v-1,274,-111,519,-254,665v-162,166,-403,246,-733,246r-436,0r135,-700r-201,0r29,-144r200,0xm1276,-911v-3,-306,-174,-415,-496,-416r-254,0r-94,483r336,0r-29,144r-336,0r-102,534r264,0v457,2,715,-282,711,-745","w":1587},"\u00d1":{"d":"346,-1493r272,0r412,1280r250,-1280r197,0r-291,1493r-273,0r-411,-1288r-250,1288r-197,0xm1301,-1886v-39,126,-105,219,-250,219v-68,0,-110,-37,-153,-69v-29,-21,-56,-32,-81,-32v-58,0,-86,49,-106,101r-125,0v23,-73,55,-127,96,-164v55,-49,132,-69,212,-44v31,10,73,38,99,62v20,17,43,27,76,27v59,0,94,-47,107,-100r125,0","w":1532},"\u00d2":{"d":"1315,-922v3,-262,-130,-434,-381,-434v-111,0,-208,27,-293,80v-139,86,-263,278,-313,469v-21,79,-31,158,-31,238v-2,264,128,434,381,434v109,0,206,-28,292,-81v142,-88,262,-279,313,-470v21,-79,32,-157,32,-236xm940,-1520v364,0,594,236,590,602v-3,262,-101,482,-232,639v-86,103,-179,181,-282,232v-103,51,-218,76,-344,76v-367,0,-597,-239,-590,-609v8,-404,236,-724,514,-864v103,-52,219,-76,344,-76xm987,-1899r148,264r-140,0r-190,-264r182,0","w":1612},"\u00d3":{"d":"1315,-922v3,-262,-130,-434,-381,-434v-111,0,-208,27,-293,80v-139,86,-263,278,-313,469v-21,79,-31,158,-31,238v-2,264,128,434,381,434v109,0,206,-28,292,-81v142,-88,262,-279,313,-470v21,-79,32,-157,32,-236xm940,-1520v364,0,594,236,590,602v-3,262,-101,482,-232,639v-86,103,-179,181,-282,232v-103,51,-218,76,-344,76v-367,0,-597,-239,-590,-609v8,-404,236,-724,514,-864v103,-52,219,-76,344,-76xm1114,-1899r207,0r-307,264r-158,0","w":1612},"\u00d4":{"d":"1315,-922v3,-262,-130,-434,-381,-434v-111,0,-208,27,-293,80v-139,86,-263,278,-313,469v-21,79,-31,158,-31,238v-2,264,128,434,381,434v109,0,206,-28,292,-81v142,-88,262,-279,313,-470v21,-79,32,-157,32,-236xm940,-1520v364,0,594,236,590,602v-3,262,-101,482,-232,639v-86,103,-179,181,-282,232v-103,51,-218,76,-344,76v-367,0,-597,-239,-590,-609v8,-404,236,-724,514,-864v103,-52,219,-76,344,-76xm940,-1901r215,0r158,266r-135,0r-140,-178r-209,178r-151,0","w":1612},"\u00d5":{"d":"1315,-922v3,-262,-130,-434,-381,-434v-111,0,-208,27,-293,80v-139,86,-263,278,-313,469v-21,79,-31,158,-31,238v-2,264,128,434,381,434v109,0,206,-28,292,-81v142,-88,262,-279,313,-470v21,-79,32,-157,32,-236xm940,-1520v364,0,594,236,590,602v-3,262,-101,482,-232,639v-86,103,-179,181,-282,232v-103,51,-218,76,-344,76v-367,0,-597,-239,-590,-609v8,-404,236,-724,514,-864v103,-52,219,-76,344,-76xm1387,-1886v-39,126,-105,219,-250,219v-68,0,-110,-37,-153,-69v-29,-21,-56,-32,-81,-32v-58,0,-86,49,-106,101r-125,0v23,-73,55,-127,96,-164v55,-49,132,-69,212,-44v31,10,73,38,99,62v20,17,43,27,76,27v59,0,94,-47,107,-100r125,0","w":1612},"\u00d6":{"d":"1315,-922v3,-262,-130,-434,-381,-434v-111,0,-208,27,-293,80v-139,86,-263,278,-313,469v-21,79,-31,158,-31,238v-2,264,128,434,381,434v109,0,206,-28,292,-81v142,-88,262,-279,313,-470v21,-79,32,-157,32,-236xm940,-1520v364,0,594,236,590,602v-3,262,-101,482,-232,639v-86,103,-179,181,-282,232v-103,51,-218,76,-344,76v-367,0,-597,-239,-590,-609v8,-404,236,-724,514,-864v103,-52,219,-76,344,-76xm746,-1870r204,0r-41,203r-202,0xm1137,-1870r202,0r-38,203r-203,0","w":1612},"\u00d7":{"d":"1436,-1100r-457,459r457,457r-119,121r-459,-459r-459,459r-118,-121r456,-457r-456,-459r118,-121r459,459r459,-459","w":1716},"\u00d8":{"d":"1223,-1235v-58,-78,-155,-121,-289,-121v-110,0,-206,28,-292,81v-142,88,-262,281,-314,471v-37,135,-45,279,-9,409xm381,-270v64,85,155,134,297,135v109,0,206,-28,292,-81v143,-88,264,-282,314,-472v36,-133,46,-303,4,-428xm672,29v-194,0,-336,-62,-432,-166r-220,203r-90,-99r230,-213v-47,-96,-78,-199,-78,-329v0,-254,104,-483,231,-637v83,-103,177,-180,281,-231v104,-51,220,-77,346,-77v188,1,320,59,424,154r203,-193r90,99r-209,198v103,176,99,468,21,682v-81,224,-257,437,-453,533v-103,51,-218,76,-344,76","w":1612},"\u00d9":{"d":"604,29v-307,0,-522,-178,-480,-497v3,-29,8,-60,15,-93r178,-932r203,0r-176,907v-11,65,-20,109,-20,170v0,188,110,282,303,281v129,0,229,-35,301,-106v72,-71,122,-186,153,-345r176,-907r203,0r-180,932v-39,201,-114,350,-224,446v-110,96,-261,144,-452,144xm897,-1899r148,264r-140,0r-190,-264r182,0","w":1499},"\u00da":{"d":"604,29v-307,0,-522,-178,-480,-497v3,-29,8,-60,15,-93r178,-932r203,0r-176,907v-11,65,-20,109,-20,170v0,188,110,282,303,281v129,0,229,-35,301,-106v72,-71,122,-186,153,-345r176,-907r203,0r-180,932v-39,201,-114,350,-224,446v-110,96,-261,144,-452,144xm1024,-1899r207,0r-307,264r-158,0","w":1499},"\u00db":{"d":"604,29v-307,0,-522,-178,-480,-497v3,-29,8,-60,15,-93r178,-932r203,0r-176,907v-11,65,-20,109,-20,170v0,188,110,282,303,281v129,0,229,-35,301,-106v72,-71,122,-186,153,-345r176,-907r203,0r-180,932v-39,201,-114,350,-224,446v-110,96,-261,144,-452,144xm850,-1901r215,0r158,266r-135,0r-140,-178r-209,178r-151,0","w":1499},"\u00dc":{"d":"604,29v-307,0,-522,-178,-480,-497v3,-29,8,-60,15,-93r178,-932r203,0r-176,907v-11,65,-20,109,-20,170v0,188,110,282,303,281v129,0,229,-35,301,-106v72,-71,122,-186,153,-345r176,-907r203,0r-180,932v-39,201,-114,350,-224,446v-110,96,-261,144,-452,144xm656,-1870r204,0r-41,203r-202,0xm1047,-1870r202,0r-38,203r-203,0","w":1499},"\u00dd":{"d":"129,-1493r217,0r279,614r532,-614r227,0r-677,782r-138,711r-202,0r137,-711xm901,-1899r207,0r-307,264r-158,0","w":1251},"\u00de":{"d":"1182,-856v0,343,-243,522,-602,518r-256,0r-66,338r-203,0r291,-1493r203,0r-51,264r266,0v261,-1,417,120,418,373xm969,-844v0,-142,-92,-219,-238,-219r-264,0r-109,559r254,0v225,1,358,-118,357,-340","w":1245},"\u00df":{"d":"1028,-1188v26,-140,-71,-217,-209,-215v-189,3,-287,103,-319,270r-219,1133r-185,0r221,-1137v44,-245,223,-418,500,-419v234,-1,419,143,388,388v-2,20,-5,43,-9,68v-108,5,-195,31,-262,76v-67,45,-100,99,-100,164v0,96,79,139,139,188v78,64,133,116,160,160v27,44,41,92,41,145v0,115,-47,208,-139,284v-120,99,-307,132,-503,99v-47,-8,-91,-20,-133,-36r31,-164v79,35,169,57,275,59v147,2,276,-72,278,-205v0,-30,-8,-57,-23,-84v-18,-34,-104,-109,-153,-149v-65,-54,-109,-100,-131,-137v-22,-37,-33,-78,-33,-123v0,-84,35,-160,106,-227v71,-67,164,-113,279,-138","w":1290},"\u00e0":{"d":"686,-1638r209,374r-154,0r-252,-374r197,0xm715,-1147v275,-5,437,134,400,413v-3,30,-8,62,-15,95r-125,639r-184,0r34,-170v-96,119,-221,196,-415,199v-184,4,-326,-130,-326,-312v0,-131,52,-234,156,-310v104,-76,249,-114,432,-114r256,0v5,-34,15,-55,14,-96v0,-59,-24,-106,-72,-139v-87,-62,-259,-59,-388,-26v-63,15,-128,38,-195,69r32,-170v121,-45,248,-76,396,-78xm274,-315v0,121,84,188,209,188v100,0,187,-35,262,-107v84,-79,134,-190,156,-329r-184,0v-151,0,-263,21,-335,61v-72,40,-108,102,-108,187","w":1255},"\u00e1":{"d":"970,-1638r199,0r-399,376r-154,0xm715,-1147v275,-5,437,134,400,413v-3,30,-8,62,-15,95r-125,639r-184,0r34,-170v-96,119,-221,196,-415,199v-184,4,-326,-130,-326,-312v0,-131,52,-234,156,-310v104,-76,249,-114,432,-114r256,0v5,-34,15,-55,14,-96v0,-59,-24,-106,-72,-139v-87,-62,-259,-59,-388,-26v-63,15,-128,38,-195,69r32,-170v121,-45,248,-76,396,-78xm274,-315v0,121,84,188,209,188v100,0,187,-35,262,-107v84,-79,134,-190,156,-329r-184,0v-151,0,-263,21,-335,61v-72,40,-108,102,-108,187","w":1255},"\u00e2":{"d":"757,-1638r148,0r172,376r-139,0r-127,-237r-234,237r-139,0xm715,-1147v275,-5,437,134,400,413v-3,30,-8,62,-15,95r-125,639r-184,0r34,-170v-96,119,-221,196,-415,199v-184,4,-326,-130,-326,-312v0,-131,52,-234,156,-310v104,-76,249,-114,432,-114r256,0v5,-34,15,-55,14,-96v0,-59,-24,-106,-72,-139v-87,-62,-259,-59,-388,-26v-63,15,-128,38,-195,69r32,-170v121,-45,248,-76,396,-78xm274,-315v0,121,84,188,209,188v100,0,187,-35,262,-107v84,-79,134,-190,156,-329r-184,0v-151,0,-263,21,-335,61v-72,40,-108,102,-108,187","w":1255},"\u00e3":{"d":"901,-1309v-57,-1,-99,-27,-127,-61v-30,-36,-53,-82,-106,-94v-26,0,-47,12,-64,36v-17,24,-32,64,-43,119r-125,0v20,-91,51,-161,94,-209v57,-64,140,-95,225,-58v44,19,75,65,105,101v17,20,32,32,59,39v25,0,47,-12,63,-36v16,-24,31,-63,44,-119r125,0v-19,91,-50,161,-93,209v-43,48,-96,73,-157,73xm715,-1147v275,-5,437,134,400,413v-3,30,-8,62,-15,95r-125,639r-184,0r34,-170v-96,119,-221,196,-415,199v-184,4,-326,-130,-326,-312v0,-131,52,-234,156,-310v104,-76,249,-114,432,-114r256,0v5,-34,15,-55,14,-96v0,-59,-24,-106,-72,-139v-87,-62,-259,-59,-388,-26v-63,15,-128,38,-195,69r32,-170v121,-45,248,-76,396,-78xm274,-315v0,121,84,188,209,188v100,0,187,-35,262,-107v84,-79,134,-190,156,-329r-184,0v-151,0,-263,21,-335,61v-72,40,-108,102,-108,187","w":1255},"\u00e4":{"d":"516,-1552r205,0r-41,202r-203,0xm907,-1552r203,0r-39,202r-203,0xm715,-1147v275,-5,437,134,400,413v-3,30,-8,62,-15,95r-125,639r-184,0r34,-170v-96,119,-221,196,-415,199v-184,4,-326,-130,-326,-312v0,-131,52,-234,156,-310v104,-76,249,-114,432,-114r256,0v5,-34,15,-55,14,-96v0,-59,-24,-106,-72,-139v-87,-62,-259,-59,-388,-26v-63,15,-128,38,-195,69r32,-170v121,-45,248,-76,396,-78xm274,-315v0,121,84,188,209,188v100,0,187,-35,262,-107v84,-79,134,-190,156,-329r-184,0v-151,0,-263,21,-335,61v-72,40,-108,102,-108,187","w":1255},"\u00e5":{"d":"715,-1147v275,-5,437,134,400,413v-3,30,-8,62,-15,95r-125,639r-184,0r34,-170v-96,119,-221,196,-415,199v-184,4,-326,-130,-326,-312v0,-131,52,-234,156,-310v104,-76,249,-114,432,-114r256,0v5,-34,15,-55,14,-96v0,-59,-24,-106,-72,-139v-87,-62,-259,-59,-388,-26v-63,15,-128,38,-195,69r32,-170v121,-45,248,-76,396,-78xm274,-315v0,121,84,188,209,188v100,0,187,-35,262,-107v84,-79,134,-190,156,-329r-184,0v-151,0,-263,21,-335,61v-72,40,-108,102,-108,187xm802,-1798v151,0,275,123,275,274v0,150,-125,275,-275,275v-148,0,-274,-126,-274,-275v0,-150,125,-274,274,-274xm802,-1372v88,0,152,-65,152,-152v0,-83,-69,-151,-152,-151v-87,0,-151,65,-151,151v0,86,64,152,151,152","w":1255},"\u00e6":{"d":"1763,-660v34,-194,-75,-331,-260,-331v-91,0,-172,29,-242,87v-70,58,-123,139,-159,245xm451,29v-218,2,-367,-105,-367,-312v0,-131,52,-234,156,-310v104,-76,249,-114,432,-114r256,0v5,-34,15,-55,14,-96v0,-59,-24,-106,-72,-139v-87,-62,-259,-59,-388,-26v-63,15,-128,38,-195,69r32,-170v121,-45,248,-78,396,-78v189,0,313,57,375,182v103,-109,246,-180,442,-182v251,-3,419,168,416,420v0,74,-11,142,-25,211r-856,0v-6,40,-9,62,-10,98v0,192,128,292,327,291v170,-1,313,-41,426,-106r-34,182v-122,49,-259,79,-420,80v-224,0,-377,-78,-451,-228v-68,79,-139,136,-212,173v-73,37,-154,55,-242,55xm274,-315v0,121,84,188,209,188v100,0,187,-35,262,-107v84,-79,134,-190,156,-329r-184,0v-151,0,-263,21,-335,61v-72,40,-108,102,-108,187","w":2038},"\u00e7":{"d":"533,158v-2,-64,-25,-99,-56,-158r119,0v39,56,69,103,70,180v3,172,-173,238,-361,209v-29,-4,-57,-10,-86,-18r23,-131v48,19,97,32,160,32v76,1,133,-41,131,-114xm557,29v-288,2,-465,-148,-463,-430v2,-262,103,-443,248,-584v127,-124,360,-197,599,-145v51,12,104,30,157,53r-37,182v-108,-86,-304,-129,-463,-65v-53,21,-96,51,-133,88v-102,103,-180,258,-180,446v0,203,101,299,305,299v130,0,238,-42,340,-92r-35,182v-98,41,-207,65,-338,66","w":1126},"\u00e8":{"d":"697,-1638r209,374r-154,0r-252,-374r197,0xm985,-660v34,-194,-76,-331,-260,-331v-91,0,-172,29,-242,87v-70,58,-123,139,-159,245xm1169,-727v0,74,-10,142,-24,211r-856,0v-6,40,-9,62,-10,98v0,192,128,292,327,291v171,-1,312,-41,426,-106r-35,182v-121,49,-259,79,-419,80v-296,3,-484,-144,-484,-428v0,-262,101,-454,246,-594v95,-91,239,-152,414,-154v251,-2,418,168,415,420","w":1260},"\u00e9":{"d":"981,-1638r199,0r-399,376r-154,0xm985,-660v34,-194,-76,-331,-260,-331v-91,0,-172,29,-242,87v-70,58,-123,139,-159,245xm1169,-727v0,74,-10,142,-24,211r-856,0v-6,40,-9,62,-10,98v0,192,128,292,327,291v171,-1,312,-41,426,-106r-35,182v-121,49,-259,79,-419,80v-296,3,-484,-144,-484,-428v0,-262,101,-454,246,-594v95,-91,239,-152,414,-154v251,-2,418,168,415,420","w":1260},"\u00ea":{"d":"768,-1638r148,0r172,376r-139,0r-127,-237r-234,237r-139,0xm985,-660v34,-194,-76,-331,-260,-331v-91,0,-172,29,-242,87v-70,58,-123,139,-159,245xm1169,-727v0,74,-10,142,-24,211r-856,0v-6,40,-9,62,-10,98v0,192,128,292,327,291v171,-1,312,-41,426,-106r-35,182v-121,49,-259,79,-419,80v-296,3,-484,-144,-484,-428v0,-262,101,-454,246,-594v95,-91,239,-152,414,-154v251,-2,418,168,415,420","w":1260},"\u00eb":{"d":"527,-1552r205,0r-41,202r-203,0xm918,-1552r203,0r-39,202r-203,0xm985,-660v34,-194,-76,-331,-260,-331v-91,0,-172,29,-242,87v-70,58,-123,139,-159,245xm1169,-727v0,74,-10,142,-24,211r-856,0v-6,40,-9,62,-10,98v0,192,128,292,327,291v171,-1,312,-41,426,-106r-35,182v-121,49,-259,79,-419,80v-296,3,-484,-144,-484,-428v0,-262,101,-454,246,-594v95,-91,239,-152,414,-154v251,-2,418,168,415,420","w":1260},"\u00ec":{"d":"328,-1638r209,374r-154,0r-252,-374r197,0xm291,-1120r184,0r-219,1120r-184,0","w":569},"\u00ed":{"d":"612,-1638r199,0r-399,376r-154,0xm291,-1120r184,0r-219,1120r-184,0","w":569},"\u00ee":{"d":"399,-1638r148,0r172,376r-139,0r-127,-237r-234,237r-139,0xm291,-1120r184,0r-219,1120r-184,0","w":569},"\u00ef":{"d":"158,-1552r205,0r-41,202r-203,0xm549,-1552r203,0r-39,202r-203,0xm291,-1120r184,0r-219,1120r-184,0","w":569},"\u00f0":{"d":"526,29v-259,4,-437,-172,-434,-430v2,-185,70,-340,158,-457v119,-159,316,-273,587,-230r-124,-180r-351,107r-32,-94r327,-97r-139,-204r217,0r96,145r336,-109r35,95r-313,98v118,175,265,343,264,627v-1,198,-65,368,-154,489v-101,137,-256,237,-473,240xm283,-408v0,178,84,281,258,281v121,0,223,-53,304,-161v81,-108,122,-243,122,-406v0,-93,-17,-162,-54,-221v-52,-21,-107,-33,-174,-33v-280,-2,-456,245,-456,540","w":1253},"\u00f1":{"d":"938,-1309v-57,-1,-99,-27,-127,-61v-30,-36,-53,-82,-106,-94v-26,0,-48,12,-65,36v-17,24,-31,64,-42,119r-125,0v20,-91,52,-161,95,-209v57,-64,139,-95,224,-58v44,19,75,65,105,101v17,20,32,32,59,39v25,0,46,-12,62,-36v16,-24,32,-63,45,-119r125,0v-19,91,-51,161,-94,209v-43,48,-95,73,-156,73xm848,-1147v221,-3,338,148,306,382v-3,27,-7,57,-13,89r-131,676r-185,0r131,-669v6,-31,10,-59,14,-83v27,-149,-55,-237,-196,-235v-217,2,-355,166,-395,366r-123,621r-184,0r217,-1120r184,0r-37,176v89,-114,230,-200,412,-203","w":1298},"\u00f2":{"d":"701,-1638r209,374r-154,0r-252,-374r197,0xm733,-1147v251,0,426,179,426,430v0,181,-62,378,-141,484v-116,157,-255,259,-498,262v-266,4,-426,-182,-426,-453v0,-171,66,-359,142,-461v67,-89,140,-155,221,-198v81,-43,173,-64,276,-64xm969,-698v1,-184,-80,-293,-256,-293v-165,0,-256,82,-330,196v-59,91,-98,222,-98,365v0,192,74,303,256,303v123,0,226,-53,307,-161v81,-108,121,-245,121,-410","w":1253},"\u00f3":{"d":"985,-1638r199,0r-399,376r-154,0xm733,-1147v251,0,426,179,426,430v0,181,-62,378,-141,484v-116,157,-255,259,-498,262v-266,4,-426,-182,-426,-453v0,-171,66,-359,142,-461v67,-89,140,-155,221,-198v81,-43,173,-64,276,-64xm969,-698v1,-184,-80,-293,-256,-293v-165,0,-256,82,-330,196v-59,91,-98,222,-98,365v0,192,74,303,256,303v123,0,226,-53,307,-161v81,-108,121,-245,121,-410","w":1253},"\u00f4":{"d":"772,-1638r148,0r172,376r-139,0r-127,-237r-234,237r-139,0xm733,-1147v251,0,426,179,426,430v0,181,-62,378,-141,484v-116,157,-255,259,-498,262v-266,4,-426,-182,-426,-453v0,-171,66,-359,142,-461v67,-89,140,-155,221,-198v81,-43,173,-64,276,-64xm969,-698v1,-184,-80,-293,-256,-293v-165,0,-256,82,-330,196v-59,91,-98,222,-98,365v0,192,74,303,256,303v123,0,226,-53,307,-161v81,-108,121,-245,121,-410","w":1253},"\u00f5":{"d":"916,-1309v-57,-1,-99,-27,-127,-61v-30,-36,-53,-82,-106,-94v-26,0,-48,12,-65,36v-17,24,-31,64,-42,119r-125,0v20,-91,52,-161,95,-209v57,-64,139,-95,224,-58v44,19,75,65,105,101v17,20,32,32,59,39v25,0,46,-12,62,-36v16,-24,32,-63,45,-119r125,0v-19,91,-51,161,-94,209v-43,48,-95,73,-156,73xm733,-1147v251,0,426,179,426,430v0,181,-62,378,-141,484v-116,157,-255,259,-498,262v-266,4,-426,-182,-426,-453v0,-171,66,-359,142,-461v67,-89,140,-155,221,-198v81,-43,173,-64,276,-64xm969,-698v1,-184,-80,-293,-256,-293v-165,0,-256,82,-330,196v-59,91,-98,222,-98,365v0,192,74,303,256,303v123,0,226,-53,307,-161v81,-108,121,-245,121,-410","w":1253},"\u00f6":{"d":"531,-1552r205,0r-41,202r-203,0xm922,-1552r203,0r-39,202r-203,0xm733,-1147v251,0,426,179,426,430v0,181,-62,378,-141,484v-116,157,-255,259,-498,262v-266,4,-426,-182,-426,-453v0,-171,66,-359,142,-461v67,-89,140,-155,221,-198v81,-43,173,-64,276,-64xm969,-698v1,-184,-80,-293,-256,-293v-165,0,-256,82,-330,196v-59,91,-98,222,-98,365v0,192,74,303,256,303v123,0,226,-53,307,-161v81,-108,121,-245,121,-410","w":1253},"\u00f7":{"d":"735,-1135r246,0r0,246r-246,0r0,-246xm735,-395r246,0r0,245r-246,0r0,-245xm217,-727r1282,0r0,170r-1282,0r0,-170","w":1716},"\u00f8":{"d":"901,-922v-46,-44,-104,-68,-188,-69v-124,0,-226,54,-306,161v-91,121,-130,279,-119,478v1,14,4,26,7,37xm520,29v-126,-1,-221,-41,-291,-105r-172,170r-86,-84r183,-182v-78,-126,-71,-335,-20,-500v58,-189,178,-333,322,-411v80,-44,173,-64,277,-64v126,1,222,40,293,103r162,-164r86,86r-172,172v72,135,69,334,18,502v-58,191,-175,335,-320,413v-80,44,-175,64,-280,64xm352,-199v48,45,102,71,189,72v126,0,229,-54,309,-163v88,-120,128,-285,117,-485v-1,-13,-3,-24,-6,-34","w":1253},"\u00f9":{"d":"692,-1638r209,374r-154,0r-252,-374r197,0xm428,29v-219,4,-339,-149,-306,-380v4,-30,8,-61,15,-93r131,-676r185,0r-131,669v-10,51,-19,94,-19,142v-1,117,78,179,199,178v99,0,184,-33,256,-100v72,-67,119,-156,141,-269r123,-620r184,0r-217,1120r-184,0r37,-176v-90,115,-229,202,-414,205","w":1298},"\u00fa":{"d":"976,-1638r199,0r-399,376r-154,0xm428,29v-219,4,-339,-149,-306,-380v4,-30,8,-61,15,-93r131,-676r185,0r-131,669v-10,51,-19,94,-19,142v-1,117,78,179,199,178v99,0,184,-33,256,-100v72,-67,119,-156,141,-269r123,-620r184,0r-217,1120r-184,0r37,-176v-90,115,-229,202,-414,205","w":1298},"\u00fb":{"d":"763,-1638r148,0r172,376r-139,0r-127,-237r-234,237r-139,0xm428,29v-219,4,-339,-149,-306,-380v4,-30,8,-61,15,-93r131,-676r185,0r-131,669v-10,51,-19,94,-19,142v-1,117,78,179,199,178v99,0,184,-33,256,-100v72,-67,119,-156,141,-269r123,-620r184,0r-217,1120r-184,0r37,-176v-90,115,-229,202,-414,205","w":1298},"\u00fc":{"d":"522,-1552r205,0r-41,202r-203,0xm913,-1552r203,0r-39,202r-203,0xm428,29v-219,4,-339,-149,-306,-380v4,-30,8,-61,15,-93r131,-676r185,0r-131,669v-10,51,-19,94,-19,142v-1,117,78,179,199,178v99,0,184,-33,256,-100v72,-67,119,-156,141,-269r123,-620r184,0r-217,1120r-184,0r37,-176v-90,115,-229,202,-414,205","w":1298},"\u00fd":{"d":"964,-1638r199,0r-399,376r-154,0xm508,104v-85,143,-154,232,-208,268v-54,36,-123,54,-206,54r-145,0r31,-154r106,0v51,0,94,-15,131,-42v54,-39,133,-184,178,-271r-248,-1079r195,0r186,858r514,-858r193,0","w":1212},"\u00fe":{"d":"354,-416v-1,175,80,291,246,291v135,0,227,-71,289,-160v66,-95,126,-255,127,-405v1,-182,-77,-303,-248,-303v-133,0,-224,75,-289,164v-69,95,-124,257,-125,413xm614,29v-167,0,-271,-73,-321,-197r-115,594r-184,0r381,-1982r184,0r-113,606v88,-116,212,-197,398,-197v241,0,365,174,362,428v-2,249,-97,446,-229,586v-86,92,-203,162,-363,162","w":1300},"\u00ff":{"d":"510,-1552r205,0r-41,202r-203,0xm901,-1552r203,0r-39,202r-203,0xm508,104v-85,143,-154,232,-208,268v-54,36,-123,54,-206,54r-145,0r31,-154r106,0v51,0,94,-15,131,-42v54,-39,133,-184,178,-271r-248,-1079r195,0r186,858r514,-858r193,0","w":1212},"\u0152":{"d":"307,-582v0,306,216,424,549,412r129,0r225,-1153v-154,-2,-300,2,-416,38v-86,26,-158,62,-216,111v-161,132,-271,322,-271,592xm2185,-1493r-33,170r-739,0r-88,442r711,0r-33,170r-711,0r-104,541r760,0r-33,170r-1090,0v-198,-1,-291,-11,-417,-66v-197,-86,-312,-247,-314,-516v0,-139,30,-271,92,-395v62,-124,151,-230,265,-321v165,-131,400,-195,698,-195r1036,0","w":2191},"\u0153":{"d":"2015,-727v0,74,-10,142,-24,211r-856,0v-5,32,-9,65,-9,98v0,192,127,292,326,291v170,-1,315,-41,428,-106r-37,182v-122,48,-258,79,-418,80v-206,1,-374,-73,-438,-209v-118,122,-254,205,-467,209v-251,4,-426,-179,-426,-430v0,-188,59,-375,142,-484v67,-89,140,-155,221,-198v81,-43,173,-64,276,-64v187,1,318,92,383,225v116,-131,262,-222,483,-225v252,-4,419,168,416,420xm1831,-660v34,-194,-76,-331,-260,-331v-92,0,-173,29,-243,87v-70,58,-122,139,-159,245xm969,-696v1,-186,-78,-295,-256,-295v-165,0,-256,82,-330,196v-59,91,-98,222,-98,365v0,192,74,303,256,303v123,0,226,-53,307,-160v81,-107,121,-243,121,-409","w":2105},"\u0178":{"d":"129,-1493r217,0r279,614r532,-614r227,0r-677,782r-138,711r-202,0r137,-711xm533,-1870r204,0r-41,203r-202,0xm924,-1870r202,0r-38,203r-203,0","w":1251},"\u02c6":{"d":"657,-1638r148,0r172,376r-139,0r-127,-237r-234,237r-139,0","w":1024},"\u02dc":{"d":"801,-1309v-57,-1,-99,-27,-127,-61v-30,-36,-53,-82,-106,-94v-26,0,-47,12,-64,36v-17,24,-32,64,-43,119r-125,0v20,-91,51,-161,94,-209v57,-64,140,-95,225,-58v44,19,75,65,105,101v17,20,32,32,59,39v25,0,47,-12,63,-36v16,-24,31,-63,44,-119r125,0v-19,91,-50,161,-93,209v-43,48,-96,73,-157,73","w":1024},"\u2013":{"d":"114,-633r824,0r-28,144r-824,0","w":1024},"\u2014":{"d":"114,-633r1848,0r-28,144r-1848,0","w":2048},"\u2018":{"d":"479,-1001r-211,0r35,-173r225,-319r129,0r-143,319","w":651},"\u2019":{"d":"455,-1493r211,0r-33,172r-227,320r-130,0r144,-320","w":651},"\u201a":{"d":"184,-254r211,0r-35,172r-225,320r-129,0r144,-320","w":651},"\u201c":{"d":"479,-1001r-211,0r35,-173r225,-319r129,0r-143,319xm889,-1001r-211,0r35,-173r225,-319r129,0r-143,319","w":1061},"\u201d":{"d":"455,-1493r211,0r-35,172r-225,320r-130,0r144,-320xm864,-1493r211,0r-35,172r-225,320r-129,0r143,-320","w":1061},"\u201e":{"d":"184,-254r211,0r-35,172r-225,320r-129,0r144,-320xm594,-254r211,0r-35,172r-225,320r-129,0r143,-320","w":1061},"\u2022":{"d":"604,-465v-163,0,-297,-134,-297,-297v0,-162,136,-295,299,-295v161,0,295,134,295,295v0,163,-134,297,-297,297","w":1208},"\u2026":{"d":"182,-254r211,0r-49,254r-211,0xm1548,-254r211,0r-49,254r-211,0xm864,-254r211,0r-49,254r-211,0","w":2048},"\u2039":{"d":"692,-1059r-37,201r-356,270r252,266r-37,181r-387,-418r16,-82","w":819},"\u203a":{"d":"127,-141r39,-201r356,-270r-252,-267r35,-180r387,418r-14,82","w":819},"\u20ac":{"d":"161,-643v7,-73,17,-142,32,-207r-173,0r56,-123r151,0v65,-184,150,-321,257,-411v107,-90,236,-136,388,-136v160,0,274,59,371,142r-33,213v-55,-67,-110,-117,-166,-148v-143,-80,-318,-54,-431,51v-71,66,-132,161,-179,289r520,0r-53,123r-504,0v-16,66,-27,132,-32,207r444,0r-55,123r-393,0v6,130,36,227,89,292v53,65,129,97,230,97v73,0,141,-14,205,-43v64,-29,130,-75,198,-139r-39,239v-109,60,-237,103,-389,103v-313,0,-488,-230,-496,-549r-198,0r55,-123r145,0"},"\u2122":{"d":"1098,-1493r174,256r164,-256r170,0r0,578r-113,0r0,-484r-195,303r-55,0r-203,-303r0,484r-114,0r0,-578r172,0xm813,-1493r0,94r-203,0r0,484r-114,0r0,-484r-201,0r0,-94r518,0","w":2048}}});
