/*!
 * The following copyright notice may not be removed under any circumstances.
 * 
 * Copyright:
 * Copyright (c) 2003 by Bitstream, Inc. All Rights Reserved.
 * 
 * Trademark:
 * Bitstream Vera is a trademark of Bitstream, Inc.
 * 
 * Manufacturer:
 * Bitstream Inc.
 * 
 * Vendor URL:
 * http://www.bitstream.com
 */
Cufon.registerFont({"w":1233,"face":{"font-family":"Bitstream Vera Sans Mono","font-weight":700,"font-stretch":"normal","units-per-em":"2048","panose-1":"2 11 7 9 3 6 4 2 2 4","ascent":"1556","descent":"-492","x-height":"29","bbox":"-6 -1901 1235 483","underline-thickness":"246","underline-position":"-98","unicode-range":"U+0020-U+2122"},"glyphs":{" ":{},"!":{"d":"483,-283r267,0r0,283r-267,0r0,-283xm483,-1493r267,0r0,655r-33,357r-199,0r-35,-357r0,-655"},"\"":{"d":"999,-1493r0,555r-256,0r0,-555r256,0xm487,-1493r0,555r-256,0r0,-555r256,0"},"#":{"d":"707,-1470r-95,374r203,0r94,-374r224,0r-97,374r193,0r0,215r-246,0r-74,293r205,0r0,215r-258,0r-94,373r-221,0r94,-373r-205,0r-94,373r-221,0r94,-373r-207,0r0,-215r260,0r74,-293r-219,0r0,-215r274,0r94,-374r222,0xm762,-881r-205,0r-74,293r205,0"},"$":{"d":"694,-226v79,-10,133,-64,133,-149v0,-88,-54,-139,-133,-153r0,302xm553,-1100v-77,10,-125,50,-125,133v0,85,51,130,125,150r0,-283xm164,-942v0,-234,158,-365,389,-377r0,-237r141,0r1,237v108,7,209,27,304,57r0,256v-81,-52,-181,-86,-305,-94r0,307v131,21,231,66,298,135v67,69,100,160,100,275v1,226,-172,376,-397,383r-1,301r-141,0r-1,-301v-141,-6,-263,-43,-380,-92r0,-262v114,66,232,122,381,128r0,-329v-131,-26,-229,-71,-293,-135v-64,-64,-96,-147,-96,-252"},"%":{"d":"352,-793v-173,0,-319,-145,-319,-319v0,-174,146,-320,319,-320v173,0,320,147,320,320v0,173,-147,319,-320,319xm489,-1112v0,-74,-63,-137,-137,-137v-74,0,-137,62,-137,137v0,75,63,137,137,137v76,0,137,-62,137,-137xm86,-561r1042,-418r41,96r-1048,418xm899,0v-174,0,-319,-145,-319,-319v0,-174,145,-320,319,-320v172,0,320,148,320,320v0,171,-149,319,-320,319xm1036,-319v0,-74,-65,-138,-139,-138v-74,0,-135,64,-135,138v0,75,60,137,135,137v75,0,139,-63,139,-137"},"&":{"d":"1214,-745v5,224,-37,380,-141,499r162,246r-317,0r-48,-72v-88,59,-197,99,-331,101v-287,5,-502,-190,-502,-471v0,-97,24,-185,71,-264v47,-79,116,-148,209,-207v-53,-85,-98,-160,-98,-271v0,-234,172,-338,424,-336v105,0,197,17,281,43r0,256v-74,-42,-157,-72,-260,-73v-94,-1,-159,28,-162,110v0,24,10,57,30,99v20,42,54,97,99,165r313,480v43,-71,52,-200,35,-305r235,0xm307,-496v-2,173,142,322,329,282v40,-8,85,-30,112,-48r-308,-469v-77,50,-131,122,-133,235"},"'":{"d":"743,-1493r0,555r-256,0r0,-555r256,0"},"(":{"d":"924,-1554v-88,159,-153,314,-196,463v-85,299,-85,595,0,895v43,150,108,306,196,466r-228,0v-106,-154,-185,-306,-236,-456v-103,-299,-103,-615,0,-914v52,-150,131,-302,236,-454r228,0"},")":{"d":"309,-1554r228,0v105,152,183,304,235,454v103,299,104,615,1,914v-51,150,-130,302,-236,456r-228,0v88,-160,153,-316,196,-466v85,-301,85,-596,0,-895v-43,-149,-108,-304,-196,-463"},"*":{"d":"1108,-1217r-330,173r330,174r-76,141r-332,-184r0,344r-172,0r0,-344r-331,184r-76,-141r332,-174r-332,-173r76,-141r331,182r0,-344r172,0r0,344r332,-182"},"+":{"d":"735,-1192r0,430r430,0r0,238r-430,0r0,432r-237,0r0,-432r-432,0r0,-238r432,0r0,-430r237,0"},",":{"d":"461,-367r313,0r0,271r-196,383r-216,0r99,-383r0,-271"},"-":{"d":"301,-735r631,0r0,291r-631,0r0,-291"},".":{"d":"449,-367r333,0r0,367r-333,0r0,-367"},"\/":{"d":"899,-1493r221,0r-786,1683r-221,0"},"0":{"d":"616,-621v-68,0,-124,-55,-124,-124v0,-69,56,-125,124,-125v69,0,125,56,125,125v0,68,-56,124,-125,124xm616,-1270v-68,0,-115,43,-149,125v-59,142,-60,658,0,799v35,82,81,125,149,125v69,0,116,-43,150,-125v60,-142,59,-658,0,-799v-35,-82,-81,-125,-150,-125xm123,-745v0,-259,41,-452,123,-581v82,-129,205,-194,370,-194v165,0,289,64,371,193v82,129,123,323,123,582v0,259,-41,452,-123,581v-82,129,-206,193,-371,193v-165,0,-288,-64,-370,-193v-82,-129,-123,-323,-123,-581"},"1":{"d":"188,-260r330,0r0,-969r-307,76r0,-266r309,-74r285,0r0,1233r330,0r0,260r-947,0r0,-260"},"2":{"d":"147,-1440v124,-45,256,-80,406,-80v158,0,283,36,373,110v90,74,135,175,135,302v0,154,-52,229,-131,336v-50,69,-368,383,-496,512r629,0r0,260r-948,0r0,-252r160,-170v190,-202,305,-326,346,-373v50,-57,86,-109,108,-153v22,-44,33,-88,33,-131v0,-137,-90,-212,-232,-209v-144,3,-270,60,-383,123r0,-275"},"3":{"d":"817,-428v0,-158,-105,-241,-268,-240r-158,0r0,-260r158,0v131,1,231,-48,231,-166v0,-121,-99,-178,-231,-176v-139,2,-264,37,-379,82r0,-268v121,-36,252,-63,395,-64v157,0,280,34,368,103v88,69,132,163,132,284v-1,191,-120,298,-293,328v202,34,328,162,328,389v0,309,-214,447,-543,445v-161,0,-308,-29,-432,-74r0,-274v118,59,262,95,432,96v146,1,259,-70,260,-205"},"4":{"d":"694,-1165r-377,590r377,0r0,-590xm668,-1493r309,0r0,918r164,0r0,253r-164,0r0,322r-283,0r0,-322r-592,0r0,-286"},"5":{"d":"512,-737v-124,2,-225,33,-319,78r0,-834r811,0r0,260r-572,0r0,277v47,-18,101,-27,164,-27v292,-5,498,211,498,504v0,320,-228,512,-557,508v-146,-2,-273,-26,-394,-64r0,-266v98,49,211,81,346,82v194,1,316,-78,318,-260v1,-161,-127,-261,-295,-258"},"6":{"d":"842,-477v0,-157,-57,-271,-199,-271v-142,0,-197,114,-197,271v0,157,55,270,197,270v142,0,199,-113,199,-270xm735,-1518v110,1,207,25,295,60r0,268v-88,-49,-175,-90,-291,-90v-107,0,-187,36,-243,108v-56,72,-85,177,-88,317v60,-83,154,-130,292,-130v282,0,422,194,422,489v0,320,-162,527,-471,527v-182,0,-315,-61,-397,-183v-82,-122,-123,-319,-123,-591v0,-259,50,-452,151,-581v101,-129,252,-194,453,-194"},"7":{"d":"135,-1493r944,0r0,209r-506,1284r-301,0r486,-1233r-623,0r0,-260"},"8":{"d":"838,-438v0,-134,-89,-228,-222,-228v-132,0,-221,94,-221,228v0,134,89,229,221,229v131,0,222,-98,222,-229xm129,-420v0,-193,111,-327,268,-371v-139,-47,-229,-152,-231,-327v-1,-255,186,-402,450,-402v265,0,452,146,451,402v-1,173,-91,279,-227,327v155,45,264,179,264,371v1,293,-187,449,-488,449v-301,0,-488,-156,-487,-449xm616,-1282v-113,0,-188,75,-188,188v0,116,73,191,188,191v116,0,189,-75,189,-191v0,-115,-73,-188,-189,-188"},"9":{"d":"498,39v-110,-1,-207,-25,-295,-59r0,-269v88,51,174,90,291,90v106,0,186,-36,242,-107v56,-71,86,-177,89,-318v-60,83,-154,130,-293,130v-281,0,-421,-195,-421,-489v0,-320,162,-524,471,-524v182,0,314,61,396,183v82,122,124,318,124,589v0,258,-50,452,-151,581v-101,129,-252,193,-453,193xm391,-1012v0,157,57,271,199,271v141,0,196,-114,196,-271v0,-157,-55,-270,-196,-270v-142,0,-199,113,-199,270"},":":{"d":"449,-1063r333,0r0,365r-333,0r0,-365xm449,-367r333,0r0,367r-333,0r0,-367"},";":{"d":"449,-367r333,0r0,271r-196,383r-215,0r78,-383r0,-271xm449,-1063r333,0r0,365r-333,0r0,-365"},"<":{"d":"1145,-926r-795,285r795,283r0,249r-1057,-415r0,-236r1057,-416r0,250"},"=":{"d":"88,-532r1057,0r0,237r-1057,0r0,-237xm88,-987r1057,0r0,235r-1057,0r0,-235"},">":{"d":"88,-926r0,-250r1057,416r0,236r-1057,415r0,-249r795,-283"},"?":{"d":"440,-283r267,0r0,283r-267,0r0,-283xm728,-674v-30,68,-18,178,-21,273r-267,0v1,-117,-5,-242,31,-323v51,-115,224,-234,287,-338v16,-26,22,-54,22,-83v-2,-100,-74,-137,-184,-135v-148,3,-259,66,-363,141r0,-268v114,-65,240,-111,400,-113v249,-3,431,119,432,353v0,51,-12,97,-34,141v-33,68,-147,177,-216,244v-45,44,-74,80,-87,108"},"@":{"d":"782,-303v128,0,191,-103,191,-242v0,-138,-63,-241,-191,-241v-128,0,-190,103,-190,241v0,139,62,242,190,242xm688,-1395v292,0,471,195,471,490r0,770r-196,0r0,-82v-47,66,-107,101,-213,102v-228,1,-365,-189,-365,-430v0,-241,136,-429,365,-428v99,0,170,36,213,96v12,-208,-90,-326,-287,-325v-139,0,-252,61,-340,183v-88,122,-131,281,-131,476v0,205,51,368,152,489v101,121,236,181,405,181v123,0,218,-39,299,-94r92,176v-100,68,-223,109,-381,110v-233,0,-419,-78,-558,-233v-139,-155,-208,-365,-208,-629v0,-258,62,-464,187,-619v125,-155,290,-233,495,-233"},"A":{"d":"616,-1223r-139,611r279,0xm436,-1493r361,0r403,1493r-295,0r-92,-369r-395,0r-90,369r-295,0"},"B":{"d":"860,-451v0,-169,-78,-227,-254,-227r-196,0r0,442r196,0v180,-2,254,-44,254,-215xm813,-1085v0,-131,-68,-174,-207,-175r-196,0r0,347r196,0v141,-1,207,-39,207,-172xm815,-799v223,22,344,149,344,389v0,144,-43,248,-130,313v-87,65,-228,97,-423,97r-481,0r0,-1495r481,0v166,0,290,32,374,95v84,63,126,157,126,282v0,197,-106,303,-291,319"},"C":{"d":"786,-236v133,0,210,-59,295,-135r0,328v-87,45,-185,71,-309,72v-201,0,-355,-66,-461,-199v-106,-133,-159,-324,-159,-575v0,-251,53,-443,159,-576v106,-133,260,-199,461,-199v122,0,225,27,309,72r0,328v-85,-77,-161,-135,-295,-135v-108,0,-189,43,-244,129v-55,86,-83,212,-83,381v0,168,28,295,83,381v55,86,136,128,244,128"},"D":{"d":"432,-1227r0,961r80,0v116,0,199,-37,248,-110v49,-73,74,-197,74,-372v0,-174,-25,-297,-74,-370v-49,-73,-132,-109,-248,-109r-80,0xm1141,-748v0,519,-182,743,-688,748r-316,0r0,-1493r316,0v506,5,688,227,688,745"},"E":{"d":"1098,0r-930,0r0,-1493r930,0r0,260r-635,0r0,322r575,0r0,260r-575,0r0,391r635,0r0,260"},"F":{"d":"1112,-1233r-635,0r0,322r578,0r0,260r-578,0r0,651r-295,0r0,-1493r930,0r0,260"},"G":{"d":"737,-236v57,0,105,-10,135,-34r0,-285r-202,0r0,-248r460,0r0,684v-102,88,-232,148,-407,148v-193,0,-343,-67,-448,-201v-105,-134,-158,-326,-158,-573v0,-251,53,-443,159,-576v106,-133,260,-199,461,-199v135,1,250,42,340,99r0,327v-73,-94,-170,-161,-319,-161v-112,0,-196,43,-251,127v-55,84,-83,212,-83,383v0,166,27,292,80,379v53,87,131,130,233,130"},"H":{"d":"137,-1493r295,0r0,569r369,0r0,-569r295,0r0,1493r-295,0r0,-664r-369,0r0,664r-295,0r0,-1493"},"I":{"d":"172,-1233r0,-260r889,0r0,260r-297,0r0,973r297,0r0,260r-889,0r0,-260r297,0r0,-973r-297,0"},"J":{"d":"516,29v-154,0,-289,-45,-407,-103r0,-342v96,98,215,180,380,180v160,0,224,-78,224,-243r0,-754r-361,0r0,-260r656,0r0,1014v-3,363,-134,508,-492,508"},"K":{"d":"117,-1493r295,0r0,590r462,-590r334,0r-471,588r488,905r-328,0r-354,-672r-131,166r0,506r-295,0r0,-1493"},"L":{"d":"225,0r0,-1493r295,0r0,1233r631,0r0,260r-926,0"},"M":{"d":"86,-1493r352,0r178,655r177,-655r354,0r0,1493r-254,0r0,-1196r-158,653r-235,0r-160,-653r0,1196r-254,0r0,-1493"},"N":{"d":"119,-1493r317,0r416,1085r0,-1085r260,0r0,1493r-315,0r-418,-1085r0,1085r-260,0r0,-1493"},"O":{"d":"616,-1255v-75,0,-127,42,-165,121v-66,136,-66,642,0,778v38,79,90,120,165,120v76,0,128,-41,166,-120v66,-136,66,-642,0,-778v-38,-79,-90,-121,-166,-121xm92,-745v0,-255,44,-448,132,-579v88,-131,219,-196,392,-196v173,0,304,65,392,196v88,131,133,324,133,579v0,255,-45,447,-133,578v-88,131,-219,196,-392,196v-173,0,-304,-65,-392,-196v-88,-131,-132,-323,-132,-578"},"P":{"d":"840,-1026v0,-174,-78,-217,-262,-219r-121,0r0,438r121,0v184,-2,262,-45,262,-219xm162,-1493r405,0v206,0,355,37,445,110v90,73,135,192,135,357v0,165,-45,284,-135,357v-90,73,-239,110,-445,110r-110,0r0,559r-295,0r0,-1493"},"Q":{"d":"656,23v-16,3,-26,6,-42,6v-171,0,-302,-65,-390,-196v-88,-131,-132,-323,-132,-578v0,-255,44,-448,132,-579v88,-131,219,-196,392,-196v173,0,304,65,392,196v88,131,133,324,133,579v0,175,-21,323,-63,441v-42,118,-103,202,-183,253r186,182r-202,150xm616,-1255v-75,0,-127,42,-165,121v-66,136,-66,642,0,778v38,79,90,120,165,120v76,0,128,-41,166,-120v66,-136,66,-642,0,-778v-38,-79,-90,-121,-166,-121"},"R":{"d":"1098,-1059v1,207,-106,331,-291,354v29,6,55,19,77,41v22,22,48,64,79,127r270,537r-324,0r-201,-421v-53,-113,-115,-169,-186,-169r-94,0r0,590r-295,0r0,-1493r426,0v192,0,329,34,413,102v84,68,126,179,126,332xm793,-1042v0,-153,-68,-202,-226,-203r-139,0r0,407r139,0v157,-1,226,-52,226,-204"},"S":{"d":"582,-215v135,1,229,-62,229,-188v0,-105,-69,-164,-156,-197r-145,-55v-149,-57,-249,-117,-302,-179v-53,-62,-79,-146,-79,-251v-1,-278,199,-439,487,-435v158,1,291,39,410,93r0,288v-107,-75,-229,-135,-387,-137v-129,-2,-219,48,-221,166v0,41,15,74,42,102v42,44,210,104,300,138v120,45,208,102,265,175v57,73,85,164,85,275v-3,321,-198,450,-537,449v-168,-1,-316,-43,-438,-105r0,-305v79,56,155,98,229,125v74,27,146,41,218,41"},"T":{"d":"764,0r-295,0r0,-1235r-379,0r0,-258r1053,0r0,258r-379,0r0,1235"},"U":{"d":"616,29v-375,0,-510,-190,-510,-580r0,-942r295,0r0,1016v-2,143,77,239,215,239v138,0,215,-96,215,-239r0,-1016r295,0r0,942v-2,390,-134,580,-510,580"},"V":{"d":"616,-246r263,-1247r297,0r-355,1493r-409,0r-355,-1493r297,0"},"W":{"d":"0,-1493r258,0r107,1096r129,-709r245,0r150,709r84,-1096r260,0r-172,1493r-275,0r-170,-784r-159,784r-273,0"},"X":{"d":"1206,0r-305,0r-285,-494r-284,494r-305,0r438,-758r-426,-735r305,0r272,475r273,-475r305,0r-424,735"},"Y":{"d":"8,-1493r318,0r290,600r291,-600r318,0r-461,905r0,588r-295,0r0,-588"},"Z":{"d":"137,-1493r1010,0r0,244r-692,989r706,0r0,260r-1046,0r0,-244r671,-989r-649,0r0,-260"},"[":{"d":"422,-1556r508,0r0,190r-242,0r0,1446r242,0r0,190r-508,0r0,-1826"},"\\":{"d":"334,-1493r786,1683r-223,0r-786,-1683r223,0"},"]":{"d":"811,-1556r0,1826r-508,0r0,-190r242,0r0,-1446r-242,0r0,-190r508,0"},"^":{"d":"739,-1493r437,557r-242,0r-318,-301r-317,301r-242,0r437,-557r245,0"},"_":{"d":"1233,293r0,190r-1233,0r0,-190r1233,0"},"`":{"d":"481,-1638r283,376r-197,0r-368,-376r282,0"},"a":{"d":"573,-174v177,-3,250,-154,244,-352r-117,0v-109,0,-186,14,-229,42v-43,28,-65,76,-65,144v-1,101,66,167,167,166xm614,-1147v375,0,494,127,494,508r0,639r-291,0r0,-125v-64,91,-174,153,-319,154v-248,2,-405,-139,-404,-383v0,-131,42,-228,127,-290v85,-62,216,-93,393,-93r203,0r0,-49v-2,-106,-85,-145,-203,-144v-169,2,-284,44,-409,111r0,-250v122,-50,246,-78,409,-78"},"b":{"d":"796,-303v70,-112,70,-397,0,-508v-38,-60,-86,-92,-149,-92v-63,0,-111,32,-150,92v-71,112,-71,397,0,508v39,60,87,92,150,92v63,0,111,-32,149,-92xm739,29v-153,0,-243,-80,-297,-195r0,166r-292,0r0,-1556r292,0r0,595v62,-106,142,-186,287,-186v133,0,235,51,307,152v72,101,107,247,107,436v0,187,-35,331,-106,434v-71,103,-170,154,-298,154"},"c":{"d":"762,-211v131,0,221,-47,299,-115r0,269v-93,54,-202,86,-342,86v-350,2,-551,-231,-551,-588v0,-358,203,-592,553,-590v138,1,241,34,340,86r0,268v-75,-65,-173,-114,-299,-114v-200,0,-297,139,-297,350v0,211,96,348,297,348"},"d":{"d":"504,-1147v144,0,225,81,287,186r0,-595r292,0r0,1556r-292,0r0,-166v-56,115,-143,195,-297,195v-128,0,-227,-51,-298,-154v-71,-103,-106,-247,-106,-434v0,-189,36,-335,108,-436v72,-101,173,-152,306,-152xm437,-811v-70,112,-70,397,0,508v38,60,86,92,149,92v63,0,111,-32,150,-92v71,-112,71,-397,0,-508v-39,-60,-87,-92,-150,-92v-63,0,-111,32,-149,92"},"e":{"d":"698,-203v167,-2,282,-50,404,-121r0,269v-128,52,-261,83,-432,84v-374,1,-578,-209,-578,-584v0,-349,195,-592,533,-592v338,0,527,217,524,563r0,119r-759,0v2,185,114,264,308,262xm854,-685v-2,-152,-77,-235,-229,-235v-144,1,-220,97,-232,236"},"f":{"d":"854,-1331v-90,1,-115,25,-115,113r0,98r344,0r0,225r-344,0r0,895r-293,0r0,-895r-272,0r0,-225r272,0r0,-78v5,-285,100,-354,396,-358r241,0r0,225r-229,0"},"g":{"d":"746,-336v71,-113,71,-369,0,-482v-74,-117,-224,-119,-298,-1v-71,112,-70,371,0,483v74,118,224,117,298,0xm514,-1149v140,1,238,73,289,172r0,-143r293,0r0,1036v-3,363,-151,508,-516,508v-137,0,-252,-21,-365,-55r0,-269v99,55,206,90,346,90v166,0,241,-75,242,-241r0,-121v-54,100,-141,157,-287,158v-128,0,-230,-50,-305,-150v-75,-100,-113,-236,-113,-407v0,-177,38,-318,113,-422v75,-104,176,-156,303,-156"},"h":{"d":"463,-952v38,-117,139,-195,287,-195v106,0,186,35,240,105v54,70,81,176,81,315r0,727r-291,0r0,-682v0,-81,-11,-138,-34,-173v-23,-35,-61,-52,-113,-52v-53,0,-95,24,-125,71v-30,47,-45,112,-45,195r0,641r-291,0r0,-1556r291,0r0,604"},"i":{"d":"221,-1120r580,0r0,895r364,0r0,225r-1022,0r0,-225r365,0r0,-670r-287,0r0,-225xm508,-1665r293,0r0,342r-293,0r0,-342"},"j":{"d":"377,199v147,-4,180,-81,180,-242r0,-852r-297,0r0,-225r590,0r0,1077v-3,319,-89,467,-391,467r-316,0r0,-225r234,0xm850,-1323r-293,0r0,-342r293,0r0,342"},"k":{"d":"174,-1556r293,0r0,817r352,-381r355,0r-424,418r448,702r-324,0r-307,-524r-100,96r0,428r-293,0r0,-1556"},"l":{"d":"778,0v-300,-5,-391,-150,-391,-467r0,-864r-297,0r0,-225r590,0r0,1089v2,161,33,242,180,242r234,0r0,225r-316,0"},"m":{"d":"498,-1147v89,-2,179,64,192,139v40,-85,96,-139,209,-139v97,0,164,33,201,100v37,67,55,205,55,416r0,631r-240,0r0,-719v0,-83,-6,-139,-19,-167v-13,-28,-36,-42,-69,-42v-33,0,-57,14,-70,43v-13,29,-20,84,-20,166r0,719r-237,0r0,-719v0,-82,-8,-137,-20,-166v-22,-56,-117,-57,-139,-1v-11,29,-19,84,-19,167r0,719r-240,0r0,-1120r213,0r0,116v28,-79,103,-142,203,-143"},"n":{"d":"463,-952v38,-117,139,-195,287,-195v106,0,186,35,240,105v54,70,81,176,81,315r0,727r-291,0r0,-682v0,-81,-11,-139,-34,-174v-23,-35,-61,-53,-113,-53v-53,0,-95,24,-125,71v-30,47,-45,113,-45,197r0,641r-291,0r0,-1120r291,0r0,168"},"o":{"d":"616,-909v-70,0,-123,33,-165,93v-78,112,-78,402,0,514v42,60,95,93,165,93v71,0,124,-33,166,-93v78,-112,78,-402,0,-514v-42,-60,-95,-93,-166,-93xm616,29v-327,0,-518,-247,-518,-588v0,-342,191,-588,518,-588v328,0,519,246,519,588v0,342,-191,588,-519,588"},"p":{"d":"729,29v-145,0,-225,-81,-287,-187r0,584r-292,0r0,-1546r292,0r0,168v54,-115,144,-195,297,-195v128,0,227,51,298,154v71,103,106,247,106,434v0,189,-35,335,-107,436v-72,101,-174,152,-307,152xm796,-307v70,-112,70,-397,0,-508v-38,-60,-86,-92,-149,-92v-63,0,-111,32,-150,92v-71,112,-71,397,0,508v39,60,87,92,150,92v63,0,111,-32,149,-92"},"q":{"d":"437,-815v-70,112,-70,397,0,508v38,60,86,92,149,92v63,0,111,-32,150,-92v71,-112,71,-397,0,-508v-39,-60,-87,-92,-150,-92v-63,0,-111,32,-149,92xm494,-1147v153,0,242,80,297,195r0,-168r292,0r0,1546r-292,0r0,-584v-62,107,-141,187,-287,187v-133,0,-234,-51,-306,-152v-72,-101,-108,-247,-108,-436v0,-187,35,-331,106,-434v71,-103,170,-154,298,-154"},"r":{"d":"924,-1147v89,1,165,23,227,57r0,279v-60,-55,-144,-88,-254,-88v-167,0,-276,74,-303,219v-6,36,-10,91,-10,164r0,516r-293,0r0,-1120r293,0r0,174v52,-121,173,-201,340,-201"},"s":{"d":"618,-1147v138,0,264,24,373,62r0,256v-94,-61,-206,-103,-344,-105v-65,0,-115,9,-148,28v-33,19,-50,48,-50,85v0,53,71,97,214,130r95,23v193,47,309,134,309,351v0,115,-37,201,-113,259v-76,58,-190,87,-342,87v-155,-1,-294,-29,-422,-70r0,-256v110,63,240,113,392,113v69,0,121,-10,156,-30v35,-20,53,-49,53,-87v0,-37,-14,-64,-37,-86v-26,-25,-176,-64,-260,-82v-112,-24,-194,-65,-245,-119v-51,-54,-77,-126,-77,-217v0,-108,39,-192,117,-252v78,-60,188,-90,329,-90"},"t":{"d":"690,-365v1,105,49,139,158,140r225,0r0,225r-246,0v-168,0,-282,-26,-341,-80v-59,-54,-89,-154,-89,-299r0,-516r-286,0r0,-225r286,0r0,-318r293,0r0,318r383,0r0,225r-383,0r0,530"},"u":{"d":"483,29v-233,0,-324,-167,-323,-420r0,-729r293,0r0,684v0,81,11,138,34,173v23,35,60,52,113,52v53,0,94,-23,124,-70v30,-47,44,-112,44,-196r0,-643r293,0r0,1120r-293,0r0,-166v-37,116,-137,195,-285,195"},"v":{"d":"1153,-1120r-356,1120r-361,0r-356,-1120r297,0r239,874r240,-874r297,0"},"w":{"d":"0,-1120r244,0r133,858r121,-565r237,0r119,565r135,-858r244,0r-203,1120r-278,0r-136,-582r-135,582r-278,0"},"x":{"d":"1145,-1120r-377,536r410,584r-342,0r-220,-377r-219,377r-342,0r414,-584r-381,-536r342,0r186,334r187,-334r342,0"},"y":{"d":"711,121v-39,105,-86,183,-141,231v-55,48,-122,72,-201,72r-242,0r0,-223v89,-1,205,6,251,-31v27,-22,56,-67,85,-141r22,-60r-426,-1089r308,0r256,727r245,-727r308,0"},"z":{"d":"186,-1120r895,0r0,229r-589,672r589,0r0,219r-919,0r0,-229r590,-672r-566,0r0,-219"},"{":{"d":"532,-612v177,33,221,106,224,321v2,124,-13,335,35,391v24,28,70,43,139,43r123,0r0,191r-150,0v-166,0,-277,-25,-333,-74v-56,-49,-85,-148,-85,-295r0,-215v-3,-199,-52,-263,-247,-266r-62,0r0,-191r62,0v195,-3,247,-66,247,-266r0,-215v0,-147,29,-245,85,-294v56,-49,167,-74,333,-74r150,0r0,190r-123,0v-159,5,-174,51,-174,227r0,209v-3,215,-45,287,-224,318"},"|":{"d":"729,-1565r0,2048r-227,0r0,-2048r227,0"},"}":{"d":"995,-516v-195,3,-250,67,-250,266r0,215v0,147,-27,246,-83,295v-56,49,-167,74,-332,74r-150,0r0,-191r121,0v159,-5,176,-53,176,-229r0,-205v3,-214,47,-287,223,-321v-179,-31,-220,-103,-223,-318r0,-209v-5,-174,-17,-222,-176,-227r-121,0r0,-190r150,0v165,0,276,25,332,74v56,49,83,147,83,294r0,215v3,200,54,263,250,266r62,0r0,191r-62,0"},"~":{"d":"864,-686v123,0,200,-56,281,-125r0,233v-86,68,-165,112,-297,115v-153,4,-298,-128,-467,-123v-131,4,-209,51,-293,121r0,-229v105,-86,236,-138,410,-104v39,8,110,34,157,57v77,37,147,55,209,55"},"\u00a0":{},"\u00a1":{"d":"750,-1210r-267,0r0,-283r267,0r0,283xm750,0r-267,0r0,-655r33,-357r199,0r35,357r0,655"},"\u00a2":{"d":"797,-1145v93,8,166,32,239,68r0,268v-67,-50,-143,-86,-239,-98r0,692v98,-9,173,-45,239,-96r0,268v-66,37,-146,61,-239,68r0,288r-142,0r0,-288v-307,-25,-508,-253,-508,-586v0,-335,196,-566,508,-584r0,-287r142,0r0,287xm655,-907v-161,20,-237,155,-237,346v0,186,75,335,237,346r0,-692"},"\u00a3":{"d":"811,-1520v117,0,207,21,291,58r0,274v-67,-49,-150,-84,-256,-84v-158,0,-204,103,-205,277r0,176r336,0r0,225r-336,0r0,334r481,0r0,260r-1003,0r0,-260r235,0r0,-334r-198,0r0,-225r198,0r0,-197v0,-331,136,-502,457,-504"},"\u00a4":{"d":"653,-467v96,0,174,-80,174,-176v0,-96,-78,-172,-174,-172v-95,0,-174,77,-174,172v0,96,79,176,174,176xm653,-983v66,0,114,20,166,45r172,-170r127,129r-170,170v27,49,45,100,45,168v0,69,-17,120,-47,164r172,170r-131,131r-170,-172v-45,30,-94,47,-164,47v-65,0,-118,-18,-168,-43r-170,168r-129,-129r170,-170v-25,-49,-45,-100,-45,-166v0,-70,18,-120,47,-166r-172,-170r131,-131r166,172v49,-29,99,-47,170,-47"},"\u00a5":{"d":"8,-1493r318,0r290,600r291,-600r318,0r-273,528r224,0r0,187r-322,0r-86,151r408,0r0,189r-412,0r0,438r-295,0r0,-438r-412,0r0,-189r408,0r-86,-151r-322,0r0,-187r224,0"},"\u00a6":{"d":"729,-408r0,758r-227,0r0,-758r227,0xm729,-1432r0,758r-227,0r0,-758r227,0"},"\u00a7":{"d":"711,-473v59,-41,104,-70,104,-148v0,-54,-88,-127,-265,-219r-32,-16v-58,40,-104,70,-104,145v0,36,16,69,48,98v32,29,116,76,249,140xm616,-1520v117,2,218,25,314,60r0,225v-93,-32,-170,-57,-271,-59v-89,-2,-161,31,-161,110v0,50,68,110,203,180r28,15v143,73,234,134,273,181v39,47,59,104,59,171v0,145,-82,210,-197,264v82,60,135,128,135,254v0,211,-168,316,-395,314v-131,-1,-242,-22,-346,-58r0,-229v98,34,203,60,320,61v91,0,159,-30,159,-110v0,-47,-71,-108,-214,-185r-37,-20v-211,-113,-316,-227,-316,-342v0,-140,86,-228,201,-266v-84,-60,-134,-124,-135,-252v-2,-199,168,-317,380,-314"},"\u00a8":{"d":"696,-1585r236,0r0,246r-236,0r0,-246xm301,-1585r236,0r0,246r-236,0r0,-246"},"\u00a9":{"d":"637,-1083v80,1,148,13,211,34r0,168v-60,-35,-110,-58,-191,-59v-128,-2,-204,72,-204,199v0,127,75,199,204,198v79,-1,141,-23,191,-59r0,168v-65,20,-134,34,-211,35v-216,4,-371,-132,-371,-342v0,-211,155,-345,371,-342xm381,-1313v143,-59,328,-59,471,0v144,59,275,193,335,336v60,144,61,326,1,470v-59,142,-195,278,-337,337v-143,59,-326,60,-469,0v-142,-59,-277,-195,-336,-337v-60,-144,-60,-326,0,-470v60,-143,191,-277,335,-336xm802,-1194v-110,-47,-259,-47,-370,0v-111,47,-218,154,-265,266v-46,112,-48,258,0,370v47,111,152,219,264,266v113,48,258,48,371,0v112,-48,217,-155,264,-266v48,-112,47,-258,0,-370v-47,-112,-154,-219,-264,-266"},"\u00aa":{"d":"590,-866v110,0,198,-76,196,-183r0,-30v-139,2,-308,-18,-311,108v-2,67,46,105,115,105xm612,-1520v250,0,367,107,367,355r0,448r-193,0r0,-92v-61,69,-131,109,-249,111v-166,2,-282,-94,-281,-254v0,-89,30,-156,92,-200v62,-44,156,-67,281,-67r157,0v3,-51,-8,-78,-46,-99v-30,-16,-75,-25,-136,-25v-117,0,-209,24,-289,67r0,-188v89,-34,183,-56,297,-56xm293,-598r688,0r0,170r-688,0r0,-170"},"\u00ab":{"d":"1042,-1059r0,238r-276,221r276,221r0,238r-469,-394r0,-131xm588,-1059r0,238r-277,221r277,221r0,238r-469,-394r0,-131"},"\u00ac":{"d":"88,-899r1057,0r0,537r-238,0r0,-300r-819,0r0,-237"},"\u00ad":{"d":"301,-735r631,0r0,291r-631,0r0,-291"},"\u00ae":{"d":"381,-1313v143,-59,328,-59,471,0v144,59,275,193,335,336v60,144,61,326,1,470v-59,142,-195,278,-337,337v-143,59,-326,60,-469,0v-142,-59,-277,-195,-336,-337v-60,-144,-60,-326,0,-470v60,-143,191,-277,335,-336xm702,-860v-1,-64,-44,-84,-114,-84r-64,0r0,164v88,2,180,3,178,-80xm868,-877v0,94,-62,148,-149,162v58,23,89,60,117,119r79,166r-172,0v-35,-67,-69,-170,-119,-214v-25,-22,-55,-28,-100,-26r0,240r-164,0r0,-625v217,7,508,-49,508,178xm802,-1194v-110,-47,-259,-47,-370,0v-111,47,-218,154,-265,266v-46,112,-47,258,0,370v47,111,153,219,265,266v112,47,256,47,369,0v113,-47,218,-155,265,-266v48,-112,47,-258,0,-370v-47,-112,-154,-219,-264,-266"},"\u00af":{"d":"301,-1556r631,0r0,188r-631,0r0,-188"},"\u00b0":{"d":"283,-1186v0,-227,231,-405,461,-308v114,48,204,150,204,308v0,155,-91,259,-205,306v-230,95,-460,-77,-460,-306xm786,-1186v0,-93,-77,-172,-170,-172v-94,0,-172,78,-172,172v0,94,76,170,170,170v93,0,172,-77,172,-170"},"\u00b1":{"d":"735,-1284r0,354r410,0r0,236r-410,0r0,354r-237,0r0,-354r-410,0r0,-236r410,0r0,-354r237,0xm88,-238r1057,0r0,238r-1057,0r0,-238"},"\u00b2":{"d":"299,-1475v88,-26,180,-44,283,-45v113,0,200,20,262,62v62,42,94,100,94,174v0,84,-118,219,-355,406r-83,65r440,0r0,145r-666,0r0,-141r141,-118v209,-175,314,-288,314,-341v0,-78,-75,-113,-162,-112v-100,2,-184,33,-268,69r0,-164"},"\u00b3":{"d":"766,-913v0,-91,-83,-129,-184,-129r-111,0r0,-146r111,0v83,1,159,-24,159,-94v0,-69,-69,-97,-149,-96v-103,0,-193,17,-275,45r0,-152v157,-42,410,-56,529,23v60,40,92,92,92,159v0,114,-91,165,-203,183v133,17,228,82,228,219v0,81,-34,141,-97,185v-125,86,-414,72,-579,22r0,-154v84,34,186,55,299,55v98,1,180,-34,180,-120"},"\u00b4":{"d":"752,-1638r282,0r-368,376r-197,0"},"\u00b5":{"d":"629,29v-86,0,-136,-36,-168,-95r2,494r-289,0r0,-1548r287,0r0,680v0,136,41,229,164,229v122,0,161,-93,161,-229r0,-680r289,0r0,776v0,47,5,81,13,102v17,44,73,34,100,9r0,217v-48,25,-90,45,-152,45v-113,0,-158,-61,-190,-158v-42,89,-104,158,-217,158"},"\u00b6":{"d":"70,-1071v-2,-260,204,-422,475,-422r520,0r0,1690r-191,0r0,-1543r-190,0r0,1543r-188,0r0,-846v-137,-17,-242,-62,-316,-135v-74,-73,-110,-168,-110,-287"},"\u00b7":{"d":"449,-895r333,0r0,365r-333,0r0,-365"},"\u00b8":{"d":"532,254v68,1,121,-26,123,-86v0,-17,-7,-40,-21,-67v-14,-27,-36,-61,-67,-101r140,0v38,41,67,80,85,115v18,35,27,69,27,100v-3,140,-96,186,-250,186v-73,0,-139,-10,-202,-26r0,-156v50,19,105,34,165,35"},"\u00b9":{"d":"313,-813r226,0r0,-543r-220,43r0,-149r222,-41r194,0r0,690r226,0r0,145r-648,0r0,-145"},"\u00ba":{"d":"293,-598r688,0r0,170r-688,0r0,-170xm637,-698v-228,0,-363,-172,-363,-410v0,-238,134,-412,363,-412v229,0,362,173,362,412v0,239,-132,410,-362,410xm637,-874v111,0,158,-108,158,-234v0,-73,-15,-130,-43,-172v-28,-42,-66,-63,-115,-63v-110,0,-158,109,-158,235v0,73,15,130,43,172v28,42,66,62,115,62"},"\u00bb":{"d":"193,-1059r469,393r0,131r-469,394r0,-238r276,-221r-276,-221r0,-238xm647,-1059r469,393r0,131r-469,394r0,-238r277,-221r-277,-221r0,-238"},"\u00bc":{"d":"55,-969r226,0r0,-543r-220,43r0,-149r222,-41r194,0r0,690r226,0r0,145r-648,0r0,-145xm823,-383r-250,330r250,0r0,-330xm805,-565r204,0r0,512r109,0r0,143r-109,0r0,180r-186,0r0,-180r-393,0r0,-162xm84,-500r-37,-118r1059,-263r37,119"},"\u00bd":{"d":"500,-537v88,-26,180,-44,283,-45v113,0,201,20,263,62v62,42,93,100,93,174v0,84,-118,219,-355,406r-83,65r440,0r0,145r-666,0r0,-141r141,-118v209,-175,314,-288,314,-341v0,-78,-75,-113,-162,-112v-100,2,-184,33,-268,69r0,-164xm55,-969r226,0r0,-543r-220,43r0,-149r222,-41r194,0r0,690r226,0r0,145r-648,0r0,-145xm84,-500r-37,-118r1059,-263r37,119"},"\u00be":{"d":"539,-1069v0,-91,-83,-129,-184,-129r-111,0r0,-146r111,0v83,1,159,-24,159,-94v0,-69,-69,-97,-149,-96v-103,0,-193,17,-275,45r0,-152v157,-42,410,-56,529,23v60,40,92,92,92,159v0,114,-91,165,-203,183v133,17,228,82,228,219v0,81,-33,141,-96,185v-125,86,-415,72,-580,22r0,-154v84,34,186,55,299,55v98,1,180,-34,180,-120xm823,-383r-250,330r250,0r0,-330xm805,-565r204,0r0,512r109,0r0,143r-109,0r0,180r-186,0r0,-180r-393,0r0,-162xm84,-500r-37,-118r1059,-263r37,119"},"\u00bf":{"d":"799,-1210r-267,0r0,-283r267,0r0,283xm511,-817v30,-68,19,-179,21,-275r267,0v-1,118,5,242,-31,324v-51,115,-221,230,-284,336v-16,27,-23,55,-23,84v2,100,74,137,184,135v147,-3,256,-66,361,-141r0,268v-114,65,-240,111,-400,113v-249,3,-429,-120,-430,-353v0,-51,12,-98,34,-142v33,-68,147,-176,216,-243v44,-43,72,-78,85,-106"},"\u00c0":{"d":"616,-1223r-139,611r279,0xm436,-1493r361,0r403,1493r-295,0r-92,-369r-395,0r-90,369r-295,0xm567,-1899r199,264r-197,0r-286,-264r284,0"},"\u00c1":{"d":"616,-1223r-139,611r279,0xm436,-1493r361,0r403,1493r-295,0r-92,-369r-395,0r-90,369r-295,0xm668,-1899r284,0r-286,264r-197,0"},"\u00c2":{"d":"616,-1223r-139,611r279,0xm436,-1493r361,0r403,1493r-295,0r-92,-369r-395,0r-90,369r-295,0xm461,-1899r309,0r223,264r-178,0r-199,-161r-198,161r-178,0"},"\u00c3":{"d":"616,-1223r-139,611r279,0xm436,-1493r361,0r403,1493r-295,0r-92,-369r-395,0r-90,369r-295,0xm963,-1870v6,157,-108,270,-267,224v-68,-20,-141,-105,-217,-105v-50,0,-74,56,-71,116r-140,0v-14,-177,99,-306,270,-253v64,20,116,71,176,96v72,30,117,-30,111,-109r140,0"},"\u00c4":{"d":"616,-1223r-139,611r279,0xm436,-1493r361,0r403,1493r-295,0r-92,-369r-395,0r-90,369r-295,0xm696,-1899r236,0r0,246r-236,0r0,-246xm301,-1899r236,0r0,246r-236,0r0,-246"},"\u00c5":{"d":"901,-1616v-2,92,-33,149,-86,195r385,1421r-295,0r-92,-369r-395,0r-90,369r-295,0r385,-1421v-54,-45,-84,-104,-86,-195v-3,-152,132,-285,284,-285v153,0,288,133,285,285xm616,-1747v-69,0,-131,61,-131,131v0,70,62,131,131,131v71,0,132,-61,132,-131v0,-70,-62,-131,-132,-131xm616,-1223r-139,611r279,0"},"\u00c6":{"d":"1161,-1493r0,260r-291,0r0,311r260,0r0,260r-260,0r0,402r310,0r0,260r-564,0r0,-362r-282,0r-86,362r-248,0r358,-1493r803,0xm537,-1233r-148,635r227,0r0,-635r-79,0"},"\u00c7":{"d":"649,254v68,1,121,-26,123,-86v0,-17,-7,-40,-21,-67v-14,-27,-36,-61,-67,-101r140,0v38,41,66,80,84,115v18,35,28,69,28,100v-3,140,-96,186,-250,186v-73,0,-139,-10,-202,-26r0,-156v50,19,105,34,165,35xm786,-236v133,0,210,-59,295,-135r0,328v-87,45,-185,71,-309,72v-201,0,-355,-66,-461,-199v-106,-133,-159,-324,-159,-575v0,-251,53,-443,159,-576v106,-133,260,-199,461,-199v122,0,225,27,309,72r0,328v-85,-77,-161,-135,-295,-135v-108,0,-189,43,-244,129v-55,86,-83,212,-83,381v0,168,28,295,83,381v55,86,136,128,244,128"},"\u00c8":{"d":"1098,0r-930,0r0,-1493r930,0r0,260r-635,0r0,322r575,0r0,260r-575,0r0,391r635,0r0,260xm598,-1899r199,264r-197,0r-286,-264r284,0"},"\u00c9":{"d":"1098,0r-930,0r0,-1493r930,0r0,260r-635,0r0,322r575,0r0,260r-575,0r0,391r635,0r0,260xm699,-1899r284,0r-286,264r-197,0"},"\u00ca":{"d":"1098,0r-930,0r0,-1493r930,0r0,260r-635,0r0,322r575,0r0,260r-575,0r0,391r635,0r0,260xm492,-1899r309,0r223,264r-178,0r-199,-161r-198,161r-178,0"},"\u00cb":{"d":"1098,0r-930,0r0,-1493r930,0r0,260r-635,0r0,322r575,0r0,260r-575,0r0,391r635,0r0,260xm727,-1899r236,0r0,246r-236,0r0,-246xm332,-1899r236,0r0,246r-236,0r0,-246"},"\u00cc":{"d":"172,-1233r0,-260r889,0r0,260r-297,0r0,973r297,0r0,260r-889,0r0,-260r297,0r0,-973r-297,0xm567,-1899r199,264r-197,0r-286,-264r284,0"},"\u00cd":{"d":"172,-1233r0,-260r889,0r0,260r-297,0r0,973r297,0r0,260r-889,0r0,-260r297,0r0,-973r-297,0xm668,-1899r284,0r-286,264r-197,0"},"\u00ce":{"d":"172,-1233r0,-260r889,0r0,260r-297,0r0,973r297,0r0,260r-889,0r0,-260r297,0r0,-973r-297,0xm461,-1899r309,0r223,264r-178,0r-199,-161r-198,161r-178,0"},"\u00cf":{"d":"172,-1233r0,-260r889,0r0,260r-297,0r0,973r297,0r0,260r-889,0r0,-260r297,0r0,-973r-297,0xm696,-1899r236,0r0,246r-236,0r0,-246xm301,-1899r236,0r0,246r-236,0r0,-246"},"\u00d0":{"d":"432,-1227r0,326r211,0r0,237r-211,0r0,398r80,0v116,0,199,-37,248,-110v49,-73,74,-197,74,-372v0,-174,-25,-297,-74,-370v-49,-73,-132,-109,-248,-109r-80,0xm1141,-748v0,519,-182,743,-688,748r-316,0r0,-664r-137,0r0,-237r137,0r0,-592r316,0v506,5,688,227,688,745"},"\u00d1":{"d":"119,-1493r317,0r416,1085r0,-1085r260,0r0,1493r-315,0r-418,-1085r0,1085r-260,0r0,-1493xm963,-1870v6,157,-108,270,-267,224v-68,-20,-141,-105,-217,-105v-50,0,-74,56,-71,116r-140,0v-14,-177,99,-306,270,-253v64,20,116,71,176,96v72,30,117,-30,111,-109r140,0"},"\u00d2":{"d":"616,-1255v-75,0,-127,42,-165,121v-66,136,-66,642,0,778v38,79,90,120,165,120v76,0,128,-41,166,-120v66,-136,66,-642,0,-778v-38,-79,-90,-121,-166,-121xm92,-745v0,-255,44,-448,132,-579v88,-131,219,-196,392,-196v173,0,304,65,392,196v88,131,133,324,133,579v0,255,-45,447,-133,578v-88,131,-219,196,-392,196v-173,0,-304,-65,-392,-196v-88,-131,-132,-323,-132,-578xm567,-1899r199,264r-197,0r-286,-264r284,0"},"\u00d3":{"d":"616,-1255v-75,0,-127,42,-165,121v-66,136,-66,642,0,778v38,79,90,120,165,120v76,0,128,-41,166,-120v66,-136,66,-642,0,-778v-38,-79,-90,-121,-166,-121xm92,-745v0,-255,44,-448,132,-579v88,-131,219,-196,392,-196v173,0,304,65,392,196v88,131,133,324,133,579v0,255,-45,447,-133,578v-88,131,-219,196,-392,196v-173,0,-304,-65,-392,-196v-88,-131,-132,-323,-132,-578xm668,-1899r284,0r-286,264r-197,0"},"\u00d4":{"d":"616,-1255v-75,0,-127,42,-165,121v-66,136,-66,642,0,778v38,79,90,120,165,120v76,0,128,-41,166,-120v66,-136,66,-642,0,-778v-38,-79,-90,-121,-166,-121xm92,-745v0,-255,44,-448,132,-579v88,-131,219,-196,392,-196v173,0,304,65,392,196v88,131,133,324,133,579v0,255,-45,447,-133,578v-88,131,-219,196,-392,196v-173,0,-304,-65,-392,-196v-88,-131,-132,-323,-132,-578xm461,-1899r309,0r223,264r-178,0r-199,-161r-198,161r-178,0"},"\u00d5":{"d":"616,-1255v-75,0,-127,42,-165,121v-66,136,-66,642,0,778v38,79,90,120,165,120v76,0,128,-41,166,-120v66,-136,66,-642,0,-778v-38,-79,-90,-121,-166,-121xm92,-745v0,-255,44,-448,132,-579v88,-131,219,-196,392,-196v173,0,304,65,392,196v88,131,133,324,133,579v0,255,-45,447,-133,578v-88,131,-219,196,-392,196v-173,0,-304,-65,-392,-196v-88,-131,-132,-323,-132,-578xm963,-1870v6,157,-108,270,-267,224v-68,-20,-141,-105,-217,-105v-50,0,-74,56,-71,116r-140,0v-14,-177,99,-306,270,-253v64,20,116,71,176,96v72,30,117,-30,111,-109r140,0"},"\u00d6":{"d":"616,-1255v-75,0,-127,42,-165,121v-66,136,-66,642,0,778v38,79,90,120,165,120v76,0,128,-41,166,-120v66,-136,66,-642,0,-778v-38,-79,-90,-121,-166,-121xm92,-745v0,-255,44,-448,132,-579v88,-131,219,-196,392,-196v173,0,304,65,392,196v88,131,133,324,133,579v0,255,-45,447,-133,578v-88,131,-219,196,-392,196v-173,0,-304,-65,-392,-196v-88,-131,-132,-323,-132,-578xm696,-1899r236,0r0,246r-236,0r0,-246xm301,-1899r236,0r0,246r-236,0r0,-246"},"\u00d7":{"d":"1112,-971r-330,328r330,330r-168,166r-330,-328r-327,328r-168,-166r330,-330r-330,-328r168,-168r327,328r330,-328"},"\u00d8":{"d":"451,-354v28,67,80,118,165,118v76,0,129,-41,166,-120v44,-95,61,-343,47,-532xm772,-1153v-31,-60,-75,-102,-156,-102v-75,0,-129,40,-164,120v-35,80,-53,206,-53,379r0,127xm616,29v-152,-1,-261,-51,-340,-133r-120,167r-162,-114r168,-238v-49,-124,-70,-277,-70,-456v0,-255,44,-448,132,-579v88,-131,219,-196,392,-196v146,0,254,46,330,123r113,-162r162,115r-158,223v53,129,78,291,78,476v0,255,-45,447,-133,578v-88,131,-219,196,-392,196"},"\u00d9":{"d":"616,29v-375,0,-510,-190,-510,-580r0,-942r295,0r0,1016v-2,143,77,239,215,239v138,0,215,-96,215,-239r0,-1016r295,0r0,942v-2,390,-134,580,-510,580xm567,-1899r199,264r-197,0r-286,-264r284,0"},"\u00da":{"d":"616,29v-375,0,-510,-190,-510,-580r0,-942r295,0r0,1016v-2,143,77,239,215,239v138,0,215,-96,215,-239r0,-1016r295,0r0,942v-2,390,-134,580,-510,580xm668,-1899r284,0r-286,264r-197,0"},"\u00db":{"d":"616,29v-375,0,-510,-190,-510,-580r0,-942r295,0r0,1016v-2,143,77,239,215,239v138,0,215,-96,215,-239r0,-1016r295,0r0,942v-2,390,-134,580,-510,580xm461,-1899r309,0r223,264r-178,0r-199,-161r-198,161r-178,0"},"\u00dc":{"d":"616,29v-375,0,-510,-190,-510,-580r0,-942r295,0r0,1016v-2,143,77,239,215,239v138,0,215,-96,215,-239r0,-1016r295,0r0,942v-2,390,-134,580,-510,580xm696,-1899r236,0r0,246r-236,0r0,-246xm301,-1899r236,0r0,246r-236,0r0,-246"},"\u00dd":{"d":"8,-1493r318,0r290,600r291,-600r318,0r-461,905r0,588r-295,0r0,-588xm668,-1899r284,0r-286,264r-197,0"},"\u00de":{"d":"840,-793v0,-174,-78,-219,-262,-221r-121,0r0,439r121,0v185,-2,262,-44,262,-218xm162,-1493r295,0r0,238r110,0v206,0,355,36,445,109v90,73,135,193,135,358v0,159,-46,276,-137,348v-91,72,-239,108,-443,108r-110,0r0,332r-295,0r0,-1493"},"\u00df":{"d":"598,-1556v313,1,439,172,436,497v-83,4,-147,21,-190,51v-43,30,-64,73,-64,127v0,43,39,94,116,153r116,89v95,73,160,161,162,309v2,232,-175,363,-418,359v-96,-1,-173,-21,-252,-49r0,-250v66,35,139,62,227,63v89,1,157,-42,158,-125v0,-48,-38,-101,-115,-160r-45,-34v-64,-51,-141,-103,-175,-180v-19,-43,-30,-89,-30,-140v2,-185,120,-293,285,-328v-13,-102,-80,-147,-199,-147v-127,0,-190,70,-190,199r0,1122r-293,0r0,-1126v0,-289,174,-432,471,-430"},"\u00e0":{"d":"481,-1638r283,376r-197,0r-368,-376r282,0xm573,-174v177,-3,250,-154,244,-352r-117,0v-109,0,-186,14,-229,42v-43,28,-65,76,-65,144v-1,101,66,167,167,166xm614,-1147v375,0,494,127,494,508r0,639r-291,0r0,-125v-64,91,-174,153,-319,154v-248,2,-405,-139,-404,-383v0,-131,42,-228,127,-290v85,-62,216,-93,393,-93r203,0r0,-49v-2,-106,-85,-145,-203,-144v-169,2,-284,44,-409,111r0,-250v122,-50,246,-78,409,-78"},"\u00e1":{"d":"752,-1638r282,0r-368,376r-197,0xm573,-174v177,-3,250,-154,244,-352r-117,0v-109,0,-186,14,-229,42v-43,28,-65,76,-65,144v-1,101,66,167,167,166xm614,-1147v375,0,494,127,494,508r0,639r-291,0r0,-125v-64,91,-174,153,-319,154v-248,2,-405,-139,-404,-383v0,-131,42,-228,127,-290v85,-62,216,-93,393,-93r203,0r0,-49v-2,-106,-85,-145,-203,-144v-169,2,-284,44,-409,111r0,-250v122,-50,246,-78,409,-78"},"\u00e2":{"d":"496,-1638r241,0r256,376r-178,0r-199,-225r-198,225r-178,0xm573,-174v177,-3,250,-154,244,-352r-117,0v-109,0,-186,14,-229,42v-43,28,-65,76,-65,144v-1,101,66,167,167,166xm614,-1147v375,0,494,127,494,508r0,639r-291,0r0,-125v-64,91,-174,153,-319,154v-248,2,-405,-139,-404,-383v0,-131,42,-228,127,-290v85,-62,216,-93,393,-93r203,0r0,-49v-2,-106,-85,-145,-203,-144v-169,2,-284,44,-409,111r0,-250v122,-50,246,-78,409,-78"},"\u00e3":{"d":"716,-1470v74,33,115,-37,109,-121r140,0v0,91,-17,160,-51,210v-45,66,-128,91,-215,62v-43,-15,-106,-63,-148,-90v-29,-19,-52,-29,-70,-29v-59,2,-74,59,-73,129r-140,0v0,-91,18,-160,52,-210v46,-67,129,-92,217,-61v61,22,119,84,179,110xm573,-174v177,-3,250,-154,244,-352r-117,0v-109,0,-186,14,-229,42v-43,28,-65,76,-65,144v-1,101,66,167,167,166xm614,-1147v375,0,494,127,494,508r0,639r-291,0r0,-125v-64,91,-174,153,-319,154v-248,2,-405,-139,-404,-383v0,-131,42,-228,127,-290v85,-62,216,-93,393,-93r203,0r0,-49v-2,-106,-85,-145,-203,-144v-169,2,-284,44,-409,111r0,-250v122,-50,246,-78,409,-78"},"\u00e4":{"d":"696,-1585r236,0r0,246r-236,0r0,-246xm301,-1585r236,0r0,246r-236,0r0,-246xm573,-174v177,-3,250,-154,244,-352r-117,0v-109,0,-186,14,-229,42v-43,28,-65,76,-65,144v-1,101,66,167,167,166xm614,-1147v375,0,494,127,494,508r0,639r-291,0r0,-125v-64,91,-174,153,-319,154v-248,2,-405,-139,-404,-383v0,-131,42,-228,127,-290v85,-62,216,-93,393,-93r203,0r0,-49v-2,-106,-85,-145,-203,-144v-169,2,-284,44,-409,111r0,-250v122,-50,246,-78,409,-78"},"\u00e5":{"d":"573,-174v177,-3,250,-154,244,-352r-117,0v-109,0,-186,14,-229,42v-43,28,-65,76,-65,144v-1,101,66,167,167,166xm614,-1147v375,0,494,127,494,508r0,639r-291,0r0,-125v-64,91,-174,153,-319,154v-248,2,-405,-139,-404,-383v0,-131,42,-228,127,-290v85,-62,216,-93,393,-93r203,0r0,-49v-2,-106,-85,-145,-203,-144v-169,2,-284,44,-409,111r0,-250v122,-50,246,-78,409,-78xm616,-1249v-153,0,-284,-132,-284,-285v0,-153,131,-285,284,-285v154,0,285,132,285,285v0,153,-131,285,-285,285xm748,-1534v0,-71,-63,-131,-132,-131v-70,0,-131,61,-131,131v0,71,60,131,131,131v72,0,132,-60,132,-131"},"\u00e6":{"d":"365,-184v109,0,129,-96,124,-217r0,-82r-73,0v-110,-1,-175,48,-176,153v-1,90,40,146,125,146xm963,-690v-3,-138,3,-242,-113,-242v-42,0,-70,16,-88,47v-18,31,-26,112,-25,195r226,0xm612,-1020v38,-82,131,-128,252,-127v118,0,201,40,250,119v49,79,74,220,74,422r0,127r-451,0v0,96,17,169,50,219v33,50,82,76,145,76v105,0,174,-55,239,-117r0,244v-64,56,-141,86,-258,86v-145,0,-243,-64,-295,-164v-51,104,-126,163,-270,164v-217,2,-336,-134,-334,-355v1,-255,143,-368,406,-368r76,0r0,-51v1,-116,-45,-187,-154,-187v-106,0,-188,53,-266,109r0,-246v83,-43,170,-78,278,-78v132,0,211,41,258,127"},"\u00e7":{"d":"604,254v68,1,121,-26,123,-86v0,-17,-7,-40,-21,-67v-14,-27,-36,-61,-67,-101r140,0v38,41,67,80,85,115v18,35,27,69,27,100v-3,140,-96,186,-250,186v-73,0,-139,-10,-202,-26r0,-156v50,19,105,34,165,35xm762,-211v131,0,221,-47,299,-115r0,269v-93,54,-202,86,-342,86v-350,2,-551,-231,-551,-588v0,-358,203,-592,553,-590v138,1,241,34,340,86r0,268v-75,-65,-173,-114,-299,-114v-200,0,-297,139,-297,350v0,211,96,348,297,348"},"\u00e8":{"d":"520,-1638r283,376r-197,0r-368,-376r282,0xm698,-203v167,-2,282,-50,404,-121r0,269v-128,52,-261,83,-432,84v-374,1,-578,-209,-578,-584v0,-349,195,-592,533,-592v338,0,527,217,524,563r0,119r-759,0v2,185,114,264,308,262xm854,-685v-2,-152,-77,-235,-229,-235v-144,1,-220,97,-232,236"},"\u00e9":{"d":"791,-1638r282,0r-368,376r-197,0xm698,-203v167,-2,282,-50,404,-121r0,269v-128,52,-261,83,-432,84v-374,1,-578,-209,-578,-584v0,-349,195,-592,533,-592v338,0,527,217,524,563r0,119r-759,0v2,185,114,264,308,262xm854,-685v-2,-152,-77,-235,-229,-235v-144,1,-220,97,-232,236"},"\u00ea":{"d":"535,-1638r241,0r256,376r-178,0r-199,-225r-198,225r-178,0xm698,-203v167,-2,282,-50,404,-121r0,269v-128,52,-261,83,-432,84v-374,1,-578,-209,-578,-584v0,-349,195,-592,533,-592v338,0,527,217,524,563r0,119r-759,0v2,185,114,264,308,262xm854,-685v-2,-152,-77,-235,-229,-235v-144,1,-220,97,-232,236"},"\u00eb":{"d":"735,-1585r236,0r0,246r-236,0r0,-246xm340,-1585r236,0r0,246r-236,0r0,-246xm698,-203v167,-2,282,-50,404,-121r0,269v-128,52,-261,83,-432,84v-374,1,-578,-209,-578,-584v0,-349,195,-592,533,-592v338,0,527,217,524,563r0,119r-759,0v2,185,114,264,308,262xm854,-685v-2,-152,-77,-235,-229,-235v-144,1,-220,97,-232,236"},"\u00ec":{"d":"481,-1638r283,376r-197,0r-368,-376r282,0xm221,-1120r580,0r0,895r364,0r0,225r-1022,0r0,-225r365,0r0,-670r-287,0r0,-225"},"\u00ed":{"d":"752,-1638r282,0r-368,376r-197,0xm221,-1120r580,0r0,895r364,0r0,225r-1022,0r0,-225r365,0r0,-670r-287,0r0,-225"},"\u00ee":{"d":"496,-1638r241,0r256,376r-178,0r-199,-225r-198,225r-178,0xm221,-1120r580,0r0,895r364,0r0,225r-1022,0r0,-225r365,0r0,-670r-287,0r0,-225"},"\u00ef":{"d":"696,-1585r236,0r0,246r-236,0r0,-246xm301,-1585r236,0r0,246r-236,0r0,-246xm221,-1120r580,0r0,895r364,0r0,225r-1022,0r0,-225r365,0r0,-670r-287,0r0,-225"},"\u00f0":{"d":"616,-815v-147,-1,-227,115,-227,270v0,105,19,188,59,247v40,59,95,89,164,89v73,0,126,-31,166,-91v49,-74,70,-224,52,-357v-4,-33,-11,-67,-19,-103v-56,-31,-118,-55,-195,-55xm98,-537v0,-302,183,-518,477,-516v54,0,94,8,130,25r-160,-219r-312,119r-55,-117r283,-109r-158,-202r293,0r92,116r297,-127r66,123r-277,117v153,222,352,408,352,768v0,349,-179,588,-514,588v-321,0,-514,-235,-514,-566"},"\u00f1":{"d":"716,-1470v74,33,115,-37,109,-121r140,0v0,91,-17,160,-51,210v-45,66,-128,91,-215,62v-43,-15,-106,-63,-148,-90v-29,-19,-52,-29,-70,-29v-59,2,-74,59,-73,129r-140,0v0,-91,18,-160,52,-210v46,-67,129,-92,217,-61v61,22,119,84,179,110xm463,-952v38,-117,139,-195,287,-195v106,0,186,35,240,105v54,70,81,176,81,315r0,727r-291,0r0,-682v0,-81,-11,-139,-34,-174v-23,-35,-61,-53,-113,-53v-53,0,-95,24,-125,71v-30,47,-45,113,-45,197r0,641r-291,0r0,-1120r291,0r0,168"},"\u00f2":{"d":"481,-1561r283,299r-197,0r-368,-299r282,0xm616,-909v-70,0,-123,33,-165,93v-78,112,-78,402,0,514v42,60,95,93,165,93v71,0,124,-33,166,-93v78,-112,78,-402,0,-514v-42,-60,-95,-93,-166,-93xm616,29v-327,0,-518,-247,-518,-588v0,-342,191,-588,518,-588v328,0,519,246,519,588v0,342,-191,588,-519,588"},"\u00f3":{"d":"752,-1561r282,0r-368,299r-197,0xm616,-909v-70,0,-123,33,-165,93v-78,112,-78,402,0,514v42,60,95,93,165,93v71,0,124,-33,166,-93v78,-112,78,-402,0,-514v-42,-60,-95,-93,-166,-93xm616,29v-327,0,-518,-247,-518,-588v0,-342,191,-588,518,-588v328,0,519,246,519,588v0,342,-191,588,-519,588"},"\u00f4":{"d":"496,-1561r241,0r256,299r-178,0r-199,-147r-198,147r-178,0xm616,-909v-70,0,-123,33,-165,93v-78,112,-78,402,0,514v42,60,95,93,165,93v71,0,124,-33,166,-93v78,-112,78,-402,0,-514v-42,-60,-95,-93,-166,-93xm616,29v-327,0,-518,-247,-518,-588v0,-342,191,-588,518,-588v328,0,519,246,519,588v0,342,-191,588,-519,588"},"\u00f5":{"d":"963,-1526v6,162,-102,291,-263,240v-42,-14,-107,-63,-149,-90v-29,-19,-52,-29,-70,-29v-56,3,-75,62,-73,129r-140,0v-9,-157,59,-285,197,-285v112,0,167,88,251,123v75,32,115,-36,109,-121r140,0xm616,-909v-70,0,-123,33,-165,93v-78,112,-78,402,0,514v42,60,95,93,165,93v71,0,124,-33,166,-93v78,-112,78,-402,0,-514v-42,-60,-95,-93,-166,-93xm616,29v-327,0,-518,-247,-518,-588v0,-342,191,-588,518,-588v328,0,519,246,519,588v0,342,-191,588,-519,588"},"\u00f6":{"d":"301,-1561r236,0r0,246r-236,0r0,-246xm696,-1561r236,0r0,246r-236,0r0,-246xm616,-909v-70,0,-123,33,-165,93v-78,112,-78,402,0,514v42,60,95,93,165,93v71,0,124,-33,166,-93v78,-112,78,-402,0,-514v-42,-60,-95,-93,-166,-93xm616,29v-327,0,-518,-247,-518,-588v0,-342,191,-588,518,-588v328,0,519,246,519,588v0,342,-191,588,-519,588"},"\u00f7":{"d":"461,-1198r309,0r0,309r-309,0r0,-309xm461,-395r309,0r0,309r-309,0r0,-309xm66,-762r1099,0r0,238r-1099,0r0,-238"},"\u00f8":{"d":"483,-262v36,31,75,53,135,53v69,0,123,-32,164,-93v54,-81,74,-242,49,-373xm745,-860v-32,-31,-69,-48,-127,-49v-71,0,-124,32,-166,93v-54,78,-73,234,-53,367xm616,29v-124,-1,-221,-36,-301,-90r-151,178r-139,-119r163,-197v-58,-95,-88,-210,-90,-360v-4,-342,191,-589,518,-588v126,1,217,33,299,88r148,-176r139,121r-160,188v59,96,91,217,93,367v4,342,-191,589,-519,588"},"\u00f9":{"d":"481,-1638r283,376r-197,0r-368,-376r282,0xm483,29v-233,0,-324,-167,-323,-420r0,-729r293,0r0,684v0,81,11,138,34,173v23,35,60,52,113,52v53,0,94,-23,124,-70v30,-47,44,-112,44,-196r0,-643r293,0r0,1120r-293,0r0,-166v-37,116,-137,195,-285,195"},"\u00fa":{"d":"752,-1638r282,0r-368,376r-197,0xm483,29v-233,0,-324,-167,-323,-420r0,-729r293,0r0,684v0,81,11,138,34,173v23,35,60,52,113,52v53,0,94,-23,124,-70v30,-47,44,-112,44,-196r0,-643r293,0r0,1120r-293,0r0,-166v-37,116,-137,195,-285,195"},"\u00fb":{"d":"496,-1638r241,0r256,376r-178,0r-199,-225r-198,225r-178,0xm483,29v-233,0,-324,-167,-323,-420r0,-729r293,0r0,684v0,81,11,138,34,173v23,35,60,52,113,52v53,0,94,-23,124,-70v30,-47,44,-112,44,-196r0,-643r293,0r0,1120r-293,0r0,-166v-37,116,-137,195,-285,195"},"\u00fc":{"d":"696,-1585r236,0r0,246r-236,0r0,-246xm301,-1585r236,0r0,246r-236,0r0,-246xm483,29v-233,0,-324,-167,-323,-420r0,-729r293,0r0,684v0,81,11,138,34,173v23,35,60,52,113,52v53,0,94,-23,124,-70v30,-47,44,-112,44,-196r0,-643r293,0r0,1120r-293,0r0,-166v-37,116,-137,195,-285,195"},"\u00fd":{"d":"752,-1638r282,0r-368,376r-197,0xm711,121v-39,105,-86,183,-141,231v-55,48,-122,72,-201,72r-242,0r0,-223v89,-1,205,6,251,-31v27,-22,56,-67,85,-141r22,-60r-426,-1089r308,0r256,727r245,-727r308,0"},"\u00fe":{"d":"729,29v-145,0,-225,-81,-287,-187r0,584r-292,0r0,-1982r292,0r0,604v54,-115,144,-195,297,-195v128,0,227,51,298,154v71,103,106,247,106,434v0,189,-35,335,-107,436v-72,101,-174,152,-307,152xm796,-307v70,-112,70,-397,0,-508v-38,-60,-86,-92,-149,-92v-63,0,-111,32,-150,92v-71,112,-71,397,0,508v39,60,87,92,150,92v63,0,111,-32,149,-92"},"\u00ff":{"d":"696,-1585r236,0r0,246r-236,0r0,-246xm301,-1585r236,0r0,246r-236,0r0,-246xm711,121v-39,105,-86,183,-141,231v-55,48,-122,72,-201,72r-242,0r0,-223v89,-1,205,6,251,-31v27,-22,56,-67,85,-141r22,-60r-426,-1089r308,0r256,727r245,-727r308,0"},"\u0152":{"d":"1217,-260r0,260r-584,0v-216,0,-365,-52,-445,-156v-80,-104,-120,-300,-120,-589v0,-291,40,-488,121,-592v81,-104,229,-156,444,-156r573,0r0,260r-332,0r0,311r302,0r0,260r-302,0r0,402r343,0xm621,-1233v-109,-6,-184,16,-221,89v-30,60,-46,192,-46,399v0,207,16,340,46,398v30,58,86,87,169,87r52,0r0,-973"},"\u0153":{"d":"637,-1022v37,-81,130,-126,250,-125v118,0,201,40,250,119v49,79,73,220,73,422r0,127r-450,0v0,96,17,169,50,219v33,50,81,76,144,76v105,0,174,-55,240,-117r0,244v-64,57,-140,86,-258,86v-141,0,-229,-56,-287,-148v-55,97,-132,148,-276,148v-127,0,-219,-46,-275,-138v-56,-92,-84,-242,-84,-450v0,-210,28,-360,84,-451v56,-91,148,-137,275,-137v137,1,210,39,264,125xm985,-690v-2,-133,2,-241,-113,-244v-41,0,-69,17,-87,48v-18,32,-26,112,-25,196r225,0xm520,-559v0,-161,-10,-265,-29,-309v-19,-44,-55,-66,-106,-66v-52,0,-87,22,-107,66v-20,44,-30,148,-30,309v0,161,10,265,30,309v20,44,55,66,107,66v51,0,87,-22,106,-67v19,-45,29,-147,29,-308"},"\u0178":{"d":"8,-1493r318,0r290,600r291,-600r318,0r-461,905r0,588r-295,0r0,-588xm696,-1899r236,0r0,246r-236,0r0,-246xm301,-1899r236,0r0,246r-236,0r0,-246"},"\u02c6":{"d":"496,-1638r241,0r256,376r-178,0r-199,-225r-198,225r-178,0"},"\u02dc":{"d":"716,-1470v74,33,115,-37,109,-121r140,0v0,91,-17,160,-51,210v-45,66,-128,91,-215,62v-43,-15,-106,-63,-148,-90v-29,-19,-52,-29,-70,-29v-59,2,-74,59,-73,129r-140,0v0,-91,18,-160,52,-210v46,-67,129,-92,217,-61v61,22,119,84,179,110"},"\u2013":{"d":"0,-690r1233,0r0,246r-1233,0r0,-246"},"\u2014":{"d":"0,-690r1233,0r0,246r-1233,0r0,-246"},"\u2018":{"d":"745,-903r-313,0r0,-271r197,-382r215,0r-99,382r0,271"},"\u2019":{"d":"530,-1556r314,0r0,270r-197,383r-215,0r98,-383r0,-270"},"\u201a":{"d":"461,-367r313,0r0,271r-196,383r-216,0r99,-383r0,-271"},"\u201c":{"d":"465,-903r-313,0r0,-271r196,-382r215,0r-98,382r0,271xm985,-903r-313,0r0,-271r196,-382r213,0r-96,382r0,271"},"\u201d":{"d":"768,-1556r313,0r0,270r-196,383r-215,0r98,-383r0,-270xm248,-1556r313,0r0,270r-196,383r-215,0r98,-383r0,-270"},"\u201e":{"d":"768,-367r313,0r0,271r-196,383r-215,0r98,-383r0,-271xm248,-367r313,0r0,271r-196,383r-215,0r98,-383r0,-271"},"\u2022":{"d":"283,-622v-35,-86,-35,-192,1,-278v36,-86,111,-159,196,-194v85,-36,189,-36,274,1v124,53,223,162,223,331v0,170,-101,282,-224,336v-86,38,-190,36,-276,0v-85,-36,-158,-109,-194,-196"},"\u2026":{"d":"881,-367r295,0r0,367r-295,0r0,-367xm469,-367r295,0r0,367r-295,0r0,-367xm57,-367r295,0r0,367r-295,0r0,-367"},"\u2039":{"d":"815,-1059r0,238r-276,221r276,221r0,238r-469,-394r0,-131"},"\u203a":{"d":"420,-1059r469,393r0,131r-469,394r0,-238r278,-221r-278,-221r0,-238"},"\u20ac":{"d":"184,-745r2,-76r-180,0r84,-189r119,0v29,-167,93,-293,190,-380v97,-87,224,-130,381,-130v121,1,213,28,297,72r0,328v-49,-52,-97,-90,-144,-114v-105,-56,-245,-46,-324,30v-46,44,-80,108,-101,194r442,0r-84,189r-382,0v-5,43,-2,101,-1,151r316,0r-84,187r-207,0v27,152,113,262,276,262v137,0,210,-66,293,-150r0,328v-82,45,-176,72,-297,72v-338,0,-519,-204,-571,-512r-203,0r84,-187r96,0"},"\u2122":{"d":"729,-1493r100,227r89,-227r208,0r0,578r-153,0r0,-437r-107,256r-75,0r-117,-256r0,437r-152,0r0,-578r207,0xm438,-1493r0,133r-141,0r0,445r-156,0r0,-445r-141,0r0,-133r438,0"}}});
