/*!
 * The following copyright notice may not be removed under any circumstances.
 * 
 * Copyright:
 * Copyright (c) 2003 by Bitstream, Inc. All Rights Reserved.
 * 
 * Trademark:
 * Bitstream Vera is a trademark of Bitstream, Inc.
 * 
 * Manufacturer:
 * Bitstream Inc.
 * 
 * Vendor URL:
 * http://www.bitstream.com
 */
Cufon.registerFont({"w":1233,"face":{"font-family":"Bitstream Vera Sans Mono","font-weight":400,"font-style":"oblique","font-stretch":"normal","units-per-em":"2048","panose-1":"2 11 6 9 3 3 4 11 2 4","ascent":"1556","descent":"-492","x-height":"27","bbox":"-145 -1901 1376 483","underline-thickness":"141","underline-position":"-143","slope":"-11","unicode-range":"U+0020-U+2122"},"glyphs":{" ":{},"!":{"d":"662,-1493r202,0r-129,655r-88,357r-162,0r50,-357xm420,-254r203,0r-50,254r-202,0"},"\"":{"d":"895,-1493r0,555r-174,0r0,-555r174,0xm512,-1493r0,555r-174,0r0,-555r174,0"},"#":{"d":"778,-901r-246,0r-83,334r245,0xm676,-1470r-105,415r246,0r105,-415r159,0r-104,415r256,0r-39,154r-256,0r-84,334r258,0r-39,153r-258,0r-104,414r-160,0r104,-414r-245,0r-105,414r-160,0r105,-414r-256,0r39,-153r256,0r84,-334r-258,0r39,-154r258,0r104,-415r160,0"},"$":{"d":"543,-145v163,3,291,-103,288,-261v-3,-125,-79,-158,-202,-182xm643,-1184v-144,6,-270,103,-270,244v0,46,14,81,42,106v28,25,77,45,148,60xm455,301r-101,0r59,-301v-145,-6,-270,-41,-382,-92r35,-180v99,73,221,123,374,131r90,-465v-117,-23,-203,-60,-256,-108v-53,-48,-79,-114,-79,-197v0,-115,45,-211,133,-288v88,-77,202,-117,341,-122r48,-235r100,0r-47,235v116,8,219,30,313,61r-32,173v-84,-52,-186,-84,-308,-95r-81,426v116,23,204,62,263,117v59,55,89,126,89,213v0,123,-46,224,-137,304v-94,82,-212,122,-363,120"},"%":{"d":"879,-504v-102,0,-183,83,-183,185v0,102,81,184,183,184v100,0,184,-84,184,-184v0,-100,-85,-185,-184,-185xm879,0v-177,0,-318,-142,-318,-319v0,-216,219,-388,439,-296v109,46,196,148,200,296v4,174,-146,319,-321,319xm121,-465r-35,-96r1042,-418r41,96xm352,-1296v-100,0,-184,83,-184,184v0,103,81,184,184,184v100,0,185,-84,185,-184v0,-100,-85,-184,-185,-184xm352,-793v-176,0,-319,-143,-319,-319v0,-217,219,-388,441,-296v111,46,194,146,198,296v5,174,-146,319,-320,319"},"&":{"d":"733,-1366v-140,-2,-253,77,-250,209v2,90,43,176,84,250r307,557v88,-94,133,-235,148,-410r168,0v-24,234,-109,409,-246,539r123,221r-199,0r-59,-113v-109,81,-232,139,-399,142v-247,4,-432,-150,-430,-389v0,-112,34,-216,100,-312v66,-96,162,-179,287,-248v-34,-61,-57,-129,-58,-215v-3,-284,272,-432,580,-373v41,8,81,20,119,35r-35,183v-55,-50,-137,-75,-240,-76xm158,-408v0,159,137,283,301,279v113,-4,205,-53,282,-111r-309,-555v-90,49,-158,105,-204,171v-46,66,-70,138,-70,216"},"'":{"d":"702,-1493r0,555r-174,0r0,-555r174,0"},"(":{"d":"526,270v-87,-212,-153,-394,-153,-645v0,-202,43,-403,129,-603v86,-200,213,-391,381,-576r159,0v-157,201,-276,402,-356,606v-80,204,-119,407,-119,608v0,231,49,422,119,610r-160,0"},")":{"d":"666,-1554v86,211,153,395,153,645v0,202,-43,403,-129,603v-86,200,-213,391,-381,576r-159,0v157,-200,276,-402,356,-606v80,-204,119,-406,119,-608v0,-231,-49,-422,-119,-610r160,0"},"*":{"d":"1067,-1247r-358,194r358,195r-57,98r-336,-203r0,377r-115,0r0,-377r-336,203r-57,-98r358,-195r-358,-194r57,-99r336,203r0,-377r115,0r0,377r336,-203"},"+":{"d":"700,-1171r0,444r445,0r0,170r-445,0r0,444r-168,0r0,-444r-444,0r0,-170r444,0r0,-444r168,0"},",":{"d":"416,-303r252,0r-41,207r-271,383r-153,0r172,-383"},"-":{"d":"336,-643r522,0r-33,164r-522,0"},".":{"d":"414,-303r252,0r-60,303r-252,0"},"\/":{"d":"16,190r852,-1683r191,0r-854,1683r-189,0"},"0":{"d":"616,-616v-71,0,-135,-63,-135,-134v0,-71,64,-135,135,-135v71,0,134,64,134,135v0,73,-61,134,-134,134xm1135,-1020v0,259,-97,608,-199,772v-58,93,-122,164,-196,209v-74,45,-160,68,-259,68v-130,0,-226,-41,-289,-123v-63,-82,-94,-208,-94,-379v-1,-263,96,-605,199,-772v58,-93,121,-163,195,-208v74,-45,160,-67,258,-67v130,0,227,41,290,123v63,82,95,208,95,377xm299,-414v0,170,52,279,207,279v53,0,102,-17,148,-51v46,-34,84,-84,116,-148v84,-167,163,-487,162,-729v0,-103,-17,-176,-49,-223v-60,-87,-217,-89,-305,-19v-45,36,-85,83,-117,146v-88,170,-163,491,-162,745"},"1":{"d":"156,-170r313,0r221,-1141r-352,76r35,-184r352,-74r203,0r-258,1323r309,0r-33,170r-823,0"},"2":{"d":"713,-1520v229,-5,417,133,413,349v-3,169,-61,258,-153,372v-92,113,-265,252,-385,355r-320,274r684,0r-32,170r-914,0r33,-170r350,-309v358,-314,537,-539,537,-674v0,-132,-102,-202,-242,-199v-168,4,-294,63,-430,135r41,-204v128,-55,258,-97,418,-99"},"3":{"d":"1102,-1192v0,220,-143,355,-340,393v148,24,243,140,242,310v0,156,-56,281,-168,376v-112,95,-260,142,-447,142v-155,0,-291,-28,-407,-74r38,-201v107,61,227,102,379,105v224,4,406,-127,406,-336v-1,-165,-108,-239,-281,-238r-153,0r32,-166r154,0v192,3,344,-96,344,-274v0,-146,-94,-195,-252,-195v-143,0,-264,36,-389,80r37,-186v138,-36,253,-62,401,-64v231,-3,404,112,404,328"},"4":{"d":"842,-1282r-625,762r473,0xm846,-1493r233,0r-190,973r198,0r-30,164r-199,0r-70,356r-198,0r69,-356r-634,0r36,-191"},"5":{"d":"829,-547v0,-175,-122,-276,-303,-274v-120,1,-232,33,-319,78r145,-750r756,0r-33,170r-571,0r-72,367v56,-19,112,-30,180,-31v246,-4,422,168,418,412v-2,189,-90,345,-201,444v-112,100,-255,159,-458,160v-141,0,-270,-22,-367,-64r41,-205v100,60,209,98,354,101v238,5,430,-176,430,-408"},"6":{"d":"293,-387v0,153,81,258,229,258v96,0,176,-45,241,-134v65,-89,97,-200,97,-331v1,-147,-78,-235,-223,-235v-97,0,-179,42,-245,126v-66,84,-99,189,-99,316xm516,29v-274,1,-426,-170,-424,-449v1,-240,65,-496,146,-670v67,-143,148,-250,250,-322v134,-95,313,-131,506,-92v47,10,92,25,134,44r-36,186v-71,-45,-159,-75,-269,-76v-129,0,-235,48,-319,144v-84,96,-143,237,-180,426v79,-119,192,-205,368,-207v239,-3,374,142,371,383v-4,274,-137,494,-325,585v-66,32,-141,48,-222,48"},"7":{"d":"276,-1493r936,0r-16,94r-805,1399r-217,0r778,-1323r-708,0"},"8":{"d":"492,-127v195,0,329,-138,329,-334v0,-154,-95,-248,-250,-248v-191,0,-325,155,-325,351v0,141,102,231,246,231xm41,-354v1,-240,172,-399,389,-439v-128,-45,-215,-130,-215,-288v0,-121,49,-225,148,-311v99,-86,219,-128,362,-128v218,0,401,123,401,326v0,96,-32,182,-97,258v-65,76,-150,127,-257,154v159,37,253,141,254,329v0,139,-51,254,-152,345v-101,91,-231,137,-389,137v-260,0,-445,-134,-444,-383xm926,-1165v0,-123,-93,-199,-219,-199v-165,0,-291,122,-291,285v0,132,86,213,219,213v161,0,291,-138,291,-299"},"9":{"d":"897,-1104v0,-154,-79,-258,-227,-258v-96,0,-177,45,-242,134v-65,89,-98,200,-98,331v-1,147,78,235,223,235v97,0,179,-42,245,-126v66,-84,99,-189,99,-316xm674,-1520v274,-1,428,171,426,449v-1,240,-65,496,-146,670v-66,142,-149,250,-251,322v-134,96,-313,131,-506,93v-47,-10,-91,-25,-134,-45r35,-186v71,45,159,75,269,76v129,0,235,-47,319,-143v84,-96,143,-238,180,-427v-79,119,-192,205,-368,207v-239,3,-375,-143,-371,-385v4,-273,137,-492,325,-583v67,-32,141,-48,222,-48"},":":{"d":"551,-1061r252,0r-60,303r-251,0xm403,-303r252,0r-59,303r-252,0"},";":{"d":"403,-303r252,0r-41,207r-258,383r-153,0r159,-383xm551,-1063r252,0r-60,303r-251,0"},"<":{"d":"1145,-961r-850,320r850,317r0,183r-1057,-418r0,-166r1057,-418r0,182"},"=":{"d":"88,-524r1057,0r0,172r-1057,0r0,-172xm88,-930r1057,0r0,170r-1057,0r0,-170"},">":{"d":"88,-961r0,-182r1057,418r0,166r-1057,418r0,-183r850,-317"},"?":{"d":"774,-1520v188,-4,347,113,346,289v0,63,-17,120,-48,175v-44,78,-193,198,-284,274v-102,86,-132,118,-159,258r-21,123r-190,0v20,-110,39,-231,86,-310v68,-113,302,-259,378,-377v24,-37,36,-75,36,-112v-1,-108,-93,-159,-211,-156v-145,4,-270,68,-381,137r36,-188v125,-65,246,-110,412,-113xm383,-254r203,0r-49,254r-205,0"},"@":{"d":"524,-469v0,123,67,209,185,209v173,0,299,-178,299,-363v0,-123,-69,-206,-189,-206v-171,0,-295,177,-295,360xm801,-1397v265,0,446,173,409,453v-3,26,-8,55,-14,86r-137,723r-144,0r21,-111v-60,75,-151,129,-274,131v-178,2,-297,-146,-297,-329v0,-147,44,-272,132,-376v88,-104,193,-157,314,-157v113,-1,206,55,242,133r8,-43v6,-36,11,-69,12,-102v1,-169,-106,-267,-276,-266v-95,0,-185,26,-273,78v-166,97,-295,288,-355,495v-29,100,-44,202,-44,307v0,325,172,552,483,551v93,-1,167,-21,244,-51r45,131v-84,39,-173,61,-291,61v-391,3,-640,-293,-635,-696v4,-295,120,-575,267,-745v75,-86,159,-155,257,-202v98,-47,200,-71,306,-71"},"A":{"d":"735,-1325r-364,774r430,0xm639,-1493r246,0r166,1493r-201,0r-35,-389r-520,0r-184,389r-217,0"},"B":{"d":"885,-504v0,-158,-106,-209,-279,-209r-241,0r-107,547r248,0v235,2,379,-111,379,-338xm963,-1149v0,-140,-84,-178,-236,-178r-244,0r-88,450r244,0v188,2,324,-94,324,-272xm827,-799v156,27,257,130,258,305v0,156,-53,277,-159,364v-106,87,-257,130,-451,130r-452,0r290,-1493r443,0v135,0,238,26,307,79v69,53,104,131,104,234v1,212,-144,360,-340,381"},"C":{"d":"326,-492v0,217,96,357,303,357v141,0,257,-58,354,-125r-39,207v-101,49,-208,81,-346,82v-309,2,-483,-193,-483,-506v0,-301,112,-622,254,-789v130,-153,276,-254,530,-254v123,0,225,35,313,82r-41,207v-74,-72,-158,-125,-286,-125v-153,0,-247,70,-328,164v-129,148,-231,432,-231,700"},"D":{"d":"924,-999v0,-245,-105,-326,-357,-328r-114,0r-226,1161v156,4,302,-9,394,-62v149,-86,224,-269,269,-478v23,-106,34,-204,34,-293xm586,-1493v354,0,544,154,544,500v0,232,-68,481,-155,639v-138,248,-307,351,-680,354r-303,0r291,-1493r303,0"},"E":{"d":"344,-1493r885,0r-33,170r-684,0r-86,442r653,0r-32,170r-654,0r-104,541r702,0r-33,170r-905,0"},"F":{"d":"383,-1493r879,0r-33,170r-676,0r-86,440r612,0r-32,170r-613,0r-139,713r-203,0"},"G":{"d":"287,-492v-2,214,99,356,303,357v92,0,165,-26,213,-72r76,-393r-217,0r30,-166r410,0r-133,670v-107,76,-239,124,-410,125v-315,1,-485,-196,-481,-518v3,-231,68,-451,147,-615v76,-157,199,-285,339,-354v127,-61,300,-82,456,-41v53,14,105,34,156,61r-41,207v-75,-72,-159,-125,-289,-125v-294,0,-414,228,-490,469v-39,126,-67,255,-69,395"},"H":{"d":"283,-1493r202,0r-118,612r553,0r118,-612r203,0r-291,1493r-202,0r139,-711r-555,0r-137,711r-203,0"},"I":{"d":"346,-1493r830,0r-33,170r-314,0r-223,1153r314,0r-33,170r-830,0r33,-170r313,0r224,-1153r-314,0"},"J":{"d":"20,-297v84,93,200,162,359,162v95,0,166,-24,213,-73v47,-49,83,-142,110,-279r164,-836r-381,0r33,-170r584,0r-197,1006v-37,193,-96,327,-176,403v-80,76,-199,113,-358,113v-150,0,-281,-39,-396,-90"},"K":{"d":"283,-1493r202,0r-127,647r742,-647r254,0r-703,619r428,874r-219,0r-360,-741r-193,168r-112,573r-203,0"},"L":{"d":"369,-1493r202,0r-258,1323r721,0r-33,170r-923,0"},"M":{"d":"229,-1493r269,0r110,756r414,-756r270,0r-291,1493r-186,0r258,-1327r-434,795r-141,0r-115,-795r-256,1327r-186,0"},"N":{"d":"285,-1493r256,0r264,1229r239,-1229r195,0r-291,1493r-256,0r-264,-1229r-240,1229r-194,0"},"O":{"d":"287,-414v0,175,53,279,215,279v136,0,222,-92,276,-197v90,-177,167,-486,166,-747v0,-174,-54,-277,-215,-277v-136,0,-220,92,-274,197v-92,179,-168,482,-168,745xm1054,-1398v101,121,116,396,74,617v-38,200,-102,420,-200,562v-104,150,-225,248,-451,248v-134,0,-231,-43,-298,-123v-100,-121,-115,-397,-75,-618v36,-199,101,-419,199,-560v104,-150,225,-248,451,-248v135,0,233,42,300,122"},"P":{"d":"999,-1116v-2,-154,-91,-211,-254,-211r-233,0r-109,561r234,0v215,3,364,-138,362,-350xm1204,-1135v1,342,-245,540,-600,535r-233,0r-117,600r-203,0r291,-1493r440,0v259,-2,421,113,422,358"},"Q":{"d":"504,27v-316,-1,-422,-168,-422,-500v0,-245,68,-486,148,-667v59,-134,159,-260,270,-320v73,-40,157,-60,254,-60v135,0,233,42,300,122v91,108,117,352,82,560v-48,286,-128,566,-297,727v-47,45,-96,79,-149,101r154,188r-154,92xm287,-414v0,175,53,279,215,279v136,0,222,-92,276,-197v90,-177,167,-486,166,-747v0,-174,-54,-277,-215,-277v-136,0,-220,92,-274,197v-92,179,-168,482,-168,745"},"R":{"d":"1151,-1151v1,249,-158,420,-385,446v48,9,87,32,116,67v29,35,62,112,97,230r121,408r-201,0r-106,-377v-29,-104,-63,-172,-99,-205v-36,-33,-91,-49,-164,-49r-192,0r-123,631r-203,0r289,-1493r416,0v138,0,245,29,321,89v76,60,113,144,113,253xm948,-1110v-1,-161,-92,-217,-262,-217r-213,0r-102,530r219,0v205,4,360,-117,358,-313"},"S":{"d":"477,-135v203,4,372,-122,371,-311v0,-55,-16,-95,-44,-127v-38,-44,-189,-90,-278,-119v-123,-39,-209,-83,-258,-132v-49,-49,-73,-113,-73,-194v0,-147,55,-268,165,-362v143,-123,367,-171,602,-120v60,13,122,33,185,58r-39,205v-95,-69,-202,-119,-348,-119v-110,0,-200,27,-269,82v-69,55,-104,124,-104,209v0,47,18,84,49,115v48,47,204,93,299,123v108,34,189,77,239,133v50,56,75,127,75,213v0,157,-57,279,-166,373v-145,124,-413,167,-657,114v-67,-15,-134,-37,-201,-67r41,-209v116,81,235,131,411,135"},"T":{"d":"193,-1493r1140,0r-33,170r-469,0r-256,1323r-204,0r258,-1323r-469,0"},"U":{"d":"479,29v-242,4,-399,-114,-399,-346v0,-84,17,-162,35,-256r178,-920r203,0r-187,961v-20,103,-30,174,-30,213v1,130,81,184,219,184v128,-1,201,-41,258,-119v15,-21,29,-56,44,-106v15,-50,32,-122,50,-213r178,-920r203,0r-178,920v-28,146,-57,253,-89,321v-81,176,-239,277,-485,281"},"V":{"d":"510,-190r598,-1303r215,0r-719,1493r-258,0r-147,-1493r198,0"},"W":{"d":"145,-1493r191,0r-90,1210r329,-800r211,0r15,802r377,-1212r198,0r-510,1493r-194,0r-31,-870r-371,870r-188,0"},"X":{"d":"242,-1493r200,0r224,532r440,-532r231,0r-596,719r324,774r-201,0r-254,-612r-506,612r-231,0r657,-797"},"Y":{"d":"195,-1493r202,0r236,651r497,-651r218,0r-635,823r-129,670r-207,0r131,-670"},"Z":{"d":"305,-1493r969,0r-29,154r-979,1169r774,0r-34,170r-1012,0r29,-154r976,-1169r-727,0"},"[":{"d":"621,-1556r423,0r-28,143r-240,0r-299,1540r240,0r-27,143r-426,0"},"\\":{"d":"725,190r-170,0r-199,-1683r170,0"},"]":{"d":"928,-1556r-357,1826r-424,0r29,-143r240,0r299,-1540r-240,0r29,-143r424,0"},"^":{"d":"705,-1493r456,557r-178,0r-367,-395r-366,395r-178,0r456,-557r177,0"},"_":{"d":"1024,403r0,80r-1024,0r0,-80r1024,0"},"`":{"d":"651,-1638r197,376r-143,0r-252,-376r198,0"},"a":{"d":"264,-307v-1,111,77,182,191,182v99,0,183,-35,255,-106v80,-78,131,-192,154,-332r-172,0v-134,1,-196,2,-278,33v-82,30,-149,118,-150,223xm694,-1147v256,-4,428,129,387,393v-5,34,-10,73,-18,115r-125,639r-184,0r32,-166v-83,109,-207,192,-378,195v-195,3,-337,-117,-336,-305v0,-131,51,-236,154,-314v103,-78,243,-117,419,-117r246,0v5,-37,16,-64,16,-108v-2,-126,-104,-178,-243,-176v-150,2,-274,46,-396,102r35,-180v124,-44,244,-76,391,-78"},"b":{"d":"332,-383v0,152,64,256,207,256v220,0,294,-199,343,-386v20,-77,29,-152,29,-224v0,-158,-56,-256,-202,-256v-134,0,-214,82,-271,180v-59,104,-106,274,-106,430xm535,29v-139,-1,-223,-65,-265,-170r-26,141r-185,0r303,-1556r185,0r-113,579v74,-99,172,-169,328,-170v227,-2,350,157,346,393v-6,323,-130,597,-340,720v-73,42,-150,63,-233,63"},"c":{"d":"350,-416v0,188,88,289,273,289v151,0,260,-52,356,-125r-39,201v-90,48,-199,79,-330,80v-296,1,-457,-150,-454,-445v3,-326,170,-579,402,-682v120,-53,277,-64,417,-28v55,14,109,36,162,65r-37,182v-79,-69,-159,-112,-291,-112v-250,0,-365,167,-427,365v-22,70,-32,141,-32,210"},"d":{"d":"893,-737v1,-148,-68,-254,-207,-254v-137,0,-214,74,-268,174v-60,110,-103,271,-103,434v0,158,57,256,203,256v135,0,214,-79,270,-178v60,-107,104,-272,105,-432xm670,-1147v141,1,235,69,284,170r115,-579r184,0r-303,1556r-184,0r27,-141v-76,98,-174,169,-330,170v-226,2,-348,-161,-344,-398v5,-315,125,-597,325,-718v68,-40,143,-60,226,-60"},"e":{"d":"948,-737v1,-157,-91,-255,-246,-254v-82,0,-156,30,-224,90v-68,60,-117,141,-146,242r606,0v7,-30,10,-48,10,-78xm285,-412v0,188,109,288,301,285v154,-2,287,-52,411,-113r-36,183v-125,51,-248,85,-408,86v-292,1,-456,-148,-455,-437v1,-232,101,-438,226,-565v96,-98,221,-173,393,-176v247,-4,413,171,409,420v-1,72,-10,132,-22,213r-807,0v-7,35,-12,68,-12,104"},"f":{"d":"1245,-1556r-31,153r-208,0v-140,2,-185,59,-211,184r-21,99r385,0r-26,143r-385,0r-191,977r-184,0r190,-977r-299,0r29,-143r297,0r16,-78v50,-242,146,-354,418,-358r221,0"},"g":{"d":"297,-399v0,149,74,254,215,254v210,0,286,-195,334,-376v20,-74,28,-147,28,-218v2,-148,-71,-252,-212,-252v-103,0,-190,57,-260,169v-70,112,-105,253,-105,423xm647,-1147v141,0,246,76,287,182r27,-151r184,0r-203,1044v-35,181,-97,312,-186,392v-89,80,-216,120,-381,120v-119,0,-224,-22,-316,-55r37,-182v86,52,186,90,310,90v99,0,176,-27,231,-80v55,-53,94,-142,119,-266r24,-117v-70,106,-180,177,-342,178v-216,1,-339,-171,-336,-399v2,-201,65,-393,152,-520v50,-74,109,-133,178,-174v69,-41,141,-62,215,-62"},"h":{"d":"803,-1147v208,0,321,135,287,354v-5,31,-8,64,-15,99r-135,694r-184,0r138,-709v10,-47,15,-84,15,-110v0,-110,-67,-169,-180,-168v-85,0,-157,31,-216,93v-59,62,-100,149,-122,261r-123,633r-184,0r303,-1556r184,0r-116,604v50,-65,105,-113,163,-146v58,-33,120,-49,185,-49"},"i":{"d":"358,-1120r471,0r-190,977r365,0r-29,143r-914,0r29,-143r365,0r161,-834r-286,0xm729,-1556r184,0r-45,233r-184,0"},"j":{"d":"498,20r192,-997r-317,0r28,-143r502,0r-221,1140v-27,142,-75,246,-142,310v-67,64,-161,96,-282,96r-254,0r31,-156r233,0v63,0,113,-20,150,-60v37,-40,63,-103,80,-190xm803,-1556r184,0r-45,233r-184,0"},"k":{"d":"393,-1556r191,0r-170,874r549,-438r241,0r-520,422r373,698r-213,0r-307,-582r-168,133r-88,449r-191,0"},"l":{"d":"739,0v-211,0,-342,-65,-342,-258v0,-50,9,-105,19,-154r211,-1011r-316,0r29,-144r500,0r-240,1159v-7,37,-14,71,-14,107v0,105,67,145,180,145r211,0r-31,156r-207,0"},"m":{"d":"571,-1147v100,-2,164,54,177,141v46,-81,125,-139,241,-141v116,-1,191,83,189,201v-2,108,-17,183,-39,297r-127,649r-168,0r125,-641v12,-61,21,-112,27,-151v6,-39,10,-66,10,-82v0,-79,-23,-118,-97,-119v-50,0,-89,22,-117,65v-28,43,-56,138,-85,287r-125,641r-168,0r125,-641v13,-65,21,-115,27,-153v6,-38,9,-65,9,-80v0,-76,-25,-118,-96,-119v-49,0,-88,19,-115,59v-27,40,-55,138,-85,293r-125,641r-168,0r217,-1120r168,0r-19,96v50,-68,116,-121,219,-123"},"n":{"d":"803,-1147v208,0,321,135,287,354v-5,31,-8,64,-15,99r-135,694r-184,0r138,-709v10,-47,15,-84,15,-110v0,-110,-67,-169,-180,-168v-85,0,-157,31,-216,93v-59,62,-100,149,-122,261r-123,633r-184,0r219,-1120r184,0r-32,168v50,-65,105,-113,163,-146v58,-33,120,-49,185,-49"},"o":{"d":"920,-733v0,-164,-67,-257,-224,-258v-109,0,-201,57,-274,171v-73,114,-109,259,-109,435v0,164,67,257,224,258v109,0,200,-57,273,-171v73,-114,110,-259,110,-435xm506,29v-255,2,-391,-160,-389,-422v1,-203,68,-386,157,-518v93,-137,230,-234,439,-236v265,-2,402,151,401,420v-1,203,-68,391,-156,520v-97,142,-233,234,-452,236"},"p":{"d":"578,29v-147,-2,-231,-65,-285,-170r-111,567r-184,0r301,-1546r184,0r-28,143v71,-97,181,-169,333,-170v225,-1,344,160,340,395v-5,317,-125,597,-326,720v-68,41,-143,61,-224,61xm354,-383v-1,154,70,256,215,256v215,0,289,-196,337,-381v20,-77,28,-154,28,-229v0,-157,-58,-254,-205,-254v-135,0,-215,78,-270,178v-60,108,-104,269,-105,430"},"q":{"d":"666,-1147v142,0,227,64,270,170r27,-143r184,0r-299,1546r-184,0r110,-567v-72,100,-172,169,-328,170v-227,2,-350,-157,-348,-394v2,-206,68,-411,154,-544v89,-137,212,-238,414,-238xm874,-737v0,-152,-64,-254,-206,-254v-222,0,-295,196,-344,384v-20,77,-29,152,-29,224v0,158,55,256,203,256v132,0,214,-80,270,-178v60,-103,106,-276,106,-432"},"r":{"d":"578,-901v79,-143,212,-244,415,-246v96,-1,174,26,226,72r-35,186v-57,-56,-132,-88,-240,-88v-109,0,-203,39,-281,115v-78,76,-130,180,-155,313r-107,549r-184,0r217,-1120r184,0"},"s":{"d":"152,-231v105,59,214,106,354,106v89,0,161,-19,217,-59v56,-40,84,-91,84,-152v0,-66,-65,-116,-196,-151r-95,-25v-86,-22,-150,-54,-190,-97v-40,-43,-60,-98,-60,-167v0,-113,46,-200,132,-270v151,-123,491,-128,679,-35r-35,180v-82,-52,-184,-92,-305,-92v-91,0,-163,17,-213,51v-50,34,-75,82,-75,143v0,65,74,117,221,154r94,24v78,21,136,52,175,93v39,41,58,92,58,153v0,121,-49,218,-144,293v-128,101,-342,136,-551,94v-59,-12,-121,-30,-187,-53"},"t":{"d":"547,-266v0,104,61,119,180,119r207,0r-29,147r-223,0v-111,0,-194,-19,-246,-56v-66,-46,-88,-127,-74,-232v3,-23,7,-50,13,-81r119,-608r-299,0r28,-143r299,0r62,-318r184,0r-61,318r417,0r-28,143r-418,0r-119,608v-7,34,-12,67,-12,103"},"u":{"d":"408,27v-171,3,-285,-105,-283,-273v0,-60,7,-124,18,-180r133,-694r185,0r-135,694v-8,40,-15,88,-15,129v0,107,68,165,178,164v85,0,156,-31,215,-93v59,-62,99,-148,121,-261r123,-633r185,0r-218,1120r-184,0r33,-168v-84,112,-186,192,-356,195"},"v":{"d":"182,-1120r178,0r154,956r502,-956r198,0r-614,1120r-238,0"},"w":{"d":"92,-1120r176,0r15,905r268,-578r162,0r49,578r362,-905r191,0r-486,1120r-165,0r-60,-623r-297,623r-166,0"},"x":{"d":"1208,-1120r-512,547r318,573r-197,0r-244,-444r-417,444r-226,0r564,-596r-293,-524r196,0r217,395r369,-395r225,0"},"y":{"d":"1225,-1120r-604,1048v-103,183,-172,300,-209,348v-69,91,-157,150,-303,150r-148,0r29,-154r108,0v54,0,100,-16,140,-46v55,-40,120,-159,161,-244r-217,-1102r183,0r172,862r483,-862r205,0"},"z":{"d":"319,-1120r814,0r-33,168r-785,805r629,0r-29,147r-837,0r33,-168r784,-805r-604,0"},"{":{"d":"457,-377v-3,-126,-73,-159,-211,-160r-62,0r29,-147v112,4,221,-10,269,-55v40,-38,71,-105,93,-205v45,-202,61,-452,201,-549v81,-56,163,-62,318,-63r82,0r-29,143r-78,0v-91,0,-152,13,-183,39v-31,26,-56,90,-77,190v-34,160,-63,390,-144,484v-41,48,-97,80,-171,94v107,24,171,116,150,253v-2,21,-6,45,-11,70r-47,244v-7,39,-11,69,-11,109v0,98,70,119,183,120r78,0r-29,144r-72,0v-125,0,-214,-18,-269,-54v-69,-45,-91,-134,-78,-243v14,-105,36,-206,56,-307v6,-33,13,-75,13,-107"},"|":{"d":"702,-1565r0,2048r-172,0r0,-2048r172,0"},"}":{"d":"705,-846v3,127,73,159,210,160r62,0r-29,147v-111,-4,-219,10,-268,55v-41,38,-75,105,-96,205v-44,204,-59,453,-199,549v-81,55,-163,63,-317,64r-82,0r28,-144r78,0v91,0,152,-14,183,-40v31,-26,56,-89,77,-189v34,-160,63,-391,144,-485v41,-48,97,-79,172,-92v-108,-26,-169,-115,-150,-254v18,-127,50,-245,66,-372v2,-17,2,-34,2,-50v-4,-100,-69,-120,-183,-121r-77,0r26,-143r74,0v125,0,214,19,269,54v69,44,90,134,77,243v-14,109,-38,213,-57,319v-6,33,-10,64,-10,94"},"~":{"d":"864,-657v123,0,199,-56,281,-123r0,174v-86,67,-166,111,-297,114v-152,4,-298,-127,-467,-122v-131,4,-210,52,-293,122r0,-174v106,-85,236,-137,410,-103v41,9,108,33,157,57v77,37,147,55,209,55"},"\u00a0":{},"\u00a1":{"d":"834,-1239r-203,0r49,-254r203,0xm592,0r-203,0r129,-655r88,-357r162,0r-49,357"},"\u00a2":{"d":"510,27v-239,-24,-391,-196,-387,-457v5,-339,189,-588,451,-682v52,-18,106,-29,163,-33r56,-287r102,0r-55,287v93,5,175,32,247,68r-32,172v-63,-49,-144,-79,-244,-88r-170,870v106,-10,194,-45,279,-90r-33,172v-87,36,-173,60,-275,68r-55,286r-102,0xm541,-127r168,-864v-110,10,-203,69,-279,179v-76,110,-115,240,-115,390v-1,168,78,279,226,295"},"\u00a3":{"d":"1192,-1278v-62,-50,-138,-88,-238,-88v-93,0,-165,28,-216,85v-51,57,-88,152,-115,286r-43,217r370,0r-28,143r-371,0r-90,465r536,0r-32,170r-973,0r33,-170r237,0r90,-465r-198,0r26,-143r199,0r47,-238v34,-173,95,-300,182,-382v108,-102,293,-147,484,-108v43,10,89,25,137,44"},"\u00a4":{"d":"653,-426v118,0,215,-99,215,-217v0,-118,-97,-213,-215,-213v-117,0,-215,96,-215,213v0,119,97,217,215,217xm653,-983v77,0,134,26,191,59r166,-166r90,93r-166,166v34,56,59,111,59,190v0,79,-25,133,-61,186r168,166r-94,94r-166,-167v-54,36,-107,61,-187,61v-77,0,-137,-25,-192,-57r-164,163r-92,-90r166,-166v-35,-58,-60,-112,-60,-190v0,-79,26,-136,62,-188r-168,-166r94,-95r166,168v54,-36,107,-61,188,-61"},"\u00a5":{"d":"1036,-524r-393,0r-98,524r-199,0r98,-524r-397,0r23,-111r397,0r6,-35r-55,-151r-309,0r22,-111r246,0r-205,-561r207,0r223,664r459,-664r211,0r-404,561r252,0r-22,111r-312,0r-110,151r-10,35r393,0"},"\u00a6":{"d":"702,-1432r0,758r-172,0r0,-758r172,0xm702,-408r0,758r-172,0r0,-758r172,0"},"\u00a7":{"d":"350,-1167v-2,-210,201,-349,426,-344v110,2,205,23,293,57r-33,164v-78,-41,-166,-75,-266,-78v-120,-3,-233,64,-235,170v0,53,45,109,134,169v92,62,254,168,301,235v70,100,46,223,-24,319v-44,60,-104,108,-180,143v49,42,82,97,82,180v0,105,-42,189,-122,255v-109,90,-286,118,-466,83v-51,-10,-105,-24,-160,-43r33,-161v82,40,175,73,279,75v131,2,245,-55,245,-172v0,-65,-61,-139,-183,-222v-80,-54,-219,-151,-252,-201v-64,-96,-45,-219,24,-310v43,-57,103,-107,182,-149v-48,-45,-77,-87,-78,-170xm678,-401v56,-34,99,-70,128,-107v60,-78,58,-146,-10,-219v-41,-44,-189,-144,-280,-201v-55,35,-96,71,-125,108v-54,71,-59,142,-1,210v43,50,203,154,288,209"},"\u00a8":{"d":"475,-1552r203,0r-39,202r-203,0xm866,-1552r203,0r-39,202r-203,0"},"\u00a9":{"d":"637,-1116v88,0,163,16,227,45r0,108v-69,-33,-136,-54,-227,-55v-159,-1,-252,113,-252,277v0,174,97,275,270,274v84,-1,149,-20,209,-51r0,104v-64,29,-139,45,-227,45v-234,3,-387,-142,-387,-372v0,-231,154,-378,387,-375xm814,-1218v-118,-48,-276,-49,-394,0v-119,49,-230,160,-280,279v-50,120,-51,273,0,393v50,120,161,231,280,281v119,50,274,50,392,0v118,-49,231,-163,280,-281v49,-120,49,-273,0,-393v-49,-120,-159,-230,-278,-279xm381,-1313v143,-59,328,-59,471,0v144,59,275,193,335,336v60,144,61,326,1,470v-59,142,-195,278,-337,337v-143,59,-326,60,-469,0v-142,-59,-277,-195,-336,-337v-60,-144,-60,-326,0,-470v60,-143,191,-277,335,-336"},"\u00aa":{"d":"442,-938v-1,75,57,122,133,121v175,-2,269,-124,295,-287r-141,0v-99,0,-171,13,-217,40v-46,27,-70,69,-70,126xm743,-1520v205,-3,311,93,291,300v-2,17,-5,36,-8,55r-86,448r-143,0r22,-112v-63,76,-159,130,-287,131v-140,2,-238,-84,-237,-222v0,-93,37,-167,111,-220v74,-53,178,-79,311,-79r174,0r4,-49v-2,-106,-68,-137,-184,-137v-110,0,-194,28,-277,68r23,-127v86,-32,181,-55,286,-56xm246,-592r676,0r-23,123r-676,0"},"\u00ab":{"d":"1106,-1059r-43,211r-350,264r250,267r-35,176r-387,-418r16,-82xm639,-1059r-43,211r-350,264r250,267r-35,176r-387,-418r16,-82"},"\u00ac":{"d":"88,-862r1057,0r0,491r-168,0r0,-319r-889,0r0,-172"},"\u00ad":{"d":"336,-643r522,0r-33,164r-522,0"},"\u00ae":{"d":"891,-901v-1,104,-72,162,-168,178v13,3,29,17,48,39v62,74,125,190,181,278r-143,0r-107,-174v-33,-53,-60,-86,-80,-101v-31,-23,-78,-22,-130,-21r0,296r-130,0r0,-694r238,0v98,0,171,16,219,49v48,33,72,83,72,150xm758,-901v0,-95,-57,-114,-164,-115r-102,0r0,232r102,0v108,-1,164,-21,164,-117xm381,-1313v143,-59,328,-59,471,0v144,59,275,193,335,336v60,144,61,326,1,470v-59,142,-195,278,-337,337v-143,59,-326,60,-469,0v-142,-59,-277,-195,-336,-337v-60,-144,-60,-326,0,-470v60,-143,191,-277,335,-336xm814,-1218v-118,-48,-276,-49,-394,0v-119,49,-230,160,-280,279v-50,120,-51,273,0,393v50,120,161,231,280,281v119,50,274,50,392,0v118,-49,231,-163,280,-281v49,-120,49,-273,0,-393v-49,-120,-159,-230,-278,-279"},"\u00af":{"d":"469,-1526r598,0r-29,148r-598,0"},"\u00b0":{"d":"299,-1200v0,-216,221,-390,441,-296v109,47,191,145,194,296v4,172,-147,315,-320,315v-176,0,-315,-139,-315,-315xm807,-1200v0,-102,-89,-191,-191,-191v-103,0,-190,88,-190,191v0,104,85,188,188,188v103,0,193,-86,193,-188"},"\u00b1":{"d":"88,-170r1057,0r0,170r-1057,0r0,-170xm700,-1171r0,329r445,0r0,170r-445,0r0,332r-168,0r0,-332r-444,0r0,-170r444,0r0,-329r168,0"},"\u00b2":{"d":"737,-1520v145,-3,253,71,254,205v0,93,-103,220,-309,382r-190,151r395,0r-23,114r-557,0r21,-110r203,-167v209,-169,313,-288,313,-358v0,-72,-60,-114,-137,-112v-101,3,-168,36,-256,78r24,-127v92,-31,162,-54,262,-56"},"\u00b3":{"d":"983,-1329v0,119,-98,194,-211,213v90,14,150,74,150,174v0,87,-37,155,-104,210v-117,96,-371,96,-531,38r24,-121v76,32,132,53,221,55v131,2,242,-53,242,-170v0,-99,-66,-131,-174,-131r-72,0r21,-106r72,0v112,2,215,-47,215,-144v0,-110,-154,-112,-264,-91v-34,7,-71,17,-111,32r22,-115v82,-19,158,-34,248,-35v146,-1,252,58,252,191"},"\u00b4":{"d":"907,-1638r219,0r-395,376r-156,0"},"\u00b5":{"d":"494,29v-133,0,-209,-63,-248,-166r-109,563r-176,0r301,-1546r187,0r-136,696v-7,34,-12,70,-12,105v0,126,81,189,211,188v91,0,164,-28,219,-83v55,-55,93,-140,115,-253r127,-653r186,0r-168,862v-10,50,-13,120,43,117v27,-1,42,-11,72,-23r-29,148v-44,24,-89,44,-147,45v-91,1,-147,-65,-146,-158v-65,99,-141,158,-290,158"},"\u00b6":{"d":"506,-649v-225,-2,-382,-134,-381,-355v0,-139,58,-256,173,-349v115,-93,261,-140,437,-140r406,0r-328,1690r-139,0r303,-1567r-191,0r-303,1567r-141,0"},"\u00b7":{"d":"512,-864r254,0r-59,305r-252,0"},"\u00b8":{"d":"494,160v0,-61,-30,-105,-58,-160r119,0v37,67,70,116,72,193v4,163,-174,228,-351,195v-31,-5,-63,-13,-94,-23r25,-129v44,21,90,37,145,38v83,1,142,-37,142,-114"},"\u00b9":{"d":"369,-778r206,0r117,-611r-231,41r22,-116r238,-39r137,0r-141,725r205,0r-21,110r-553,0"},"\u00ba":{"d":"741,-1520v202,-2,328,135,324,340v-4,210,-115,371,-261,443v-54,26,-110,39,-171,39v-203,2,-330,-133,-326,-338v5,-210,116,-373,263,-445v54,-26,111,-39,171,-39xm911,-1180v0,-130,-63,-225,-186,-225v-71,0,-133,35,-185,107v-52,72,-77,159,-77,260v0,130,63,225,186,225v71,0,132,-36,184,-108v52,-72,78,-158,78,-259xm246,-592r676,0r-23,123r-676,0"},"\u00bb":{"d":"82,-141r43,-211r350,-262r-250,-269r35,-176r387,418r-14,82xm549,-141r43,-211r350,-262r-250,-269r35,-176r387,418r-14,82"},"\u00bc":{"d":"111,-934r206,0r117,-611r-231,41r22,-116r238,-39r137,0r-141,725r205,0r-21,110r-553,0xm901,-565r162,0r-105,540r117,0r-20,111r-119,0r-33,184r-139,0r35,-184r-386,0r23,-121xm897,-416r-342,391r266,0xm70,-504r-23,-108r1059,-258r27,108"},"\u00bd":{"d":"891,-582v145,-3,253,71,254,205v0,93,-103,220,-309,382r-190,151r395,0r-23,114r-557,0r21,-110r203,-167v209,-169,313,-288,313,-358v0,-72,-60,-114,-137,-112v-101,3,-168,36,-256,78r24,-127v92,-31,162,-54,262,-56xm111,-934r206,0r117,-611r-231,41r22,-116r238,-39r137,0r-141,725r205,0r-21,110r-553,0xm70,-504r-23,-108r1059,-258r27,108"},"\u00be":{"d":"756,-1485v0,119,-98,194,-211,213v90,14,150,74,150,174v0,87,-37,155,-104,210v-117,96,-371,96,-531,38r24,-121v76,32,132,53,221,55v131,2,242,-53,242,-170v0,-99,-66,-131,-174,-131r-72,0r21,-106r72,0v112,2,215,-47,215,-144v0,-110,-155,-112,-265,-91v-34,7,-70,17,-110,32r22,-115v82,-19,158,-34,248,-35v146,-1,252,58,252,191xm901,-565r162,0r-105,540r117,0r-20,111r-119,0r-33,184r-139,0r35,-184r-386,0r23,-121xm897,-416r-342,391r266,0xm70,-504r-23,-108r1059,-258r27,108"},"\u00bf":{"d":"489,27v-187,4,-347,-113,-346,-289v0,-63,18,-119,49,-174v44,-77,192,-198,283,-275v102,-86,133,-118,160,-258r20,-123r191,0v-22,110,-38,232,-87,312v-41,68,-176,181,-257,248v-57,48,-96,91,-120,128v-24,37,-36,74,-36,111v2,109,92,159,211,156v145,-4,269,-68,381,-137r-37,188v-124,65,-247,110,-412,113xm881,-1239r-203,0r49,-254r203,0"},"\u00c0":{"d":"735,-1325r-364,774r430,0xm639,-1493r246,0r166,1493r-201,0r-35,-389r-520,0r-184,389r-217,0xm733,-1899r147,264r-139,0r-190,-264r182,0"},"\u00c1":{"d":"735,-1325r-364,774r430,0xm639,-1493r246,0r166,1493r-201,0r-35,-389r-520,0r-184,389r-217,0xm885,-1899r208,0r-307,264r-160,0"},"\u00c2":{"d":"735,-1325r-364,774r430,0xm639,-1493r246,0r166,1493r-201,0r-35,-389r-520,0r-184,389r-217,0xm704,-1901r213,0r158,266r-133,0r-139,-178r-209,178r-152,0"},"\u00c3":{"d":"735,-1325r-364,774r430,0xm639,-1493r246,0r166,1493r-201,0r-35,-389r-520,0r-184,389r-217,0xm1157,-1886v-37,126,-106,219,-250,219v-69,0,-110,-37,-153,-69v-28,-21,-55,-32,-80,-32v-59,0,-86,49,-107,101r-125,0v23,-73,56,-127,97,-164v55,-49,132,-69,212,-44v33,11,73,39,101,62v21,17,41,27,73,27v60,0,95,-46,107,-100r125,0"},"\u00c4":{"d":"735,-1325r-364,774r430,0xm639,-1493r246,0r166,1493r-201,0r-35,-389r-520,0r-184,389r-217,0xm897,-1870r203,0r-39,203r-203,0xm506,-1870r204,0r-41,203r-202,0"},"\u00c5":{"d":"772,-1475v82,0,152,-69,152,-151v0,-82,-70,-152,-152,-152v-84,0,-151,68,-151,152v0,82,68,151,151,151xm735,-1325r-364,774r430,0xm1047,-1626v-2,116,-65,202,-150,240r154,1386r-201,0r-35,-389r-520,0r-184,389r-217,0r706,-1415v-63,-43,-100,-111,-102,-211v-3,-148,125,-275,274,-275v148,0,278,127,275,275"},"\u00c6":{"d":"1307,-1493r-33,170r-338,0r-86,442r307,0r-33,170r-307,0r-106,541r356,0r-33,170r-542,0r75,-383r-352,0r-176,383r-184,0r700,-1493r752,0xm647,-1323r-356,772r309,0r150,-772r-103,0"},"\u00c7":{"d":"598,160v0,-61,-30,-105,-58,-160r119,0v37,67,70,116,72,193v4,163,-174,228,-351,195v-31,-5,-63,-13,-94,-23r25,-129v44,21,90,37,145,38v83,1,142,-37,142,-114xm326,-492v0,217,96,357,303,357v141,0,257,-58,354,-125r-39,207v-101,49,-208,81,-346,82v-309,2,-483,-193,-483,-506v0,-301,112,-622,254,-789v130,-153,276,-254,530,-254v123,0,225,35,313,82r-41,207v-74,-72,-158,-125,-286,-125v-153,0,-247,70,-328,164v-129,148,-231,432,-231,700"},"\u00c8":{"d":"344,-1493r885,0r-33,170r-684,0r-86,442r653,0r-32,170r-654,0r-104,541r702,0r-33,170r-905,0xm778,-1899r147,264r-139,0r-190,-264r182,0"},"\u00c9":{"d":"344,-1493r885,0r-33,170r-684,0r-86,442r653,0r-32,170r-654,0r-104,541r702,0r-33,170r-905,0xm930,-1899r208,0r-307,264r-160,0"},"\u00ca":{"d":"344,-1493r885,0r-33,170r-684,0r-86,442r653,0r-32,170r-654,0r-104,541r702,0r-33,170r-905,0xm749,-1901r213,0r158,266r-133,0r-139,-178r-209,178r-152,0"},"\u00cb":{"d":"344,-1493r885,0r-33,170r-684,0r-86,442r653,0r-32,170r-654,0r-104,541r702,0r-33,170r-905,0xm942,-1870r203,0r-39,203r-203,0xm551,-1870r204,0r-41,203r-202,0"},"\u00cc":{"d":"346,-1493r830,0r-33,170r-314,0r-223,1153r314,0r-33,170r-830,0r33,-170r313,0r224,-1153r-314,0xm739,-1899r147,264r-139,0r-190,-264r182,0"},"\u00cd":{"d":"346,-1493r830,0r-33,170r-314,0r-223,1153r314,0r-33,170r-830,0r33,-170r313,0r224,-1153r-314,0xm891,-1899r208,0r-307,264r-160,0"},"\u00ce":{"d":"346,-1493r830,0r-33,170r-314,0r-223,1153r314,0r-33,170r-830,0r33,-170r313,0r224,-1153r-314,0xm710,-1901r213,0r158,266r-133,0r-139,-178r-209,178r-152,0"},"\u00cf":{"d":"346,-1493r830,0r-33,170r-314,0r-223,1153r314,0r-33,170r-830,0r33,-170r313,0r224,-1153r-314,0xm903,-1870r203,0r-39,203r-203,0xm512,-1870r204,0r-41,203r-202,0"},"\u00d0":{"d":"924,-999v0,-245,-105,-326,-357,-328r-114,0r-91,469r267,0r-29,149r-266,0r-107,543v156,4,302,-9,394,-62v149,-86,224,-269,269,-478v23,-106,34,-204,34,-293xm586,-1493v354,0,544,154,544,500v0,232,-68,481,-155,639v-138,248,-307,351,-680,354r-303,0r137,-709r-127,0r29,-149r129,0r123,-635r303,0"},"\u00d1":{"d":"285,-1493r256,0r264,1229r239,-1229r195,0r-291,1493r-256,0r-264,-1229r-240,1229r-194,0xm1153,-1886v-37,126,-106,219,-250,219v-69,0,-110,-37,-153,-69v-28,-21,-55,-32,-80,-32v-59,0,-86,49,-107,101r-125,0v23,-73,56,-127,97,-164v55,-49,132,-69,212,-44v33,11,73,39,101,62v21,17,41,27,73,27v60,0,95,-46,107,-100r125,0"},"\u00d2":{"d":"287,-414v0,175,53,279,215,279v136,0,222,-92,276,-197v90,-177,167,-486,166,-747v0,-174,-54,-277,-215,-277v-136,0,-220,92,-274,197v-92,179,-168,482,-168,745xm1054,-1398v101,121,116,396,74,617v-38,200,-102,420,-200,562v-104,150,-225,248,-451,248v-134,0,-231,-43,-298,-123v-100,-121,-115,-397,-75,-618v36,-199,101,-419,199,-560v104,-150,225,-248,451,-248v135,0,233,42,300,122xm725,-1899r147,264r-139,0r-190,-264r182,0"},"\u00d3":{"d":"287,-414v0,175,53,279,215,279v136,0,222,-92,276,-197v90,-177,167,-486,166,-747v0,-174,-54,-277,-215,-277v-136,0,-220,92,-274,197v-92,179,-168,482,-168,745xm1054,-1398v101,121,116,396,74,617v-38,200,-102,420,-200,562v-104,150,-225,248,-451,248v-134,0,-231,-43,-298,-123v-100,-121,-115,-397,-75,-618v36,-199,101,-419,199,-560v104,-150,225,-248,451,-248v135,0,233,42,300,122xm877,-1899r208,0r-307,264r-160,0"},"\u00d4":{"d":"287,-414v0,175,53,279,215,279v136,0,222,-92,276,-197v90,-177,167,-486,166,-747v0,-174,-54,-277,-215,-277v-136,0,-220,92,-274,197v-92,179,-168,482,-168,745xm1054,-1398v101,121,116,396,74,617v-38,200,-102,420,-200,562v-104,150,-225,248,-451,248v-134,0,-231,-43,-298,-123v-100,-121,-115,-397,-75,-618v36,-199,101,-419,199,-560v104,-150,225,-248,451,-248v135,0,233,42,300,122xm696,-1901r213,0r158,266r-133,0r-139,-178r-209,178r-152,0"},"\u00d5":{"d":"287,-414v0,175,53,279,215,279v136,0,222,-92,276,-197v90,-177,167,-486,166,-747v0,-174,-54,-277,-215,-277v-136,0,-220,92,-274,197v-92,179,-168,482,-168,745xm1054,-1398v101,121,116,396,74,617v-38,200,-102,420,-200,562v-104,150,-225,248,-451,248v-134,0,-231,-43,-298,-123v-100,-121,-115,-397,-75,-618v36,-199,101,-419,199,-560v104,-150,225,-248,451,-248v135,0,233,42,300,122xm1149,-1886v-37,126,-106,219,-250,219v-69,0,-110,-37,-153,-69v-28,-21,-55,-32,-80,-32v-59,0,-86,49,-107,101r-125,0v23,-73,56,-127,97,-164v55,-49,132,-69,212,-44v33,11,73,39,101,62v21,17,41,27,73,27v60,0,95,-46,107,-100r125,0"},"\u00d6":{"d":"287,-414v0,175,53,279,215,279v136,0,222,-92,276,-197v90,-177,167,-486,166,-747v0,-174,-54,-277,-215,-277v-136,0,-220,92,-274,197v-92,179,-168,482,-168,745xm1054,-1398v101,121,116,396,74,617v-38,200,-102,420,-200,562v-104,150,-225,248,-451,248v-134,0,-231,-43,-298,-123v-100,-121,-115,-397,-75,-618v36,-199,101,-419,199,-560v104,-150,225,-248,451,-248v135,0,233,42,300,122xm889,-1870r203,0r-39,203r-203,0xm498,-1870r204,0r-41,203r-202,0"},"\u00d7":{"d":"150,-293r350,-348r-350,-350r116,-117r350,350r351,-350r116,117r-350,350r348,348r-116,119r-349,-350r-348,350"},"\u00d8":{"d":"322,-229v26,59,94,95,180,94v75,0,138,-28,192,-82v104,-103,185,-358,219,-549v23,-129,31,-225,25,-350xm905,-1274v-35,-48,-96,-82,-176,-82v-75,0,-139,28,-193,82v-106,106,-184,362,-220,556v-24,133,-35,215,-25,329xm754,-1520v112,1,196,33,262,86r84,-125r100,64r-106,158v39,81,57,174,57,295v1,271,-85,588,-188,766v-59,103,-128,180,-208,230v-80,50,-173,75,-278,75v-117,-1,-203,-35,-270,-92r-94,133r-99,-64r119,-170v-36,-78,-53,-171,-53,-285v-1,-274,84,-589,188,-768v59,-102,128,-178,208,-228v80,-50,172,-75,278,-75"},"\u00d9":{"d":"479,29v-242,4,-399,-114,-399,-346v0,-84,17,-162,35,-256r178,-920r203,0r-187,961v-20,103,-30,174,-30,213v1,130,81,184,219,184v128,-1,201,-41,258,-119v15,-21,29,-56,44,-106v15,-50,32,-122,50,-213r178,-920r203,0r-178,920v-28,146,-57,253,-89,321v-81,176,-239,277,-485,281xm737,-1899r147,264r-139,0r-190,-264r182,0"},"\u00da":{"d":"479,29v-242,4,-399,-114,-399,-346v0,-84,17,-162,35,-256r178,-920r203,0r-187,961v-20,103,-30,174,-30,213v1,130,81,184,219,184v128,-1,201,-41,258,-119v15,-21,29,-56,44,-106v15,-50,32,-122,50,-213r178,-920r203,0r-178,920v-28,146,-57,253,-89,321v-81,176,-239,277,-485,281xm889,-1899r208,0r-307,264r-160,0"},"\u00db":{"d":"479,29v-242,4,-399,-114,-399,-346v0,-84,17,-162,35,-256r178,-920r203,0r-187,961v-20,103,-30,174,-30,213v1,130,81,184,219,184v128,-1,201,-41,258,-119v15,-21,29,-56,44,-106v15,-50,32,-122,50,-213r178,-920r203,0r-178,920v-28,146,-57,253,-89,321v-81,176,-239,277,-485,281xm708,-1901r213,0r158,266r-133,0r-139,-178r-209,178r-152,0"},"\u00dc":{"d":"479,29v-242,4,-399,-114,-399,-346v0,-84,17,-162,35,-256r178,-920r203,0r-187,961v-20,103,-30,174,-30,213v1,130,81,184,219,184v128,-1,201,-41,258,-119v15,-21,29,-56,44,-106v15,-50,32,-122,50,-213r178,-920r203,0r-178,920v-28,146,-57,253,-89,321v-81,176,-239,277,-485,281xm901,-1870r203,0r-39,203r-203,0xm510,-1870r204,0r-41,203r-202,0"},"\u00dd":{"d":"195,-1493r202,0r236,651r497,-651r218,0r-635,823r-129,670r-207,0r131,-670xm891,-1899r208,0r-307,264r-160,0"},"\u00de":{"d":"1159,-874v2,330,-254,514,-602,509r-231,0r-72,365r-203,0r291,-1493r203,2r-51,274r241,0v256,-1,423,104,424,343xm952,-858v-2,-149,-93,-201,-254,-201r-237,0r-105,537r234,0v210,3,364,-131,362,-336"},"\u00df":{"d":"944,-1208v15,-129,-69,-198,-194,-197v-180,3,-257,107,-289,272r-219,1133r-187,0r221,-1137v52,-263,190,-415,484,-419v244,-4,395,127,362,377v-3,23,-8,47,-14,71v-116,14,-207,43,-274,88v-67,45,-101,100,-101,164v0,25,8,47,21,68v19,31,90,83,131,114v76,57,128,108,155,152v27,44,41,95,41,153v0,258,-207,402,-481,398v-103,-1,-190,-20,-270,-49r30,-164v72,39,159,64,263,65v162,2,282,-81,282,-233v0,-35,-9,-66,-27,-93v-47,-74,-248,-189,-291,-265v-18,-31,-28,-67,-28,-109v0,-87,33,-163,101,-227v68,-64,161,-108,280,-132v2,-10,3,-20,4,-30"},"\u00e0":{"d":"655,-1638r197,376r-143,0r-252,-376r198,0xm264,-307v-1,111,77,182,191,182v99,0,183,-35,255,-106v80,-78,131,-192,154,-332r-172,0v-134,1,-196,2,-278,33v-82,30,-149,118,-150,223xm694,-1147v256,-4,428,129,387,393v-5,34,-10,73,-18,115r-125,639r-184,0r32,-166v-83,109,-207,192,-378,195v-195,3,-337,-117,-336,-305v0,-131,51,-236,154,-314v103,-78,243,-117,419,-117r246,0v5,-37,16,-64,16,-108v-2,-126,-104,-178,-243,-176v-150,2,-274,46,-396,102r35,-180v124,-44,244,-76,391,-78"},"\u00e1":{"d":"911,-1638r219,0r-395,376r-156,0xm264,-307v-1,111,77,182,191,182v99,0,183,-35,255,-106v80,-78,131,-192,154,-332r-172,0v-134,1,-196,2,-278,33v-82,30,-149,118,-150,223xm694,-1147v256,-4,428,129,387,393v-5,34,-10,73,-18,115r-125,639r-184,0r32,-166v-83,109,-207,192,-378,195v-195,3,-337,-117,-336,-305v0,-131,51,-236,154,-314v103,-78,243,-117,419,-117r246,0v5,-37,16,-64,16,-108v-2,-126,-104,-178,-243,-176v-150,2,-274,46,-396,102r35,-180v124,-44,244,-76,391,-78"},"\u00e2":{"d":"721,-1638r147,0r164,376r-133,0r-117,-241r-225,241r-156,0xm264,-307v-1,111,77,182,191,182v99,0,183,-35,255,-106v80,-78,131,-192,154,-332r-172,0v-134,1,-196,2,-278,33v-82,30,-149,118,-150,223xm694,-1147v256,-4,428,129,387,393v-5,34,-10,73,-18,115r-125,639r-184,0r32,-166v-83,109,-207,192,-378,195v-195,3,-337,-117,-336,-305v0,-131,51,-236,154,-314v103,-78,243,-117,419,-117r246,0v5,-37,16,-64,16,-108v-2,-126,-104,-178,-243,-176v-150,2,-274,46,-396,102r35,-180v124,-44,244,-76,391,-78"},"\u00e3":{"d":"895,-1307v-122,0,-154,-100,-233,-146v-38,-22,-79,-6,-100,29v-16,25,-27,63,-32,115r-125,0v11,-91,37,-160,74,-209v51,-68,138,-92,223,-58v55,22,105,102,156,132v38,22,76,4,98,-31v16,-26,28,-65,33,-116r125,0v-11,91,-36,162,-74,211v-38,49,-86,73,-145,73xm264,-307v-1,111,77,182,191,182v99,0,183,-35,255,-106v80,-78,131,-192,154,-332r-172,0v-134,1,-196,2,-278,33v-82,30,-149,118,-150,223xm694,-1147v256,-4,428,129,387,393v-5,34,-10,73,-18,115r-125,639r-184,0r32,-166v-83,109,-207,192,-378,195v-195,3,-337,-117,-336,-305v0,-131,51,-236,154,-314v103,-78,243,-117,419,-117r246,0v5,-37,16,-64,16,-108v-2,-126,-104,-178,-243,-176v-150,2,-274,46,-396,102r35,-180v124,-44,244,-76,391,-78"},"\u00e4":{"d":"479,-1552r203,0r-39,202r-203,0xm870,-1552r203,0r-39,202r-203,0xm264,-307v-1,111,77,182,191,182v99,0,183,-35,255,-106v80,-78,131,-192,154,-332r-172,0v-134,1,-196,2,-278,33v-82,30,-149,118,-150,223xm694,-1147v256,-4,428,129,387,393v-5,34,-10,73,-18,115r-125,639r-184,0r32,-166v-83,109,-207,192,-378,195v-195,3,-337,-117,-336,-305v0,-131,51,-236,154,-314v103,-78,243,-117,419,-117r246,0v5,-37,16,-64,16,-108v-2,-126,-104,-178,-243,-176v-150,2,-274,46,-396,102r35,-180v124,-44,244,-76,391,-78"},"\u00e5":{"d":"264,-307v-1,111,77,182,191,182v99,0,183,-35,255,-106v80,-78,131,-192,154,-332r-172,0v-134,1,-196,2,-278,33v-82,30,-149,118,-150,223xm694,-1147v256,-4,428,129,387,393v-5,34,-10,73,-18,115r-125,639r-184,0r32,-166v-83,109,-207,192,-378,195v-195,3,-337,-117,-336,-305v0,-131,51,-236,154,-314v103,-78,243,-117,419,-117r246,0v5,-37,16,-64,16,-108v-2,-126,-104,-178,-243,-176v-150,2,-274,46,-396,102r35,-180v124,-44,244,-76,391,-78xm782,-1444v83,0,152,-69,152,-151v0,-83,-69,-152,-152,-152v-84,0,-151,68,-151,152v0,82,68,151,151,151xm782,-1870v149,0,275,126,275,275v0,149,-125,274,-275,274v-149,0,-274,-125,-274,-274v0,-149,126,-275,274,-275"},"\u00e6":{"d":"123,-262v-2,78,60,139,137,139v60,0,106,-22,140,-67v34,-45,63,-129,87,-252r15,-72v-81,-1,-189,4,-226,16v-95,30,-149,118,-153,236xm1051,-846v0,-87,-44,-149,-127,-149v-55,0,-99,22,-136,63v-48,54,-75,174,-94,275r330,0v13,-60,27,-115,27,-189xm950,-1147v164,-1,267,117,264,285v-2,111,-31,238,-51,348r-495,0v-18,90,-33,152,-35,229v-2,106,73,167,182,166v107,-1,206,-50,266,-108r-34,172v-71,49,-154,83,-263,84v-139,1,-237,-56,-270,-160v-56,96,-141,158,-281,160v-166,2,-280,-105,-280,-269v0,-276,179,-420,465,-417r117,0r18,-88v5,-28,8,-55,8,-89v1,-101,-61,-164,-162,-161v-95,2,-179,42,-258,84r35,-168v86,-37,171,-68,273,-68v114,0,192,49,231,129v59,-74,149,-127,270,-129"},"\u00e7":{"d":"613,160v0,-61,-30,-105,-58,-160r119,0v37,67,70,116,72,193v4,163,-174,228,-351,195v-31,-5,-63,-13,-94,-23r25,-129v44,21,90,37,145,38v83,1,142,-37,142,-114xm350,-416v0,188,88,289,273,289v151,0,260,-52,356,-125r-39,201v-90,48,-199,79,-330,80v-296,1,-457,-150,-454,-445v3,-326,170,-579,402,-682v120,-53,277,-64,417,-28v55,14,109,36,162,65r-37,182v-79,-69,-159,-112,-291,-112v-250,0,-365,167,-427,365v-22,70,-32,141,-32,210"},"\u00e8":{"d":"651,-1638r197,376r-143,0r-252,-376r198,0xm948,-737v1,-157,-91,-255,-246,-254v-82,0,-156,30,-224,90v-68,60,-117,141,-146,242r606,0v7,-30,10,-48,10,-78xm285,-412v0,188,109,288,301,285v154,-2,287,-52,411,-113r-36,183v-125,51,-248,85,-408,86v-292,1,-456,-148,-455,-437v1,-232,101,-438,226,-565v96,-98,221,-173,393,-176v247,-4,413,171,409,420v-1,72,-10,132,-22,213r-807,0v-7,35,-12,68,-12,104"},"\u00e9":{"d":"907,-1638r219,0r-395,376r-156,0xm948,-737v1,-157,-91,-255,-246,-254v-82,0,-156,30,-224,90v-68,60,-117,141,-146,242r606,0v7,-30,10,-48,10,-78xm285,-412v0,188,109,288,301,285v154,-2,287,-52,411,-113r-36,183v-125,51,-248,85,-408,86v-292,1,-456,-148,-455,-437v1,-232,101,-438,226,-565v96,-98,221,-173,393,-176v247,-4,413,171,409,420v-1,72,-10,132,-22,213r-807,0v-7,35,-12,68,-12,104"},"\u00ea":{"d":"717,-1638r147,0r164,376r-133,0r-117,-241r-225,241r-156,0xm948,-737v1,-157,-91,-255,-246,-254v-82,0,-156,30,-224,90v-68,60,-117,141,-146,242r606,0v7,-30,10,-48,10,-78xm285,-412v0,188,109,288,301,285v154,-2,287,-52,411,-113r-36,183v-125,51,-248,85,-408,86v-292,1,-456,-148,-455,-437v1,-232,101,-438,226,-565v96,-98,221,-173,393,-176v247,-4,413,171,409,420v-1,72,-10,132,-22,213r-807,0v-7,35,-12,68,-12,104"},"\u00eb":{"d":"475,-1552r203,0r-39,202r-203,0xm866,-1552r203,0r-39,202r-203,0xm948,-737v1,-157,-91,-255,-246,-254v-82,0,-156,30,-224,90v-68,60,-117,141,-146,242r606,0v7,-30,10,-48,10,-78xm285,-412v0,188,109,288,301,285v154,-2,287,-52,411,-113r-36,183v-125,51,-248,85,-408,86v-292,1,-456,-148,-455,-437v1,-232,101,-438,226,-565v96,-98,221,-173,393,-176v247,-4,413,171,409,420v-1,72,-10,132,-22,213r-807,0v-7,35,-12,68,-12,104"},"\u00ec":{"d":"622,-1638r197,376r-143,0r-252,-376r198,0xm358,-1120r471,0r-190,977r365,0r-29,143r-914,0r29,-143r365,0r161,-834r-286,0"},"\u00ed":{"d":"878,-1638r219,0r-395,376r-156,0xm358,-1120r471,0r-190,977r365,0r-29,143r-914,0r29,-143r365,0r161,-834r-286,0"},"\u00ee":{"d":"688,-1638r147,0r164,376r-133,0r-117,-241r-225,241r-156,0xm358,-1120r471,0r-190,977r365,0r-29,143r-914,0r29,-143r365,0r161,-834r-286,0"},"\u00ef":{"d":"446,-1552r203,0r-39,202r-203,0xm837,-1552r203,0r-39,202r-203,0xm358,-1120r471,0r-190,977r365,0r-29,143r-914,0r29,-143r365,0r161,-834r-286,0"},"\u00f0":{"d":"805,-1090v-33,-65,-67,-116,-113,-182r-297,94r-30,-92r274,-86r-141,-200r213,0r104,145r287,-88r28,92r-260,80v82,114,142,221,180,320v70,181,74,378,18,567v-76,254,-234,466,-552,469v-261,2,-398,-153,-397,-418v2,-190,63,-351,147,-475v89,-131,240,-231,441,-234v12,-1,75,6,98,8xm313,-379v0,151,74,252,219,252v111,0,201,-55,273,-161v85,-126,126,-330,97,-532v-5,-34,-15,-62,-28,-87v-46,-23,-96,-37,-161,-37v-119,0,-215,52,-289,156v-74,104,-111,240,-111,409"},"\u00f1":{"d":"891,-1307v-122,0,-154,-100,-233,-146v-38,-22,-79,-6,-100,29v-16,25,-27,63,-32,115r-125,0v11,-91,37,-160,74,-209v51,-68,138,-92,223,-58v55,22,105,102,156,132v38,22,76,4,98,-31v16,-26,28,-65,33,-116r125,0v-11,91,-36,162,-74,211v-38,49,-86,73,-145,73xm803,-1147v208,0,321,135,287,354v-5,31,-8,64,-15,99r-135,694r-184,0r138,-709v10,-47,15,-84,15,-110v0,-110,-67,-169,-180,-168v-85,0,-157,31,-216,93v-59,62,-100,149,-122,261r-123,633r-184,0r219,-1120r184,0r-32,168v50,-65,105,-113,163,-146v58,-33,120,-49,185,-49"},"\u00f2":{"d":"651,-1638r197,376r-143,0r-252,-376r198,0xm920,-733v0,-164,-67,-257,-224,-258v-109,0,-201,57,-274,171v-73,114,-109,259,-109,435v0,164,67,257,224,258v109,0,200,-57,273,-171v73,-114,110,-259,110,-435xm506,29v-255,2,-391,-160,-389,-422v1,-203,68,-386,157,-518v93,-137,230,-234,439,-236v265,-2,402,151,401,420v-1,203,-68,391,-156,520v-97,142,-233,234,-452,236"},"\u00f3":{"d":"907,-1638r219,0r-395,376r-156,0xm920,-733v0,-164,-67,-257,-224,-258v-109,0,-201,57,-274,171v-73,114,-109,259,-109,435v0,164,67,257,224,258v109,0,200,-57,273,-171v73,-114,110,-259,110,-435xm506,29v-255,2,-391,-160,-389,-422v1,-203,68,-386,157,-518v93,-137,230,-234,439,-236v265,-2,402,151,401,420v-1,203,-68,391,-156,520v-97,142,-233,234,-452,236"},"\u00f4":{"d":"717,-1638r147,0r164,376r-133,0r-117,-241r-225,241r-156,0xm920,-733v0,-164,-67,-257,-224,-258v-109,0,-201,57,-274,171v-73,114,-109,259,-109,435v0,164,67,257,224,258v109,0,200,-57,273,-171v73,-114,110,-259,110,-435xm506,29v-255,2,-391,-160,-389,-422v1,-203,68,-386,157,-518v93,-137,230,-234,439,-236v265,-2,402,151,401,420v-1,203,-68,391,-156,520v-97,142,-233,234,-452,236"},"\u00f5":{"d":"891,-1307v-122,0,-154,-100,-233,-146v-38,-22,-79,-6,-100,29v-16,25,-27,63,-32,115r-125,0v11,-91,37,-160,74,-209v51,-68,138,-92,223,-58v55,22,105,102,156,132v38,22,76,4,98,-31v16,-26,28,-65,33,-116r125,0v-11,91,-36,162,-74,211v-38,49,-86,73,-145,73xm920,-733v0,-164,-67,-257,-224,-258v-109,0,-201,57,-274,171v-73,114,-109,259,-109,435v0,164,67,257,224,258v109,0,200,-57,273,-171v73,-114,110,-259,110,-435xm506,29v-255,2,-391,-160,-389,-422v1,-203,68,-386,157,-518v93,-137,230,-234,439,-236v265,-2,402,151,401,420v-1,203,-68,391,-156,520v-97,142,-233,234,-452,236"},"\u00f6":{"d":"475,-1552r203,0r-39,202r-203,0xm866,-1552r203,0r-39,202r-203,0xm920,-733v0,-164,-67,-257,-224,-258v-109,0,-201,57,-274,171v-73,114,-109,259,-109,435v0,164,67,257,224,258v109,0,200,-57,273,-171v73,-114,110,-259,110,-435xm506,29v-255,2,-391,-160,-389,-422v1,-203,68,-386,157,-518v93,-137,230,-234,439,-236v265,-2,402,151,401,420v-1,203,-68,391,-156,520v-97,142,-233,234,-452,236"},"\u00f7":{"d":"494,-395r245,0r0,245r-245,0r0,-245xm494,-1135r245,0r0,246r-245,0r0,-246xm88,-727r1057,0r0,170r-1057,0r0,-170"},"\u00f8":{"d":"377,-186v38,38,86,59,160,59v109,0,200,-57,273,-171v80,-124,118,-289,108,-484v-1,-15,-4,-30,-7,-43xm506,29v-105,0,-184,-28,-248,-74r-119,141r-92,-76r129,-153v-79,-131,-67,-367,-17,-533v53,-178,161,-343,307,-422v138,-74,391,-84,503,13r112,-137r93,77r-123,146v86,130,75,365,22,537v-55,179,-157,345,-307,422v-75,39,-162,59,-260,59xm852,-938v-40,-36,-82,-53,-156,-53v-109,0,-201,57,-274,172v-78,122,-116,284,-108,479v1,13,3,26,5,38"},"\u00f9":{"d":"647,-1638r197,376r-143,0r-252,-376r198,0xm408,27v-171,3,-285,-105,-283,-273v0,-60,7,-124,18,-180r133,-694r185,0r-135,694v-8,40,-15,88,-15,129v0,107,68,165,178,164v85,0,156,-31,215,-93v59,-62,99,-148,121,-261r123,-633r185,0r-218,1120r-184,0r33,-168v-84,112,-186,192,-356,195"},"\u00fa":{"d":"903,-1638r219,0r-395,376r-156,0xm408,27v-171,3,-285,-105,-283,-273v0,-60,7,-124,18,-180r133,-694r185,0r-135,694v-8,40,-15,88,-15,129v0,107,68,165,178,164v85,0,156,-31,215,-93v59,-62,99,-148,121,-261r123,-633r185,0r-218,1120r-184,0r33,-168v-84,112,-186,192,-356,195"},"\u00fb":{"d":"713,-1638r147,0r164,376r-133,0r-117,-241r-225,241r-156,0xm408,27v-171,3,-285,-105,-283,-273v0,-60,7,-124,18,-180r133,-694r185,0r-135,694v-8,40,-15,88,-15,129v0,107,68,165,178,164v85,0,156,-31,215,-93v59,-62,99,-148,121,-261r123,-633r185,0r-218,1120r-184,0r33,-168v-84,112,-186,192,-356,195"},"\u00fc":{"d":"471,-1552r203,0r-39,202r-203,0xm862,-1552r203,0r-39,202r-203,0xm408,27v-171,3,-285,-105,-283,-273v0,-60,7,-124,18,-180r133,-694r185,0r-135,694v-8,40,-15,88,-15,129v0,107,68,165,178,164v85,0,156,-31,215,-93v59,-62,99,-148,121,-261r123,-633r185,0r-218,1120r-184,0r33,-168v-84,112,-186,192,-356,195"},"\u00fd":{"d":"907,-1638r219,0r-395,376r-156,0xm1225,-1120r-604,1048v-103,183,-172,300,-209,348v-69,91,-157,150,-303,150r-148,0r29,-154r108,0v54,0,100,-16,140,-46v55,-40,120,-159,161,-244r-217,-1102r183,0r172,862r483,-862r205,0"},"\u00fe":{"d":"578,29v-147,-2,-231,-65,-285,-170r-111,567r-184,0r387,-1993r184,0r-114,590v71,-97,181,-169,333,-170v225,-1,344,160,340,395v-5,317,-125,597,-326,720v-68,41,-143,61,-224,61xm354,-383v-1,154,70,256,215,256v215,0,289,-196,337,-381v20,-77,28,-154,28,-229v0,-157,-58,-254,-205,-254v-135,0,-215,78,-270,178v-60,108,-104,269,-105,430"},"\u00ff":{"d":"475,-1552r203,0r-39,202r-203,0xm866,-1552r203,0r-39,202r-203,0xm1225,-1120r-604,1048v-103,183,-172,300,-209,348v-69,91,-157,150,-303,150r-148,0r29,-154r108,0v54,0,100,-16,140,-46v55,-40,120,-159,161,-244r-217,-1102r183,0r172,862r483,-862r205,0"},"\u0152":{"d":"467,0v-287,0,-431,-131,-432,-414v0,-213,57,-489,119,-653v58,-154,132,-264,224,-329v92,-65,219,-97,380,-97r594,0r-33,170r-358,0r-87,442r328,0r-33,170r-327,0r-107,541r369,0r-33,170r-604,0xm229,-412v-1,161,86,242,248,242r62,0r225,-1153v-109,-4,-194,7,-263,54v-148,99,-183,305,-229,524v-24,115,-42,219,-43,333"},"\u0153":{"d":"498,-1147v111,-1,197,53,237,127v68,-73,147,-126,273,-127v166,-2,266,115,264,285v-2,113,-31,238,-49,348r-502,0v-12,61,-21,109,-27,146v-6,37,-8,64,-8,83v-1,106,73,167,182,166v107,-1,206,-50,267,-108r-35,172v-70,49,-154,83,-262,84v-127,0,-221,-49,-265,-133v-67,75,-155,132,-282,133v-196,2,-298,-121,-297,-322v1,-91,14,-179,31,-266v28,-148,62,-272,120,-379v67,-123,179,-207,353,-209xm1107,-788v16,-111,-19,-203,-124,-203v-55,0,-100,22,-137,64v-48,54,-78,169,-92,274r329,0r15,-76v4,-21,7,-40,9,-59xm168,-291v-3,102,46,168,143,168v94,0,154,-62,185,-137v48,-115,87,-328,107,-474v6,-45,9,-79,9,-100v1,-97,-46,-161,-139,-161v-156,0,-194,132,-230,266v-32,121,-71,299,-75,438"},"\u0178":{"d":"195,-1493r202,0r236,651r497,-651r218,0r-635,823r-129,670r-207,0r131,-670xm903,-1870r203,0r-39,203r-203,0xm512,-1870r204,0r-41,203r-202,0"},"\u02c6":{"d":"717,-1638r147,0r164,376r-133,0r-117,-241r-225,241r-156,0"},"\u02dc":{"d":"891,-1307v-122,0,-154,-100,-233,-146v-38,-22,-79,-6,-100,29v-16,25,-27,63,-32,115r-125,0v11,-91,37,-160,74,-209v51,-68,138,-92,223,-58v55,22,105,102,156,132v38,22,76,4,98,-31v16,-26,28,-65,33,-116r125,0v-11,91,-36,162,-74,211v-38,49,-86,73,-145,73"},"\u2013":{"d":"-23,-633r1233,0r-28,141r-1233,0"},"\u2014":{"d":"-23,-633r1233,0r-28,141r-1233,0"},"\u2018":{"d":"715,-967r-252,0r41,-207r270,-382r154,0r-172,382"},"\u2019":{"d":"676,-1556r252,0r-41,206r-271,383r-153,0r172,-383"},"\u201a":{"d":"416,-303r252,0r-41,207r-271,383r-153,0r172,-383"},"\u201c":{"d":"956,-967r-251,0r38,-207r273,-382r153,0r-172,382xm498,-967r-252,0r39,-207r272,-382r154,0r-174,382"},"\u201d":{"d":"434,-1556r252,0r-41,206r-270,383r-154,0r172,-383xm893,-1556r252,0r-41,206r-270,383r-154,0r172,-383"},"\u201e":{"d":"197,-303r252,0r-39,207r-273,383r-153,0r172,-383xm655,-303r252,0r-39,207r-272,383r-154,0r172,-383"},"\u2022":{"d":"614,-465v-162,0,-295,-134,-295,-297v0,-162,135,-295,297,-295v161,0,297,135,297,295v0,162,-137,297,-299,297"},"\u2026":{"d":"-6,-303r252,0r-60,303r-252,0xm813,-303r252,0r-59,303r-252,0xm403,-303r252,0r-59,303r-252,0"},"\u2039":{"d":"877,-1059r-43,211r-351,264r248,267r-33,176r-389,-418r17,-82"},"\u203a":{"d":"317,-141r43,-211r351,-262r-250,-269r35,-176r387,418r-17,82"},"\u20ac":{"d":"612,29v-325,0,-463,-222,-450,-572r-172,0r49,-110r133,0v10,-72,20,-127,35,-187r-158,0r49,-108r140,0v62,-189,148,-332,259,-428v111,-96,243,-144,398,-144v116,0,214,36,297,82r-39,207v-79,-71,-148,-125,-272,-125v-92,0,-175,36,-249,106v-74,70,-136,171,-183,302r473,0r-50,108r-456,0v-17,60,-29,120,-39,187r411,0r-47,110r-376,0r0,54v-1,210,85,354,280,354v132,0,240,-59,332,-125r-39,207v-96,50,-193,82,-326,82"},"\u2122":{"d":"438,-1493r0,94r-162,0r0,484r-114,0r0,-484r-162,0r0,-94r438,0xm692,-1493r137,256r125,-256r172,0r0,578r-114,0r0,-482r-156,301r-55,0r-166,-301r0,482r-113,0r0,-578r170,0"}}});
