/*!
 * The following copyright notice may not be removed under any circumstances.
 * 
 * Copyright:
 * Copyright (c) 2003 by Bitstream, Inc. All Rights Reserved.
 * 
 * Trademark:
 * Bitstream Vera is a trademark of Bitstream, Inc.
 * 
 * Manufacturer:
 * Bitstream Inc.
 * 
 * Vendor URL:
 * http://www.bitstream.com
 */
Cufon.registerFont({"w":1233,"face":{"font-family":"Bitstream Vera Sans Mono","font-weight":700,"font-style":"italic","font-stretch":"normal","units-per-em":"2048","panose-1":"2 11 7 9 3 3 4 11 2 4","ascent":"1556","descent":"-492","x-height":"29","bbox":"-150 -1901.05 1370 483","underline-thickness":"246","underline-position":"-98","slope":"-11","unicode-range":"U+0020-U+2122"},"glyphs":{" ":{},"!":{"d":"393,-283r266,0r-55,283r-266,0xm629,-1493r266,0r-127,655r-102,357r-199,0r33,-357"},"\"":{"d":"999,-1493r0,555r-256,0r0,-555r256,0xm487,-1493r0,555r-256,0r0,-555r256,0"},"#":{"d":"752,-881r-203,0r-74,293r203,0xm696,-1470r-94,374r205,0r94,-374r221,0r-94,374r240,0r-54,215r-241,0r-72,293r240,0r-54,215r-241,0r-94,373r-222,0r95,-373r-205,0r-94,373r-222,0r95,-373r-240,0r53,-215r242,0r72,-293r-240,0r53,-215r242,0r94,-374r221,0"},"$":{"d":"588,-227v98,-11,180,-74,180,-174v0,-82,-47,-110,-121,-131xm614,-1099v-90,10,-155,72,-155,167v0,64,44,97,102,111xm485,301r-141,0r57,-301v-138,-5,-251,-42,-362,-92r51,-262v101,69,212,122,354,131r68,-346v-105,-27,-183,-67,-235,-122v-52,-55,-78,-123,-78,-206v-2,-246,208,-419,458,-422r48,-237r141,0r-47,237v107,6,202,27,293,57r-50,250v-76,-50,-170,-81,-284,-88r-64,318v115,31,199,74,253,130v54,56,81,127,81,214v0,123,-44,224,-132,304v-88,80,-205,124,-353,134"},"%":{"d":"352,-793v-173,0,-319,-145,-319,-319v0,-174,146,-320,319,-320v173,0,320,147,320,320v0,173,-147,319,-320,319xm489,-1112v0,-74,-63,-137,-137,-137v-74,0,-137,62,-137,137v0,75,63,137,137,137v76,0,137,-62,137,-137xm86,-561r1042,-418r41,96r-1048,418xm899,0v-174,0,-319,-145,-319,-319v0,-174,145,-320,319,-320v172,0,320,148,320,320v0,171,-149,319,-320,319xm1036,-319v0,-74,-65,-138,-139,-138v-74,0,-135,64,-135,138v0,75,60,137,135,137v75,0,139,-63,139,-137"},"&":{"d":"1214,-745v-16,222,-103,386,-239,499r115,246r-316,0r-35,-72v-99,58,-213,99,-352,101v-246,4,-422,-150,-420,-389v0,-109,33,-211,99,-306v66,-95,160,-177,284,-247v-29,-65,-51,-125,-51,-205v0,-122,46,-218,134,-292v112,-95,304,-130,499,-99v45,7,90,18,133,32r-49,256v-64,-42,-150,-72,-248,-73v-106,-1,-182,40,-182,137v0,85,39,152,78,237r221,480v55,-76,89,-180,94,-305r235,0xm252,-438v-3,127,96,233,221,231v72,-1,128,-23,180,-55r-217,-469v-104,60,-181,149,-184,293"},"'":{"d":"743,-1493r0,555r-256,0r0,-555r256,0"},"(":{"d":"500,270v-95,-199,-162,-404,-162,-663v0,-193,44,-387,130,-581v86,-194,215,-387,386,-580r225,0v-155,208,-272,413,-350,614v-78,201,-117,399,-117,594v0,228,47,425,113,616r-225,0"},")":{"d":"692,-1554v94,199,162,404,162,663v0,193,-44,387,-130,581v-86,194,-215,387,-386,580r-225,0v155,-208,272,-413,350,-614v78,-201,117,-399,117,-594v0,-228,-47,-425,-113,-616r225,0"},"*":{"d":"1108,-1217r-330,173r330,174r-76,141r-332,-184r0,344r-172,0r0,-344r-331,184r-76,-141r332,-174r-332,-173r76,-141r331,182r0,-344r172,0r0,344r332,-182"},"+":{"d":"735,-1192r0,430r430,0r0,238r-430,0r0,432r-237,0r0,-432r-432,0r0,-238r432,0r0,-430r237,0"},",":{"d":"434,-367r314,0r-54,271r-270,383r-215,0r172,-383"},"-":{"d":"299,-735r629,0r-56,291r-628,0"},".":{"d":"418,-367r334,0r-70,367r-334,0"},"\/":{"d":"852,-1493r223,0r-854,1683r-221,0"},"0":{"d":"614,-621v-68,0,-125,-55,-125,-124v0,-69,57,-125,125,-125v68,0,127,57,127,125v0,67,-59,124,-127,124xm383,-440v0,75,11,131,34,167v23,36,58,54,105,54v43,0,82,-18,118,-53v36,-35,65,-86,89,-152v61,-167,117,-424,119,-627v0,-76,-11,-131,-33,-167v-46,-75,-164,-66,-224,-2v-34,36,-64,86,-89,153v-61,166,-117,423,-119,627xm733,-1520v264,-1,410,178,410,449v0,293,-81,616,-187,811v-49,91,-114,162,-194,213v-80,51,-168,76,-264,76v-264,1,-408,-177,-408,-449v0,-288,80,-618,184,-809v49,-91,114,-163,195,-214v81,-51,169,-77,264,-77"},"1":{"d":"94,-260r330,0r188,-969r-321,76r51,-266r326,-74r282,0r-239,1233r309,0r-51,260r-926,0"},"2":{"d":"844,-1135v0,-106,-94,-156,-211,-153v-151,4,-283,56,-408,117r51,-267v128,-47,266,-82,424,-82v129,0,233,32,314,95v81,63,121,145,121,245v0,166,-152,378,-454,638r-327,282r617,0r-51,260r-949,0r49,-252r277,-248r145,-128v268,-236,402,-405,402,-507"},"3":{"d":"750,-487v0,-118,-107,-181,-236,-181r-158,0r52,-260r157,0v83,0,149,-19,201,-56v52,-37,78,-83,78,-140v0,-169,-240,-162,-404,-125v-66,14,-136,34,-209,61r54,-268v121,-37,244,-64,385,-64v136,0,245,32,327,97v82,65,123,150,123,256v0,93,-31,173,-94,237v-63,64,-151,106,-262,125v164,44,266,138,266,332v0,153,-56,274,-164,366v-149,127,-403,162,-660,117v-76,-13,-156,-31,-237,-55r54,-270v116,56,251,93,411,94v193,1,316,-84,316,-266"},"4":{"d":"772,-1153r-483,578r373,0xm811,-1493r309,0r-178,918r164,0r-49,253r-164,0r-62,322r-282,0r63,-322r-594,0r58,-286"},"5":{"d":"764,-512v0,-145,-112,-227,-264,-225v-122,1,-231,34,-322,78r162,-834r811,0r-51,260r-572,0r-53,277v42,-17,89,-25,146,-25v260,-3,430,171,430,430v0,370,-277,585,-664,580v-142,-2,-267,-25,-381,-64r51,-266v88,51,203,81,336,82v210,2,369,-99,371,-293"},"6":{"d":"383,-401v0,110,62,194,166,194v72,0,132,-33,181,-100v49,-67,73,-150,73,-250v0,-111,-62,-191,-168,-191v-70,0,-130,33,-179,100v-49,67,-73,149,-73,247xm551,33v-313,-1,-456,-179,-455,-502v0,-306,95,-594,230,-778v122,-167,291,-271,561,-271v108,0,194,26,282,60r-51,268v-70,-52,-161,-90,-272,-90v-105,0,-192,36,-263,108v-71,72,-122,179,-153,318v71,-77,166,-130,301,-131v231,-2,361,174,361,416v0,173,-51,317,-154,431v-103,114,-232,171,-387,171"},"7":{"d":"262,-1493r963,0r-41,209r-756,1284r-319,0r735,-1233r-633,0"},"8":{"d":"528,-209v146,0,250,-119,250,-268v0,-117,-79,-191,-198,-191v-149,0,-254,117,-254,269v0,115,85,190,202,190xm63,-350v0,-242,160,-403,371,-449v-130,-33,-210,-122,-211,-278v0,-122,49,-226,147,-313v98,-87,219,-130,361,-130v227,0,406,139,406,357v0,206,-142,350,-328,377v139,35,231,152,231,321v0,297,-231,494,-536,494v-264,0,-441,-127,-441,-379xm702,-1284v-119,0,-217,96,-217,215v0,95,68,166,162,166v129,0,230,-88,230,-213v0,-106,-67,-168,-175,-168"},"9":{"d":"674,-1520v313,1,455,180,454,502v0,304,-96,597,-229,780v-121,167,-290,269,-561,269v-108,0,-196,-26,-283,-60r51,-268v71,52,162,90,273,90v104,0,191,-37,262,-109v71,-72,122,-178,154,-317v-72,77,-166,130,-301,131v-231,2,-359,-173,-359,-416v0,-173,51,-316,153,-430v102,-114,231,-172,386,-172xm842,-1085v0,-110,-62,-195,-166,-195v-72,0,-132,34,-180,101v-48,67,-72,151,-72,251v0,111,60,189,166,189v69,0,129,-33,178,-100v49,-67,74,-149,74,-246"},":":{"d":"510,-1063r334,0r-72,365r-334,0xm375,-367r334,0r-70,367r-334,0"},";":{"d":"375,-367r334,0r-54,271r-270,383r-215,0r152,-383xm510,-1063r334,0r-72,365r-334,0"},"<":{"d":"1145,-926r-795,285r795,283r0,249r-1057,-415r0,-236r1057,-416r0,250"},"=":{"d":"88,-532r1057,0r0,237r-1057,0r0,-237xm88,-987r1057,0r0,235r-1057,0r0,-235"},">":{"d":"88,-926r0,-250r1057,416r0,236r-1057,415r0,-249r795,-283"},"?":{"d":"346,-283r266,0r-55,283r-266,0xm778,-1520v203,-3,363,110,363,299v0,63,-16,123,-49,178v-33,55,-88,116,-166,181r-113,93v-84,70,-135,152,-154,245r-24,123r-266,0v24,-114,39,-236,92,-321v52,-83,170,-178,252,-250v96,-85,145,-148,145,-193v0,-81,-57,-121,-143,-119v-162,4,-285,69,-410,145r53,-268v118,-64,257,-110,420,-113"},"@":{"d":"571,-477v0,105,52,176,152,176v149,0,246,-157,246,-320v0,-99,-56,-165,-152,-165v-145,0,-246,153,-246,309xm799,-1395v263,0,461,160,427,435v-2,21,-7,44,-12,68r-147,757r-197,0r17,-82v-49,57,-123,101,-217,102v-190,2,-299,-134,-299,-329v0,-148,42,-274,127,-376v85,-102,189,-153,311,-153v98,0,168,35,205,96v11,-41,18,-84,18,-131v1,-126,-97,-198,-229,-198v-83,0,-162,22,-237,64v-156,86,-281,266,-340,452v-32,99,-48,200,-48,303v0,297,156,518,436,518v128,0,230,-42,322,-96r63,174v-122,64,-233,108,-393,110v-392,4,-625,-298,-620,-706v3,-244,71,-454,172,-617v77,-124,172,-220,284,-288v112,-68,231,-103,357,-103"},"A":{"d":"717,-1219r-264,607r284,0xm582,-1493r360,0r113,1493r-293,0r-14,-369r-400,0r-162,369r-299,0"},"B":{"d":"811,-510v0,-126,-81,-168,-217,-168r-197,0r-86,442r197,0v202,0,303,-78,303,-274xm883,-1128v0,-100,-67,-132,-176,-132r-197,0r-68,347r197,0v154,1,244,-67,244,-215xm813,-786v175,13,293,119,293,301v0,247,-128,404,-335,455v-77,20,-180,30,-310,30r-481,0r290,-1495r482,0v141,0,246,28,318,83v72,55,108,138,108,247v-1,228,-148,357,-365,379"},"C":{"d":"430,-532v-1,181,75,301,244,301v146,0,233,-62,336,-140r-64,328v-93,44,-196,71,-323,72v-327,0,-492,-200,-492,-535v0,-315,110,-620,262,-790v117,-131,281,-224,510,-224v124,0,224,29,316,72r-64,328v-60,-82,-152,-137,-283,-137v-130,0,-228,90,-288,182v-81,126,-153,348,-154,543"},"D":{"d":"860,-967v0,-175,-80,-260,-254,-260r-82,0r-186,961v113,2,214,-1,285,-44v51,-31,91,-74,120,-132v63,-125,117,-347,117,-525xm598,-1493v363,-1,567,147,567,494v0,239,-65,489,-144,653v-73,151,-187,253,-349,306v-158,51,-454,38,-680,40r291,-1493r315,0"},"E":{"d":"958,0r-929,0r288,-1493r932,0r-51,260r-635,0r-63,322r575,0r-49,260r-575,0r-76,391r635,0"},"F":{"d":"1217,-1233r-635,0r-62,322r578,0r-51,260r-578,0r-127,651r-295,0r291,-1493r930,0"},"G":{"d":"403,-532v-5,201,110,335,311,292v21,-5,40,-13,56,-24r57,-291r-206,0r49,-248r460,0r-139,709v-88,75,-222,123,-381,123v-330,1,-508,-215,-508,-553v0,-299,118,-607,265,-770v118,-131,281,-226,510,-226v123,0,223,29,315,72r-66,328v-60,-79,-145,-137,-270,-137v-169,0,-264,106,-328,226v-70,132,-120,312,-125,499"},"H":{"d":"283,-1493r295,0r-111,569r369,0r110,-569r295,0r-291,1493r-295,0r129,-664r-368,0r-129,664r-295,0"},"I":{"d":"266,-1233r51,-260r889,0r-51,260r-297,0r-188,973r297,0r-52,260r-888,0r51,-260r297,0r188,-973r-297,0"},"J":{"d":"45,-422v89,108,189,191,358,191v179,0,223,-80,256,-248r148,-754r-361,0r52,-260r655,0r-199,1014v-22,113,-47,199,-74,256v-78,164,-233,252,-470,252v-171,0,-306,-43,-430,-107"},"K":{"d":"270,-1493r295,0r-108,557r563,-557r348,0r-606,604r338,889r-303,0r-254,-670r-172,170r-95,500r-294,0"},"L":{"d":"80,0r291,-1493r295,0r-240,1233r631,0r-51,260r-926,0"},"M":{"d":"231,-1493r353,0r49,655r297,-655r360,0r-289,1493r-253,0r237,-1198r-293,655r-219,0r-47,-655r-231,1198r-252,0"},"N":{"d":"266,-1493r303,0r215,1085r211,-1085r260,0r-288,1493r-293,0r-225,-1085r-211,1085r-263,0"},"O":{"d":"365,-471v0,141,37,238,161,238v144,0,198,-125,240,-249v51,-152,102,-352,102,-538v0,-80,-14,-139,-40,-180v-45,-72,-160,-77,-230,-24v-99,75,-135,213,-174,364v-32,126,-59,255,-59,389xm504,29v-299,0,-443,-185,-443,-494v0,-280,81,-577,185,-764v92,-166,249,-291,483,-291v296,0,442,185,442,490v0,280,-79,581,-182,766v-93,166,-250,293,-485,293"},"P":{"d":"903,-1077v0,-137,-78,-166,-229,-168r-121,0r-84,438r143,0v190,0,291,-85,291,-270xm307,-1493r420,0v157,0,277,30,359,91v82,61,124,150,124,267v1,153,-58,322,-131,404v-112,125,-253,171,-495,172r-164,0r-109,559r-295,0"},"Q":{"d":"729,-1520v285,-3,442,181,442,471v0,292,-75,594,-182,787v-52,93,-121,164,-213,223r148,186r-211,134r-178,-252v-319,9,-474,-172,-474,-490v0,-280,80,-581,183,-766v93,-166,250,-291,485,-293xm365,-471v0,141,37,238,161,238v144,0,198,-125,240,-249v51,-152,102,-352,102,-538v0,-80,-14,-139,-40,-180v-45,-72,-160,-77,-230,-24v-99,75,-135,213,-174,364v-32,126,-59,255,-59,389"},"R":{"d":"1165,-1137v1,254,-143,408,-377,432v99,18,125,67,156,168r164,537r-301,0r-114,-403v-35,-125,-88,-187,-158,-187r-117,0r-115,590r-295,0r291,-1493r410,0v155,0,269,29,344,87v75,58,112,148,112,269xm864,-1090v-1,-110,-68,-155,-184,-155r-133,0r-80,407r123,0v175,1,274,-82,274,-252"},"S":{"d":"479,-215v160,3,285,-71,285,-217v0,-98,-60,-149,-139,-182r-119,-50v-128,-53,-213,-105,-254,-155v-41,-50,-62,-117,-62,-201v0,-147,56,-265,162,-360v145,-129,380,-169,618,-120v65,14,128,35,189,62r-57,285v-85,-78,-204,-123,-361,-125v-141,-2,-263,73,-266,201v-1,56,72,118,191,170r116,51v97,43,169,95,214,156v45,61,67,136,67,225v1,321,-256,509,-596,504v-178,-3,-321,-45,-463,-105r59,-305v110,91,241,163,416,166"},"T":{"d":"618,0r-294,0r239,-1235r-383,0r49,-258r1059,0r-51,258r-379,0"},"U":{"d":"500,29v-306,3,-493,-158,-450,-473v4,-33,10,-69,18,-107r184,-942r295,0r-199,1016v-4,28,-8,61,-8,74v-1,110,66,174,176,172v162,-2,233,-98,262,-246r199,-1016r295,0r-185,942v-42,208,-71,318,-178,428v-92,95,-231,150,-409,152"},"V":{"d":"518,-242r506,-1251r301,0r-645,1493r-412,0r-65,-1493r291,0"},"W":{"d":"143,-1493r254,0r-108,1096r272,-709r238,0r12,709r297,-1096r262,0r-461,1493r-270,0r-12,-784r-318,784r-268,0"},"X":{"d":"1071,0r-291,0r-200,-512r-400,512r-323,0r614,-782r-287,-711r291,0r187,463r360,-463r321,0r-573,737"},"Y":{"d":"145,-1493r293,0r187,649r411,-649r322,0r-633,905r-115,588r-293,0r115,-588"},"Z":{"d":"281,-1493r1009,0r-49,244r-876,989r700,0r-51,260r-1047,0r47,-244r858,-989r-643,0"},"[":{"d":"580,-1556r507,0r-38,190r-242,0r-281,1446r242,0r-37,190r-508,0"},"\\":{"d":"543,-1493r198,1683r-202,0r-199,-1683r203,0"},"]":{"d":"612,270r-506,0r37,-190r242,0r281,-1446r-242,0r37,-190r508,0"},"^":{"d":"739,-1493r437,557r-242,0r-318,-301r-317,301r-242,0r437,-557r245,0"},"_":{"d":"1233,293r0,190r-1233,0r0,-190r1233,0"},"`":{"d":"655,-1638r209,376r-198,0r-295,-376r284,0"},"a":{"d":"352,-317v0,82,62,145,144,145v79,0,145,-31,198,-93v53,-62,90,-150,109,-265r-113,0v-115,0,-200,17,-255,52v-55,35,-83,88,-83,161xm375,29v-198,2,-328,-127,-328,-324v0,-143,51,-253,155,-329v104,-76,254,-113,449,-113r193,0v3,-27,10,-47,10,-78v0,-38,-16,-68,-51,-87v-85,-46,-219,-35,-333,-2v-69,20,-143,48,-222,85r47,-250v129,-44,254,-78,405,-78v145,0,254,25,329,76v98,67,128,169,105,315v-5,35,-11,74,-20,117r-123,639r-291,0r25,-125v-82,94,-187,152,-350,154"},"b":{"d":"434,-432v0,124,54,223,166,223v74,0,137,-47,190,-141v53,-94,80,-209,80,-344v0,-121,-48,-213,-157,-213v-76,0,-142,47,-197,139v-55,92,-82,204,-82,336xm653,29v-154,0,-253,-96,-272,-236r-41,207r-293,0r303,-1556r293,0r-119,604v71,-108,170,-195,324,-195v210,0,321,180,317,408v-5,305,-106,569,-290,696v-70,48,-144,72,-222,72"},"c":{"d":"446,-463v2,169,79,254,246,254v126,0,221,-49,320,-104r-56,276v-93,40,-199,65,-323,66v-294,3,-483,-174,-483,-463v0,-468,353,-803,846,-692v57,14,110,34,161,63r-53,268v-71,-68,-152,-113,-275,-114v-235,-3,-386,200,-383,446"},"d":{"d":"799,-686v0,-124,-54,-223,-166,-223v-74,0,-138,47,-191,141v-53,94,-80,209,-80,344v0,120,48,213,156,213v76,0,142,-47,198,-139v56,-92,83,-204,83,-336xm580,-1149v154,-1,257,97,274,238r125,-645r293,0r-303,1556r-291,0r31,-166v-44,64,-94,113,-149,146v-55,33,-114,49,-177,49v-97,0,-172,-38,-231,-110v-101,-124,-102,-366,-55,-557v44,-182,130,-349,261,-438v70,-48,144,-73,222,-73"},"e":{"d":"362,-403v0,145,106,201,265,200v163,-1,308,-51,417,-121r-51,269v-117,52,-251,83,-411,84v-320,1,-506,-153,-506,-465v0,-316,147,-553,368,-658v77,-36,161,-55,250,-55v270,0,464,173,461,438v-1,85,-12,157,-27,246r-759,0v-4,21,-7,40,-7,62xm876,-684v32,-135,-50,-241,-184,-236v-157,5,-236,101,-282,236r466,0"},"f":{"d":"995,-1331v-102,3,-117,40,-139,135r-16,76r344,0r-43,225r-344,0r-174,895r-293,0r174,-895r-273,0r43,-225r273,0r16,-78v28,-141,73,-235,134,-284v61,-49,172,-74,331,-74r240,0r-43,225r-230,0"},"g":{"d":"367,-459v-1,121,44,213,153,213v77,0,143,-44,199,-132v56,-88,84,-195,84,-320v0,-119,-47,-211,-154,-211v-76,0,-142,45,-198,133v-56,88,-84,194,-84,317xm602,-1151v147,0,235,84,260,213r35,-182r293,0r-203,1036v-35,185,-99,315,-191,392v-92,77,-229,116,-411,116v-139,0,-258,-23,-367,-59r54,-265v90,54,195,90,327,90v177,0,260,-84,289,-241r27,-133v-64,98,-159,167,-305,168v-216,2,-344,-162,-342,-387v2,-202,70,-401,157,-529v79,-116,208,-219,377,-219"},"h":{"d":"854,-1147v193,-4,291,131,262,334v-3,25,-8,54,-14,85r-141,728r-293,0r133,-682v6,-33,10,-68,10,-106v0,-76,-39,-119,-113,-119v-55,0,-102,23,-141,71v-39,48,-67,117,-84,207r-121,629r-293,0r303,-1556r291,0r-116,604v55,-109,166,-193,317,-195"},"i":{"d":"309,-1120r580,0r-174,895r364,0r-43,225r-1022,0r43,-225r365,0r131,-670r-287,0xm702,-1665r293,0r-67,342r-293,0"},"j":{"d":"733,-43v-22,111,-43,191,-63,239v-70,158,-195,228,-426,228r-307,0r45,-225r231,0v67,0,117,-17,151,-53v34,-36,58,-99,76,-189r166,-852r-297,0r43,-225r590,0xm983,-1323r-293,0r66,-342r293,0"},"k":{"d":"383,-1556r293,0r-152,782r404,-346r370,0r-505,418r313,702r-311,0r-222,-524r-116,96r-82,428r-293,0"},"l":{"d":"618,-328v-12,88,42,103,138,103r278,0r-45,225r-297,0v-137,0,-233,-19,-290,-56v-70,-45,-97,-134,-80,-244v3,-23,8,-50,14,-79r203,-952r-306,0r43,-225r598,0r-249,1191v-3,13,-5,26,-7,37"},"m":{"d":"606,-1147v92,-2,155,56,164,139v37,-78,127,-138,236,-139v123,-1,202,83,200,209v-1,85,-9,134,-26,219r-140,719r-239,0r139,-719v7,-34,11,-61,14,-81v12,-69,0,-127,-65,-128v-32,0,-58,15,-77,45v-19,30,-35,85,-50,164r-139,719r-240,0r141,-719v8,-43,16,-87,17,-127v0,-50,-22,-82,-70,-82v-31,0,-57,15,-75,44v-18,29,-35,84,-50,165r-139,719r-240,0r217,-1120r213,0r-22,116v46,-78,122,-141,231,-143"},"n":{"d":"854,-1147v193,-4,291,131,262,334v-3,25,-8,54,-14,85r-141,728r-293,0r133,-682v6,-33,10,-68,10,-106v0,-76,-39,-119,-113,-119v-55,0,-101,24,-140,72v-39,48,-68,117,-85,206r-121,629r-293,0r217,-1120r293,0r-32,168v55,-109,166,-193,317,-195"},"o":{"d":"383,-434v0,129,61,226,180,227v81,0,149,-46,204,-137v55,-91,83,-204,83,-340v0,-133,-55,-227,-178,-227v-82,0,-151,45,-206,136v-55,91,-83,204,-83,341xm545,29v-284,0,-457,-172,-457,-455v0,-215,55,-388,166,-522v111,-134,256,-201,434,-201v284,0,457,172,457,455v0,215,-56,390,-167,523v-111,133,-255,200,-433,200"},"p":{"d":"655,29v-157,0,-253,-96,-276,-236r-123,633r-293,0r301,-1546r293,0r-33,168v47,-65,98,-114,153,-146v55,-32,113,-49,175,-49v211,1,321,179,317,408v-5,304,-108,569,-292,696v-70,48,-144,72,-222,72xm436,-432v0,124,54,223,166,223v74,0,138,-47,192,-142v54,-95,80,-209,80,-343v0,-121,-48,-213,-157,-213v-76,0,-141,47,-197,139v-56,92,-84,204,-84,336"},"q":{"d":"580,-1149v155,0,254,97,274,238r39,-209r293,0r-301,1546r-291,0r115,-592v-71,107,-170,195,-324,195v-97,0,-172,-38,-231,-110v-101,-124,-101,-366,-55,-557v44,-182,132,-349,261,-438v70,-48,143,-73,220,-73xm799,-686v0,-124,-54,-223,-166,-223v-74,0,-138,47,-191,141v-53,94,-80,209,-80,344v0,120,49,213,158,213v76,0,141,-47,196,-139v55,-92,83,-204,83,-336"},"r":{"d":"631,-946v84,-141,280,-239,497,-186v37,10,70,24,99,42r-53,275v-60,-54,-133,-83,-240,-84v-111,0,-196,29,-256,88v-60,59,-102,157,-129,295r-100,516r-295,0r219,-1120r293,0"},"s":{"d":"141,-297v99,65,223,115,369,115v73,0,131,-13,172,-38v41,-25,61,-59,61,-104v0,-31,-12,-53,-31,-72v-22,-22,-175,-67,-251,-89v-146,-42,-236,-116,-236,-287v0,-112,48,-200,136,-272v166,-135,515,-121,733,-41r-50,254v-89,-64,-202,-106,-342,-107v-63,0,-112,13,-149,35v-62,36,-75,121,-19,167v26,22,165,63,240,85v152,44,246,116,246,291v0,121,-46,217,-138,286v-92,69,-219,103,-382,103v-153,-1,-290,-27,-410,-70"},"t":{"d":"633,-330v-10,89,39,106,137,105r225,0r-43,225r-245,0v-136,0,-232,-19,-289,-56v-69,-44,-98,-130,-82,-239v3,-23,8,-51,14,-84r101,-516r-287,0r43,-225r287,0r61,-318r293,0r-62,318r383,0r-43,225r-383,0"},"u":{"d":"373,29v-195,3,-289,-132,-263,-337v3,-24,7,-52,13,-83r143,-729r291,0r-131,684v-6,33,-10,67,-10,104v-1,75,39,121,112,121v55,0,102,-23,140,-70v38,-47,66,-116,84,-208r122,-631r291,0r-217,1120r-293,0r33,-166v-51,108,-167,193,-315,195"},"v":{"d":"1231,-1120r-551,1120r-369,0r-139,-1120r283,0r80,878r389,-878r307,0"},"w":{"d":"96,-1120r240,0r-33,858r227,-565r230,0r22,565r291,-858r252,0r-418,1120r-280,0r-19,-590r-239,590r-279,0"},"x":{"d":"1227,-1120r-477,553r278,567r-299,0r-170,-356r-303,356r-332,0r512,-594r-258,-526r301,0r148,317r268,-317r332,0"},"y":{"d":"551,121v-75,132,-139,216,-193,251v-54,35,-124,52,-208,52r-240,0r45,-223v93,0,198,3,254,-30v44,-25,113,-143,149,-216r-217,-1075r297,0r127,700r383,-700r309,0"},"z":{"d":"293,-1120r895,0r-45,229r-707,672r576,0r-43,219r-920,0r45,-229r707,-672r-551,0"},"{":{"d":"610,33v0,88,51,109,148,110r121,0r-37,191r-148,0v-131,0,-224,-18,-280,-54v-68,-42,-94,-126,-80,-231v2,-19,7,-47,14,-84r43,-215v9,-50,17,-84,17,-129v0,-120,-77,-134,-215,-137r-62,0r37,-191v111,4,219,-10,268,-55v41,-38,74,-107,94,-211r41,-215v29,-149,75,-248,137,-296v62,-48,180,-72,353,-72r149,0r-36,190r-123,0v-69,0,-119,14,-149,43v-62,57,-84,271,-109,393v-42,205,-90,287,-287,318v111,26,178,64,178,184v0,166,-74,301,-74,461"},"|":{"d":"729,-1565r0,2048r-227,0r0,-2048r227,0"},"}":{"d":"776,-862v0,128,70,153,211,155r62,0r-37,191v-113,-4,-217,10,-268,58v-42,40,-76,108,-95,208r-41,215v-29,148,-76,246,-142,295v-66,49,-182,74,-347,74r-150,0r37,-191r123,0v69,0,118,-15,147,-43v61,-56,86,-271,111,-391v43,-203,93,-287,287,-321v-113,-21,-178,-59,-178,-179v0,-166,73,-305,73,-466v0,-90,-48,-109,-147,-109r-121,0r37,-190r147,0v137,0,232,16,287,48v55,32,82,86,82,162v0,135,-78,334,-78,484"},"~":{"d":"864,-686v123,0,200,-56,281,-125r0,233v-86,68,-165,112,-297,115v-153,4,-298,-128,-467,-123v-131,4,-209,51,-293,121r0,-229v105,-86,236,-138,410,-104v39,8,110,34,157,57v77,37,147,55,209,55"},"\u00a0":{},"\u00a1":{"d":"840,-1210r-267,0r56,-283r266,0xm604,0r-266,0r127,-655r102,-357r199,0r-35,357"},"\u00a2":{"d":"506,25v-251,-27,-403,-186,-402,-459v1,-230,89,-411,211,-537v97,-100,237,-170,418,-174r55,-287r142,0r-55,287v86,6,159,33,227,68r-53,264v-56,-50,-128,-84,-219,-94r-135,692v101,-9,183,-45,257,-92r-51,264v-75,37,-156,63,-254,68r-55,288r-141,0xm688,-907v-185,17,-323,235,-323,450v0,130,70,238,187,242"},"\u00a3":{"d":"1192,-1190v-69,-47,-139,-82,-240,-82v-70,0,-126,22,-168,67v-42,45,-74,115,-92,210r-33,176r336,0r-43,225r-338,0r-63,334r481,0r-51,260r-1004,0r52,-260r235,0r64,-334r-199,0r45,-225r199,0r37,-197v34,-179,95,-306,179,-386v107,-102,317,-143,513,-102v48,11,96,27,143,48"},"\u00a4":{"d":"653,-467v96,0,174,-80,174,-176v0,-96,-78,-172,-174,-172v-95,0,-174,77,-174,172v0,96,79,176,174,176xm653,-983v66,0,114,20,166,45r172,-170r127,129r-170,170v27,49,45,100,45,168v0,69,-17,120,-47,164r172,170r-131,131r-170,-172v-45,30,-94,47,-164,47v-65,0,-118,-18,-168,-43r-170,168r-129,-129r170,-170v-25,-49,-45,-100,-45,-166v0,-70,18,-120,47,-166r-172,-170r131,-131r166,172v49,-29,99,-47,170,-47"},"\u00a5":{"d":"127,-1493r317,0r174,600r408,-600r317,0r-374,528r223,0r-37,187r-321,0r-115,151r407,0r-36,189r-412,0r-86,438r-293,0r84,-438r-412,0r37,-189r408,0r-58,-151r-321,0r37,-187r223,0"},"\u00a6":{"d":"729,-408r0,758r-227,0r0,-758r227,0xm729,-1432r0,758r-227,0r0,-758r227,0"},"\u00a7":{"d":"729,-741r-121,-81r-78,-55v-39,29,-68,59,-89,88v-36,49,-41,100,-13,150v25,45,88,79,133,109r121,79v38,-26,67,-54,88,-83v36,-50,42,-98,12,-151v-13,-21,-30,-40,-53,-56xm315,-1169v-2,-220,192,-355,426,-351v116,2,220,26,318,60r-45,229v-78,-39,-159,-65,-262,-67v-102,-1,-177,38,-179,131v0,27,11,52,31,77v31,39,175,128,244,172v66,43,114,85,142,126v62,90,53,208,-14,296v-38,49,-93,97,-169,142v54,52,88,111,88,207v0,101,-40,182,-119,247v-113,92,-300,113,-486,80v-59,-10,-121,-25,-186,-45r46,-229v87,39,192,66,307,67v103,1,178,-38,180,-131v0,-46,-51,-102,-152,-170v-84,-57,-223,-145,-267,-210v-61,-92,-48,-218,21,-302v42,-51,99,-94,175,-127v-60,-49,-98,-104,-99,-202"},"\u00a8":{"d":"858,-1585r238,0r-49,246r-236,0xm463,-1585r237,0r-49,246r-235,0"},"\u00a9":{"d":"637,-1083v80,1,148,13,211,34r0,168v-60,-35,-110,-58,-191,-59v-128,-2,-204,72,-204,199v0,127,75,199,204,198v79,-1,141,-23,191,-59r0,168v-65,20,-134,34,-211,35v-216,4,-371,-132,-371,-342v0,-211,155,-345,371,-342xm381,-1313v143,-59,328,-59,471,0v144,59,275,193,335,336v60,144,61,326,1,470v-59,142,-195,278,-337,337v-143,59,-326,60,-469,0v-142,-59,-277,-195,-336,-337v-60,-144,-60,-326,0,-470v60,-143,191,-277,335,-336xm802,-1194v-110,-47,-259,-47,-370,0v-111,47,-218,154,-265,266v-46,112,-48,258,0,370v47,111,152,219,264,266v113,48,258,48,371,0v112,-48,217,-155,264,-266v48,-112,47,-258,0,-370v-47,-112,-154,-219,-264,-266"},"\u00aa":{"d":"846,-1268v12,-78,-58,-102,-141,-100v-104,2,-199,38,-287,78r33,-174v91,-32,180,-56,288,-56v99,0,175,17,230,52v73,47,92,113,78,214v-3,23,-8,52,-15,89r-88,448r-207,0r19,-88v-57,67,-132,106,-248,107v-140,2,-234,-88,-234,-226v0,-99,38,-176,112,-229v74,-53,180,-80,319,-80r135,0xm492,-940v-1,57,45,102,102,102v57,0,104,-21,141,-64v37,-43,63,-105,76,-185v-162,-3,-318,1,-319,147xm246,-598r688,0r-35,170r-688,0"},"\u00ab":{"d":"1102,-1059r-45,238r-320,221r234,221r-45,238r-394,-394r25,-131xm649,-1059r-47,238r-319,221r233,221r-45,238r-393,-394r24,-131"},"\u00ac":{"d":"88,-899r1057,0r0,537r-238,0r0,-300r-819,0r0,-237"},"\u00ad":{"d":"299,-735r629,0r-56,291r-628,0"},"\u00ae":{"d":"381,-1313v143,-59,328,-59,471,0v144,59,275,193,335,336v60,144,61,326,1,470v-59,142,-195,278,-337,337v-143,59,-326,60,-469,0v-142,-59,-277,-195,-336,-337v-60,-144,-60,-326,0,-470v60,-143,191,-277,335,-336xm702,-860v-1,-64,-44,-84,-114,-84r-64,0r0,164v88,2,180,3,178,-80xm868,-877v0,94,-62,148,-149,162v58,23,89,60,117,119r79,166r-172,0v-35,-67,-69,-170,-119,-214v-25,-22,-55,-28,-100,-26r0,240r-164,0r0,-625v217,7,508,-49,508,178xm802,-1194v-110,-47,-259,-47,-370,0v-111,47,-218,154,-265,266v-46,112,-47,258,0,370v47,111,153,219,265,266v112,47,256,47,369,0v113,-47,218,-155,265,-266v48,-112,47,-258,0,-370v-47,-112,-154,-219,-264,-266"},"\u00af":{"d":"459,-1556r631,0r-37,188r-631,0"},"\u00b0":{"d":"283,-1186v0,-227,231,-405,461,-308v114,48,204,150,204,308v0,155,-91,259,-205,306v-230,95,-460,-77,-460,-306xm786,-1186v0,-93,-77,-172,-170,-172v-94,0,-172,78,-172,172v0,94,76,170,170,170v93,0,172,-77,172,-170"},"\u00b1":{"d":"735,-1284r0,354r410,0r0,236r-410,0r0,354r-237,0r0,-354r-410,0r0,-236r410,0r0,-354r237,0xm88,-238r1057,0r0,238r-1057,0r0,-238"},"\u00b2":{"d":"831,-1288v0,-116,-169,-103,-277,-76v-50,12,-100,30,-151,53r31,-162v146,-49,397,-77,516,7v52,36,78,87,78,153v0,93,-137,236,-410,427r-104,73r438,0r-28,145r-664,0r29,-141r142,-102v267,-191,400,-316,400,-377"},"\u00b3":{"d":"801,-944v0,-71,-78,-98,-162,-98r-111,0r29,-146v129,1,291,12,291,-106v0,-64,-73,-87,-150,-86v-89,2,-182,23,-266,47r29,-152v150,-37,385,-60,500,16v52,35,79,81,79,140v-2,133,-100,200,-233,213v102,9,182,77,182,182v0,89,-38,157,-109,208v-128,92,-428,88,-604,32r31,-154v79,34,177,54,287,55v114,1,207,-48,207,-151"},"\u00b4":{"d":"887,-1638r321,0r-442,376r-197,0"},"\u00b5":{"d":"479,29v-79,0,-130,-34,-149,-95r-97,494r-288,0r301,-1548r289,0r-132,680v-7,31,-12,62,-12,94v-1,82,47,133,129,133v55,0,99,-19,133,-56v34,-37,59,-94,74,-171r131,-680r289,0r-150,776r-10,76v-3,44,29,67,67,49v10,-4,22,-10,36,-19r-43,222v-51,25,-98,45,-162,45v-107,0,-145,-57,-160,-158v-35,53,-74,93,-115,119v-41,26,-84,39,-131,39"},"\u00b6":{"d":"672,-1493r518,0r-328,1690r-190,0r301,-1543r-191,0r-299,1543r-190,0r164,-846v-114,-12,-202,-47,-263,-104v-61,-57,-92,-133,-92,-228v0,-145,54,-267,162,-365v108,-98,245,-147,408,-147"},"\u00b7":{"d":"479,-895r334,0r-72,365r-333,0"},"\u00b8":{"d":"479,150v0,-60,-27,-94,-57,-150r141,0v39,53,72,107,72,184v0,143,-127,219,-283,217v-73,-1,-142,-10,-202,-26r28,-156v95,44,301,68,301,-69"},"\u00b9":{"d":"315,-813r236,0r106,-543r-229,43r29,-149r229,-41r197,0r-135,690r227,0r-29,145r-657,0"},"\u00ba":{"d":"637,-698v-204,0,-330,-117,-330,-318v0,-280,165,-504,432,-504v203,0,328,117,328,318v0,280,-164,504,-430,504xm520,-1022v0,92,43,159,129,160v58,0,107,-32,147,-96v40,-64,60,-143,60,-238v1,-94,-42,-159,-129,-160v-58,0,-107,32,-147,96v-40,64,-60,143,-60,238xm254,-598r688,0r-33,170r-688,0"},"\u00bb":{"d":"260,-1059r393,393r-26,131r-545,394r45,-238r322,-221r-234,-221xm715,-1059r393,393r-27,131r-544,394r45,-238r321,-221r-233,-221"},"\u00bc":{"d":"57,-969r236,0r106,-543r-229,43r29,-149r229,-41r197,0r-135,690r227,0r-29,145r-657,0xm887,-383r-314,330r250,0xm905,-565r205,0r-101,512r109,0r-27,143r-108,0r-35,180r-188,0r36,-180r-389,0r31,-162xm84,-500r-37,-118r1059,-261r37,117"},"\u00bd":{"d":"985,-350v0,-116,-169,-103,-277,-76v-50,12,-100,30,-151,53r31,-162v146,-49,397,-77,516,7v52,36,78,87,78,153v0,93,-137,236,-410,427r-104,73r438,0r-28,145r-664,0r29,-141r142,-102v267,-191,400,-316,400,-377xm57,-969r236,0r106,-543r-229,43r29,-149r229,-41r197,0r-135,690r227,0r-29,145r-657,0xm84,-500r-37,-118r1059,-261r37,117"},"\u00be":{"d":"574,-1100v0,-71,-78,-98,-162,-98r-111,0r29,-146v129,1,291,12,291,-106v0,-64,-73,-87,-150,-86v-89,2,-182,23,-266,47r29,-152v150,-37,385,-60,500,16v52,35,79,81,79,140v-2,133,-100,200,-233,213v102,9,182,77,182,182v0,89,-39,157,-110,208v-128,92,-427,88,-603,32r31,-154v79,34,177,54,287,55v114,1,207,-48,207,-151xm887,-383r-314,330r250,0xm905,-565r205,0r-101,512r109,0r-27,143r-108,0r-35,180r-188,0r36,-180r-389,0r31,-162xm84,-500r-37,-118r1059,-261r37,117"},"\u00bf":{"d":"453,27v-203,3,-363,-110,-363,-299v0,-63,16,-123,49,-178v33,-55,88,-116,166,-181r113,-93v84,-70,135,-152,153,-245r23,-123r266,0v-23,114,-36,236,-90,320v-53,84,-175,183,-259,257v-93,82,-140,144,-140,187v0,81,57,121,143,119v162,-4,285,-69,410,-145r-52,268v-117,64,-256,110,-419,113xm885,-1210r-267,0r54,-283r268,0"},"\u00c0":{"d":"717,-1219r-264,607r284,0xm582,-1493r360,0r113,1493r-293,0r-14,-369r-400,0r-162,369r-299,0xm764,-1899r143,264r-178,0r-229,-264r264,0"},"\u00c1":{"d":"717,-1219r-264,607r284,0xm582,-1493r360,0r113,1493r-293,0r-14,-369r-400,0r-162,369r-299,0xm862,-1899r281,0r-320,264r-207,0"},"\u00c2":{"d":"717,-1219r-264,607r284,0xm582,-1493r360,0r113,1493r-293,0r-14,-369r-400,0r-162,369r-299,0xm639,-1899r348,0r151,264r-169,0r-164,-161r-230,161r-180,0"},"\u00c3":{"d":"717,-1219r-264,607r284,0xm582,-1493r360,0r113,1493r-293,0r-14,-369r-400,0r-162,369r-299,0xm898,-1789v79,31,125,-37,136,-112r137,0v-17,85,-48,151,-91,197v-57,61,-138,85,-228,58v-53,-17,-109,-82,-160,-102v-77,-31,-121,43,-133,113r-137,0v16,-85,46,-151,90,-197v57,-61,142,-86,232,-57v55,18,99,79,154,100"},"\u00c4":{"d":"717,-1219r-264,607r284,0xm582,-1493r360,0r113,1493r-293,0r-14,-369r-400,0r-162,369r-299,0xm899,-1899r235,0r-47,246r-237,0xm504,-1899r235,0r-49,246r-236,0"},"\u00c5":{"d":"754,-1747v-70,0,-131,61,-131,131v0,70,61,131,131,131v70,0,131,-61,131,-131v0,-70,-62,-131,-131,-131xm1038,-1616v-2,89,-39,161,-90,207r107,1409r-295,0r-21,-369r-395,0r-162,369r-295,0r660,-1421v-43,-42,-76,-117,-78,-195v-3,-152,132,-285,285,-285v151,0,288,134,284,285xm709,-1223r-258,611r278,0"},"\u00c6":{"d":"1311,-1493r-51,260r-291,0r-60,311r260,0r-51,260r-260,0r-78,402r310,0r-52,260r-563,0r72,-362r-283,0r-155,362r-259,0r652,-1493r809,0xm637,-1233r-272,635r227,0r125,-635r-80,0"},"\u00c7":{"d":"600,150v0,-60,-27,-94,-57,-150r141,0v39,53,72,107,72,184v0,143,-127,219,-283,217v-73,-1,-142,-10,-202,-26r28,-156v95,44,301,68,301,-69xm430,-532v-1,181,75,301,244,301v146,0,233,-62,336,-140r-64,328v-93,44,-196,71,-323,72v-327,0,-492,-200,-492,-535v0,-315,110,-620,262,-790v117,-131,281,-224,510,-224v124,0,224,29,316,72r-64,328v-60,-82,-152,-137,-283,-137v-130,0,-228,90,-288,182v-81,126,-153,348,-154,543"},"\u00c8":{"d":"958,0r-929,0r288,-1493r932,0r-51,260r-635,0r-63,322r575,0r-49,260r-575,0r-76,391r635,0xm801,-1899r143,264r-178,0r-229,-264r264,0"},"\u00c9":{"d":"958,0r-929,0r288,-1493r932,0r-51,260r-635,0r-63,322r575,0r-49,260r-575,0r-76,391r635,0xm899,-1899r281,0r-320,264r-207,0"},"\u00ca":{"d":"958,0r-929,0r288,-1493r932,0r-51,260r-635,0r-63,322r575,0r-49,260r-575,0r-76,391r635,0xm676,-1899r348,0r151,264r-169,0r-164,-161r-230,161r-180,0"},"\u00cb":{"d":"958,0r-929,0r288,-1493r932,0r-51,260r-635,0r-63,322r575,0r-49,260r-575,0r-76,391r635,0xm936,-1899r235,0r-47,246r-237,0xm541,-1899r235,0r-49,246r-236,0"},"\u00cc":{"d":"266,-1233r51,-260r889,0r-51,260r-297,0r-188,973r297,0r-52,260r-888,0r51,-260r297,0r188,-973r-297,0xm760,-1899r143,264r-178,0r-229,-264r264,0"},"\u00cd":{"d":"266,-1233r51,-260r889,0r-51,260r-297,0r-188,973r297,0r-52,260r-888,0r51,-260r297,0r188,-973r-297,0xm858,-1899r281,0r-320,264r-207,0"},"\u00ce":{"d":"266,-1233r51,-260r889,0r-51,260r-297,0r-188,973r297,0r-52,260r-888,0r51,-260r297,0r188,-973r-297,0xm635,-1899r348,0r151,264r-169,0r-164,-161r-230,161r-180,0"},"\u00cf":{"d":"266,-1233r51,-260r889,0r-51,260r-297,0r-188,973r297,0r-52,260r-888,0r51,-260r297,0r188,-973r-297,0xm895,-1899r235,0r-47,246r-237,0xm500,-1899r235,0r-49,246r-236,0"},"\u00d0":{"d":"598,-1493v363,-1,567,147,567,494v0,239,-65,489,-144,653v-73,151,-187,253,-349,306v-158,51,-454,38,-680,40r129,-664r-137,0r47,-237r135,0r117,-592r315,0xm860,-967v0,-175,-80,-260,-254,-260r-82,0r-63,326r211,0r-45,237r-211,0r-78,398v113,2,214,-1,285,-44v51,-31,91,-74,120,-132v63,-125,117,-347,117,-525"},"\u00d1":{"d":"266,-1493r303,0r215,1085r211,-1085r260,0r-288,1493r-293,0r-225,-1085r-211,1085r-263,0xm898,-1789v79,31,125,-37,136,-112r137,0v-17,85,-48,151,-91,197v-57,61,-138,85,-228,58v-53,-17,-109,-82,-160,-102v-77,-31,-121,43,-133,113r-137,0v16,-85,46,-151,90,-197v57,-61,142,-86,232,-57v55,18,99,79,154,100"},"\u00d2":{"d":"365,-471v0,141,37,238,161,238v144,0,198,-125,240,-249v51,-152,102,-352,102,-538v0,-80,-14,-139,-40,-180v-45,-72,-160,-77,-230,-24v-99,75,-135,213,-174,364v-32,126,-59,255,-59,389xm504,29v-299,0,-443,-185,-443,-494v0,-280,81,-577,185,-764v92,-166,249,-291,483,-291v296,0,442,185,442,490v0,280,-79,581,-182,766v-93,166,-250,293,-485,293xm764,-1899r143,264r-178,0r-229,-264r264,0"},"\u00d3":{"d":"365,-471v0,141,37,238,161,238v144,0,198,-125,240,-249v51,-152,102,-352,102,-538v0,-80,-14,-139,-40,-180v-45,-72,-160,-77,-230,-24v-99,75,-135,213,-174,364v-32,126,-59,255,-59,389xm504,29v-299,0,-443,-185,-443,-494v0,-280,81,-577,185,-764v92,-166,249,-291,483,-291v296,0,442,185,442,490v0,280,-79,581,-182,766v-93,166,-250,293,-485,293xm862,-1899r281,0r-320,264r-207,0"},"\u00d4":{"d":"365,-471v0,141,37,238,161,238v144,0,198,-125,240,-249v51,-152,102,-352,102,-538v0,-80,-14,-139,-40,-180v-45,-72,-160,-77,-230,-24v-99,75,-135,213,-174,364v-32,126,-59,255,-59,389xm504,29v-299,0,-443,-185,-443,-494v0,-280,81,-577,185,-764v92,-166,249,-291,483,-291v296,0,442,185,442,490v0,280,-79,581,-182,766v-93,166,-250,293,-485,293xm639,-1899r348,0r151,264r-169,0r-164,-161r-230,161r-180,0"},"\u00d5":{"d":"365,-471v0,141,37,238,161,238v144,0,198,-125,240,-249v51,-152,102,-352,102,-538v0,-80,-14,-139,-40,-180v-45,-72,-160,-77,-230,-24v-99,75,-135,213,-174,364v-32,126,-59,255,-59,389xm504,29v-299,0,-443,-185,-443,-494v0,-280,81,-577,185,-764v92,-166,249,-291,483,-291v296,0,442,185,442,490v0,280,-79,581,-182,766v-93,166,-250,293,-485,293xm898,-1789v79,31,125,-37,136,-112r137,0v-17,85,-48,151,-91,197v-57,61,-138,85,-228,58v-53,-17,-109,-82,-160,-102v-77,-31,-121,43,-133,113r-137,0v16,-85,46,-151,90,-197v57,-61,142,-86,232,-57v55,18,99,79,154,100"},"\u00d6":{"d":"365,-471v0,141,37,238,161,238v144,0,198,-125,240,-249v51,-152,102,-352,102,-538v0,-80,-14,-139,-40,-180v-45,-72,-160,-77,-230,-24v-99,75,-135,213,-174,364v-32,126,-59,255,-59,389xm504,29v-299,0,-443,-185,-443,-494v0,-280,81,-577,185,-764v92,-166,249,-291,483,-291v296,0,442,185,442,490v0,280,-79,581,-182,766v-93,166,-250,293,-485,293xm899,-1899r235,0r-47,246r-237,0xm504,-1899r235,0r-49,246r-236,0"},"\u00d7":{"d":"1112,-971r-330,328r330,330r-168,166r-330,-328r-327,328r-168,-166r330,-330r-330,-328r168,-168r327,328r330,-328"},"\u00d8":{"d":"375,-354v21,72,67,121,151,121v83,0,150,-51,202,-153v52,-102,95,-270,130,-503xm504,29v-159,0,-272,-54,-344,-146r-160,180r-141,-114r219,-244v-10,-44,-17,-94,-17,-147v-1,-292,77,-593,183,-785v93,-168,250,-293,487,-293v150,0,256,50,332,131r154,-170r139,115r-205,227v51,254,-9,538,-71,737v-84,272,-242,509,-576,509xm852,-1153v-21,-63,-68,-107,-145,-107v-81,0,-146,48,-197,146v-51,98,-95,260,-131,485"},"\u00d9":{"d":"500,29v-306,3,-493,-158,-450,-473v4,-33,10,-69,18,-107r184,-942r295,0r-199,1016v-4,28,-8,61,-8,74v-1,110,66,174,176,172v162,-2,233,-98,262,-246r199,-1016r295,0r-185,942v-42,208,-71,318,-178,428v-92,95,-231,150,-409,152xm770,-1899r143,264r-178,0r-229,-264r264,0"},"\u00da":{"d":"500,29v-306,3,-493,-158,-450,-473v4,-33,10,-69,18,-107r184,-942r295,0r-199,1016v-4,28,-8,61,-8,74v-1,110,66,174,176,172v162,-2,233,-98,262,-246r199,-1016r295,0r-185,942v-42,208,-71,318,-178,428v-92,95,-231,150,-409,152xm868,-1899r281,0r-320,264r-207,0"},"\u00db":{"d":"500,29v-306,3,-493,-158,-450,-473v4,-33,10,-69,18,-107r184,-942r295,0r-199,1016v-4,28,-8,61,-8,74v-1,110,66,174,176,172v162,-2,233,-98,262,-246r199,-1016r295,0r-185,942v-42,208,-71,318,-178,428v-92,95,-231,150,-409,152xm645,-1899r348,0r151,264r-169,0r-164,-161r-230,161r-180,0"},"\u00dc":{"d":"500,29v-306,3,-493,-158,-450,-473v4,-33,10,-69,18,-107r184,-942r295,0r-199,1016v-4,28,-8,61,-8,74v-1,110,66,174,176,172v162,-2,233,-98,262,-246r199,-1016r295,0r-185,942v-42,208,-71,318,-178,428v-92,95,-231,150,-409,152xm905,-1899r235,0r-47,246r-237,0xm510,-1899r235,0r-49,246r-236,0"},"\u00dd":{"d":"145,-1493r293,0r187,649r411,-649r322,0r-633,905r-115,588r-293,0r115,-588xm858,-1899r281,0r-320,264r-207,0"},"\u00de":{"d":"375,-332r-64,332r-295,0r291,-1493r295,0r-47,227r127,0v157,0,278,31,360,92v82,61,123,150,123,267v1,152,-59,319,-131,401v-111,126,-254,173,-495,174r-164,0xm858,-850v0,-137,-77,-166,-227,-168r-121,0r-86,438r145,0v190,0,289,-84,289,-270"},"\u00df":{"d":"764,-1559v254,-1,392,105,393,351v0,27,-4,86,-12,149v-94,5,-167,25,-219,58v-52,33,-78,78,-78,133v0,37,42,99,102,159v86,86,192,169,193,328v5,304,-282,458,-608,397v-43,-8,-86,-20,-129,-36r49,-250v64,34,130,61,211,63v108,2,191,-48,194,-147v1,-43,-48,-113,-117,-183v-71,-72,-156,-140,-155,-278v0,-90,31,-167,92,-229v61,-62,147,-105,260,-130v6,-106,-66,-151,-172,-151v-136,0,-203,80,-227,203r-219,1122r-293,0r219,-1126v50,-266,216,-432,516,-433"},"\u00e0":{"d":"686,-1638r209,376r-198,0r-295,-376r284,0xm352,-317v0,82,62,145,144,145v79,0,145,-31,198,-93v53,-62,90,-150,109,-265r-113,0v-115,0,-200,17,-255,52v-55,35,-83,88,-83,161xm375,29v-198,2,-328,-127,-328,-324v0,-143,51,-253,155,-329v104,-76,254,-113,449,-113r193,0v3,-27,10,-47,10,-78v0,-38,-16,-68,-51,-87v-85,-46,-219,-35,-333,-2v-69,20,-143,48,-222,85r47,-250v129,-44,254,-78,405,-78v145,0,254,25,329,76v98,67,128,169,105,315v-5,35,-11,74,-20,117r-123,639r-291,0r25,-125v-82,94,-187,152,-350,154"},"\u00e1":{"d":"918,-1638r321,0r-442,376r-197,0xm352,-317v0,82,62,145,144,145v79,0,145,-31,198,-93v53,-62,90,-150,109,-265r-113,0v-115,0,-200,17,-255,52v-55,35,-83,88,-83,161xm375,29v-198,2,-328,-127,-328,-324v0,-143,51,-253,155,-329v104,-76,254,-113,449,-113r193,0v3,-27,10,-47,10,-78v0,-38,-16,-68,-51,-87v-85,-46,-219,-35,-333,-2v-69,20,-143,48,-222,85r47,-250v129,-44,254,-78,405,-78v145,0,254,25,329,76v98,67,128,169,105,315v-5,35,-11,74,-20,117r-123,639r-291,0r25,-125v-82,94,-187,152,-350,154"},"\u00e2":{"d":"699,-1638r243,0r183,376r-176,0r-152,-225r-240,225r-190,0xm352,-317v0,82,62,145,144,145v79,0,145,-31,198,-93v53,-62,90,-150,109,-265r-113,0v-115,0,-200,17,-255,52v-55,35,-83,88,-83,161xm375,29v-198,2,-328,-127,-328,-324v0,-143,51,-253,155,-329v104,-76,254,-113,449,-113r193,0v3,-27,10,-47,10,-78v0,-38,-16,-68,-51,-87v-85,-46,-219,-35,-333,-2v-69,20,-143,48,-222,85r47,-250v129,-44,254,-78,405,-78v145,0,254,25,329,76v98,67,128,169,105,315v-5,35,-11,74,-20,117r-123,639r-291,0r25,-125v-82,94,-187,152,-350,154"},"\u00e3":{"d":"887,-1470v79,34,123,-45,133,-121r139,0v-15,94,-43,165,-85,213v-53,62,-143,90,-232,58v-40,-14,-89,-57,-126,-85v-28,-22,-52,-33,-73,-33v-58,0,-86,66,-96,129r-139,0v13,-87,42,-156,87,-207v59,-66,137,-96,227,-64v49,18,112,87,165,110xm352,-317v0,82,62,145,144,145v79,0,145,-31,198,-93v53,-62,90,-150,109,-265r-113,0v-115,0,-200,17,-255,52v-55,35,-83,88,-83,161xm375,29v-198,2,-328,-127,-328,-324v0,-143,51,-253,155,-329v104,-76,254,-113,449,-113r193,0v3,-27,10,-47,10,-78v0,-38,-16,-68,-51,-87v-85,-46,-219,-35,-333,-2v-69,20,-143,48,-222,85r47,-250v129,-44,254,-78,405,-78v145,0,254,25,329,76v98,67,128,169,105,315v-5,35,-11,74,-20,117r-123,639r-291,0r25,-125v-82,94,-187,152,-350,154"},"\u00e4":{"d":"889,-1585r238,0r-49,246r-236,0xm494,-1585r237,0r-49,246r-235,0xm352,-317v0,82,62,145,144,145v79,0,145,-31,198,-93v53,-62,90,-150,109,-265r-113,0v-115,0,-200,17,-255,52v-55,35,-83,88,-83,161xm375,29v-198,2,-328,-127,-328,-324v0,-143,51,-253,155,-329v104,-76,254,-113,449,-113r193,0v3,-27,10,-47,10,-78v0,-38,-16,-68,-51,-87v-85,-46,-219,-35,-333,-2v-69,20,-143,48,-222,85r47,-250v129,-44,254,-78,405,-78v145,0,254,25,329,76v98,67,128,169,105,315v-5,35,-11,74,-20,117r-123,639r-291,0r25,-125v-82,94,-187,152,-350,154"},"\u00e5":{"d":"352,-317v0,82,62,145,144,145v79,0,145,-31,198,-93v53,-62,90,-150,109,-265r-113,0v-115,0,-200,17,-255,52v-55,35,-83,88,-83,161xm375,29v-198,2,-328,-127,-328,-324v0,-143,51,-253,155,-329v104,-76,254,-113,449,-113r193,0v3,-27,10,-47,10,-78v0,-38,-16,-68,-51,-87v-85,-46,-219,-35,-333,-2v-69,20,-143,48,-222,85r47,-250v129,-44,254,-78,405,-78v145,0,254,25,329,76v98,67,128,169,105,315v-5,35,-11,74,-20,117r-123,639r-291,0r25,-125v-82,94,-187,152,-350,154xm779,-1249v-154,0,-285,-132,-285,-285v0,-153,131,-285,285,-285v153,0,284,132,284,285v0,153,-131,285,-284,285xm910,-1534v0,-70,-63,-131,-131,-131v-71,0,-132,60,-132,131v-1,71,60,131,132,131v71,0,131,-60,131,-131"},"\u00e6":{"d":"188,-291v0,66,42,112,107,111v45,0,79,-19,107,-52v37,-44,61,-159,75,-247r-74,0v-123,-2,-215,71,-215,188xm1010,-834v0,-65,-22,-97,-84,-98v-37,0,-67,15,-92,42v-34,38,-56,128,-68,202r225,0v7,-50,20,-86,19,-146xm969,-1147v169,-1,263,99,262,270v-1,134,-35,272,-55,400r-451,0v-8,51,-13,77,-14,121v-2,101,59,178,155,176v100,-2,190,-54,258,-109r-47,238v-71,50,-158,80,-274,80v-132,0,-221,-65,-260,-164v-71,95,-154,161,-297,164v-170,3,-277,-119,-277,-291v0,-258,184,-433,447,-428r108,0v6,-39,16,-74,17,-117v0,-83,-49,-128,-133,-125v-105,3,-189,51,-277,101r47,-238v90,-44,178,-77,293,-78v111,-1,192,52,223,133v62,-77,148,-132,275,-133"},"\u00e7":{"d":"624,150v0,-60,-27,-94,-57,-150r141,0v39,53,72,107,72,184v0,143,-127,219,-283,217v-73,-1,-142,-10,-202,-26r28,-156v95,44,301,68,301,-69xm446,-463v2,169,79,254,246,254v126,0,221,-49,320,-104r-56,276v-93,40,-199,65,-323,66v-294,3,-483,-174,-483,-463v0,-468,353,-803,846,-692v57,14,110,34,161,63r-53,268v-71,-68,-152,-113,-275,-114v-235,-3,-386,200,-383,446"},"\u00e8":{"d":"655,-1638r209,376r-198,0r-295,-376r284,0xm362,-403v0,145,106,201,265,200v163,-1,308,-51,417,-121r-51,269v-117,52,-251,83,-411,84v-320,1,-506,-153,-506,-465v0,-316,147,-553,368,-658v77,-36,161,-55,250,-55v270,0,464,173,461,438v-1,85,-12,157,-27,246r-759,0v-4,21,-7,40,-7,62xm876,-684v32,-135,-50,-241,-184,-236v-157,5,-236,101,-282,236r466,0"},"\u00e9":{"d":"887,-1638r321,0r-442,376r-197,0xm362,-403v0,145,106,201,265,200v163,-1,308,-51,417,-121r-51,269v-117,52,-251,83,-411,84v-320,1,-506,-153,-506,-465v0,-316,147,-553,368,-658v77,-36,161,-55,250,-55v270,0,464,173,461,438v-1,85,-12,157,-27,246r-759,0v-4,21,-7,40,-7,62xm876,-684v32,-135,-50,-241,-184,-236v-157,5,-236,101,-282,236r466,0"},"\u00ea":{"d":"668,-1638r243,0r183,376r-176,0r-152,-225r-240,225r-190,0xm362,-403v0,145,106,201,265,200v163,-1,308,-51,417,-121r-51,269v-117,52,-251,83,-411,84v-320,1,-506,-153,-506,-465v0,-316,147,-553,368,-658v77,-36,161,-55,250,-55v270,0,464,173,461,438v-1,85,-12,157,-27,246r-759,0v-4,21,-7,40,-7,62xm876,-684v32,-135,-50,-241,-184,-236v-157,5,-236,101,-282,236r466,0"},"\u00eb":{"d":"858,-1585r238,0r-49,246r-236,0xm463,-1585r237,0r-49,246r-235,0xm362,-403v0,145,106,201,265,200v163,-1,308,-51,417,-121r-51,269v-117,52,-251,83,-411,84v-320,1,-506,-153,-506,-465v0,-316,147,-553,368,-658v77,-36,161,-55,250,-55v270,0,464,173,461,438v-1,85,-12,157,-27,246r-759,0v-4,21,-7,40,-7,62xm876,-684v32,-135,-50,-241,-184,-236v-157,5,-236,101,-282,236r466,0"},"\u00ec":{"d":"610,-1638r209,376r-198,0r-295,-376r284,0xm309,-1120r580,0r-174,895r364,0r-43,225r-1022,0r43,-225r365,0r131,-670r-287,0"},"\u00ed":{"d":"842,-1638r321,0r-442,376r-197,0xm309,-1120r580,0r-174,895r364,0r-43,225r-1022,0r43,-225r365,0r131,-670r-287,0"},"\u00ee":{"d":"623,-1638r243,0r183,376r-176,0r-152,-225r-240,225r-190,0xm309,-1120r580,0r-174,895r364,0r-43,225r-1022,0r43,-225r365,0r131,-670r-287,0"},"\u00ef":{"d":"813,-1585r238,0r-49,246r-236,0xm418,-1585r237,0r-49,246r-235,0xm309,-1120r580,0r-174,895r364,0r-43,225r-1022,0r43,-225r365,0r131,-670r-287,0"},"\u00f0":{"d":"375,-428v0,125,66,221,184,221v84,0,152,-42,207,-125v71,-106,98,-279,72,-446v-46,-26,-98,-40,-164,-41v-86,0,-157,37,-214,111v-57,74,-85,167,-85,280xm788,-1028v-34,-78,-69,-149,-110,-215r-330,123r-41,-115r307,-115r-125,-206r279,0r74,120r323,-118r41,112r-303,113v80,121,139,238,179,349v105,290,66,631,-106,822v-111,123,-256,187,-437,187v-285,0,-458,-159,-457,-441v0,-187,53,-341,160,-461v107,-120,243,-180,409,-180v56,0,98,8,137,25"},"\u00f1":{"d":"856,-1470v79,34,123,-45,133,-121r139,0v-15,94,-44,165,-86,213v-53,62,-141,90,-230,58v-40,-14,-90,-57,-127,-85v-28,-22,-52,-33,-73,-33v-58,0,-86,66,-96,129r-139,0v13,-87,42,-156,87,-207v59,-66,138,-96,228,-64v49,18,111,87,164,110xm854,-1147v193,-4,291,131,262,334v-3,25,-8,54,-14,85r-141,728r-293,0r133,-682v6,-33,10,-68,10,-106v0,-76,-39,-119,-113,-119v-55,0,-101,24,-140,72v-39,48,-68,117,-85,206r-121,629r-293,0r217,-1120r293,0r-32,168v55,-109,166,-193,317,-195"},"\u00f2":{"d":"655,-1638r209,376r-198,0r-295,-376r284,0xm383,-434v0,129,61,227,180,227v81,0,149,-46,204,-137v55,-91,83,-204,83,-340v1,-134,-54,-226,-178,-227v-82,0,-151,45,-206,136v-55,91,-83,204,-83,341xm545,29v-283,1,-457,-171,-457,-455v0,-215,55,-389,166,-522v111,-133,255,-200,434,-201v283,-1,459,171,457,455v-1,215,-56,390,-167,523v-111,133,-255,200,-433,200"},"\u00f3":{"d":"887,-1638r321,0r-442,376r-197,0xm383,-434v0,129,61,227,180,227v81,0,149,-46,204,-137v55,-91,83,-204,83,-340v1,-134,-54,-226,-178,-227v-82,0,-151,45,-206,136v-55,91,-83,204,-83,341xm545,29v-283,1,-457,-171,-457,-455v0,-215,55,-389,166,-522v111,-133,255,-200,434,-201v283,-1,459,171,457,455v-1,215,-56,390,-167,523v-111,133,-255,200,-433,200"},"\u00f4":{"d":"668,-1638r243,0r183,376r-176,0r-152,-225r-240,225r-190,0xm383,-434v0,129,61,227,180,227v81,0,149,-46,204,-137v55,-91,83,-204,83,-340v1,-134,-54,-226,-178,-227v-82,0,-151,45,-206,136v-55,91,-83,204,-83,341xm545,29v-283,1,-457,-171,-457,-455v0,-215,55,-389,166,-522v111,-133,255,-200,434,-201v283,-1,459,171,457,455v-1,215,-56,390,-167,523v-111,133,-255,200,-433,200"},"\u00f5":{"d":"856,-1470v79,34,123,-45,133,-121r139,0v-15,94,-44,165,-86,213v-53,62,-141,90,-230,58v-40,-14,-90,-57,-127,-85v-28,-22,-52,-33,-73,-33v-58,0,-86,66,-96,129r-139,0v13,-87,42,-156,87,-207v59,-66,138,-96,228,-64v49,18,111,87,164,110xm383,-434v0,129,61,227,180,227v81,0,149,-46,204,-137v55,-91,83,-204,83,-340v1,-134,-54,-226,-178,-227v-82,0,-151,45,-206,136v-55,91,-83,204,-83,341xm545,29v-283,1,-457,-171,-457,-455v0,-215,55,-389,166,-522v111,-133,255,-200,434,-201v283,-1,459,171,457,455v-1,215,-56,390,-167,523v-111,133,-255,200,-433,200"},"\u00f6":{"d":"858,-1585r238,0r-49,246r-236,0xm463,-1585r237,0r-49,246r-235,0xm383,-434v0,129,61,227,180,227v81,0,149,-46,204,-137v55,-91,83,-204,83,-340v1,-134,-54,-226,-178,-227v-82,0,-151,45,-206,136v-55,91,-83,204,-83,341xm545,29v-283,1,-457,-171,-457,-455v0,-215,55,-389,166,-522v111,-133,255,-200,434,-201v283,-1,459,171,457,455v-1,215,-56,390,-167,523v-111,133,-255,200,-433,200"},"\u00f7":{"d":"461,-1198r309,0r0,309r-309,0r0,-309xm461,-395r309,0r0,309r-309,0r0,-309xm66,-762r1099,0r0,238r-1099,0r0,-238"},"\u00f8":{"d":"434,-266v29,36,67,58,127,59v81,0,146,-40,197,-121v51,-81,81,-195,92,-342xm543,29v-138,0,-232,-36,-310,-101r-198,189r-117,-119r211,-207v-26,-60,-41,-129,-41,-213v0,-218,56,-394,166,-527v110,-133,255,-200,434,-200v134,1,232,38,313,100r193,-186r117,121r-207,201v25,62,41,134,41,217v0,217,-55,393,-166,526v-111,133,-256,199,-436,199xm801,-856v-30,-34,-68,-54,-127,-55v-81,0,-146,39,-196,118v-50,79,-82,192,-95,340"},"\u00f9":{"d":"655,-1638r209,376r-198,0r-295,-376r284,0xm373,29v-195,3,-289,-132,-263,-337v3,-24,7,-52,13,-83r143,-729r291,0r-131,684v-6,33,-10,67,-10,104v-1,75,39,121,112,121v55,0,102,-23,140,-70v38,-47,66,-116,84,-208r122,-631r291,0r-217,1120r-293,0r33,-166v-51,108,-167,193,-315,195"},"\u00fa":{"d":"887,-1638r321,0r-442,376r-197,0xm373,29v-195,3,-289,-132,-263,-337v3,-24,7,-52,13,-83r143,-729r291,0r-131,684v-6,33,-10,67,-10,104v-1,75,39,121,112,121v55,0,102,-23,140,-70v38,-47,66,-116,84,-208r122,-631r291,0r-217,1120r-293,0r33,-166v-51,108,-167,193,-315,195"},"\u00fb":{"d":"668,-1638r243,0r183,376r-176,0r-152,-225r-240,225r-190,0xm373,29v-195,3,-289,-132,-263,-337v3,-24,7,-52,13,-83r143,-729r291,0r-131,684v-6,33,-10,67,-10,104v-1,75,39,121,112,121v55,0,102,-23,140,-70v38,-47,66,-116,84,-208r122,-631r291,0r-217,1120r-293,0r33,-166v-51,108,-167,193,-315,195"},"\u00fc":{"d":"858,-1585r238,0r-49,246r-236,0xm463,-1585r237,0r-49,246r-235,0xm373,29v-195,3,-289,-132,-263,-337v3,-24,7,-52,13,-83r143,-729r291,0r-131,684v-6,33,-10,67,-10,104v-1,75,39,121,112,121v55,0,102,-23,140,-70v38,-47,66,-116,84,-208r122,-631r291,0r-217,1120r-293,0r33,-166v-51,108,-167,193,-315,195"},"\u00fd":{"d":"887,-1638r321,0r-442,376r-197,0xm551,121v-75,132,-139,216,-193,251v-54,35,-124,52,-208,52r-240,0r45,-223v93,0,198,3,254,-30v44,-25,113,-143,149,-216r-217,-1075r297,0r127,700r383,-700r309,0"},"\u00fe":{"d":"436,-432v0,124,54,223,166,223v74,0,138,-47,192,-142v54,-95,80,-209,80,-343v0,-121,-48,-213,-157,-213v-76,0,-141,47,-197,139v-56,92,-84,204,-84,336xm655,29v-157,0,-253,-96,-276,-236r-123,633r-293,0r385,-1982r293,0r-117,604v47,-65,98,-114,153,-146v55,-32,113,-49,175,-49v211,1,321,179,317,408v-5,304,-108,569,-292,696v-70,48,-144,72,-222,72"},"\u00ff":{"d":"858,-1585r238,0r-49,246r-236,0xm463,-1585r237,0r-49,246r-235,0xm551,121v-75,132,-139,216,-193,251v-54,35,-124,52,-208,52r-240,0r45,-223v93,0,198,3,254,-30v44,-25,113,-143,149,-216r-217,-1075r297,0r127,700r383,-700r309,0"},"\u0152":{"d":"494,0v-318,-3,-463,-90,-463,-391v0,-237,60,-494,127,-692v48,-141,112,-245,194,-311v82,-66,187,-99,314,-99r686,0r-52,260r-331,0r-60,311r301,0r-51,260r-301,0r-78,402r342,0r-51,260r-577,0xm315,-434v0,117,46,173,160,174r51,0r189,-973v-84,-3,-147,5,-195,47v-38,31,-67,81,-90,148v-56,162,-115,414,-115,604"},"\u0153":{"d":"1040,-834v0,-66,-21,-99,-84,-100v-37,0,-65,15,-90,42v-34,38,-56,129,-69,202r225,0v6,-48,17,-91,18,-144xm993,-1147v173,-1,271,97,269,270v-1,133,-35,272,-56,398r-450,0v-9,54,-14,78,-15,123v-2,101,60,174,158,172v100,-2,188,-52,256,-105r-47,238v-72,50,-160,80,-277,80v-121,1,-221,-57,-247,-150v-60,90,-147,149,-285,150v-207,2,-320,-118,-319,-326v0,-203,53,-433,118,-584v66,-153,188,-266,387,-266v117,0,194,45,240,121v58,-72,147,-120,268,-121xm220,-417v-17,118,-20,237,99,233v89,-3,117,-57,146,-138v32,-90,64,-277,83,-387v6,-40,9,-69,9,-88v-1,-89,-25,-137,-108,-137v-89,0,-118,57,-146,137v-36,102,-66,261,-83,380"},"\u0178":{"d":"145,-1493r293,0r187,649r411,-649r322,0r-633,905r-115,588r-293,0r115,-588xm895,-1899r235,0r-47,246r-237,0xm500,-1899r235,0r-49,246r-236,0"},"\u02c6":{"d":"668,-1638r243,0r183,376r-176,0r-152,-225r-240,225r-190,0"},"\u02dc":{"d":"856,-1470v79,34,123,-45,133,-121r139,0v-15,94,-44,165,-86,213v-53,62,-141,90,-230,58v-40,-14,-90,-57,-127,-85v-28,-22,-52,-33,-73,-33v-58,0,-86,66,-96,129r-139,0v13,-87,42,-156,87,-207v59,-66,138,-96,228,-64v49,18,111,87,164,110"},"\u2013":{"d":"-10,-690r1233,0r-49,246r-1233,0"},"\u2014":{"d":"-10,-690r1233,0r-49,246r-1233,0"},"\u2018":{"d":"733,-903r-313,0r53,-271r270,-382r215,0r-172,382"},"\u2019":{"d":"645,-1556r313,0r-53,270r-270,383r-215,0r172,-383"},"\u201a":{"d":"397,-367r314,0r-54,271r-270,383r-215,0r172,-383"},"\u201c":{"d":"508,-903r-313,0r53,-271r270,-382r215,0r-172,382xm1028,-903r-313,0r53,-271r270,-382r215,0r-172,382"},"\u201d":{"d":"893,-1556r313,0r-53,270r-270,383r-215,0r172,-383xm373,-1556r313,0r-53,270r-271,383r-215,0r172,-383"},"\u201e":{"d":"666,-367r313,0r-51,271r-273,383r-213,0r172,-383xm145,-367r314,0r-51,271r-273,383r-213,0r172,-383"},"\u2022":{"d":"283,-622v-35,-86,-35,-192,1,-278v36,-86,111,-159,196,-194v85,-36,189,-36,274,1v124,53,223,162,223,331v0,170,-101,282,-224,336v-86,38,-190,36,-276,0v-85,-36,-158,-109,-194,-196"},"\u2026":{"d":"786,-367r314,0r-70,367r-315,0xm395,-367r295,0r-69,367r-297,0xm-16,-367r315,0r-72,367r-313,0"},"\u2039":{"d":"877,-1059r-50,252r-317,227r229,226r-41,213r-393,-394r25,-131"},"\u203a":{"d":"496,-1059r391,393r-25,131r-545,394r45,-238r322,-221r-235,-221"},"\u20ac":{"d":"649,29v-307,2,-486,-198,-481,-512r-201,0r84,-187r127,0v6,-54,16,-104,27,-151r-176,0r84,-189r147,0v62,-165,150,-292,264,-379v150,-115,342,-159,560,-113v52,12,102,30,151,54r-64,328v-64,-85,-146,-152,-274,-152v-70,0,-134,23,-191,68v-57,45,-105,109,-143,194r402,0r-82,189r-385,0r-31,151r346,0r-82,187r-278,0v6,152,90,263,239,264v51,0,101,-10,150,-31v49,-21,111,-61,188,-121r-63,328v-93,44,-191,71,-318,72"},"\u2122":{"d":"729,-1493r100,227r89,-227r208,0r0,578r-153,0r0,-437r-107,256r-75,0r-117,-256r0,437r-152,0r0,-578r207,0xm438,-1493r0,133r-141,0r0,445r-156,0r0,-445r-141,0r0,-133r438,0"}}});
