/*!
 * The following copyright notice may not be removed under any circumstances.
 * 
 * Copyright:
 * Copyright (c) 2003 by Bitstream, Inc. All Rights Reserved.
 * 
 * Trademark:
 * Bitstream Vera is a trademark of Bitstream, Inc.
 * 
 * Manufacturer:
 * Bitstream Inc.
 * 
 * Vendor URL:
 * http://www.bitstream.com
 */
Cufon.registerFont({"w":1233,"face":{"font-family":"Bitstream Vera Sans Mono","font-weight":400,"font-stretch":"normal","units-per-em":"2048","panose-1":"2 11 6 9 3 8 4 2 2 4","ascent":"1556","descent":"-492","x-height":"29","bbox":"0 -1901 1233 483","underline-thickness":"141","underline-position":"-143","unicode-range":"U+0020-U+2122"},"glyphs":{" ":{},"!":{"d":"516,-1493r203,0r0,655r-21,357r-161,0r-21,-357r0,-655xm516,-254r203,0r0,254r-203,0r0,-254"},"\"":{"d":"895,-1493r0,555r-174,0r0,-555r174,0xm512,-1493r0,555r-174,0r0,-555r174,0"},"#":{"d":"684,-1470r-104,415r245,0r105,-415r160,0r-105,415r244,0r0,154r-281,0r-84,334r250,0r0,153r-289,0r-104,414r-160,0r105,-414r-246,0r-105,414r-159,0r104,-414r-258,0r0,-153r297,0r84,-334r-266,0r0,-154r303,0r104,-415r160,0xm788,-901r-245,0r-84,334r246,0"},"$":{"d":"692,-146v140,-2,236,-81,234,-219v-2,-145,-92,-192,-234,-215r0,434xm592,-1183v-131,3,-223,80,-221,210v2,133,91,183,221,203r0,-413xm190,-963v0,-228,171,-344,402,-358r0,-235r100,0r1,235v117,8,223,29,325,61r0,173v-100,-50,-199,-86,-326,-94r0,431v137,21,242,63,314,128v72,65,108,148,108,251v0,220,-194,364,-421,369r-1,303r-100,0r-1,-301v-151,-8,-282,-42,-401,-92r0,-180v115,71,242,124,402,130r0,-458v-133,-21,-234,-61,-301,-122v-67,-61,-101,-141,-101,-241"},"%":{"d":"879,-504v-102,0,-183,83,-183,185v0,102,81,184,183,184v100,0,184,-84,184,-184v0,-100,-85,-185,-184,-185xm879,0v-177,0,-318,-142,-318,-319v0,-216,219,-388,439,-296v109,46,196,148,200,296v4,174,-146,319,-321,319xm121,-465r-35,-96r1042,-418r41,96xm352,-1296v-100,0,-184,83,-184,184v0,103,81,184,184,184v100,0,185,-84,185,-184v0,-100,-85,-184,-185,-184xm352,-793v-176,0,-319,-143,-319,-319v0,-217,219,-388,441,-296v111,46,194,146,198,296v5,174,-146,319,-320,319"},"&":{"d":"621,-1366v-119,-2,-208,58,-209,168v0,39,10,81,29,124v19,43,55,98,106,167r416,559v73,-86,84,-251,73,-412r164,0v5,234,-43,408,-149,531r170,229r-213,0r-78,-109v-99,83,-211,135,-375,138v-277,6,-498,-201,-498,-473v0,-91,23,-176,69,-254v46,-78,115,-150,208,-217v-56,-82,-97,-162,-98,-281v-2,-208,155,-327,372,-324v100,1,183,20,266,47r0,183v-70,-47,-147,-75,-253,-76xm233,-475v-3,227,200,398,443,338v63,-16,124,-50,168,-86r-428,-580v-61,49,-108,101,-138,155v-30,54,-45,112,-45,173"},"'":{"d":"702,-1493r0,555r-174,0r0,-555r174,0"},"(":{"d":"621,-643v0,367,112,649,264,913r-160,0v-101,-159,-176,-314,-225,-464v-99,-301,-99,-596,0,-898v49,-151,124,-305,225,-462r160,0v-89,152,-155,303,-199,454v-44,151,-65,304,-65,457"},")":{"d":"612,-643v0,-365,-112,-649,-264,-911r160,0v101,157,176,311,225,462v99,302,98,598,0,900v-49,151,-124,305,-225,462r-160,0v89,-155,154,-308,198,-459v44,-151,66,-303,66,-454"},"*":{"d":"1067,-1247r-358,194r358,195r-57,98r-336,-203r0,377r-115,0r0,-377r-336,203r-57,-98r358,-195r-358,-194r57,-99r336,203r0,-377r115,0r0,377r336,-203"},"+":{"d":"700,-1171r0,444r445,0r0,170r-445,0r0,444r-168,0r0,-444r-444,0r0,-170r444,0r0,-444r168,0"},",":{"d":"502,-303r252,0r0,207r-197,383r-154,0r99,-383r0,-207"},"-":{"d":"356,-643r521,0r0,164r-521,0r0,-164"},".":{"d":"489,-305r252,0r0,305r-252,0r0,-305"},"\/":{"d":"889,-1493r190,0r-786,1683r-191,0"},"0":{"d":"614,-616v-74,0,-131,-59,-131,-134v0,-71,61,-135,131,-135v72,0,136,63,136,135v0,73,-62,134,-136,134xm616,-1360v-94,0,-164,51,-210,152v-46,101,-70,256,-70,463v0,207,24,361,70,462v46,101,116,152,210,152v95,0,166,-51,212,-152v46,-101,69,-255,69,-462v0,-207,-23,-362,-69,-463v-46,-101,-117,-152,-212,-152xm616,-1520v159,0,280,65,362,196v82,131,122,324,122,579v0,255,-40,447,-122,578v-82,131,-203,196,-362,196v-159,0,-280,-65,-361,-196v-81,-131,-122,-323,-122,-578v0,-255,41,-448,122,-579v81,-131,202,-196,361,-196"},"1":{"d":"270,-170r314,0r0,-1141r-338,76r0,-184r336,-74r202,0r0,1323r310,0r0,170r-824,0r0,-170"},"2":{"d":"563,-1520v274,-5,487,161,486,422v0,64,-15,128,-45,192v-30,64,-76,136,-144,212r-162,180r-325,344r686,0r0,170r-907,0r0,-170r327,-348v93,-101,158,-171,193,-213v67,-81,112,-147,135,-197v23,-50,35,-102,35,-155v1,-167,-107,-270,-275,-267v-161,3,-280,61,-403,133r0,-204v119,-56,243,-97,399,-99"},"3":{"d":"1044,-1120v-1,182,-110,281,-268,321v181,47,303,172,303,387v0,289,-217,444,-522,441v-154,-2,-297,-31,-420,-74r0,-201v118,61,240,103,398,105v208,2,343,-93,344,-291v1,-181,-140,-286,-330,-283r-154,0r0,-166r154,0v170,2,295,-74,295,-231v0,-161,-111,-239,-279,-238v-144,2,-264,35,-383,80r0,-186v132,-34,246,-61,383,-64v270,-5,481,146,479,400"},"4":{"d":"735,-1309r-471,789r471,0r0,-789xm702,-1493r234,0r0,973r199,0r0,164r-199,0r0,356r-201,0r0,-356r-633,0r0,-191"},"5":{"d":"512,-817v-120,1,-221,29,-305,74r0,-750r756,0r0,170r-572,0r0,367v52,-19,108,-31,174,-31v307,-3,504,200,504,508v0,316,-211,508,-532,508v-154,0,-287,-20,-394,-64r0,-205v109,59,224,97,375,99v219,1,348,-121,348,-338v0,-215,-136,-340,-354,-338"},"6":{"d":"700,-1520v110,0,208,25,291,60r0,186v-77,-45,-168,-75,-282,-76v-128,0,-225,48,-291,144v-66,96,-99,239,-99,426v57,-120,165,-206,328,-207v298,-2,453,199,453,508v0,311,-163,509,-465,508v-173,0,-300,-63,-381,-187v-81,-124,-121,-320,-121,-587v0,-252,48,-445,145,-577v97,-132,238,-198,422,-198xm901,-479v0,-213,-74,-350,-270,-350v-185,0,-277,150,-277,350v0,200,92,350,277,350v195,0,270,-139,270,-350"},"7":{"d":"139,-1493r940,0r0,86r-534,1407r-211,0r520,-1323r-715,0r0,-170"},"8":{"d":"899,-420v0,-180,-104,-289,-283,-289v-180,0,-282,108,-282,289v0,180,104,291,282,291v182,0,283,-107,283,-291xm131,-399v0,-223,119,-354,309,-394v-157,-38,-272,-157,-274,-340v-1,-247,190,-387,450,-387v261,0,451,139,451,387v-1,183,-117,302,-274,340v190,41,308,170,309,392v1,278,-197,430,-486,430v-289,0,-485,-150,-485,-428xm616,-1364v-161,0,-249,89,-249,250v0,160,89,246,249,246v161,0,250,-86,250,-246v0,-163,-87,-250,-250,-250"},"9":{"d":"326,-1012v0,213,73,350,270,350v185,0,276,-150,276,-350v0,-200,-90,-350,-276,-350v-195,0,-270,139,-270,350xm526,29v-109,-1,-208,-25,-290,-60r0,-186v77,45,168,75,282,76v128,0,224,-49,290,-145v66,-96,99,-238,99,-425v-55,121,-164,206,-327,207v-298,1,-453,-200,-453,-510v0,-310,162,-507,465,-506v173,0,300,62,381,187v81,125,121,321,121,588v0,251,-49,443,-146,575v-97,132,-237,199,-422,199"},":":{"d":"489,-1063r252,0r0,303r-252,0r0,-303xm489,-305r252,0r0,305r-252,0r0,-305"},";":{"d":"502,-303r252,0r0,207r-197,383r-154,0r99,-383r0,-207xm489,-1063r252,0r0,303r-252,0r0,-303"},"<":{"d":"1145,-961r-850,320r850,317r0,183r-1057,-418r0,-166r1057,-418r0,182"},"=":{"d":"88,-524r1057,0r0,172r-1057,0r0,-172xm88,-930r1057,0r0,170r-1057,0r0,-170"},">":{"d":"88,-961r0,-182r1057,418r0,166r-1057,418r0,-183r850,-317"},"?":{"d":"633,-1520v233,-4,408,130,407,353v0,51,-13,97,-34,141v-33,68,-146,177,-215,244v-46,44,-75,80,-88,108v-31,66,-15,179,-19,273r-190,0v1,-116,-6,-241,30,-321v34,-75,138,-173,205,-239v41,-40,69,-74,85,-103v16,-29,24,-60,24,-93v0,-125,-106,-203,-240,-199v-142,4,-249,66,-354,137r0,-188v112,-67,227,-111,389,-113xm487,-254r203,0r0,254r-203,0r0,-254"},"@":{"d":"803,-260v150,0,235,-125,235,-285v0,-159,-85,-284,-235,-284v-150,0,-236,125,-236,284v0,160,85,285,236,285xm719,-1395v282,0,459,202,459,490r0,770r-144,0r0,-111v-45,78,-133,131,-250,131v-222,2,-372,-197,-372,-430v0,-234,150,-432,372,-430v113,0,207,56,250,131r0,-63v3,-200,-126,-346,-321,-346v-164,0,-294,63,-391,191v-97,128,-146,301,-146,519v0,219,55,394,165,524v110,130,256,195,439,195v84,-1,152,-16,219,-41r48,135v-73,29,-152,48,-244,49v-238,0,-427,-78,-567,-233v-140,-155,-209,-365,-209,-629v0,-260,63,-467,188,-621v125,-154,293,-231,504,-231"},"A":{"d":"616,-1315r-213,764r426,0xm494,-1493r245,0r457,1493r-209,0r-110,-389r-523,0r-108,389r-209,0"},"B":{"d":"934,-430v0,-205,-112,-283,-326,-283r-239,0r0,547r239,0v220,-2,326,-59,326,-264xm881,-1114v0,-167,-96,-213,-277,-213r-235,0r0,450r235,0v186,-1,277,-60,277,-237xm823,-799v191,26,315,174,314,389v0,135,-44,237,-133,306v-89,69,-221,104,-396,104r-442,0r0,-1493r442,0v153,0,270,33,353,99v83,66,124,159,124,280v-1,189,-93,290,-262,315"},"C":{"d":"743,-135v137,0,246,-55,330,-125r0,207v-95,50,-195,81,-330,82v-191,0,-339,-68,-445,-203v-106,-135,-159,-326,-159,-571v0,-244,53,-435,159,-571v106,-136,255,-204,445,-204v135,1,236,32,330,82r0,207v-85,-70,-193,-125,-330,-125v-131,0,-230,51,-295,152v-65,101,-98,254,-98,459v0,204,33,357,98,458v65,101,164,152,295,152"},"D":{"d":"436,-166v170,0,289,-42,356,-126v67,-84,101,-234,101,-453v0,-221,-34,-373,-101,-457v-67,-84,-185,-125,-356,-125r-96,0r0,1161r96,0xm1106,-745v0,492,-190,741,-666,745r-303,0r0,-1493r303,0v476,3,666,255,666,748"},"E":{"d":"197,-1493r886,0r0,170r-684,0r0,442r654,0r0,170r-654,0r0,541r703,0r0,170r-905,0r0,-1493"},"F":{"d":"233,-1493r879,0r0,170r-676,0r0,440r613,0r0,170r-613,0r0,713r-203,0r0,-1493"},"G":{"d":"702,-135v93,0,156,-21,209,-64r0,-401r-217,0r0,-166r410,0r0,643v-98,91,-227,152,-402,152v-189,0,-337,-67,-442,-203v-105,-136,-158,-326,-158,-571v0,-244,53,-435,160,-571v107,-136,255,-204,445,-204v144,0,251,43,346,107r0,207v-93,-88,-190,-150,-346,-150v-131,0,-229,50,-295,152v-66,102,-99,255,-99,459v0,207,31,361,95,461v64,100,162,149,294,149"},"H":{"d":"137,-1493r203,0r0,612r553,0r0,-612r203,0r0,1493r-203,0r0,-711r-553,0r0,711r-203,0r0,-1493"},"I":{"d":"201,-1493r829,0r0,170r-313,0r0,1153r313,0r0,170r-829,0r0,-170r313,0r0,-1153r-313,0r0,-170"},"J":{"d":"498,29v-153,0,-269,-37,-389,-90r0,-236v104,92,219,162,389,162v95,0,162,-25,200,-75v38,-50,56,-142,56,-277r0,-836r-381,0r0,-170r583,0r0,1006v-3,363,-109,516,-458,516"},"K":{"d":"137,-1493r203,0r0,664r631,-664r237,0r-581,610r598,883r-244,0r-487,-748r-154,164r0,584r-203,0r0,-1493"},"L":{"d":"215,-1493r203,0r0,1323r721,0r0,170r-924,0r0,-1493"},"M":{"d":"86,-1493r270,0r258,760r260,-760r271,0r0,1493r-187,0r0,-1319r-266,787r-153,0r-267,-787r0,1319r-186,0r0,-1493"},"N":{"d":"139,-1493r256,0r504,1229r0,-1229r195,0r0,1493r-256,0r-504,-1229r0,1229r-195,0r0,-1493"},"O":{"d":"905,-745v0,-219,-22,-376,-67,-470v-45,-94,-119,-141,-222,-141v-102,0,-175,47,-220,141v-45,94,-68,251,-68,470v0,219,23,375,68,469v45,94,118,141,220,141v103,0,177,-47,222,-141v45,-94,67,-250,67,-469xm1116,-745v0,260,-42,454,-124,582v-82,128,-207,192,-376,192v-169,0,-294,-64,-376,-191v-82,-127,-123,-322,-123,-583v0,-261,41,-455,123,-583v82,-128,208,-192,376,-192v169,0,294,64,376,192v82,128,124,322,124,583"},"P":{"d":"930,-1047v0,-180,-114,-280,-297,-280r-234,0r0,561r234,0v182,2,297,-102,297,-281xm1141,-1047v0,307,-188,448,-508,447r-234,0r0,600r-202,0r0,-1493r436,0v318,-2,508,141,508,446"},"Q":{"d":"655,27v-192,13,-325,-52,-415,-190v-83,-128,-123,-322,-123,-582v0,-261,41,-455,123,-583v82,-128,208,-192,376,-192v169,0,294,64,376,192v82,128,124,322,124,583v0,196,-22,353,-68,473v-46,120,-115,204,-208,252r200,190r-151,100xm905,-745v0,-219,-22,-376,-67,-470v-45,-94,-119,-141,-222,-141v-102,0,-175,47,-220,141v-45,94,-68,251,-68,470v0,219,23,375,68,469v45,94,118,141,220,141v103,0,177,-47,222,-141v45,-94,67,-250,67,-469"},"R":{"d":"1067,-1061v0,204,-122,332,-307,356v52,13,96,38,133,75v37,37,82,111,137,222r203,408r-217,0r-178,-377v-51,-107,-97,-176,-138,-207v-41,-31,-95,-47,-161,-47r-193,0r0,631r-203,0r0,-1493r416,0v310,-2,507,137,508,432xm854,-1061v0,-178,-111,-266,-295,-266r-213,0r0,530r221,0v188,0,287,-80,287,-264"},"S":{"d":"631,-1520v142,2,262,34,381,78r0,205v-106,-67,-219,-116,-371,-119v-175,-3,-308,84,-309,246v0,66,18,116,54,151v36,35,104,64,204,87r106,24v140,33,242,84,306,154v64,70,96,165,96,286v-1,300,-200,439,-516,437v-162,-1,-298,-37,-424,-90r0,-215v130,81,246,138,424,141v188,3,322,-84,323,-260v0,-75,-20,-132,-59,-171v-39,-39,-107,-69,-203,-91r-108,-25v-139,-31,-239,-79,-302,-142v-63,-63,-94,-148,-94,-255v-2,-273,210,-446,492,-441"},"T":{"d":"47,-1493r1139,0r0,170r-467,0r0,1323r-203,0r0,-1323r-469,0r0,-170"},"U":{"d":"147,-573r0,-920r203,0r0,1012v2,114,-4,167,27,227v40,78,122,119,239,119v118,0,197,-42,240,-119v37,-65,27,-198,27,-319r0,-920r202,0r0,920v0,153,-11,260,-29,325v-35,123,-132,208,-249,248v-110,39,-271,39,-381,0v-117,-41,-215,-122,-250,-248v-18,-66,-29,-174,-29,-325"},"V":{"d":"616,-170r351,-1323r209,0r-437,1493r-245,0r-437,-1493r209,0"},"W":{"d":"0,-1493r197,0r143,1212r170,-802r211,0r172,804r143,-1214r197,0r-223,1493r-191,0r-203,-887r-202,887r-191,0"},"X":{"d":"86,-1493r217,0r328,563r334,-563r217,0r-447,702r479,791r-217,0r-366,-643r-395,643r-218,0r500,-791"},"Y":{"d":"37,-1493r215,0r364,659r363,-659r217,0r-479,823r0,670r-203,0r0,-670"},"Z":{"d":"178,-1493r969,0r0,154r-780,1169r802,0r0,170r-1013,0r0,-154r759,-1169r-737,0r0,-170"},"[":{"d":"463,-1556r424,0r0,143r-240,0r0,1540r240,0r0,143r-424,0r0,-1826"},"\\":{"d":"293,-1493r786,1683r-190,0r-787,-1683r191,0"},"]":{"d":"770,-1556r0,1826r-424,0r0,-143r240,0r0,-1540r-240,0r0,-143r424,0"},"^":{"d":"705,-1493r456,557r-178,0r-367,-395r-366,395r-178,0r456,-557r177,0"},"_":{"d":"1024,403r0,80r-1024,0r0,-80r1024,0"},"`":{"d":"477,-1638r281,376r-154,0r-325,-376r198,0"},"a":{"d":"547,-125v229,-2,339,-185,327,-438r-233,0v-107,0,-189,19,-243,57v-54,38,-81,93,-81,168v-1,137,91,214,230,213xm215,-1069v118,-45,234,-78,377,-78v187,0,318,55,397,164v63,87,70,174,70,344r0,639r-185,0r0,-166v-74,124,-180,193,-366,195v-221,3,-375,-138,-375,-355v0,-125,41,-219,125,-284v84,-65,207,-97,369,-97r247,0v6,-203,-80,-285,-282,-284v-147,2,-272,46,-377,106r0,-184"},"b":{"d":"918,-559v0,-143,-23,-250,-68,-323v-45,-73,-112,-109,-201,-109v-89,0,-157,36,-203,109v-46,73,-69,181,-69,323v0,141,23,249,69,322v46,73,114,110,203,110v89,0,156,-36,201,-109v45,-73,68,-180,68,-323xm676,29v-146,0,-244,-69,-299,-170r0,141r-184,0r0,-1556r184,0r0,579v54,-101,155,-169,301,-170v135,0,241,51,318,155v77,104,116,247,116,429v0,185,-38,330,-116,435v-78,105,-185,157,-320,157"},"c":{"d":"748,-127v143,0,234,-46,313,-121r0,191v-88,51,-187,85,-313,86v-351,2,-553,-231,-553,-588v0,-358,202,-590,553,-588v127,1,222,35,313,86r0,193v-88,-77,-167,-123,-313,-123v-244,0,-359,173,-359,432v0,258,116,432,359,432"},"d":{"d":"559,-1147v146,1,246,68,299,170r0,-579r184,0r0,1556r-184,0r0,-141v-55,101,-153,170,-299,170v-135,0,-241,-52,-319,-157v-78,-105,-117,-250,-117,-435v0,-182,39,-325,117,-429v78,-104,184,-155,319,-155xm317,-559v0,143,23,250,68,323v45,73,112,109,201,109v89,0,156,-37,202,-110v46,-73,70,-181,70,-322v0,-142,-24,-250,-70,-323v-46,-73,-113,-109,-202,-109v-89,0,-156,36,-201,109v-45,73,-68,180,-68,323"},"e":{"d":"651,-1147v298,0,466,228,461,541r0,90r-797,0v-4,243,128,392,365,389v153,-2,268,-51,389,-113r0,183v-120,49,-242,84,-391,86v-351,2,-555,-231,-555,-588v0,-340,200,-588,528,-588xm928,-660v-4,-201,-91,-331,-285,-331v-192,0,-305,143,-321,332"},"f":{"d":"494,-1198v1,-244,106,-357,348,-358r221,0r0,153r-209,0v-136,2,-174,47,-176,184r0,99r385,0r0,143r-385,0r0,977r-184,0r0,-977r-299,0r0,-143r299,0r0,-78"},"g":{"d":"790,-254v87,-129,87,-502,0,-630v-48,-70,-110,-107,-196,-107v-90,0,-159,35,-206,107v-47,72,-71,177,-71,315v0,138,23,243,71,315v48,72,117,109,208,109v85,0,146,-38,194,-109xm553,-1147v158,0,247,65,305,176r0,-145r184,0r0,1044v1,326,-152,511,-469,512v-117,-1,-228,-23,-325,-55r0,-182v106,49,199,90,325,90v214,0,286,-120,285,-346r0,-125v-54,116,-146,186,-305,186v-131,0,-235,-52,-313,-157v-78,-105,-117,-245,-117,-420v0,-176,39,-316,117,-421v78,-105,182,-157,313,-157"},"h":{"d":"379,-952v60,-118,165,-195,332,-195v114,0,199,38,255,113v56,75,85,188,85,340r0,694r-185,0r0,-694v-1,-184,-51,-293,-219,-293v-189,0,-268,148,-268,354r0,633r-184,0r0,-1556r184,0r0,604"},"i":{"d":"256,-1120r471,0r0,977r365,0r0,143r-914,0r0,-143r365,0r0,-834r-287,0r0,-143xm543,-1556r184,0r0,233r-184,0r0,-233"},"j":{"d":"420,270v134,-3,180,-101,180,-250r0,-997r-317,0r0,-143r501,0r0,1140v2,244,-112,405,-344,406r-254,0r0,-156r234,0xm600,-1556r184,0r0,233r-184,0r0,-233"},"k":{"d":"236,-1556r190,0r0,901r483,-465r224,0r-441,422r510,698r-225,0r-414,-578r-137,129r0,449r-190,0r0,-1556"},"l":{"d":"801,0v-231,0,-346,-163,-346,-406r0,-1017r-295,0r0,-144r479,0r0,1161v0,148,47,250,180,250r215,0r0,156r-233,0"},"m":{"d":"471,-1147v112,0,171,54,205,141v41,-86,100,-141,213,-141v90,0,154,35,191,105v37,70,55,200,55,393r0,649r-168,0r0,-641v0,-158,-9,-257,-27,-295v-18,-38,-49,-57,-96,-57v-53,0,-90,20,-110,61v-20,41,-29,138,-29,291r0,641r-168,0r0,-641v0,-160,-10,-259,-29,-296v-19,-37,-53,-56,-102,-56v-49,0,-83,20,-102,61v-19,41,-28,138,-28,291r0,641r-167,0r0,-1120r167,0r0,96v39,-70,98,-123,195,-123"},"n":{"d":"379,-952v60,-118,165,-195,332,-195v114,0,199,38,255,113v56,75,85,188,85,340r0,694r-185,0r0,-694v-1,-184,-51,-293,-219,-293v-189,0,-268,148,-268,354r0,633r-184,0r0,-1120r184,0r0,168"},"o":{"d":"616,-991v-93,0,-164,36,-212,109v-48,73,-72,180,-72,323v0,142,24,250,72,323v48,73,119,109,212,109v94,0,165,-36,213,-109v48,-73,72,-181,72,-323v0,-143,-24,-250,-72,-323v-48,-73,-119,-109,-213,-109xm616,-1147v332,0,480,234,480,588v0,191,-41,337,-123,437v-82,100,-201,151,-357,151v-155,0,-274,-51,-356,-151v-82,-100,-123,-246,-123,-437v0,-191,41,-336,123,-437v82,-101,201,-151,356,-151"},"p":{"d":"674,29v-147,-1,-246,-68,-299,-170r0,567r-185,0r0,-1546r185,0r0,143v55,-101,153,-170,299,-170v135,0,241,52,318,157v77,105,116,250,116,435v0,182,-39,325,-116,429v-77,104,-183,155,-318,155xm915,-559v0,-143,-22,-250,-67,-323v-45,-73,-112,-109,-201,-109v-89,0,-157,36,-203,109v-46,73,-69,181,-69,323v0,141,23,249,69,322v46,73,114,110,203,110v89,0,156,-36,201,-109v45,-73,67,-180,67,-323"},"q":{"d":"332,-555v0,143,23,250,68,323v45,73,111,109,200,109v89,0,156,-36,202,-109v46,-73,68,-181,68,-323v0,-142,-22,-250,-68,-323v-46,-73,-113,-109,-202,-109v-89,0,-155,36,-200,109v-45,73,-68,180,-68,323xm571,-1143v146,0,244,69,299,170r0,-143r185,0r0,1546r-185,0r0,-569v-55,102,-152,172,-299,172v-134,0,-239,-51,-317,-155v-78,-104,-117,-247,-117,-429v0,-185,39,-330,116,-435v77,-105,183,-157,318,-157"},"r":{"d":"915,-1147v101,0,174,26,240,70r0,188v-71,-55,-141,-88,-254,-88v-242,0,-354,165,-354,420r0,557r-185,0r0,-1120r185,0r0,219v55,-146,179,-246,368,-246"},"s":{"d":"637,-1147v131,0,237,25,336,66r0,180v-93,-54,-191,-92,-322,-92v-83,0,-146,14,-187,41v-41,27,-61,68,-61,123v0,50,15,87,46,112v31,25,107,51,229,72v115,20,224,51,282,118v46,53,70,120,70,203v-2,238,-190,356,-446,353v-138,-2,-251,-31,-371,-70r0,-190v114,58,230,104,375,106v146,2,252,-56,256,-188v3,-87,-93,-148,-253,-179r-69,-14v-106,-21,-183,-55,-232,-104v-49,-49,-73,-116,-73,-201v2,-231,172,-338,420,-336"},"t":{"d":"807,0v-277,-3,-377,-93,-377,-369r0,-608r-299,0r0,-143r299,0r0,-318r184,0r0,318r418,0r0,143r-418,0r0,608v2,164,50,222,211,222r207,0r0,147r-225,0"},"u":{"d":"866,-168v-59,119,-166,197,-331,197v-115,0,-200,-38,-256,-113v-56,-75,-84,-188,-84,-340r0,-694r184,0r0,694v1,183,52,293,219,293v190,0,268,-147,268,-354r0,-633r185,0r0,1118r-185,0r0,-168"},"v":{"d":"100,-1120r191,0r325,940r326,-940r191,0r-398,1120r-237,0"},"w":{"d":"0,-1120r182,0r195,905r160,-578r157,0r162,578r195,-905r182,0r-262,1120r-176,0r-179,-614r-178,614r-176,0"},"x":{"d":"1118,-1120r-401,536r440,584r-213,0r-328,-449r-327,449r-213,0r440,-584r-401,-536r204,0r297,405r295,-405r207,0"},"y":{"d":"858,-360r-117,308v-66,176,-110,283,-133,322v-55,94,-139,156,-276,156r-148,0r0,-154r109,0v54,0,96,-16,127,-47v31,-31,70,-112,117,-243r-433,-1102r195,0r332,876r327,-876r195,0"},"z":{"d":"227,-1122r813,0r0,168r-643,804r643,0r0,150r-837,0r0,-170r643,-805r-619,0r0,-147"},"{":{"d":"717,-39v5,194,32,224,225,229r70,0r0,144r-64,0v-166,0,-278,-25,-334,-74v-56,-49,-84,-148,-84,-295r0,-239v-3,-199,-52,-264,-247,-267r-62,0r0,-143r62,0v195,-3,247,-65,247,-264r0,-240v0,-147,28,-245,84,-294v56,-49,168,-74,334,-74r64,0r0,143r-70,0v-192,5,-225,36,-225,229r0,248v-2,202,-44,285,-201,324v157,41,201,122,201,325r0,248"},"|":{"d":"702,-1565r0,2048r-172,0r0,-2048r172,0"},"}":{"d":"948,-541v-196,3,-248,67,-248,267r0,239v0,147,-28,246,-84,295v-56,49,-167,74,-333,74r-62,0r0,-144r68,0v193,-5,227,-36,227,-229r0,-248v2,-203,44,-283,201,-325v-157,-39,-201,-122,-201,-324r0,-248v-5,-193,-34,-224,-227,-229r-68,0r0,-143r62,0v166,0,277,25,333,74v56,49,84,147,84,294r0,240v3,199,53,261,248,264r64,0r0,143r-64,0"},"~":{"d":"864,-657v123,0,199,-56,281,-123r0,174v-86,67,-166,111,-297,114v-152,4,-298,-127,-467,-122v-131,4,-210,52,-293,122r0,-174v106,-85,236,-137,410,-103v41,9,108,33,157,57v77,37,147,55,209,55"},"\u00a0":{},"\u00a1":{"d":"516,-1239r0,-254r203,0r0,254r-203,0xm516,0r0,-655r21,-357r161,0r21,357r0,655r-203,0"},"\u00a2":{"d":"801,-1145v95,6,178,34,260,68r0,172v-77,-46,-158,-80,-260,-88r0,870v100,-9,184,-44,260,-90r0,172v-82,35,-164,61,-260,68r0,286r-103,0r0,-286v-299,-26,-485,-257,-485,-586v0,-325,189,-564,485,-586r0,-287r103,0r0,287xm698,-991v-189,18,-292,210,-292,432v0,224,103,412,292,432r0,-864"},"\u00a3":{"d":"817,-1520v104,0,191,25,275,58r0,184v-72,-51,-148,-88,-256,-88v-89,0,-156,30,-198,90v-42,60,-63,153,-63,281r0,217r371,0r0,143r-371,0r0,465r537,0r0,170r-973,0r0,-170r236,0r0,-465r-199,0r0,-143r199,0r0,-238v0,-324,130,-504,442,-504"},"\u00a4":{"d":"653,-426v118,0,215,-99,215,-217v0,-118,-97,-213,-215,-213v-117,0,-215,96,-215,213v0,119,97,217,215,217xm653,-983v77,0,134,26,191,59r166,-166r90,93r-166,166v34,56,59,111,59,190v0,79,-25,133,-61,186r168,166r-94,94r-166,-167v-54,36,-107,61,-187,61v-77,0,-137,-25,-192,-57r-164,163r-92,-90r166,-166v-35,-58,-60,-112,-60,-190v0,-79,26,-136,62,-188r-168,-166r94,-95r166,168v54,-36,107,-61,188,-61"},"\u00a5":{"d":"37,-1493r215,0r364,659r363,-659r217,0r-330,561r252,0r0,111r-315,0r-86,151r0,35r401,0r0,111r-401,0r0,524r-203,0r0,-524r-399,0r0,-111r399,0r0,-35r-90,-151r-309,0r0,-111r243,0"},"\u00a6":{"d":"702,-1432r0,758r-172,0r0,-758r172,0xm702,-408r0,758r-172,0r0,-758r172,0"},"\u00a7":{"d":"631,-1520v113,2,212,24,305,58r0,164v-89,-41,-177,-76,-283,-78v-116,-3,-204,46,-204,151v0,60,68,128,205,205r40,23v141,79,234,145,277,196v43,51,65,111,65,178v0,144,-78,222,-184,283v68,59,118,118,119,225v2,200,-164,313,-377,310v-118,-2,-215,-25,-315,-58r0,-164v93,41,184,76,292,78v123,3,215,-48,215,-160v0,-68,-74,-143,-221,-225v-132,-74,-264,-161,-302,-210v-41,-52,-64,-111,-64,-179v0,-142,79,-227,184,-283v-70,-52,-119,-117,-119,-225v0,-186,165,-292,367,-289xm485,-936v-41,30,-73,60,-93,90v-55,85,-32,167,40,236v47,45,153,111,318,200v41,-30,72,-60,92,-90v55,-86,31,-166,-42,-236v-48,-45,-152,-112,-315,-200"},"\u00a8":{"d":"319,-1552r203,0r0,202r-203,0r0,-202xm711,-1552r202,0r0,202r-202,0r0,-202"},"\u00a9":{"d":"637,-1116v88,0,163,16,227,45r0,108v-69,-33,-136,-54,-227,-55v-159,-1,-252,113,-252,277v0,174,97,275,270,274v84,-1,149,-20,209,-51r0,104v-64,29,-139,45,-227,45v-234,3,-387,-142,-387,-372v0,-231,154,-378,387,-375xm814,-1218v-118,-48,-276,-49,-394,0v-119,49,-230,160,-280,279v-50,120,-51,273,0,393v50,120,161,231,280,281v119,50,274,50,392,0v118,-49,231,-163,280,-281v49,-120,49,-273,0,-393v-49,-120,-159,-230,-278,-279xm381,-1313v143,-59,328,-59,471,0v144,59,275,193,335,336v60,144,61,326,1,470v-59,142,-195,278,-337,337v-143,59,-326,60,-469,0v-142,-59,-277,-195,-336,-337v-60,-144,-60,-326,0,-470v60,-143,191,-277,335,-336"},"\u00aa":{"d":"575,-817v151,-1,248,-120,236,-287v-182,3,-395,-24,-395,146v-1,88,68,142,159,141xm598,-1520v246,0,356,110,356,355r0,448r-143,0r0,-112v-59,78,-138,129,-262,131v-164,2,-281,-93,-279,-252v2,-189,152,-271,359,-269r182,0v0,-135,-92,-188,-236,-186v-90,1,-171,33,-243,68r0,-127v79,-33,166,-56,266,-56xm293,-592r668,0r0,123r-668,0r0,-123"},"\u00ab":{"d":"588,-1059r0,191r-301,268r301,268r0,191r-469,-418r0,-82xm1042,-1059r0,191r-301,268r301,268r0,191r-469,-418r0,-82"},"\u00ac":{"d":"88,-862r1057,0r0,491r-168,0r0,-319r-889,0r0,-172"},"\u00ad":{"d":"356,-643r521,0r0,164r-521,0r0,-164"},"\u00ae":{"d":"891,-901v-1,104,-72,162,-168,178v13,3,29,17,48,39v62,74,125,190,181,278r-143,0r-107,-174v-33,-53,-60,-86,-80,-101v-31,-23,-78,-22,-130,-21r0,296r-130,0r0,-694r238,0v98,0,171,16,219,49v48,33,72,83,72,150xm758,-901v0,-95,-57,-114,-164,-115r-102,0r0,232r102,0v108,-1,164,-21,164,-117xm381,-1313v143,-59,328,-59,471,0v144,59,275,193,335,336v60,144,61,326,1,470v-59,142,-195,278,-337,337v-143,59,-326,60,-469,0v-142,-59,-277,-195,-336,-337v-60,-144,-60,-326,0,-470v60,-143,191,-277,335,-336xm814,-1218v-118,-48,-276,-49,-394,0v-119,49,-230,160,-280,279v-50,120,-51,273,0,393v50,120,161,231,280,281v119,50,274,50,392,0v118,-49,231,-163,280,-281v49,-120,49,-273,0,-393v-49,-120,-159,-230,-278,-279"},"\u00af":{"d":"317,-1526r598,0r0,148r-598,0r0,-148"},"\u00b0":{"d":"299,-1200v0,-216,221,-390,441,-296v109,47,191,145,194,296v4,172,-147,315,-320,315v-176,0,-315,-139,-315,-315xm807,-1200v0,-102,-89,-191,-191,-191v-103,0,-190,88,-190,191v0,104,85,188,188,188v103,0,193,-86,193,-188"},"\u00b1":{"d":"88,-170r1057,0r0,170r-1057,0r0,-170xm700,-1171r0,329r445,0r0,170r-445,0r0,332r-168,0r0,-332r-444,0r0,-170r444,0r0,-329r168,0"},"\u00b2":{"d":"573,-1520v170,-3,312,85,314,240v0,38,-12,77,-37,116v-66,103,-262,277,-367,382r410,0r0,114r-571,0r0,-110r231,-226v67,-65,114,-117,141,-158v27,-41,41,-78,41,-112v-1,-89,-84,-139,-182,-137v-88,3,-157,34,-225,72r0,-125v75,-32,150,-55,245,-56"},"\u00b3":{"d":"903,-1303v0,108,-74,161,-172,183v111,24,193,88,193,209v0,83,-32,146,-95,191v-63,45,-154,67,-272,67v-88,0,-160,-17,-231,-41r0,-121v75,29,143,51,227,53v117,2,219,-46,219,-149v0,-113,-91,-150,-219,-150r-66,0r0,-108r74,0v107,0,191,-30,191,-123v0,-86,-84,-120,-183,-119v-75,1,-151,22,-215,47r0,-121v78,-19,152,-34,236,-35v97,0,173,20,229,59v56,39,84,92,84,158"},"\u00b4":{"d":"756,-1638r198,0r-325,376r-154,0"},"\u00b5":{"d":"625,29v-138,0,-209,-59,-263,-156r0,555r-167,0r0,-1548r184,0r0,696v-1,174,70,293,231,293v186,0,257,-134,256,-336r0,-653r185,0r0,864v1,66,11,115,65,115v25,0,38,-11,66,-23r0,148v-43,26,-82,45,-140,45v-95,0,-135,-65,-149,-158v-55,95,-132,158,-268,158"},"\u00b6":{"d":"106,-1071v-2,-260,205,-422,476,-422r448,0r0,1690r-141,0r0,-1567r-191,0r0,1567r-141,0r0,-846v-143,-11,-254,-53,-333,-127v-79,-74,-118,-172,-118,-295"},"\u00b7":{"d":"489,-864r252,0r0,305r-252,0r0,-305"},"\u00b8":{"d":"551,272v71,0,118,-28,119,-94v0,-20,-7,-45,-22,-74v-15,-29,-37,-63,-66,-104r118,0v37,41,64,79,82,114v18,35,27,69,27,101v-2,131,-95,181,-238,180v-65,0,-122,-9,-176,-24r0,-131v45,22,91,32,156,32"},"\u00b9":{"d":"362,-778r205,0r0,-611r-223,41r0,-116r229,-39r138,0r0,725r204,0r0,110r-553,0r0,-110"},"\u00ba":{"d":"834,-1108v0,-167,-67,-295,-218,-295v-150,0,-217,129,-217,295v0,166,67,293,217,293v148,0,218,-131,218,-293xm244,-1108v0,-239,141,-412,372,-412v232,0,373,173,373,412v0,239,-141,410,-373,410v-231,0,-372,-172,-372,-410xm276,-592r676,0r0,123r-676,0r0,-123"},"\u00bb":{"d":"647,-1059r469,418r0,82r-469,418r0,-191r301,-268r-301,-268r0,-191xm193,-1059r469,418r0,82r-469,418r0,-191r301,-268r-301,-268r0,-191"},"\u00bc":{"d":"104,-934r205,0r0,-611r-223,41r0,-116r229,-39r138,0r0,725r204,0r0,110r-553,0r0,-110xm815,-565r162,0r0,538r116,0r0,111r-116,0r0,186r-138,0r0,-186r-387,0r0,-121xm839,-440r-274,413r274,0r0,-413xm51,-504r-24,-108r1060,-262r27,108"},"\u00bd":{"d":"774,-582v170,-3,312,85,314,240v0,38,-12,77,-37,116v-66,103,-262,277,-367,382r410,0r0,114r-571,0r0,-110r231,-226v67,-65,115,-117,142,-158v27,-41,40,-78,40,-112v-1,-89,-84,-139,-182,-137v-88,3,-157,34,-225,72r0,-125v75,-32,150,-55,245,-56xm104,-934r205,0r0,-611r-223,41r0,-116r229,-39r138,0r0,725r204,0r0,110r-553,0r0,-110xm51,-504r-24,-108r1060,-262r27,108"},"\u00be":{"d":"676,-1459v0,108,-74,161,-172,183v111,24,193,88,193,209v0,83,-32,146,-95,191v-63,45,-154,67,-272,67v-88,0,-160,-17,-231,-41r0,-121v75,29,143,51,227,53v117,2,219,-46,219,-149v0,-113,-91,-150,-219,-150r-66,0r0,-108r74,0v107,0,191,-30,191,-123v0,-86,-84,-120,-183,-119v-75,1,-151,22,-215,47r0,-121v78,-19,152,-34,236,-35v97,0,173,20,229,59v56,39,84,92,84,158xm815,-565r162,0r0,538r116,0r0,111r-116,0r0,186r-138,0r0,-186r-387,0r0,-121xm839,-440r-274,413r274,0r0,-413xm51,-504r-24,-108r1060,-262r27,108"},"\u00bf":{"d":"600,27v-233,4,-408,-130,-407,-353v0,-51,12,-98,33,-142v33,-68,148,-175,216,-243v75,-75,100,-96,105,-216v2,-54,1,-109,2,-165r190,0v-1,116,5,240,-31,320v-34,75,-137,174,-204,240v-41,40,-70,74,-86,103v-16,29,-23,60,-23,93v0,125,106,203,240,199v142,-4,249,-66,354,-137r0,188v-112,67,-227,111,-389,113xm745,-1239r-202,0r0,-254r202,0r0,254"},"\u00c0":{"d":"616,-1315r-213,764r426,0xm494,-1493r245,0r457,1493r-209,0r-110,-389r-523,0r-108,389r-209,0xm561,-1899r197,264r-154,0r-227,-264r184,0"},"\u00c1":{"d":"616,-1315r-213,764r426,0xm494,-1493r245,0r457,1493r-209,0r-110,-389r-523,0r-108,389r-209,0xm672,-1899r186,0r-229,264r-154,0"},"\u00c2":{"d":"616,-1315r-213,764r426,0xm494,-1493r245,0r457,1493r-209,0r-110,-389r-523,0r-108,389r-209,0xm522,-1901r189,0r211,266r-140,0r-166,-178r-165,178r-140,0"},"\u00c3":{"d":"616,-1315r-213,764r426,0xm494,-1493r245,0r457,1493r-209,0r-110,-389r-523,0r-108,389r-209,0xm946,-1886v2,146,-100,250,-252,211v-51,-13,-128,-67,-180,-87v-63,-24,-107,26,-102,95r-125,0v-6,-150,103,-250,255,-211v50,13,124,64,176,84v63,24,107,-27,103,-92r125,0"},"\u00c4":{"d":"616,-1315r-213,764r426,0xm494,-1493r245,0r457,1493r-209,0r-110,-389r-523,0r-108,389r-209,0xm319,-1870r203,0r0,203r-203,0r0,-203xm711,-1870r202,0r0,203r-202,0r0,-203"},"\u00c5":{"d":"616,-1475v82,0,152,-69,152,-151v0,-82,-70,-152,-152,-152v-84,0,-151,68,-151,152v0,82,69,151,151,151xm616,-1311r-213,760r426,0xm891,-1626v-2,106,-51,184,-123,227r428,1399r-209,0r-110,-389r-523,0r-108,389r-209,0r428,-1399v-71,-39,-121,-122,-123,-227v-3,-148,126,-275,274,-275v148,0,278,127,275,275"},"\u00c6":{"d":"1161,-1493r0,170r-338,0r0,442r307,0r0,170r-307,0r0,541r357,0r0,170r-543,0r0,-383r-352,0r-101,383r-184,0r410,-1493r751,0xm530,-1323r-202,772r309,0r0,-772r-107,0"},"\u00c7":{"d":"651,272v71,0,118,-28,119,-94v0,-20,-7,-45,-22,-74v-15,-29,-37,-63,-66,-104r118,0v37,41,64,79,82,114v18,35,27,69,27,101v-2,131,-95,181,-238,180v-65,0,-122,-9,-176,-24r0,-131v45,22,91,32,156,32xm743,-135v137,0,246,-55,330,-125r0,207v-95,50,-195,81,-330,82v-191,0,-339,-68,-445,-203v-106,-135,-159,-326,-159,-571v0,-244,53,-435,159,-571v106,-136,255,-204,445,-204v135,1,236,32,330,82r0,207v-85,-70,-193,-125,-330,-125v-131,0,-230,51,-295,152v-65,101,-98,254,-98,459v0,204,33,357,98,458v65,101,164,152,295,152"},"\u00c8":{"d":"197,-1493r886,0r0,170r-684,0r0,442r654,0r0,170r-654,0r0,541r703,0r0,170r-905,0r0,-1493xm579,-1899r197,264r-154,0r-227,-264r184,0"},"\u00c9":{"d":"197,-1493r886,0r0,170r-684,0r0,442r654,0r0,170r-654,0r0,541r703,0r0,170r-905,0r0,-1493xm690,-1899r186,0r-229,264r-154,0"},"\u00ca":{"d":"197,-1493r886,0r0,170r-684,0r0,442r654,0r0,170r-654,0r0,541r703,0r0,170r-905,0r0,-1493xm540,-1901r189,0r211,266r-140,0r-166,-178r-165,178r-140,0"},"\u00cb":{"d":"197,-1493r886,0r0,170r-684,0r0,442r654,0r0,170r-654,0r0,541r703,0r0,170r-905,0r0,-1493xm337,-1870r203,0r0,203r-203,0r0,-203xm729,-1870r202,0r0,203r-202,0r0,-203"},"\u00cc":{"d":"201,-1493r829,0r0,170r-313,0r0,1153r313,0r0,170r-829,0r0,-170r313,0r0,-1153r-313,0r0,-170xm561,-1899r197,264r-154,0r-227,-264r184,0"},"\u00cd":{"d":"201,-1493r829,0r0,170r-313,0r0,1153r313,0r0,170r-829,0r0,-170r313,0r0,-1153r-313,0r0,-170xm672,-1899r186,0r-229,264r-154,0"},"\u00ce":{"d":"201,-1493r829,0r0,170r-313,0r0,1153r313,0r0,170r-829,0r0,-170r313,0r0,-1153r-313,0r0,-170xm522,-1901r189,0r211,266r-140,0r-166,-178r-165,178r-140,0"},"\u00cf":{"d":"201,-1493r829,0r0,170r-313,0r0,1153r313,0r0,170r-829,0r0,-170r313,0r0,-1153r-313,0r0,-170xm319,-1870r203,0r0,203r-203,0r0,-203xm711,-1870r202,0r0,203r-202,0r0,-203"},"\u00d0":{"d":"1102,-745v0,492,-191,741,-666,745r-303,0r0,-709r-125,0r0,-149r125,0r0,-635r303,0v476,3,666,255,666,748xm436,-166v170,0,289,-42,356,-126v67,-84,101,-234,101,-453v0,-221,-34,-373,-101,-457v-67,-84,-185,-125,-356,-125r-96,0r0,469r264,0r0,149r-264,0r0,543r96,0"},"\u00d1":{"d":"139,-1493r256,0r504,1229r0,-1229r195,0r0,1493r-256,0r-504,-1229r0,1229r-195,0r0,-1493xm928,-1886v2,146,-100,250,-252,211v-51,-13,-128,-67,-180,-87v-63,-24,-107,26,-102,95r-125,0v-6,-150,103,-250,255,-211v50,13,124,64,176,84v63,24,107,-27,103,-92r125,0"},"\u00d2":{"d":"905,-745v0,-219,-22,-376,-67,-470v-45,-94,-119,-141,-222,-141v-102,0,-175,47,-220,141v-45,94,-68,251,-68,470v0,219,23,375,68,469v45,94,118,141,220,141v103,0,177,-47,222,-141v45,-94,67,-250,67,-469xm1116,-745v0,260,-42,454,-124,582v-82,128,-207,192,-376,192v-169,0,-294,-64,-376,-191v-82,-127,-123,-322,-123,-583v0,-261,41,-455,123,-583v82,-128,208,-192,376,-192v169,0,294,64,376,192v82,128,124,322,124,583xm561,-1899r197,264r-154,0r-227,-264r184,0"},"\u00d3":{"d":"905,-745v0,-219,-22,-376,-67,-470v-45,-94,-119,-141,-222,-141v-102,0,-175,47,-220,141v-45,94,-68,251,-68,470v0,219,23,375,68,469v45,94,118,141,220,141v103,0,177,-47,222,-141v45,-94,67,-250,67,-469xm1116,-745v0,260,-42,454,-124,582v-82,128,-207,192,-376,192v-169,0,-294,-64,-376,-191v-82,-127,-123,-322,-123,-583v0,-261,41,-455,123,-583v82,-128,208,-192,376,-192v169,0,294,64,376,192v82,128,124,322,124,583xm672,-1899r186,0r-229,264r-154,0"},"\u00d4":{"d":"905,-745v0,-219,-22,-376,-67,-470v-45,-94,-119,-141,-222,-141v-102,0,-175,47,-220,141v-45,94,-68,251,-68,470v0,219,23,375,68,469v45,94,118,141,220,141v103,0,177,-47,222,-141v45,-94,67,-250,67,-469xm1116,-745v0,260,-42,454,-124,582v-82,128,-207,192,-376,192v-169,0,-294,-64,-376,-191v-82,-127,-123,-322,-123,-583v0,-261,41,-455,123,-583v82,-128,208,-192,376,-192v169,0,294,64,376,192v82,128,124,322,124,583xm522,-1901r189,0r211,266r-140,0r-166,-178r-165,178r-140,0"},"\u00d5":{"d":"905,-745v0,-219,-22,-376,-67,-470v-45,-94,-119,-141,-222,-141v-102,0,-175,47,-220,141v-45,94,-68,251,-68,470v0,219,23,375,68,469v45,94,118,141,220,141v103,0,177,-47,222,-141v45,-94,67,-250,67,-469xm1116,-745v0,260,-42,454,-124,582v-82,128,-207,192,-376,192v-169,0,-294,-64,-376,-191v-82,-127,-123,-322,-123,-583v0,-261,41,-455,123,-583v82,-128,208,-192,376,-192v169,0,294,64,376,192v82,128,124,322,124,583xm946,-1886v2,146,-100,250,-252,211v-51,-13,-128,-67,-180,-87v-63,-24,-107,26,-102,95r-125,0v-6,-150,103,-250,255,-211v50,13,124,64,176,84v63,24,107,-27,103,-92r125,0"},"\u00d6":{"d":"905,-745v0,-219,-22,-376,-67,-470v-45,-94,-119,-141,-222,-141v-102,0,-175,47,-220,141v-45,94,-68,251,-68,470v0,219,23,375,68,469v45,94,118,141,220,141v103,0,177,-47,222,-141v45,-94,67,-250,67,-469xm1116,-745v0,260,-42,454,-124,582v-82,128,-207,192,-376,192v-169,0,-294,-64,-376,-191v-82,-127,-123,-322,-123,-583v0,-261,41,-455,123,-583v82,-128,208,-192,376,-192v169,0,294,64,376,192v82,128,124,322,124,583xm319,-1870r203,0r0,203r-203,0r0,-203xm711,-1870r202,0r0,203r-202,0r0,-203"},"\u00d7":{"d":"150,-293r350,-348r-350,-350r116,-117r350,350r351,-350r116,117r-350,350r348,348r-116,119r-349,-350r-348,350"},"\u00d8":{"d":"371,-303v35,95,123,167,245,168v103,0,177,-47,222,-141v45,-94,67,-250,67,-469v0,-122,-3,-205,-20,-291xm842,-1190v-30,-100,-102,-165,-226,-166v-105,0,-178,49,-222,146v-44,97,-66,272,-66,524v0,53,0,96,2,130v2,34,5,62,8,85xm616,-1520v163,1,274,62,345,162r139,-201r100,74r-168,238v60,122,84,307,84,502v0,260,-42,454,-124,582v-82,128,-207,192,-376,192v-171,-1,-285,-60,-362,-162r-143,203r-103,-70r178,-252v-49,-115,-70,-312,-69,-493v0,-261,41,-455,123,-583v82,-128,208,-192,376,-192"},"\u00d9":{"d":"147,-573r0,-920r203,0r0,1012v2,114,-4,167,27,227v40,78,122,119,239,119v118,0,197,-42,240,-119v37,-65,27,-198,27,-319r0,-920r202,0r0,920v0,153,-11,260,-29,325v-35,123,-132,208,-249,248v-110,39,-271,39,-381,0v-117,-41,-215,-122,-250,-248v-18,-66,-29,-174,-29,-325xm561,-1899r197,264r-154,0r-227,-264r184,0"},"\u00da":{"d":"147,-573r0,-920r203,0r0,1012v2,114,-4,167,27,227v40,78,122,119,239,119v118,0,197,-42,240,-119v37,-65,27,-198,27,-319r0,-920r202,0r0,920v0,153,-11,260,-29,325v-35,123,-132,208,-249,248v-110,39,-271,39,-381,0v-117,-41,-215,-122,-250,-248v-18,-66,-29,-174,-29,-325xm672,-1899r186,0r-229,264r-154,0"},"\u00db":{"d":"147,-573r0,-920r203,0r0,1012v2,114,-4,167,27,227v40,78,122,119,239,119v118,0,197,-42,240,-119v37,-65,27,-198,27,-319r0,-920r202,0r0,920v0,153,-11,260,-29,325v-35,123,-132,208,-249,248v-110,39,-271,39,-381,0v-117,-41,-215,-122,-250,-248v-18,-66,-29,-174,-29,-325xm522,-1901r189,0r211,266r-140,0r-166,-178r-165,178r-140,0"},"\u00dc":{"d":"147,-573r0,-920r203,0r0,1012v2,114,-4,167,27,227v40,78,122,119,239,119v118,0,197,-42,240,-119v37,-65,27,-198,27,-319r0,-920r202,0r0,920v0,153,-11,260,-29,325v-35,123,-132,208,-249,248v-110,39,-271,39,-381,0v-117,-41,-215,-122,-250,-248v-18,-66,-29,-174,-29,-325xm319,-1870r203,0r0,203r-203,0r0,-203xm711,-1870r202,0r0,203r-202,0r0,-203"},"\u00dd":{"d":"37,-1493r215,0r364,659r363,-659r217,0r-479,823r0,670r-203,0r0,-670xm672,-1899r186,0r-229,264r-154,0"},"\u00de":{"d":"952,-795v0,-186,-118,-263,-315,-262r-234,0r0,525r234,0v198,1,315,-76,315,-263xm1165,-795v0,311,-181,428,-508,428r-254,0r0,367r-202,0r0,-1493r202,0r0,270r254,0v328,0,508,118,508,428"},"\u00df":{"d":"610,-1403v-170,1,-235,93,-235,270r0,1133r-187,0r0,-1137v1,-286,139,-418,426,-419v278,0,414,156,416,437v-103,9,-183,35,-239,76v-56,41,-84,95,-84,162v0,114,100,153,180,205v99,65,170,120,207,175v37,55,55,121,55,198v-1,221,-181,335,-420,332v-102,-1,-190,-20,-270,-49r0,-164v85,34,166,59,268,61v130,2,235,-60,236,-178v0,-47,-13,-86,-33,-119v-23,-38,-146,-118,-219,-160v-62,-36,-107,-78,-137,-122v-77,-110,-51,-272,35,-360v55,-56,133,-97,237,-120v-2,-144,-88,-222,-236,-221"},"\u00e0":{"d":"477,-1638r281,376r-154,0r-325,-376r198,0xm547,-125v229,-2,339,-185,327,-438r-233,0v-107,0,-189,19,-243,57v-54,38,-81,93,-81,168v-1,137,91,214,230,213xm215,-1069v118,-45,234,-78,377,-78v187,0,318,55,397,164v63,87,70,174,70,344r0,639r-185,0r0,-166v-74,124,-180,193,-366,195v-221,3,-375,-138,-375,-355v0,-125,41,-219,125,-284v84,-65,207,-97,369,-97r247,0v6,-203,-80,-285,-282,-284v-147,2,-272,46,-377,106r0,-184"},"\u00e1":{"d":"756,-1638r198,0r-325,376r-154,0xm547,-125v229,-2,339,-185,327,-438r-233,0v-107,0,-189,19,-243,57v-54,38,-81,93,-81,168v-1,137,91,214,230,213xm215,-1069v118,-45,234,-78,377,-78v187,0,318,55,397,164v63,87,70,174,70,344r0,639r-185,0r0,-166v-74,124,-180,193,-366,195v-221,3,-375,-138,-375,-355v0,-125,41,-219,125,-284v84,-65,207,-97,369,-97r247,0v6,-203,-80,-285,-282,-284v-147,2,-272,46,-377,106r0,-184"},"\u00e2":{"d":"543,-1638r147,0r246,376r-139,0r-181,-245r-180,245r-139,0xm547,-125v229,-2,339,-185,327,-438r-233,0v-107,0,-189,19,-243,57v-54,38,-81,93,-81,168v-1,137,91,214,230,213xm215,-1069v118,-45,234,-78,377,-78v187,0,318,55,397,164v63,87,70,174,70,344r0,639r-185,0r0,-166v-74,124,-180,193,-366,195v-221,3,-375,-138,-375,-355v0,-125,41,-219,125,-284v84,-65,207,-97,369,-97r247,0v6,-203,-80,-285,-282,-284v-147,2,-272,46,-377,106r0,-184"},"\u00e3":{"d":"752,-1309v-117,1,-159,-99,-234,-145v-35,-21,-71,-7,-87,27v-12,25,-19,64,-20,118r-124,0v1,-89,19,-158,52,-208v44,-67,130,-92,213,-60v59,24,111,98,164,131v35,21,70,7,86,-27v12,-25,18,-64,19,-118r125,0v-1,89,-18,159,-52,208v-34,49,-81,74,-142,74xm547,-125v229,-2,339,-185,327,-438r-233,0v-107,0,-189,19,-243,57v-54,38,-81,93,-81,168v-1,137,91,214,230,213xm215,-1069v118,-45,234,-78,377,-78v187,0,318,55,397,164v63,87,70,174,70,344r0,639r-185,0r0,-166v-74,124,-180,193,-366,195v-221,3,-375,-138,-375,-355v0,-125,41,-219,125,-284v84,-65,207,-97,369,-97r247,0v6,-203,-80,-285,-282,-284v-147,2,-272,46,-377,106r0,-184"},"\u00e4":{"d":"319,-1552r203,0r0,202r-203,0r0,-202xm711,-1552r202,0r0,202r-202,0r0,-202xm547,-125v229,-2,339,-185,327,-438r-233,0v-107,0,-189,19,-243,57v-54,38,-81,93,-81,168v-1,137,91,214,230,213xm215,-1069v118,-45,234,-78,377,-78v187,0,318,55,397,164v63,87,70,174,70,344r0,639r-185,0r0,-166v-74,124,-180,193,-366,195v-221,3,-375,-138,-375,-355v0,-125,41,-219,125,-284v84,-65,207,-97,369,-97r247,0v6,-203,-80,-285,-282,-284v-147,2,-272,46,-377,106r0,-184"},"\u00e5":{"d":"547,-125v229,-2,339,-185,327,-438r-233,0v-107,0,-189,19,-243,57v-54,38,-81,93,-81,168v-1,137,91,214,230,213xm215,-1069v118,-45,234,-78,377,-78v187,0,318,55,397,164v63,87,70,174,70,344r0,639r-185,0r0,-166v-74,124,-180,193,-366,195v-221,3,-375,-138,-375,-355v0,-125,41,-219,125,-284v84,-65,207,-97,369,-97r247,0v6,-203,-80,-285,-282,-284v-147,2,-272,46,-377,106r0,-184xm616,-1798v150,0,275,125,275,274v0,150,-125,275,-275,275v-148,0,-274,-126,-274,-275v0,-148,126,-274,274,-274xm616,-1372v83,0,152,-69,152,-152v0,-82,-69,-151,-152,-151v-83,0,-151,68,-151,151v0,83,68,152,151,152"},"\u00e6":{"d":"205,-311v-1,115,59,186,172,186v61,0,102,-24,129,-67v29,-46,40,-200,37,-322r-49,0v-113,0,-189,15,-229,45v-40,30,-60,83,-60,158xm1036,-657v1,-181,-5,-336,-164,-336v-58,0,-98,23,-125,68v-29,48,-40,159,-38,268r327,0xm627,-1020v42,-79,134,-127,254,-127v116,0,199,40,247,119v48,79,72,220,72,424r0,90r-491,0r-2,84v0,107,17,185,51,233v34,48,87,72,162,72v116,-1,197,-39,258,-102r0,172v-66,49,-152,83,-258,84v-146,0,-249,-56,-291,-160v-49,100,-129,159,-269,160v-211,0,-320,-122,-319,-336v0,-236,147,-352,391,-350r117,0r0,-88v1,-147,-57,-248,-193,-248v-94,0,-183,39,-250,82r0,-168v86,-39,164,-68,269,-68v126,0,204,45,252,127"},"\u00e7":{"d":"655,272v71,0,118,-28,119,-94v0,-20,-7,-45,-22,-74v-15,-29,-37,-63,-66,-104r118,0v37,41,64,79,82,114v18,35,27,69,27,101v-2,131,-95,181,-238,180v-65,0,-122,-9,-176,-24r0,-131v45,22,91,32,156,32xm748,-127v143,0,234,-46,313,-121r0,191v-88,51,-187,85,-313,86v-351,2,-553,-231,-553,-588v0,-358,202,-590,553,-588v127,1,222,35,313,86r0,193v-88,-77,-167,-123,-313,-123v-244,0,-359,173,-359,432v0,258,116,432,359,432"},"\u00e8":{"d":"491,-1638r281,376r-154,0r-325,-376r198,0xm651,-1147v298,0,466,228,461,541r0,90r-797,0v-4,243,128,392,365,389v153,-2,268,-51,389,-113r0,183v-120,49,-242,84,-391,86v-351,2,-555,-231,-555,-588v0,-340,200,-588,528,-588xm928,-660v-4,-201,-91,-331,-285,-331v-192,0,-305,143,-321,332"},"\u00e9":{"d":"770,-1638r198,0r-325,376r-154,0xm651,-1147v298,0,466,228,461,541r0,90r-797,0v-4,243,128,392,365,389v153,-2,268,-51,389,-113r0,183v-120,49,-242,84,-391,86v-351,2,-555,-231,-555,-588v0,-340,200,-588,528,-588xm928,-660v-4,-201,-91,-331,-285,-331v-192,0,-305,143,-321,332"},"\u00ea":{"d":"557,-1638r147,0r246,376r-139,0r-181,-245r-180,245r-139,0xm651,-1147v298,0,466,228,461,541r0,90r-797,0v-4,243,128,392,365,389v153,-2,268,-51,389,-113r0,183v-120,49,-242,84,-391,86v-351,2,-555,-231,-555,-588v0,-340,200,-588,528,-588xm928,-660v-4,-201,-91,-331,-285,-331v-192,0,-305,143,-321,332"},"\u00eb":{"d":"333,-1552r203,0r0,202r-203,0r0,-202xm725,-1552r202,0r0,202r-202,0r0,-202xm651,-1147v298,0,466,228,461,541r0,90r-797,0v-4,243,128,392,365,389v153,-2,268,-51,389,-113r0,183v-120,49,-242,84,-391,86v-351,2,-555,-231,-555,-588v0,-340,200,-588,528,-588xm928,-660v-4,-201,-91,-331,-285,-331v-192,0,-305,143,-321,332"},"\u00ec":{"d":"477,-1638r281,376r-154,0r-325,-376r198,0xm256,-1120r471,0r0,977r365,0r0,143r-914,0r0,-143r365,0r0,-834r-287,0r0,-143"},"\u00ed":{"d":"756,-1638r198,0r-325,376r-154,0xm256,-1120r471,0r0,977r365,0r0,143r-914,0r0,-143r365,0r0,-834r-287,0r0,-143"},"\u00ee":{"d":"543,-1638r147,0r246,376r-139,0r-181,-245r-180,245r-139,0xm256,-1120r471,0r0,977r365,0r0,143r-914,0r0,-143r365,0r0,-834r-287,0r0,-143"},"\u00ef":{"d":"319,-1552r203,0r0,202r-203,0r0,-202xm711,-1552r202,0r0,202r-202,0r0,-202xm256,-1120r471,0r0,977r365,0r0,143r-914,0r0,-143r365,0r0,-834r-287,0r0,-143"},"\u00f0":{"d":"137,-535v0,-360,188,-597,559,-557v-44,-62,-94,-120,-143,-178r-279,92r-30,-98r237,-80r-182,-200r219,0r127,145r289,-94r33,98r-250,80v131,141,227,275,288,402v61,127,91,257,91,390v0,337,-160,563,-480,564v-319,0,-479,-229,-479,-564xm901,-535v0,-149,-44,-295,-108,-383v-45,-17,-101,-26,-162,-26v-97,0,-172,35,-223,105v-51,70,-76,171,-76,304v0,131,25,231,74,302v49,71,119,106,210,106v91,0,162,-35,211,-106v49,-71,74,-171,74,-302"},"\u00f1":{"d":"752,-1309v-117,1,-159,-99,-234,-145v-35,-21,-71,-7,-87,27v-12,25,-19,64,-20,118r-124,0v1,-89,19,-158,52,-208v44,-67,130,-92,213,-60v59,24,111,98,164,131v35,21,70,7,86,-27v12,-25,18,-64,19,-118r125,0v-1,89,-18,159,-52,208v-34,49,-81,74,-142,74xm379,-952v60,-118,165,-195,332,-195v114,0,199,38,255,113v56,75,85,188,85,340r0,694r-185,0r0,-694v-1,-184,-51,-293,-219,-293v-189,0,-268,148,-268,354r0,633r-184,0r0,-1120r184,0r0,168"},"\u00f2":{"d":"477,-1638r281,376r-154,0r-325,-376r198,0xm616,-991v-93,0,-164,36,-212,109v-48,73,-72,180,-72,323v0,142,24,250,72,323v48,73,119,109,212,109v94,0,165,-36,213,-109v48,-73,72,-181,72,-323v0,-143,-24,-250,-72,-323v-48,-73,-119,-109,-213,-109xm616,-1147v332,0,480,234,480,588v0,191,-41,337,-123,437v-82,100,-201,151,-357,151v-155,0,-274,-51,-356,-151v-82,-100,-123,-246,-123,-437v0,-191,41,-336,123,-437v82,-101,201,-151,356,-151"},"\u00f3":{"d":"756,-1638r198,0r-325,376r-154,0xm616,-991v-93,0,-164,36,-212,109v-48,73,-72,180,-72,323v0,142,24,250,72,323v48,73,119,109,212,109v94,0,165,-36,213,-109v48,-73,72,-181,72,-323v0,-143,-24,-250,-72,-323v-48,-73,-119,-109,-213,-109xm616,-1147v332,0,480,234,480,588v0,191,-41,337,-123,437v-82,100,-201,151,-357,151v-155,0,-274,-51,-356,-151v-82,-100,-123,-246,-123,-437v0,-191,41,-336,123,-437v82,-101,201,-151,356,-151"},"\u00f4":{"d":"543,-1638r147,0r246,376r-139,0r-181,-245r-180,245r-139,0xm616,-991v-93,0,-164,36,-212,109v-48,73,-72,180,-72,323v0,142,24,250,72,323v48,73,119,109,212,109v94,0,165,-36,213,-109v48,-73,72,-181,72,-323v0,-143,-24,-250,-72,-323v-48,-73,-119,-109,-213,-109xm616,-1147v332,0,480,234,480,588v0,191,-41,337,-123,437v-82,100,-201,151,-357,151v-155,0,-274,-51,-356,-151v-82,-100,-123,-246,-123,-437v0,-191,41,-336,123,-437v82,-101,201,-151,356,-151"},"\u00f5":{"d":"752,-1309v-117,1,-159,-99,-234,-145v-35,-21,-71,-7,-87,27v-12,25,-19,64,-20,118r-124,0v1,-89,19,-158,52,-208v44,-67,130,-92,213,-60v59,24,111,98,164,131v35,21,70,7,86,-27v12,-25,18,-64,19,-118r125,0v-1,89,-18,159,-52,208v-34,49,-81,74,-142,74xm616,-991v-93,0,-164,36,-212,109v-48,73,-72,180,-72,323v0,142,24,250,72,323v48,73,119,109,212,109v94,0,165,-36,213,-109v48,-73,72,-181,72,-323v0,-143,-24,-250,-72,-323v-48,-73,-119,-109,-213,-109xm616,-1147v332,0,480,234,480,588v0,191,-41,337,-123,437v-82,100,-201,151,-357,151v-155,0,-274,-51,-356,-151v-82,-100,-123,-246,-123,-437v0,-191,41,-336,123,-437v82,-101,201,-151,356,-151"},"\u00f6":{"d":"319,-1552r203,0r0,202r-203,0r0,-202xm711,-1552r202,0r0,202r-202,0r0,-202xm616,-991v-93,0,-164,36,-212,109v-48,73,-72,180,-72,323v0,142,24,250,72,323v48,73,119,109,212,109v94,0,165,-36,213,-109v48,-73,72,-181,72,-323v0,-143,-24,-250,-72,-323v-48,-73,-119,-109,-213,-109xm616,-1147v332,0,480,234,480,588v0,191,-41,337,-123,437v-82,100,-201,151,-357,151v-155,0,-274,-51,-356,-151v-82,-100,-123,-246,-123,-437v0,-191,41,-336,123,-437v82,-101,201,-151,356,-151"},"\u00f7":{"d":"494,-395r245,0r0,245r-245,0r0,-245xm494,-1135r245,0r0,246r-245,0r0,-246xm88,-727r1057,0r0,170r-1057,0r0,-170"},"\u00f8":{"d":"414,-221v44,58,107,93,202,94v94,0,163,-38,213,-109v77,-109,89,-370,48,-544xm817,-897v-44,-60,-104,-93,-201,-94v-93,0,-163,36,-214,107v-63,87,-87,255,-67,415v5,39,12,82,21,129xm616,29v-144,0,-244,-42,-317,-119r-160,186r-92,-76r170,-200v-52,-95,-80,-231,-80,-379v0,-191,41,-336,123,-437v82,-101,201,-151,356,-151v141,0,242,40,318,111r147,-176r93,77r-164,195v58,92,86,226,86,381v0,191,-41,337,-123,437v-82,100,-201,151,-357,151"},"\u00f9":{"d":"477,-1638r281,376r-154,0r-325,-376r198,0xm866,-168v-59,119,-166,197,-331,197v-115,0,-200,-38,-256,-113v-56,-75,-84,-188,-84,-340r0,-694r184,0r0,694v1,183,52,293,219,293v190,0,268,-147,268,-354r0,-633r185,0r0,1118r-185,0r0,-168"},"\u00fa":{"d":"756,-1638r198,0r-325,376r-154,0xm866,-168v-59,119,-166,197,-331,197v-115,0,-200,-38,-256,-113v-56,-75,-84,-188,-84,-340r0,-694r184,0r0,694v1,183,52,293,219,293v190,0,268,-147,268,-354r0,-633r185,0r0,1118r-185,0r0,-168"},"\u00fb":{"d":"543,-1638r147,0r246,376r-139,0r-181,-245r-180,245r-139,0xm866,-168v-59,119,-166,197,-331,197v-115,0,-200,-38,-256,-113v-56,-75,-84,-188,-84,-340r0,-694r184,0r0,694v1,183,52,293,219,293v190,0,268,-147,268,-354r0,-633r185,0r0,1118r-185,0r0,-168"},"\u00fc":{"d":"319,-1552r203,0r0,202r-203,0r0,-202xm711,-1552r202,0r0,202r-202,0r0,-202xm866,-168v-59,119,-166,197,-331,197v-115,0,-200,-38,-256,-113v-56,-75,-84,-188,-84,-340r0,-694r184,0r0,694v1,183,52,293,219,293v190,0,268,-147,268,-354r0,-633r185,0r0,1118r-185,0r0,-168"},"\u00fd":{"d":"756,-1638r198,0r-325,376r-154,0xm858,-360r-117,308v-66,176,-110,283,-133,322v-55,94,-139,156,-276,156r-148,0r0,-154r109,0v54,0,96,-16,127,-47v31,-31,70,-112,117,-243r-433,-1102r195,0r332,876r327,-876r195,0"},"\u00fe":{"d":"674,29v-147,-1,-246,-68,-299,-170r0,567r-185,0r0,-1993r185,0r0,590v55,-101,153,-170,299,-170v135,0,241,52,318,157v77,105,116,250,116,435v0,182,-39,325,-116,429v-77,104,-183,155,-318,155xm915,-559v0,-143,-22,-250,-67,-323v-45,-73,-112,-109,-201,-109v-89,0,-157,36,-203,109v-46,73,-69,181,-69,323v0,141,23,249,69,322v46,73,114,110,203,110v89,0,156,-36,201,-109v45,-73,67,-180,67,-323"},"\u00ff":{"d":"319,-1552r203,0r0,202r-203,0r0,-202xm711,-1552r202,0r0,202r-202,0r0,-202xm858,-360r-117,308v-66,176,-110,283,-133,322v-55,94,-139,156,-276,156r-148,0r0,-154r109,0v54,0,96,-16,127,-47v31,-31,70,-112,117,-243r-433,-1102r195,0r332,876r327,-876r195,0"},"\u0152":{"d":"1217,-170r0,170r-605,0v-197,0,-336,-55,-418,-166v-82,-111,-122,-304,-122,-579v0,-278,41,-473,122,-583v81,-110,221,-165,418,-165r594,0r0,170r-358,0r0,442r328,0r0,170r-328,0r0,541r369,0xm651,-1323v-147,-7,-253,24,-307,115v-45,77,-70,231,-70,463v0,231,24,385,70,461v46,76,128,114,246,114r61,0r0,-1153"},"\u0153":{"d":"1047,-657v7,-175,-7,-336,-164,-338v-58,0,-98,24,-125,69v-29,48,-41,159,-39,269r328,0xm373,-123v68,0,116,-28,143,-84v27,-56,41,-164,41,-323v0,-194,-13,-320,-40,-378v-27,-58,-75,-87,-144,-87v-69,0,-116,27,-143,83v-27,56,-40,174,-40,353v0,179,13,297,40,353v27,56,74,83,143,83xm637,-1020v46,-79,133,-127,254,-127v117,0,199,40,247,119v48,79,72,220,72,424r0,90r-491,0r0,84v0,109,16,187,49,235v33,48,87,72,162,72v115,0,200,-41,258,-104r0,172v-72,52,-145,84,-258,84v-138,0,-233,-50,-293,-133v-63,81,-135,133,-264,133v-126,0,-217,-46,-274,-138v-57,-92,-85,-242,-85,-450v0,-208,28,-358,85,-450v57,-92,148,-138,274,-138v130,0,206,47,264,127"},"\u0178":{"d":"37,-1493r215,0r364,659r363,-659r217,0r-479,823r0,670r-203,0r0,-670xm319,-1870r203,0r0,203r-203,0r0,-203xm711,-1870r202,0r0,203r-202,0r0,-203"},"\u02c6":{"d":"543,-1638r147,0r246,376r-139,0r-181,-245r-180,245r-139,0"},"\u02dc":{"d":"752,-1309v-117,1,-159,-99,-234,-145v-35,-21,-71,-7,-87,27v-12,25,-19,64,-20,118r-124,0v1,-89,19,-158,52,-208v44,-67,130,-92,213,-60v59,24,111,98,164,131v35,21,70,7,86,-27v12,-25,18,-64,19,-118r125,0v-1,89,-18,159,-52,208v-34,49,-81,74,-142,74"},"\u2013":{"d":"0,-633r1233,0r0,141r-1233,0r0,-141"},"\u2014":{"d":"0,-633r1233,0r0,141r-1233,0r0,-141"},"\u2018":{"d":"715,-967r-252,0r0,-207r196,-382r154,0r-98,382r0,207"},"\u2019":{"d":"561,-1556r252,0r0,206r-197,383r-153,0r98,-383r0,-206"},"\u201a":{"d":"502,-303r252,0r0,207r-197,383r-154,0r99,-383r0,-207"},"\u201c":{"d":"924,-967r-252,0r0,-207r196,-382r154,0r-98,382r0,207xm465,-967r-254,0r0,-207r199,-382r153,0r-98,382r0,207"},"\u201d":{"d":"768,-1556r252,0r0,206r-197,383r-153,0r98,-383r0,-206xm309,-1556r252,0r0,206r-196,383r-154,0r98,-383r0,-206"},"\u201e":{"d":"768,-303r252,0r0,207r-197,383r-153,0r98,-383r0,-207xm309,-303r252,0r0,207r-196,383r-154,0r98,-383r0,-207"},"\u2022":{"d":"614,-465v-162,0,-295,-134,-295,-297v0,-162,135,-295,297,-295v161,0,297,135,297,295v0,162,-137,297,-299,297"},"\u2026":{"d":"80,-305r252,0r0,305r-252,0r0,-305xm899,-305r252,0r0,305r-252,0r0,-305xm489,-305r252,0r0,305r-252,0r0,-305"},"\u2039":{"d":"815,-1059r0,191r-301,268r301,268r0,191r-469,-418r0,-82"},"\u203a":{"d":"420,-1059r469,418r0,82r-469,418r0,-191r301,-268r-301,-268r0,-191"},"\u20ac":{"d":"203,-653v-3,-64,-6,-118,0,-187r-166,0r49,-108r125,0v32,-189,94,-332,185,-428v91,-96,211,-144,360,-144v128,0,216,32,305,82r0,207v-74,-69,-178,-129,-303,-129v-97,0,-175,35,-233,104v-58,69,-95,172,-111,308r481,0r-49,108r-442,0v-5,53,-3,125,-1,187r361,0r-49,110r-301,0v15,135,52,237,110,307v58,70,136,105,234,105v127,0,228,-59,303,-129r0,207v-88,51,-177,82,-305,82v-151,0,-272,-48,-364,-144v-92,-96,-152,-239,-181,-428r-174,0r49,-110r117,0"},"\u2122":{"d":"438,-1493r0,94r-162,0r0,484r-114,0r0,-484r-162,0r0,-94r438,0xm692,-1493r137,256r125,-256r172,0r0,578r-114,0r0,-482r-156,301r-55,0r-166,-301r0,482r-113,0r0,-578r170,0"}}});
