/*!
 * The following copyright notice may not be removed under any circumstances.
 * 
 * Copyright:
 * 4.1 Copyright 1992 Software Complement
 */
Cufon.registerFont({"w":244,"face":{"font-family":"HighlandGothicFLF","font-weight":500,"font-stretch":"normal","units-per-em":"1000","panose-1":"2 0 6 3 4 0 0 2 0 4","ascent":"800","descent":"-200","x-height":"11","bbox":"-96 -1099.72 1184 222.089","underline-thickness":"76","underline-position":"-66","unicode-range":"U+0020-U+2122"},"glyphs":{" ":{"w":360},"!":{"d":"40,-778r0,583r164,0r0,-583r-164,0xm40,0r164,0r0,-133r-164,0r0,133"},"\"":{"d":"19,-778r44,133r45,0r44,-133r0,-133r-133,0r0,133xm219,-778r44,133r45,0r44,-133r0,-133r-133,0r0,133","w":371},"#":{"d":"212,-474r0,-117r117,0r0,117r-117,0xm329,-661r-117,0r0,-117r-70,0r0,117r-117,0r0,70r117,0r0,117r-117,0r0,70r117,0r0,116r70,0r0,-116r117,0r0,116r70,0r0,-116r120,0r0,-70r-120,0r0,-117r120,0r0,-70r-120,0r0,-117r-70,0r0,117","w":544},"$":{"d":"440,-273v0,39,-34,71,-73,70r-40,0r0,-140r38,0v39,-1,75,30,75,70xm192,-672v-99,4,-162,58,-162,164v1,107,62,160,162,165r95,0r0,140r-233,0r0,97r233,0r0,50r40,0r0,-50v78,0,151,5,198,-34v33,-28,59,-69,58,-133v0,-107,-63,-161,-161,-167r-95,0r0,-135r227,0r0,-97r-227,0r0,-51r-40,0r0,51r-95,0xm173,-508v0,-43,33,-67,73,-67r41,0r0,135v-63,4,-114,-6,-114,-68","w":622},"%":{"d":"30,-56r67,0r389,-667r-67,0xm146,-724v-80,0,-116,41,-116,120v0,79,36,121,116,120v80,0,116,-41,116,-120v0,-79,-36,-120,-116,-120xm81,-604v0,-50,14,-82,65,-82v51,0,65,32,65,82v0,50,-14,82,-65,82v-51,0,-65,-32,-65,-82xm366,-293v-80,0,-116,41,-116,120v0,79,36,121,116,120v80,0,116,-41,116,-120v0,-79,-36,-120,-116,-120xm301,-173v0,-50,14,-82,65,-82v51,0,65,32,65,82v0,50,-14,82,-65,82v-51,0,-65,-32,-65,-82","w":516},"&":{"d":"199,-549v0,-55,32,-96,79,-96r281,0r0,-133r-319,0v-102,1,-164,54,-196,126v-9,23,-14,46,-14,68v1,98,44,162,117,195v-67,34,-117,80,-117,180v1,172,124,215,302,216v189,1,299,-51,366,-172v24,-43,47,-96,69,-160r88,0r0,-128r-389,0r0,128r116,0v-14,114,-90,199,-210,199v-97,0,-171,-12,-173,-104v-1,-56,32,-95,79,-95r86,0r0,-128r-86,0v-47,-1,-79,-40,-79,-96","w":885},"'":{"d":"19,-778r44,133r45,0r44,-133r0,-133r-133,0r0,133","w":171},"(":{"d":"336,111v-87,-137,-142,-279,-142,-500v0,-220,55,-363,142,-500v-186,94,-306,246,-306,500v0,255,123,407,306,500","w":366},")":{"d":"30,-889v87,137,142,279,142,500v0,220,-55,363,-142,500v184,-94,306,-244,306,-500v0,-254,-121,-407,-306,-500","w":366},"*":{"d":"81,-564v-3,32,42,38,56,14v12,-21,12,-57,24,-78v4,-6,9,-7,12,0v18,27,7,93,49,93v13,0,33,-8,31,-29v-2,-24,-21,-32,-33,-46v-10,-11,-24,-20,-29,-35v-1,-5,4,-5,8,-5v24,-2,56,18,80,18v17,0,30,-13,30,-30v0,-17,-13,-30,-30,-30v-24,0,-56,18,-80,18v-6,0,-10,-3,-6,-10v13,-24,42,-37,56,-60v12,-20,-1,-47,-27,-45v-41,2,-31,66,-49,93v-4,7,-8,6,-12,0v-17,-28,-7,-90,-49,-93v-36,-2,-38,45,-15,60v15,16,37,28,46,50v1,5,-4,5,-8,5v-24,2,-56,-18,-80,-18v-17,0,-30,13,-30,30v0,17,13,30,30,30v24,0,56,-18,80,-18v6,0,11,4,6,10v-13,30,-56,37,-60,76","w":334},"+":{"d":"19,-445r0,111r139,0r0,139r111,0r0,-139r139,0r0,-111r-139,0r0,-139r-111,0r0,139r-139,0","w":427},",":{"d":"86,111v38,-17,66,-58,66,-111r0,-133r-133,0r0,133r67,0r0,111","w":171},"-":{"d":"19,-445r0,111r278,0r0,-111r-278,0","w":316},".":{"d":"19,0r133,0r0,-133r-133,0r0,133","w":171},"\/":{"d":"10,0r89,0r389,-778r-89,0","w":498},"0":{"d":"418,-789v-269,0,-388,138,-388,400v0,261,120,400,388,400v267,0,387,-138,387,-400v0,-261,-120,-400,-387,-400xm302,-638v53,-28,178,-27,232,0v102,50,113,207,94,350v-14,109,-79,171,-210,171v-169,0,-217,-105,-217,-272v0,-117,22,-208,101,-249","w":835},"1":{"d":"204,0r0,-778r-164,0r0,778r164,0"},"2":{"d":"194,-229v4,-59,40,-96,103,-96r230,0v135,-7,221,-81,222,-227v0,-122,-62,-189,-153,-216v-25,-8,-48,-10,-69,-10r-483,0r0,133r405,0v62,2,103,29,103,93v0,64,-40,92,-103,93r-196,0v-110,1,-176,54,-207,135v-11,28,-16,60,-16,95r0,229r705,0r0,-133r-541,0r0,-96","w":779},"3":{"d":"683,-207v1,-101,-59,-147,-122,-182v63,-35,123,-81,122,-182v-2,-137,-94,-207,-223,-207r-430,0r0,133r375,0v63,1,103,31,103,96v0,65,-40,96,-103,96r-289,0r0,128r289,0v63,1,103,31,103,96v0,65,-41,96,-103,96r-375,0r0,133r430,0v128,-7,222,-70,223,-207","w":713},"4":{"d":"529,-272r-319,0r319,-340r0,340xm20,-292r0,153r509,0r0,139r164,0r0,-139r104,0r0,-133r-104,0r0,-506r-217,0","w":817},"5":{"d":"553,-229v0,65,-39,96,-102,96r-411,0r0,133r472,0v95,-3,163,-47,199,-117v29,-56,29,-167,0,-223v-37,-71,-103,-118,-199,-118r-308,0r0,-187r482,0r0,-133r-646,0r0,453r411,0v64,1,102,31,102,96","w":764},"6":{"d":"211,-453v1,-125,64,-191,190,-192r319,0r0,-133r-311,0v-253,-1,-379,139,-379,389v-1,206,70,329,231,373v81,23,213,33,308,10v111,-28,194,-97,194,-236v0,-104,-56,-165,-135,-195v-29,-11,-62,-16,-99,-16r-318,0xm479,-325v66,0,109,32,109,96v-2,115,-182,119,-271,83v-69,-28,-105,-89,-106,-179r268,0","w":793},"7":{"d":"20,-778r0,133r506,0r-506,645r214,0r467,-645r0,-133r-681,0","w":711},"8":{"d":"205,-227v2,-65,39,-98,103,-98r195,0v64,1,101,33,103,98v2,60,-45,94,-100,94r-201,0v-54,0,-102,-35,-100,-94xm606,-549v-1,65,-41,96,-103,96r-195,0v-63,-2,-101,-31,-103,-96v-1,-59,45,-96,100,-96r201,0v56,0,101,36,100,96xm659,-389v63,-35,123,-81,122,-182v-2,-137,-94,-207,-223,-207r-305,0v-92,3,-164,41,-200,107v-15,27,-23,60,-23,100v-1,101,59,147,122,182v-63,35,-123,81,-122,182v0,113,66,171,152,197v26,7,50,10,71,10r305,0v128,-7,222,-70,223,-207v1,-101,-59,-147,-122,-182","w":811},"9":{"d":"583,-325v1,130,-71,192,-191,192r-319,0r0,133r311,0v254,1,379,-138,379,-389v1,-206,-70,-329,-231,-373v-81,-23,-212,-33,-308,-10v-112,27,-194,97,-194,235v0,104,57,166,136,196v29,11,61,16,98,16r319,0xm314,-453v-66,0,-109,-32,-109,-97v2,-115,182,-117,271,-82v70,28,106,88,107,179r-269,0","w":793},":":{"d":"38,0r133,0r0,-133r-133,0r0,133xm38,-320r133,0r0,-133r-133,0r0,133","w":209},";":{"d":"38,-320r133,0r0,-133r-133,0r0,133xm105,111v38,-17,66,-58,66,-111r0,-133r-133,0r0,133r67,0r0,111","w":209},"<":{"d":"73,-368v-16,-9,-13,-30,1,-42r145,-127r0,-66r-199,171v-15,12,-11,51,-7,74v4,10,13,16,21,23r185,160r0,-67","w":249},"=":{"d":"10,-362r0,84r278,0r0,-84r-278,0xm10,-501r0,84r278,0r0,-84r-278,0","w":298},">":{"d":"175,-410v16,9,15,30,1,42r-146,126r0,67r199,-173v15,-11,12,-52,7,-74v-2,-10,-14,-15,-21,-22r-185,-159r0,66","w":249},"?":{"d":"548,-552v0,63,-38,91,-100,93v-87,2,-181,-12,-250,13v-79,28,-139,92,-141,198r0,60r164,0r0,-41v2,-62,43,-97,102,-97r200,0v94,-3,163,-45,199,-114v29,-55,29,-170,0,-224v-37,-69,-103,-114,-199,-114r-498,0r0,133r423,0v61,1,100,30,100,93xm221,-133r-164,0r0,133r164,0r0,-133","w":775},"@":{"d":"309,-388v0,-62,35,-86,97,-86r104,0r0,166r-100,0v-67,-1,-100,-16,-101,-80xm606,-556v-3,-127,-97,-164,-237,-164v-143,0,-249,64,-304,167v-38,72,-46,202,-17,292v42,128,148,199,321,199r141,0r0,-68r-141,0v-174,-2,-271,-89,-271,-259v0,-174,105,-258,271,-263v89,-3,144,21,141,110r-109,0v-117,0,-188,44,-188,154v0,97,64,148,165,148r228,0r0,-316","w":636},"A":{"d":"10,0r175,0r76,-189r320,0r76,189r175,0r-328,-778r-166,0xm421,-588r111,277r-222,0","w":842},"B":{"d":"622,-389v76,-32,121,-97,121,-196v0,-103,-65,-155,-145,-181v-28,-8,-56,-12,-85,-12r-473,0r0,778r473,0v144,-1,240,-58,240,-205v-1,-96,-56,-157,-131,-184xm574,-552v0,66,-41,99,-112,99r-258,0r0,-197r258,0v71,-1,112,32,112,98xm574,-227v0,67,-41,100,-112,99r-258,0r0,-197r258,0v71,-1,112,32,112,98","w":792},"C":{"d":"211,-389v0,-154,43,-256,189,-256r281,0r0,-133r-329,0v-223,1,-322,153,-322,389v0,236,98,389,322,389r329,0r0,-133r-281,0v-146,-1,-189,-102,-189,-256","w":720},"D":{"d":"586,-389v0,154,-43,256,-189,256r-193,0r0,-512r193,0v146,1,189,102,189,256xm767,-389v0,-236,-93,-389,-316,-389r-411,0r0,778r411,0v223,-1,316,-154,316,-389","w":797},"E":{"d":"30,-389v0,236,98,389,322,389r309,0r0,-133r-264,0v-128,-3,-168,-69,-186,-192r438,0r0,-128r-438,0v16,-119,58,-192,186,-192r264,0r0,-133r-309,0v-223,1,-322,153,-322,389","w":691},"F":{"d":"204,-453v-1,-133,72,-192,200,-192r247,0r0,-133r-279,0v-238,-1,-333,139,-332,374r0,404r164,0r0,-325r435,0r0,-128r-435,0","w":681},"G":{"d":"30,-389v0,236,98,389,322,389r411,0r0,-453r-380,0r0,128r216,0r0,192r-199,0v-146,-1,-189,-102,-189,-256v0,-154,43,-256,189,-256r363,0r0,-133r-411,0v-223,1,-322,153,-322,389","w":793},"H":{"d":"40,0r164,0r0,-325r311,0r0,325r164,0r0,-778r-164,0r0,325r-311,0r0,-325r-164,0r0,778","w":719},"I":{"d":"204,0r0,-778r-164,0r0,778r164,0"},"J":{"d":"394,-293v-1,103,-61,160,-160,160r-214,0r0,133r270,0v176,-3,268,-102,268,-282r0,-496r-164,0r0,485","w":598},"K":{"d":"204,-385r15,0r288,385r207,0r-332,-402r332,-376r-201,0r-294,355r-15,0r0,-355r-164,0r0,778r164,0r0,-385","w":724},"L":{"d":"40,-282v0,183,92,282,268,282r270,0r0,-133r-214,0v-79,-1,-126,-39,-149,-96v-7,-19,-11,-41,-11,-64r0,-485r-164,0r0,496","w":598},"M":{"d":"204,0r0,-581r4,0r198,581r162,0r197,-581r5,0r0,581r164,0r0,-778r-246,0r-201,600r-201,-600r-246,0r0,778r164,0","w":974},"N":{"d":"204,0r0,-570r4,0r313,570r209,0r0,-778r-164,0r0,569r-4,0r-313,-569r-209,0r0,778r164,0","w":770},"O":{"d":"418,-789v-269,0,-388,138,-388,400v0,261,120,400,388,400v267,0,387,-138,387,-400v0,-261,-120,-400,-387,-400xm302,-638v53,-28,178,-27,232,0v102,50,113,207,94,350v-14,109,-79,171,-210,171v-169,0,-217,-105,-217,-272v0,-117,22,-208,101,-249","w":835},"P":{"d":"728,-528v0,-158,-77,-250,-231,-250r-457,0r0,778r164,0r0,-278r293,0v154,-3,231,-93,231,-250xm546,-528v0,79,-49,117,-122,117r-220,0r0,-234r220,0v73,1,122,37,122,117","w":758},"Q":{"d":"418,-789v-269,0,-388,138,-388,400v0,259,122,389,388,389r396,0r0,-122r-86,0v48,-60,77,-151,77,-267v1,-261,-120,-400,-387,-400xm302,-638v53,-28,178,-27,232,0v101,50,113,206,94,348v-14,107,-81,162,-210,162v-167,0,-217,-96,-217,-261v0,-117,22,-208,101,-249","w":844},"R":{"d":"518,-537v0,78,-46,108,-122,108r-192,0r0,-216r192,0v76,0,122,31,122,108xm714,-542v-1,-156,-79,-236,-231,-236r-443,0r0,778r164,0r0,-306r178,0r158,306r195,0r-167,-316v91,-26,147,-100,146,-226","w":774},"S":{"d":"228,-552v-1,-60,45,-93,100,-93r422,0r0,-133r-497,0v-95,3,-164,45,-200,114v-29,55,-29,169,0,224v37,70,103,115,200,115r240,0v55,-1,103,41,101,96v-2,60,-41,96,-101,96r-430,0r0,133r506,0v95,-3,163,-48,199,-117v29,-56,29,-169,0,-225v-37,-71,-103,-117,-199,-117r-241,0v-61,-1,-99,-29,-100,-93","w":830},"T":{"d":"20,-778r0,133r261,0r0,645r164,0r0,-645r262,0r0,-133r-687,0","w":727},"U":{"d":"381,-117v-104,0,-177,-44,-177,-140r0,-521r-164,0r0,527v3,141,92,211,206,245v81,23,189,23,270,0v81,-23,144,-68,179,-134v17,-32,26,-69,26,-111r0,-527r-164,0r0,521v-1,95,-73,140,-176,140","w":761},"V":{"d":"10,-778r329,778r169,0r354,-778r-189,0r-238,607r-4,0r-232,-607r-189,0","w":872},"W":{"d":"20,-778r195,778r194,0r165,-577r4,0r165,577r195,0r194,-778r-178,0r-113,576r-3,0r-165,-576r-194,0r-165,576r-3,0r-113,-576r-178,0","w":1152},"X":{"d":"20,-778r279,389r-279,389r195,0r168,-268r168,268r195,0r-280,-389r280,-389r-195,0r-168,268r-168,-268r-195,0","w":766},"Y":{"d":"10,-778r288,444r0,334r164,0r0,-334r287,-444r-180,0r-189,311r-189,-311r-181,0","w":759},"Z":{"d":"737,-133r-465,0r0,-6r465,-506r0,-133r-697,0r0,133r465,0r0,4r-465,508r0,133r697,0r0,-133","w":776},"[":{"d":"40,-923r0,1067r267,0r0,-133r-134,0r0,-800r134,0r0,-134r-267,0","w":346},"\\":{"d":"488,0r-389,-778r-89,0r389,778r89,0","w":498},"]":{"d":"297,-923r-267,0r0,134r134,0r0,800r-134,0r0,133r267,0r0,-1067","w":337},"^":{"d":"143,-778r-34,0r-90,104r43,0r64,-74r64,74r43,0","w":252},"_":{"d":"0,83r0,84r556,0r0,-84r-556,0","w":503},"`":{"d":"19,-778r111,111r67,0r-111,-111r-67,0","w":216},"a":{"d":"344,-445v70,-1,99,38,93,111r-240,0v-109,2,-172,61,-172,167v0,101,65,167,172,167r384,0r0,-359v-2,-126,-76,-197,-194,-197r-323,0r0,111r280,0xm178,-167v0,-44,31,-56,74,-56r185,0r0,112r-185,0v-43,0,-74,-12,-74,-56","w":621},"b":{"d":"634,-278v0,-177,-95,-278,-267,-278r-173,0r0,-222r-144,0r0,778r317,0v172,0,267,-101,267,-278xm481,-278v0,93,-48,161,-136,161r-151,0r0,-322r151,0v88,0,136,68,136,161","w":659},"c":{"d":"178,-278v0,-93,48,-161,136,-161r206,0r0,-117r-228,0v-172,0,-267,101,-267,278v0,177,95,278,267,278r228,0r0,-117r-206,0v-88,0,-136,-68,-136,-161","w":545},"d":{"d":"25,-278v0,177,95,278,267,278r317,0r0,-778r-144,0r0,222r-173,0v-172,0,-267,101,-267,278xm178,-278v0,-93,48,-161,136,-161r151,0r0,322r-151,0v-88,0,-136,-68,-136,-161","w":659},"e":{"d":"25,-278v0,177,95,278,267,278r228,0r0,-111r-206,0v-70,0,-111,-16,-123,-69v-3,-14,-5,-28,-7,-43r324,0r0,-111r-324,0v4,-82,43,-111,130,-111r206,0r0,-111r-228,0v-172,0,-267,101,-267,278","w":545},"f":{"d":"275,-556v-5,-67,13,-105,78,-105r76,0r0,-117r-154,0v-97,1,-142,56,-144,150r0,72r-106,0r0,117r106,0r0,439r144,0r0,-439r154,0r0,-117r-154,0","w":454},"g":{"d":"406,222v133,-4,203,-84,203,-222r0,-556r-317,0v-172,0,-267,101,-267,278v0,177,95,278,267,278r173,0v0,80,-18,111,-88,111r-291,0r0,111r320,0xm178,-278v0,-93,48,-161,136,-161r151,0r0,322r-151,0v-88,0,-136,-68,-136,-161","w":649},"h":{"d":"362,-439v51,1,81,33,81,80r0,359r144,0r0,-386v-2,-79,-45,-131,-105,-156v-23,-10,-50,-14,-80,-14r-208,0r0,-222r-144,0r0,778r144,0r0,-439r168,0","w":627},"i":{"d":"194,0r0,-556r-144,0r0,556r144,0xm194,-612r0,-133r-144,0r0,133r144,0"},"j":{"d":"50,18v-1,78,-64,97,-146,93r0,111v58,0,111,2,156,-13v77,-26,134,-80,134,-179r0,-586r-144,0r0,574xm194,-612r0,-133r-144,0r0,133r144,0"},"k":{"d":"194,-274r6,0r228,274r185,0r-263,-292r238,-264r-175,0r-213,245r-6,0r0,-467r-144,0r0,778r144,0r0,-274","w":638},"l":{"d":"194,0r0,-778r-144,0r0,778r144,0"},"m":{"d":"619,-439v53,0,80,29,81,80r0,359r144,0r0,-388v-3,-78,-47,-129,-105,-154v-22,-10,-47,-14,-75,-14r-614,0r0,556r144,0r0,-439r181,0r0,439r144,0r0,-439r100,0","w":884},"n":{"d":"345,-439v53,0,80,29,81,80r0,359r144,0r0,-388v-3,-78,-47,-129,-105,-154v-22,-10,-47,-14,-75,-14r-340,0r0,556r144,0r0,-439r151,0","w":610},"o":{"d":"178,-278v0,-104,37,-172,143,-172v106,0,143,68,143,172v0,104,-37,172,-143,172v-106,0,-143,-68,-143,-172xm46,-403v-27,69,-27,181,0,250v41,104,132,164,275,164v189,0,296,-100,296,-289v0,-189,-107,-289,-296,-289v-143,0,-234,60,-275,164","w":642},"p":{"d":"634,-278v0,-177,-95,-278,-267,-278r-317,0r0,778r144,0r0,-222r173,0v172,0,267,-101,267,-278xm481,-278v0,93,-48,161,-136,161r-151,0r0,-322r151,0v88,0,136,68,136,161","w":659},"q":{"d":"25,-278v0,177,95,278,267,278r173,0r0,222r144,0r0,-778r-317,0v-172,0,-267,101,-267,278xm178,-278v0,-93,48,-161,136,-161r151,0r0,322r-151,0v-88,0,-136,-68,-136,-161","w":659},"r":{"d":"264,-439v35,1,56,22,56,55r0,56r144,0v1,-72,4,-137,-35,-178v-27,-29,-65,-51,-123,-50r-256,0r0,556r144,0r0,-439r70,0","w":489},"s":{"d":"40,-389v0,100,65,166,172,166r155,0v43,0,76,12,76,56v0,44,-33,56,-76,56r-327,0r0,111r384,0v107,2,172,-65,172,-167v0,-106,-63,-167,-172,-167r-155,0v-43,0,-76,-11,-76,-55v0,-44,33,-56,76,-56r297,0r0,-111r-354,0v-109,2,-172,61,-172,167","w":636},"t":{"d":"353,-117v-72,2,-84,-53,-84,-122r0,-200r139,0r0,-117r-139,0r0,-222r-144,0r0,222r-100,0r0,117r100,0r0,254v-1,122,52,187,177,185r106,0r0,-117r-55,0","w":433},"u":{"d":"275,-117v-54,0,-81,-30,-81,-81r0,-358r-144,0r0,387v1,88,53,136,118,159v21,7,42,10,62,10r339,0r0,-556r-144,0r0,439r-150,0","w":619},"v":{"d":"13,-556r234,556r169,0r234,-556r-164,0r-152,390r-5,0r-152,-390r-164,0","w":663},"w":{"d":"13,-556r200,556r164,0r115,-374r6,0r116,374r163,0r201,-556r-164,0r-116,374r-5,0r-116,-374r-164,0r-115,374r-6,0r-115,-374r-164,0","w":991},"x":{"d":"25,-556r216,278r-216,278r175,0r123,-174r122,174r175,0r-216,-278r216,-278r-175,0r-122,174r-123,-174r-175,0","w":645},"y":{"d":"425,0v7,72,-22,111,-87,111r-274,0r0,111r317,0v84,-3,141,-51,171,-111v11,-23,17,-48,17,-76r0,-591r-144,0r0,439r-150,0v-54,0,-81,-30,-81,-81r0,-358r-144,0r0,374v1,124,76,182,197,182r178,0","w":619},"z":{"d":"559,-117r-330,0r0,-2r330,-320r0,-117r-534,0r0,117r328,0r0,3r-328,319r0,117r534,0r0,-117","w":584},"{":{"d":"273,-756v-1,-34,31,-34,66,-33r0,-134r-66,0v-86,1,-134,54,-134,134r0,266v-2,53,-41,71,-100,67r0,133r33,0v37,-1,68,31,67,67r0,267v2,62,38,103,83,123v32,15,73,9,117,10r0,-133r-33,0v-22,0,-32,-13,-33,-33r0,-300v-4,-37,-27,-64,-66,-67v39,-3,66,-30,66,-67r0,-300","w":378},"|":{"d":"174,50r0,-878r-134,0r0,878r134,0","w":214},"}":{"d":"239,-789v-4,-80,-49,-133,-134,-134r-66,0r0,134v35,-1,67,-2,66,33r0,300v4,37,26,64,66,67v-40,2,-66,29,-66,67r0,300v-1,20,-11,33,-33,33r-33,0r0,133v44,-1,85,5,117,-10v45,-20,83,-61,83,-123r0,-267v-1,-36,30,-68,67,-67r33,0r0,-133v-59,4,-100,-13,-100,-67r0,-266","w":378},"~":{"d":"209,-657v-22,1,-27,-18,-27,-37v0,-52,-33,-84,-81,-84v-49,0,-82,32,-82,84r0,92r54,0v4,-40,-15,-100,28,-101v22,-1,27,18,27,37v0,52,33,84,81,84v49,0,82,-32,82,-84r0,-92r-54,0v-4,40,15,100,-28,101","w":310},"\u00a0":{"w":360},"\u00a1":{"d":"40,0r164,0r0,-584r-164,0r0,584xm40,-778r0,133r164,0r0,-133r-164,0"},"\u00a2":{"d":"316,-227v-89,0,-138,-68,-138,-162v0,-94,49,-162,138,-162r0,324xm25,-389v0,186,102,285,291,278r0,55r66,0r0,-55r138,0r0,-116r-138,0r0,-324r138,0r0,-116r-138,0r0,-55r-66,0r0,55v-189,-7,-291,92,-291,278","w":545},"\u00a3":{"d":"152,-549v-1,-68,30,-96,96,-96r338,0r0,-133r-338,0v-122,-1,-192,42,-211,140v-5,28,-7,57,-7,89r0,549r556,0r0,-133r-434,0r0,-190r434,0r0,-133r-434,0r0,-93","w":616},"\u00a4":{"d":"107,-457v-26,37,-27,95,-1,134r-81,81r39,39r81,-81v38,27,96,26,135,0r80,81r39,-39r-81,-81v26,-40,25,-93,0,-134r81,-81r-39,-39r-82,82v-39,-25,-93,-25,-132,0r-82,-82r-39,39xm212,-451v34,0,62,28,62,62v0,34,-28,62,-62,62v-34,0,-62,-28,-62,-62v0,-34,28,-62,62,-62","w":424},"\u00a5":{"d":"10,-778r234,361r-127,0r0,56r163,0r18,27r0,28r-111,0r0,56r111,0r0,250r164,0r0,-250r111,0r0,-56r-111,0r0,-28r17,-27r164,0r0,-56r-128,0r234,-361r-180,0r-189,311r-189,-311r-181,0","w":759},"\u00a6":{"d":"174,-356r-134,0r0,406r134,0r0,-406xm40,-423r134,0r0,-405r-134,0r0,405","w":214},"\u00a7":{"d":"360,-372v14,32,-4,73,-38,70v-9,0,-16,-2,-23,-6r-133,-78v-20,-13,-27,-17,-28,-44v-2,-38,36,-59,67,-41r132,79v13,7,20,14,23,20xm383,-255v38,-18,81,-41,81,-96v0,-50,-25,-81,-56,-99r-202,-119v-5,-5,-16,-13,-16,-29v0,-19,14,-32,33,-32r188,0r0,-75r-200,0v-75,2,-124,34,-126,106v-1,36,15,61,35,75v-38,19,-81,42,-81,97v0,49,26,80,56,99r202,119v6,5,16,12,16,28v0,19,-13,32,-32,32r-189,0r0,75r200,0v76,-1,123,-34,126,-106v0,-36,-17,-60,-35,-75","w":503},"\u00a8":{"d":"19,-645r133,0r0,-133r-133,0r0,133xm208,-645r133,0r0,-133r-133,0r0,133","w":360},"\u00a9":{"d":"61,-540v-41,93,-41,209,0,302v41,94,113,166,207,207v93,41,209,41,302,0v94,-41,168,-113,208,-207v41,-93,41,-209,0,-302v-40,-94,-114,-168,-208,-208v-93,-41,-209,-41,-302,0v-94,40,-166,114,-207,208xm540,-102v-74,33,-168,33,-242,0v-106,-48,-190,-141,-190,-287v0,-146,85,-239,190,-287v74,-33,168,-33,242,0v106,48,190,141,190,287v0,146,-85,239,-190,287xm315,-389v0,-78,20,-127,94,-128r140,0r0,-66r-164,0v-110,1,-161,77,-161,194v0,117,50,193,161,194r164,0r0,-66r-140,0v-74,-1,-94,-50,-94,-128","w":838},"\u00aa":{"d":"184,-547v38,-1,47,20,46,55r-120,0v-53,-1,-86,33,-86,83v0,52,32,85,86,84r192,0r0,-180v-1,-63,-38,-98,-96,-98r-162,0r0,56r140,0xm101,-409v0,-23,17,-27,37,-28r92,0r0,56r-92,0v-21,-1,-37,-4,-37,-28xm31,-264r0,69r278,0r0,-69r-278,0","w":350},"\u00ab":{"d":"73,-368v-16,-9,-13,-30,1,-42r145,-127r0,-66r-199,171v-15,12,-11,51,-7,74v4,10,13,16,21,23r185,160r0,-67xm212,-368v-16,-9,-13,-30,1,-42r145,-127r0,-66r-199,171v-15,12,-11,51,-7,74v4,10,13,16,21,23r185,160r0,-67","w":388},"\u00ac":{"d":"414,-445r-389,0r0,111r278,0r0,111r111,0r0,-222","w":439},"\u00ad":{"d":"19,-445r0,111r278,0r0,-111r-278,0","w":316},"\u00ae":{"d":"52,-608v-29,66,-29,150,0,216v43,95,125,170,256,170v131,0,213,-76,256,-170v29,-66,29,-150,0,-216v-43,-95,-125,-170,-256,-170v-131,0,-213,76,-256,170xm465,-343v-46,50,-154,87,-243,47v-76,-34,-136,-100,-136,-204v0,-104,60,-170,136,-204v53,-23,119,-23,172,0v76,34,136,100,136,204v0,67,-30,120,-65,157xm366,-557v0,54,-62,34,-109,38r0,-76v47,3,109,-14,109,38xm435,-557v0,-57,-29,-82,-81,-83r-155,0r0,272r58,0r0,-107r62,0r55,107r68,0r-58,-110v30,-11,51,-34,51,-79","w":616},"\u00af":{"d":"19,-778r0,56r139,0r0,-56r-139,0","w":177},"\u00b0":{"d":"259,-702v-22,-55,-89,-95,-163,-66v-54,21,-95,93,-67,164v22,54,92,94,163,66v54,-22,96,-93,67,-164xm144,-715v34,0,62,28,62,62v0,34,-28,62,-62,62v-34,0,-62,-28,-62,-62v0,-34,28,-62,62,-62","w":288},"\u00b1":{"d":"19,-556r0,111r139,0r0,139r111,0r0,-139r139,0r0,-111r-139,0r0,-139r-111,0r0,139r-139,0xm19,-195r0,111r389,0r0,-111r-389,0","w":427},"\u00b2":{"d":"456,-642v-1,-88,-51,-136,-133,-136r-290,0r0,80r243,0v35,1,62,16,62,56v0,40,-27,54,-62,55r-118,0v-81,-1,-133,56,-133,138r0,138r423,0r0,-80r-325,0r0,-58v1,-31,24,-57,62,-57v81,0,174,14,223,-28v27,-22,49,-56,48,-108","w":481},"\u00b3":{"d":"417,-435v0,-60,-36,-88,-73,-110v38,-21,73,-49,73,-109v-1,-82,-57,-124,-134,-124r-258,0r0,80r225,0v35,1,62,17,62,57v0,40,-27,57,-62,58r-173,0r0,77r173,0v35,1,62,17,62,57v0,40,-27,57,-62,58r-225,0r0,80r258,0v77,-4,133,-42,134,-124","w":442},"\u00b4":{"d":"197,-778r-67,0r-111,111r67,0","w":216},"\u00b5":{"d":"314,-117v-54,0,-81,-30,-81,-81r0,-358r-144,0r0,387v2,141,-14,238,-64,329r72,0v40,-54,72,-112,97,-175v24,10,49,15,75,15r200,0v8,52,22,84,53,117r144,0v-52,-52,-58,-128,-58,-234r0,-439r-144,0r0,439r-150,0","w":716},"\u00b6":{"d":"30,-528v0,158,77,250,231,250r293,0r0,278r54,0r0,-645r108,0r0,645r54,0r0,-778r-509,0v-154,3,-231,93,-231,250","w":810},"\u00b7":{"d":"19,-323r133,0r0,-133r-133,0r0,133","w":171},"\u00b9":{"d":"111,-311r0,-467r-86,0r0,467r86,0","w":151},"\u00ba":{"d":"101,-464v0,-50,17,-86,71,-86v55,0,72,35,72,86v0,51,-17,86,-72,86v-54,0,-71,-36,-71,-86xm172,-609v-91,0,-148,51,-148,145v0,94,57,145,148,145v92,0,148,-50,148,-145v0,-95,-55,-145,-148,-145xm41,-264r0,69r278,0r0,-69r-278,0","w":346},"\u00bb":{"d":"314,-410v16,9,15,30,1,42r-146,126r0,67r199,-173v15,-11,12,-52,7,-74v-2,-10,-14,-15,-21,-22r-185,-159r0,66xm175,-410v16,9,15,30,1,42r-146,126r0,67r199,-173v15,-11,12,-52,7,-74v-2,-10,-14,-15,-21,-22r-185,-159r0,66","w":388},"\u00bc":{"d":"25,0r89,0r389,-778r-89,0xm111,-311r0,-467r-86,0r0,467r86,0xm588,-163r-192,0r192,-204r0,204xm282,-175r0,92r306,0r0,83r98,0r0,-83r62,0r0,-80r-62,0r0,-304r-130,0","w":773},"\u00bd":{"d":"25,0r89,0r389,-778r-89,0xm111,-311r0,-467r-86,0r0,467r86,0xm834,-331v-1,-88,-51,-136,-133,-136r-290,0r0,80r243,0v36,1,62,16,62,56v0,40,-26,55,-62,56r-117,0v-82,-1,-134,55,-134,138r0,137r423,0r0,-80r-325,0r0,-57v1,-30,24,-58,62,-58v81,0,174,15,223,-27v27,-22,49,-57,48,-109","w":873},"\u00be":{"d":"291,0r89,0r389,-778r-89,0xm854,-163r-192,0r192,-204r0,204xm548,-175r0,92r306,0r0,83r98,0r0,-83r62,0r0,-80r-62,0r0,-304r-130,0xm417,-435v0,-60,-36,-88,-73,-110v38,-21,73,-49,73,-109v-1,-82,-57,-124,-134,-124r-258,0r0,80r225,0v35,1,62,17,62,57v0,40,-27,57,-62,58r-173,0r0,77r173,0v35,1,62,17,62,57v0,40,-27,57,-62,58r-225,0r0,80r258,0v77,-4,133,-42,134,-124","w":1039},"\u00bf":{"d":"227,-226v0,-63,37,-91,100,-93v87,-2,182,12,251,-13v79,-28,138,-92,140,-198r0,-60r-164,0r0,41v-2,62,-43,97,-102,97r-200,0v-94,3,-163,45,-199,114v-29,55,-29,170,0,224v37,69,103,114,199,114r498,0r0,-133r-423,0v-62,-1,-100,-30,-100,-93xm554,-645r164,0r0,-133r-164,0r0,133","w":780},"\u00c0":{"d":"10,0r175,0r76,-189r320,0r76,189r175,0r-328,-778r-166,0xm421,-588r111,277r-222,0xm295,-961r111,111r67,0r-111,-111r-67,0","w":842},"\u00c1":{"d":"10,0r175,0r76,-189r320,0r76,189r175,0r-328,-778r-166,0xm421,-588r111,277r-222,0xm551,-961r-67,0r-111,111r67,0","w":842},"\u00c2":{"d":"10,0r175,0r76,-189r320,0r76,189r175,0r-328,-778r-166,0xm421,-588r111,277r-222,0xm440,-953r-34,0r-90,104r43,0r64,-74r64,74r43,0","w":842},"\u00c3":{"d":"10,0r175,0r76,-189r320,0r76,189r175,0r-328,-778r-166,0xm421,-588r111,277r-222,0xm480,-915v-22,1,-27,-18,-27,-37v0,-52,-33,-84,-81,-84v-49,0,-82,32,-82,84r0,92r54,0v4,-40,-15,-100,28,-101v22,-1,27,18,27,37v0,52,33,84,81,84v49,0,82,-32,82,-84r0,-92r-54,0v-4,40,15,100,-28,101","w":842},"\u00c4":{"d":"10,0r175,0r76,-189r320,0r76,189r175,0r-328,-778r-166,0xm421,-588r111,277r-222,0xm269,-849r133,0r0,-133r-133,0r0,133xm458,-849r133,0r0,-133r-133,0r0,133","w":842},"\u00c5":{"d":"10,0r175,0r76,-189r320,0r76,189r175,0r-328,-778r-166,0xm421,-588r111,277r-222,0xm545,-1024v-22,-55,-89,-95,-163,-66v-54,21,-95,93,-67,164v22,54,92,94,163,66v54,-22,96,-93,67,-164xm430,-1037v34,0,62,28,62,62v0,34,-28,62,-62,62v-34,0,-62,-28,-62,-62v0,-34,28,-62,62,-62","w":842},"\u00c6":{"d":"421,-588r111,277r-222,0xm657,0r444,0r0,-133r-261,0v-128,-3,-168,-69,-186,-192r435,0r0,-128r-435,0v16,-119,58,-192,186,-192r261,0r0,-133r-763,0r-328,778r175,0r76,-189r320,0","w":1131},"\u00c7":{"d":"467,133v14,0,27,-13,27,-27r0,-106r187,0r0,-133r-281,0v-146,-1,-189,-102,-189,-256v0,-154,43,-256,189,-256r281,0r0,-133r-329,0v-223,1,-322,153,-322,389v0,236,98,388,322,389r75,0r0,53v0,9,-5,14,-14,14r-53,0r0,66r107,0","w":720},"\u00c8":{"d":"30,-389v0,236,98,389,322,389r309,0r0,-133r-264,0v-128,-3,-168,-69,-186,-192r438,0r0,-128r-438,0v16,-119,58,-192,186,-192r264,0r0,-133r-309,0v-223,1,-322,153,-322,389xm354,-961r111,111r67,0r-111,-111r-67,0","w":691},"\u00c9":{"d":"30,-389v0,236,98,389,322,389r309,0r0,-133r-264,0v-128,-3,-168,-69,-186,-192r438,0r0,-128r-438,0v16,-119,58,-192,186,-192r264,0r0,-133r-309,0v-223,1,-322,153,-322,389xm567,-961r-67,0r-111,111r67,0","w":691},"\u00ca":{"d":"30,-389v0,236,98,389,322,389r309,0r0,-133r-264,0v-128,-3,-168,-69,-186,-192r438,0r0,-128r-438,0v16,-119,58,-192,186,-192r264,0r0,-133r-309,0v-223,1,-322,153,-322,389xm467,-953r-34,0r-90,104r43,0r64,-74r64,74r43,0","w":691},"\u00cb":{"d":"30,-389v0,236,98,389,322,389r309,0r0,-133r-264,0v-128,-3,-168,-69,-186,-192r438,0r0,-128r-438,0v16,-119,58,-192,186,-192r264,0r0,-133r-309,0v-223,1,-322,153,-322,389xm284,-849r133,0r0,-133r-133,0r0,133xm473,-849r133,0r0,-133r-133,0r0,133","w":691},"\u00cc":{"d":"204,0r0,-778r-164,0r0,778r164,0xm14,-961r111,111r67,0r-111,-111r-67,0"},"\u00cd":{"d":"204,0r0,-778r-164,0r0,778r164,0xm230,-961r-67,0r-111,111r67,0"},"\u00ce":{"d":"204,0r0,-778r-164,0r0,778r164,0xm139,-953r-34,0r-90,104r43,0r64,-74r64,74r43,0"},"\u00cf":{"d":"-39,-849r133,0r0,-133r-133,0r0,133xm150,-849r133,0r0,-133r-133,0r0,133xm204,0r0,-778r-164,0r0,778r164,0"},"\u00d0":{"d":"676,-389v0,154,-43,256,-189,256r-193,0r0,-192r111,0r0,-128r-111,0r0,-192r193,0v146,1,189,102,189,256xm857,-389v0,-236,-93,-389,-316,-389r-411,0r0,325r-111,0r0,128r111,0r0,325r411,0v223,-1,316,-154,316,-389","w":887},"\u00d1":{"d":"204,0r0,-570r4,0r313,570r209,0r0,-778r-164,0r0,569r-4,0r-313,-569r-209,0r0,778r164,0xm457,-915v-22,1,-27,-18,-27,-37v0,-52,-33,-84,-81,-84v-49,0,-82,32,-82,84r0,92r54,0v4,-40,-15,-100,28,-101v22,-1,27,18,27,37v0,52,33,84,81,84v49,0,82,-32,82,-84r0,-92r-54,0v-4,40,15,100,-28,101","w":770},"\u00d2":{"d":"418,-789v-269,0,-388,138,-388,400v0,261,120,400,388,400v267,0,387,-138,387,-400v0,-261,-120,-400,-387,-400xm302,-638v53,-28,178,-27,232,0v102,50,113,207,94,350v-14,109,-79,171,-210,171v-169,0,-217,-105,-217,-272v0,-117,22,-208,101,-249xm283,-961r111,111r67,0r-111,-111r-67,0","w":835},"\u00d3":{"d":"418,-789v-269,0,-388,138,-388,400v0,261,120,400,388,400v267,0,387,-138,387,-400v0,-261,-120,-400,-387,-400xm302,-638v53,-28,178,-27,232,0v102,50,113,207,94,350v-14,109,-79,171,-210,171v-169,0,-217,-105,-217,-272v0,-117,22,-208,101,-249xm572,-961r-67,0r-111,111r67,0","w":835},"\u00d4":{"d":"418,-789v-269,0,-388,138,-388,400v0,261,120,400,388,400v267,0,387,-138,387,-400v0,-261,-120,-400,-387,-400xm302,-638v53,-28,178,-27,232,0v102,50,113,207,94,350v-14,109,-79,171,-210,171v-169,0,-217,-105,-217,-272v0,-117,22,-208,101,-249xm444,-953r-34,0r-90,104r43,0r64,-74r64,74r43,0","w":835},"\u00d5":{"d":"418,-789v-269,0,-388,138,-388,400v0,261,120,400,388,400v267,0,387,-138,387,-400v0,-261,-120,-400,-387,-400xm302,-638v53,-28,178,-27,232,0v102,50,113,207,94,350v-14,109,-79,171,-210,171v-169,0,-217,-105,-217,-272v0,-117,22,-208,101,-249xm481,-915v-22,1,-27,-18,-27,-37v0,-52,-33,-84,-81,-84v-49,0,-82,32,-82,84r0,92r54,0v4,-40,-15,-100,28,-101v22,-1,27,18,27,37v0,52,33,84,81,84v49,0,82,-32,82,-84r0,-92r-54,0v-4,40,15,100,-28,101","w":835},"\u00d6":{"d":"418,-789v-269,0,-388,138,-388,400v0,261,120,400,388,400v267,0,387,-138,387,-400v0,-261,-120,-400,-387,-400xm302,-638v53,-28,178,-27,232,0v102,50,113,207,94,350v-14,109,-79,171,-210,171v-169,0,-217,-105,-217,-272v0,-117,22,-208,101,-249xm266,-849r133,0r0,-133r-133,0r0,133xm455,-849r133,0r0,-133r-133,0r0,133","w":835},"\u00d7":{"d":"30,-291r79,78r98,-98r98,98r79,-78r-99,-99r99,-98r-79,-78r-98,98r-98,-98r-79,78r99,98","w":414},"\u00d8":{"d":"726,-106v109,-129,105,-452,-7,-575r86,-97r-89,0r-46,53v-66,-42,-150,-63,-252,-64v-269,-2,-389,138,-388,400v0,121,27,222,86,291r-86,98r89,0r47,-53v97,74,317,83,441,33v50,-21,89,-51,119,-86xm192,-389v-1,-167,54,-280,226,-278v67,1,113,15,155,51r-351,398v-21,-44,-30,-108,-30,-171xm610,-557v27,65,29,180,18,270v-16,121,-98,190,-244,175v-49,-5,-92,-21,-122,-49","w":835},"\u00d9":{"d":"381,-117v-104,0,-177,-44,-177,-140r0,-521r-164,0r0,527v3,141,92,211,206,245v81,23,189,23,270,0v81,-23,144,-68,179,-134v17,-32,26,-69,26,-111r0,-527r-164,0r0,521v-1,95,-73,140,-176,140xm257,-961r111,111r67,0r-111,-111r-67,0","w":761},"\u00da":{"d":"381,-117v-104,0,-177,-44,-177,-140r0,-521r-164,0r0,527v3,141,92,211,206,245v81,23,189,23,270,0v81,-23,144,-68,179,-134v17,-32,26,-69,26,-111r0,-527r-164,0r0,521v-1,95,-73,140,-176,140xm544,-961r-67,0r-111,111r67,0","w":761},"\u00db":{"d":"381,-117v-104,0,-177,-44,-177,-140r0,-521r-164,0r0,527v3,141,92,211,206,245v81,23,189,23,270,0v81,-23,144,-68,179,-134v17,-32,26,-69,26,-111r0,-527r-164,0r0,521v-1,95,-73,140,-176,140xm416,-953r-34,0r-90,104r43,0r64,-74r64,74r43,0","w":761},"\u00dc":{"d":"381,-117v-104,0,-177,-44,-177,-140r0,-521r-164,0r0,527v3,141,92,211,206,245v81,23,189,23,270,0v81,-23,144,-68,179,-134v17,-32,26,-69,26,-111r0,-527r-164,0r0,521v-1,95,-73,140,-176,140xm238,-849r133,0r0,-133r-133,0r0,133xm427,-849r133,0r0,-133r-133,0r0,133","w":761},"\u00dd":{"d":"10,-778r288,444r0,334r164,0r0,-334r287,-444r-180,0r-189,311r-189,-311r-181,0xm527,-961r-67,0r-111,111r67,0","w":759},"\u00de":{"d":"728,-389v0,-158,-78,-250,-231,-250r-293,0r0,-139r-164,0r0,778r164,0r0,-139r293,0v154,-3,231,-93,231,-250xm546,-389v0,79,-49,117,-122,117r-220,0r0,-234r220,0v73,1,122,37,122,117","w":758},"\u00df":{"d":"576,-609v-1,37,-15,53,-57,53v-109,0,-172,61,-172,167v0,100,65,166,172,166r155,0v43,0,76,12,76,56v0,44,-33,56,-76,56r-327,0r0,111r384,0v107,2,172,-65,172,-167v0,-106,-63,-167,-172,-167r-155,0v-43,0,-76,-11,-76,-55v0,-44,33,-56,76,-56v109,0,149,-69,144,-183v-4,-93,-48,-149,-144,-150r-301,0v-97,1,-142,56,-144,150r0,72r-106,0r0,117r106,0r0,439r144,0r0,-584v-1,-54,24,-77,77,-77r147,0v43,1,77,10,77,52","w":943},"\u00e0":{"d":"344,-445v70,-1,99,38,93,111r-240,0v-109,2,-172,61,-172,167v0,101,65,167,172,167r384,0r0,-359v-2,-126,-76,-197,-194,-197r-323,0r0,111r280,0xm178,-167v0,-44,31,-56,74,-56r185,0r0,112r-185,0v-43,0,-74,-12,-74,-56xm157,-722r111,111r67,0r-111,-111r-67,0","w":621},"\u00e1":{"d":"344,-445v70,-1,99,38,93,111r-240,0v-109,2,-172,61,-172,167v0,101,65,167,172,167r384,0r0,-359v-2,-126,-76,-197,-194,-197r-323,0r0,111r280,0xm178,-167v0,-44,31,-56,74,-56r185,0r0,112r-185,0v-43,0,-74,-12,-74,-56xm396,-722r-67,0r-111,111r67,0","w":621},"\u00e2":{"d":"344,-445v70,-1,99,38,93,111r-240,0v-109,2,-172,61,-172,167v0,101,65,167,172,167r384,0r0,-359v-2,-126,-76,-197,-194,-197r-323,0r0,111r280,0xm178,-167v0,-44,31,-56,74,-56r185,0r0,112r-185,0v-43,0,-74,-12,-74,-56xm324,-716r-34,0r-90,104r43,0r64,-74r64,74r43,0","w":621},"\u00e3":{"d":"344,-445v70,-1,99,38,93,111r-240,0v-109,2,-172,61,-172,167v0,101,65,167,172,167r384,0r0,-359v-2,-126,-76,-197,-194,-197r-323,0r0,111r280,0xm178,-167v0,-44,31,-56,74,-56r185,0r0,112r-185,0v-43,0,-74,-12,-74,-56xm361,-679v-22,1,-27,-18,-27,-37v0,-52,-33,-84,-81,-84v-49,0,-82,32,-82,84r0,92r54,0v4,-40,-15,-100,28,-101v22,-1,27,18,27,37v0,52,33,84,81,84v49,0,82,-32,82,-84r0,-92r-54,0v-4,40,15,100,-28,101","w":621},"\u00e4":{"d":"344,-445v70,-1,99,38,93,111r-240,0v-109,2,-172,61,-172,167v0,101,65,167,172,167r384,0r0,-359v-2,-126,-76,-197,-194,-197r-323,0r0,111r280,0xm178,-167v0,-44,31,-56,74,-56r185,0r0,112r-185,0v-43,0,-74,-12,-74,-56xm113,-612r133,0r0,-133r-133,0r0,133xm302,-612r133,0r0,-133r-133,0r0,133","w":621},"\u00e5":{"d":"344,-445v70,-1,99,38,93,111r-240,0v-109,2,-172,61,-172,167v0,101,65,167,172,167r384,0r0,-359v-2,-126,-76,-197,-194,-197r-323,0r0,111r280,0xm178,-167v0,-44,31,-56,74,-56r185,0r0,112r-185,0v-43,0,-74,-12,-74,-56xm441,-784v-22,-55,-89,-96,-163,-67v-54,21,-95,92,-67,163v22,54,92,95,163,67v54,-22,96,-92,67,-163xm326,-798v34,0,62,28,62,62v0,34,-28,62,-62,62v-34,0,-62,-28,-62,-62v0,-34,28,-62,62,-62","w":621},"\u00e6":{"d":"344,-445v70,-1,99,38,93,111r-240,0v-109,2,-172,61,-172,167v0,101,65,167,172,167r384,0r0,-17v31,11,67,17,108,17r228,0r0,-111r-206,0v-70,0,-111,-16,-123,-69v-3,-14,-5,-28,-7,-43r324,0r0,-111r-324,0v4,-82,43,-111,130,-111r206,0r0,-111r-228,0v-69,0,-126,16,-170,48v-43,-37,-81,-48,-153,-48r-302,0r0,111r280,0xm178,-167v0,-44,31,-56,74,-56r185,0r0,112r-185,0v-43,0,-74,-12,-74,-56","w":942},"\u00e7":{"d":"378,133v14,0,27,-13,27,-27r0,-106r115,0r0,-117r-206,0v-88,0,-136,-68,-136,-161v0,-93,48,-161,136,-161r206,0r0,-117r-228,0v-172,0,-267,101,-267,278v0,177,95,278,267,278r47,0r0,53v0,9,-5,14,-14,14r-53,0r0,66r106,0","w":545},"\u00e8":{"d":"25,-278v0,177,95,278,267,278r228,0r0,-111r-206,0v-70,0,-111,-16,-123,-69v-3,-14,-5,-28,-7,-43r324,0r0,-111r-324,0v4,-82,43,-111,130,-111r206,0r0,-111r-228,0v-172,0,-267,101,-267,278xm274,-722r111,111r67,0r-111,-111r-67,0","w":545},"\u00e9":{"d":"25,-278v0,177,95,278,267,278r228,0r0,-111r-206,0v-70,0,-111,-16,-123,-69v-3,-14,-5,-28,-7,-43r324,0r0,-111r-324,0v4,-82,43,-111,130,-111r206,0r0,-111r-228,0v-172,0,-267,101,-267,278xm491,-722r-67,0r-111,111r67,0","w":545},"\u00ea":{"d":"25,-278v0,177,95,278,267,278r228,0r0,-111r-206,0v-70,0,-111,-16,-123,-69v-3,-14,-5,-28,-7,-43r324,0r0,-111r-324,0v4,-82,43,-111,130,-111r206,0r0,-111r-228,0v-172,0,-267,101,-267,278xm365,-716r-34,0r-90,104r43,0r64,-74r64,74r43,0","w":545},"\u00eb":{"d":"25,-278v0,177,95,278,267,278r228,0r0,-111r-206,0v-70,0,-111,-16,-123,-69v-3,-14,-5,-28,-7,-43r324,0r0,-111r-324,0v4,-82,43,-111,130,-111r206,0r0,-111r-228,0v-172,0,-267,101,-267,278xm192,-612r133,0r0,-133r-133,0r0,133xm381,-612r133,0r0,-133r-133,0r0,133","w":545},"\u00ec":{"d":"13,-722r111,111r67,0r-111,-111r-67,0xm194,0r0,-556r-144,0r0,556r144,0"},"\u00ed":{"d":"231,-722r-67,0r-111,111r67,0xm194,0r0,-556r-144,0r0,556r144,0"},"\u00ee":{"d":"139,-716r-34,0r-90,104r43,0r64,-74r64,74r43,0xm194,0r0,-556r-144,0r0,556r144,0"},"\u00ef":{"d":"-39,-612r133,0r0,-133r-133,0r0,133xm150,-612r133,0r0,-133r-133,0r0,133xm194,0r0,-556r-144,0r0,556r144,0"},"\u00f0":{"d":"178,-278v0,-104,37,-172,143,-172v106,0,143,68,143,172v0,104,-37,172,-143,172v-106,0,-143,-68,-143,-172xm414,-557v-118,-26,-247,2,-308,63v-49,49,-82,119,-81,216v2,189,107,289,296,289v189,0,294,-100,296,-289v2,-218,-66,-355,-212,-422r54,-54r-67,0r-34,34v-38,-13,-79,-23,-119,-34r-111,0v72,19,134,40,186,78r-47,47r67,0r17,-17v26,26,46,53,63,89","w":642},"\u00f1":{"d":"345,-439v53,0,80,29,81,80r0,359r144,0r0,-388v-3,-78,-47,-129,-105,-154v-22,-10,-47,-14,-75,-14r-340,0r0,556r144,0r0,-439r151,0xm368,-679v-22,1,-27,-18,-27,-37v0,-52,-33,-84,-81,-84v-49,0,-82,32,-82,84r0,92r54,0v4,-40,-15,-100,28,-101v22,-1,27,18,27,37v0,52,33,84,81,84v49,0,82,-32,82,-84r0,-92r-54,0v-4,40,15,100,-28,101","w":610},"\u00f2":{"d":"178,-278v0,-104,37,-172,143,-172v106,0,143,68,143,172v0,104,-37,172,-143,172v-106,0,-143,-68,-143,-172xm46,-403v-27,69,-27,181,0,250v41,104,132,164,275,164v189,0,296,-100,296,-289v0,-189,-107,-289,-296,-289v-143,0,-234,60,-275,164xm180,-722r111,111r67,0r-111,-111r-67,0","w":642},"\u00f3":{"d":"178,-278v0,-104,37,-172,143,-172v106,0,143,68,143,172v0,104,-37,172,-143,172v-106,0,-143,-68,-143,-172xm46,-403v-27,69,-27,181,0,250v41,104,132,164,275,164v189,0,296,-100,296,-289v0,-189,-107,-289,-296,-289v-143,0,-234,60,-275,164xm470,-722r-67,0r-111,111r67,0","w":642},"\u00f4":{"d":"178,-278v0,-104,37,-172,143,-172v106,0,143,68,143,172v0,104,-37,172,-143,172v-106,0,-143,-68,-143,-172xm46,-403v-27,69,-27,181,0,250v41,104,132,164,275,164v189,0,296,-100,296,-289v0,-189,-107,-289,-296,-289v-143,0,-234,60,-275,164xm342,-716r-34,0r-90,104r43,0r64,-74r64,74r43,0","w":642},"\u00f5":{"d":"178,-278v0,-104,37,-172,143,-172v106,0,143,68,143,172v0,104,-37,172,-143,172v-106,0,-143,-68,-143,-172xm46,-403v-27,69,-27,181,0,250v41,104,132,164,275,164v189,0,296,-100,296,-289v0,-189,-107,-289,-296,-289v-143,0,-234,60,-275,164xm367,-679v-22,1,-27,-18,-27,-37v0,-52,-33,-84,-81,-84v-49,0,-82,32,-82,84r0,92r54,0v4,-40,-15,-100,28,-101v22,-1,27,18,27,37v0,52,33,84,81,84v49,0,82,-32,82,-84r0,-92r-54,0v-4,40,15,100,-28,101","w":642},"\u00f6":{"d":"178,-278v0,-104,37,-172,143,-172v106,0,143,68,143,172v0,104,-37,172,-143,172v-106,0,-143,-68,-143,-172xm46,-403v-27,69,-27,181,0,250v41,104,132,164,275,164v189,0,296,-100,296,-289v0,-189,-107,-289,-296,-289v-143,0,-234,60,-275,164xm164,-612r133,0r0,-133r-133,0r0,133xm353,-612r133,0r0,-133r-133,0r0,133","w":642},"\u00f8":{"d":"46,-400v-41,105,-18,256,46,321r-67,79r89,0r29,-34v71,49,190,60,280,26v103,-39,169,-129,169,-270v0,-90,-28,-155,-72,-204r72,-85r-89,0r-35,41v-73,-45,-186,-54,-274,-22v-70,26,-121,78,-148,148xm169,-278v0,-104,34,-173,140,-172v32,0,60,8,80,19r-207,245v-10,-32,-13,-58,-13,-92xm448,-278v0,103,-34,173,-139,172v-32,-1,-63,-5,-86,-23r209,-249v13,37,16,56,16,100","w":617},"\u00f9":{"d":"275,-117v-54,0,-81,-30,-81,-81r0,-358r-144,0r0,387v1,88,53,136,118,159v21,7,42,10,62,10r339,0r0,-556r-144,0r0,439r-150,0xm164,-722r111,111r67,0r-111,-111r-67,0","w":619},"\u00fa":{"d":"275,-117v-54,0,-81,-30,-81,-81r0,-358r-144,0r0,387v1,88,53,136,118,159v21,7,42,10,62,10r339,0r0,-556r-144,0r0,439r-150,0xm438,-722r-67,0r-111,111r67,0","w":619},"\u00fb":{"d":"275,-117v-54,0,-81,-30,-81,-81r0,-358r-144,0r0,387v1,88,53,136,118,159v21,7,42,10,62,10r339,0r0,-556r-144,0r0,439r-150,0xm321,-716r-34,0r-90,104r43,0r64,-74r64,74r43,0","w":619},"\u00fc":{"d":"275,-117v-54,0,-81,-30,-81,-81r0,-358r-144,0r0,387v1,88,53,136,118,159v21,7,42,10,62,10r339,0r0,-556r-144,0r0,439r-150,0xm142,-612r133,0r0,-133r-133,0r0,133xm331,-612r133,0r0,-133r-133,0r0,133","w":619},"\u00fd":{"d":"425,0v7,72,-22,111,-87,111r-274,0r0,111r317,0v84,-3,141,-51,171,-111v11,-23,17,-48,17,-76r0,-591r-144,0r0,439r-150,0v-54,0,-81,-30,-81,-81r0,-358r-144,0r0,374v1,124,76,182,197,182r178,0xm420,-722r-67,0r-111,111r67,0","w":619},"\u00fe":{"d":"634,-278v0,-177,-95,-278,-267,-278r-173,0r0,-222r-144,0r0,1000r144,0r0,-222r173,0v172,0,267,-101,267,-278xm481,-278v0,93,-48,161,-136,161r-151,0r0,-322r151,0v88,0,136,68,136,161","w":659},"\u00ff":{"d":"425,0v7,72,-22,111,-87,111r-274,0r0,111r317,0v84,-3,141,-51,171,-111v11,-23,17,-48,17,-76r0,-591r-144,0r0,439r-150,0v-54,0,-81,-30,-81,-81r0,-358r-144,0r0,374v1,124,76,182,197,182r178,0xm142,-612r133,0r0,-133r-133,0r0,133xm331,-612r133,0r0,-133r-133,0r0,133","w":619},"\u0152":{"d":"228,-20v103,42,305,41,399,-9v44,19,93,29,148,29r309,0r0,-133r-264,0v-128,-3,-168,-69,-186,-192r438,0r0,-128r-438,0v16,-119,58,-192,186,-192r264,0r0,-133r-309,0v-57,0,-106,10,-148,30v-55,-27,-124,-41,-209,-41v-269,-2,-389,138,-388,400v0,186,61,313,198,369xm514,-647v-81,119,-81,396,-1,516v-58,21,-163,14,-211,-9v-103,-50,-113,-207,-94,-350v14,-109,79,-172,210,-171v37,0,69,5,96,14","w":1114},"\u0153":{"d":"178,-278v0,-113,50,-185,169,-170v-57,83,-55,259,0,340v-117,15,-169,-56,-169,-170xm466,-540v-71,-33,-189,-35,-268,-8v-108,38,-173,125,-173,270v0,189,107,286,296,289v56,0,104,-9,144,-27v31,11,67,16,107,16r228,0r0,-111r-206,0v-70,0,-111,-16,-123,-69v-3,-14,-5,-28,-7,-43r324,0r0,-111r-324,0v4,-82,43,-111,130,-111r206,0r0,-111r-228,0v-41,0,-76,5,-106,16","w":825},"\u0178":{"d":"10,-778r288,444r0,334r164,0r0,-334r287,-444r-180,0r-189,311r-189,-311r-181,0xm221,-849r133,0r0,-133r-133,0r0,133xm410,-849r133,0r0,-133r-133,0r0,133","w":759},"\u02c6":{"d":"143,-778r-34,0r-90,104r43,0r64,-74r64,74r43,0","w":252},"\u02dc":{"d":"209,-657v-22,1,-27,-18,-27,-37v0,-52,-33,-84,-81,-84v-49,0,-82,32,-82,84r0,92r54,0v4,-40,-15,-100,28,-101v22,-1,27,18,27,37v0,52,33,84,81,84v49,0,82,-32,82,-84r0,-92r-54,0v-4,40,15,100,-28,101","w":310},"\u2013":{"d":"19,-445r0,111r500,0r0,-111r-500,0","w":538},"\u2014":{"d":"19,-445r0,111r1000,0r0,-111r-1000,0","w":1038},"\u2018":{"d":"85,-911v-38,17,-66,58,-66,111r0,133r133,0r0,-133r-67,0r0,-111","w":171},"\u2019":{"d":"86,-667v38,-17,66,-58,66,-111r0,-133r-133,0r0,133r67,0r0,111","w":171},"\u201a":{"d":"19,0r44,133r45,0r44,-133r0,-133r-133,0r0,133","w":171},"\u201c":{"d":"286,-911v-38,17,-66,58,-66,111r0,133r133,0r0,-133r-67,0r0,-111xm85,-911v-38,17,-66,58,-66,111r0,133r133,0r0,-133r-67,0r0,-111","w":372},"\u201d":{"d":"86,-667v38,-17,66,-58,66,-111r0,-133r-133,0r0,133r67,0r0,111xm286,-667v38,-17,66,-58,66,-111r0,-133r-133,0r0,133r67,0r0,111","w":371},"\u201e":{"d":"19,0r44,133r45,0r44,-133r0,-133r-133,0r0,133xm219,0r44,133r45,0r44,-133r0,-133r-133,0r0,133","w":371},"\u2022":{"d":"93,-491v-48,20,-85,80,-59,145v19,48,83,84,146,59v48,-19,84,-82,59,-145v-19,-48,-83,-85,-146,-59","w":273},"\u2026":{"d":"19,0r133,0r0,-133r-133,0r0,133xm219,0r133,0r0,-133r-133,0r0,133xm419,0r133,0r0,-133r-133,0r0,133","w":571},"\u2039":{"d":"73,-368v-16,-9,-13,-30,1,-42r103,-90r0,-67r-157,135v-15,12,-11,51,-7,74v4,10,13,16,21,23r143,124r0,-67","w":207},"\u203a":{"d":"133,-410v16,9,15,30,1,42r-104,90r0,67r157,-137v15,-11,12,-52,7,-74v-2,-10,-14,-15,-21,-22r-143,-123r0,67","w":207},"\u2122":{"d":"20,-778r0,94r186,0r0,460r117,0r0,-460r187,0r0,-94r-490,0xm663,-224r0,-414r3,0r141,414r116,0r140,-414r4,0r0,414r117,0r0,-554r-176,0r-143,428r-143,-428r-176,0r0,554r117,0","w":1224}}});
